nep3 4 C B H O 
cutoff 10 6 73 32
n_max 8 6
basis_size 12 12
l_max 4 2 0
ANN 100 0
 -1.6865528e-01
  2.5121167e-03
 -1.0762084e-02
 -2.3931091e-01
  2.0658177e-01
  1.9911081e-01
 -2.0427634e-01
  2.1477054e-01
 -2.2341827e-01
  1.0173185e-01
 -4.9720291e-02
 -7.5669572e-02
 -1.1086361e-03
  5.3444054e-02
  1.1158106e-01
 -2.7057499e-01
  2.6296270e-01
  3.2419768e-01
  7.6944560e-02
 -9.2396382e-03
  3.0243617e-02
  1.2795231e-01
  1.6322613e-01
  2.2082691e+00
  7.6662287e-02
 -3.3245018e-01
  7.1719609e-02
  2.3038769e-01
  1.6807234e-01
 -6.0096425e-03
  1.5025059e-02
  6.1712012e-02
  1.5632490e-02
  6.0751848e-02
  5.9162676e-01
  1.5132496e-01
 -3.6106069e-02
 -4.6774961e-02
 -1.9986254e-01
  1.0064789e-02
 -1.1015353e-01
 -2.4871440e-01
 -1.6052072e-01
  5.8485549e-02
  4.2364251e-02
  1.4175385e+00
 -2.6120800e-01
 -1.7824219e+00
 -3.6013749e-01
 -3.0429585e+00
 -7.8959000e-01
  1.4973290e+00
  3.2186022e+00
  9.3309589e-02
 -4.5461974e-01
 -3.9696130e-01
  5.6178164e-01
  7.0559198e-01
 -3.0873573e-01
  1.1142538e-01
 -1.3495706e+00
 -5.3131431e-03
 -3.3959886e-01
 -7.6019809e-02
 -6.8972033e-01
 -4.0143055e-01
 -1.1615603e-01
  2.2108264e+00
  5.5383599e-01
 -6.7614302e-02
 -2.3765303e-01
  8.6923562e-02
  2.6457641e-01
  9.1324639e-01
  9.8122694e-02
  3.4175384e-01
 -2.0014718e-02
 -3.0892363e+00
  2.7590313e+00
  3.2370705e-03
 -5.5544823e-02
 -4.3551490e-02
 -9.5850050e-02
 -1.6048650e-01
  2.4570804e-02
  5.7521474e-02
 -2.0864955e-01
  3.1702846e-01
  1.0682709e-01
 -2.2353895e-02
  1.2381333e-01
  1.5318483e-02
  9.5105030e-02
 -1.3814965e-01
  1.3926787e+00
  5.0212130e-02
  4.8466574e-02
 -2.4688533e-01
 -2.0543931e-01
 -1.3251136e-01
 -2.3270516e-01
 -1.0540131e-01
 -1.8865132e-01
  6.3940555e-02
 -2.6055261e-01
  2.4485240e-02
 -3.9656711e-01
 -2.2899421e-01
 -1.1390167e-01
  1.4362089e-01
  4.0040320e-01
  2.6011434e-01
 -6.6178970e-02
 -4.1988972e-01
  1.2016681e+00
 -3.7236926e-01
 -4.7569863e-02
  4.8239931e-02
 -2.6896510e-01
  7.8961402e-02
 -1.9452317e-02
 -2.1534564e-01
  6.2454224e-02
  3.4614496e-02
  9.9364199e-02
 -1.1826192e-01
  1.8710864e-01
  8.6400889e-02
  9.7973831e-04
  4.1897394e-02
 -2.1124491e-02
 -9.9291034e-02
 -7.8290485e-02
  6.9671616e-02
 -1.9745336e-01
 -3.3903727e-01
  4.7824830e-03
  3.5138302e-02
 -1.9175947e-02
 -1.1433712e-01
 -8.0475703e-02
 -4.3112317e-01
 -1.3083638e+00
  2.1661101e-03
 -4.9505103e-03
 -1.4651649e-01
 -1.0146259e-01
  9.2287078e-02
  7.8279495e-02
  1.1108273e-01
  5.8547400e-02
  6.6862260e-03
 -2.0647278e-01
 -4.2483527e-02
  2.3275897e-01
  1.1945143e+00
  1.4419377e-02
  5.5961825e-02
 -2.1628152e-01
 -2.5528127e-01
 -1.0372901e+00
 -1.9495362e-01
  6.4403728e-02
 -1.1237127e-01
 -2.0612882e-01
 -2.0206459e-01
 -1.6916260e-01
 -2.1169944e-01
  2.2376475e-01
  8.7023556e-02
 -2.4412835e-01
  2.4546242e-01
 -1.2183491e-01
 -1.9273989e-01
 -2.5448030e-01
 -2.2999799e-01
  8.9916974e-01
 -1.2297621e-02
  1.8236406e-02
  1.2402532e-01
 -2.8310111e-01
  2.2120231e-01
  2.9311740e-01
  2.8673109e-02
 -2.0954432e-02
 -4.9338315e-02
 -7.7071793e-02
 -3.3309676e-02
  1.3409300e-01
  1.2563422e-01
 -1.5144062e-01
  3.1899422e-02
 -2.4605133e-01
 -4.6316400e-02
 -2.8884494e-01
 -2.0323277e-01
  1.9249570e-01
  2.5905436e-01
  7.9339512e-02
 -1.2760225e-01
  1.5114069e-01
 -5.9604570e-03
  1.2473344e-01
 -8.9278705e-02
 -3.5034303e-02
  2.1799386e-01
 -5.0082751e-02
  3.9087486e-02
  3.1173375e-02
  4.4508733e-02
 -2.5545594e-01
 -3.2285073e+00
  3.8073039e-01
  2.1299583e-01
  9.6521825e-02
 -1.4796078e-02
 -2.9572960e-02
  5.1282989e-03
  3.2159146e-02
  6.3781850e-02
  4.6457148e-01
  3.0704100e+00
  5.5195451e-02
 -6.3508338e-01
  2.1337099e-01
 -1.0267086e+00
  2.8911431e+00
 -1.7366455e-01
  2.5266510e-01
  1.0576342e-01
  4.4514894e-01
 -4.7174609e-01
  1.5013529e-02
  6.3726729e-01
 -4.0577888e-02
 -1.6055176e-01
  1.3889585e-01
  1.9140784e-01
 -2.4770078e-01
 -1.9776430e-02
  1.5505970e-02
 -1.5041922e-01
 -2.5208205e-01
 -3.9361898e-02
 -8.3851039e-02
 -2.8743099e-02
 -3.5761772e-03
  6.3423198e-01
  6.5486588e-02
 -3.7795264e-01
 -1.7737736e-01
  1.0695857e-01
  3.4333253e-01
 -2.9042408e-01
  1.3381554e-01
  2.4906321e-01
  1.2715109e-02
 -1.6812995e-02
 -3.5205850e-01
 -3.5617888e-02
  3.1544381e-01
 -7.4032076e-02
  9.4738252e-02
  1.5635133e+00
  2.6810253e-01
  6.8518436e-01
 -8.9154327e-01
  2.0465560e-01
  7.7035046e-01
 -7.9957956e-01
  3.0011556e-01
 -3.6732629e-02
  8.4353173e-01
 -6.8993360e-02
  7.7958769e-01
  1.5636716e-02
 -2.9675880e-01
 -3.4793320e-01
 -3.3023868e-02
 -1.3329497e-01
 -5.6516695e-01
  3.9842927e-01
  2.2114028e-01
 -9.5581762e-02
 -6.3277751e-02
  9.2648447e-01
  2.6061490e-01
  2.8879397e+00
 -9.6711833e-03
  2.5768074e-01
  1.2536652e-01
  5.6161370e-02
  6.5755564e-01
 -2.2497216e-02
 -2.6341277e-01
  5.8939630e-01
  5.6222789e-02
  5.7618391e-02
 -7.3287137e-02
  3.5897214e-02
 -1.7436901e-01
  2.1449128e-01
  1.1169612e-01
 -6.6979200e-02
 -4.8417293e-02
 -1.6397093e-01
 -2.4097677e-01
  8.3484858e-02
  1.3452541e+00
 -1.7394841e-02
  1.4606425e-01
  5.5531776e-01
  8.0461425e-01
  1.0585910e+00
  1.9574913e+00
  2.4632595e+00
 -7.6164657e-01
 -3.2224739e-01
  8.2477814e-01
 -4.6787310e-01
  8.0503218e-02
 -6.6418904e-03
 -8.0964065e-01
 -3.1236289e-02
 -1.0905453e+00
 -3.5682369e-02
  2.6362772e+00
 -4.3566293e-01
  1.3389460e+00
  5.2980250e-01
 -8.0988055e-01
  1.2245103e+00
  8.2406229e-01
  4.6687174e-01
 -2.7115488e-01
 -1.9639897e-01
  1.0591084e+00
  8.9536935e-02
 -3.1578678e-01
  1.4282066e+00
 -2.8753623e-02
 -2.1963555e-01
 -6.7272317e-01
 -6.8805093e-01
  3.4577176e-02
 -2.0190942e+00
 -1.2761351e-01
 -5.0689206e-02
 -7.6752931e-02
 -5.1069117e-01
  4.0504586e-02
 -3.0138838e-01
  7.3186122e-02
  3.0747080e-01
 -3.3484751e-01
  3.9369860e-01
  1.6472881e-01
 -2.0637712e+00
  4.1930717e-03
  9.3079634e-02
 -8.2079154e-03
 -4.2025581e-02
 -2.4699607e-01
 -4.1576970e-01
 -1.0604100e-02
 -2.1889450e-02
  1.2174679e-01
 -1.4312823e-01
 -1.1349620e-01
 -3.1330121e+00
 -4.5709532e-02
  1.3209584e-01
 -1.8525188e-01
 -8.8860216e-03
  4.3686923e-01
  4.1807633e-02
  1.5469016e-01
  7.2533749e-02
  6.9954693e-02
 -3.3376619e-01
  9.2703897e-01
  4.8362088e-01
 -2.3605916e-01
 -4.2863426e-01
  7.7872694e-02
  1.1488445e-01
  2.0384368e-01
  1.2082764e-01
 -1.8813312e-02
  2.8921846e-02
  1.0002539e-02
  3.5786664e-04
  2.2462521e-01
  7.4838594e-02
  4.0634492e-01
 -9.2784539e-03
  1.9111802e-01
  1.3437167e+00
 -3.3000222e-01
  4.2666313e-01
 -2.1926722e-01
  2.2874461e-01
  5.1197302e-01
 -4.6618327e-01
 -3.7849474e-01
  7.0433371e-02
  2.5613049e-02
 -5.7005744e-02
 -4.7071767e-01
  2.7370399e-01
 -2.5868740e-02
  3.9431688e-01
 -2.0911668e-01
  5.3182524e-01
 -4.6521258e-01
 -1.0878626e+00
  1.1117807e-02
 -2.2390959e-01
  1.4586680e-01
  7.2400823e-02
 -4.1429948e-02
  1.9251995e-01
 -2.6564693e-02
 -1.6528903e-01
  8.2052702e-01
  1.9177717e-01
  1.3588773e-01
  7.3115863e-02
  1.7549463e-02
 -4.1855130e-01
  2.4456748e-01
  2.0554288e-01
  8.1359491e-02
  3.6020729e-01
  5.4054528e-02
 -2.4025518e-02
  4.4773725e-01
 -1.7233789e-01
 -3.7470154e-02
 -2.9392445e-01
 -1.1827625e-01
  5.8474336e-02
 -4.9623886e-01
  3.9168429e-01
 -2.8090051e-01
 -6.0798101e-02
  6.2046669e-02
  3.7351130e-03
 -1.9524902e-01
 -7.9872552e-03
 -4.0119258e-01
 -2.4242352e-01
 -1.4078174e-02
  1.8590641e-01
 -1.1492114e-01
 -3.7055880e-02
 -1.1382189e-01
  5.3680282e-02
  9.3981422e-02
  5.9493162e-02
 -1.9189358e-02
 -1.0471455e+00
 -1.5280921e-02
  5.1330149e-02
  2.2157304e-01
 -2.4333496e-01
  1.3389421e-01
  1.0051018e-01
 -2.7323224e-02
  1.6357695e-01
 -3.7436832e-02
 -3.4217253e-02
  1.0135583e-01
  1.5316524e-01
 -6.0403622e-03
  3.7290566e-02
 -3.5977072e-01
  3.8287607e-01
 -1.2458391e-01
 -2.0490277e-01
  1.0156237e-01
 -8.6377874e-02
  1.9651321e-01
 -1.4847863e+00
  7.9427905e-02
  1.2521535e+00
  3.5688255e-02
 -9.4070919e-02
 -5.3817656e-02
 -1.5235341e+00
 -7.6264167e-01
 -1.6710468e-02
  1.3728516e-01
  4.0729530e-02
 -1.5639788e-01
  8.2292445e-02
 -2.3937926e-01
  1.4829735e-01
 -8.9266591e-02
  3.8312776e-03
  3.7237916e-02
 -1.4462484e-01
  1.2537244e-01
 -1.3088180e-01
  2.3523572e-01
 -4.3412173e-01
 -2.3701625e-01
 -4.9407119e-03
  2.0850632e-01
 -6.6228330e-01
  1.9147812e-01
  4.2426956e-01
 -4.7473259e-02
  3.1446064e-01
 -3.0109629e-01
 -1.0237642e-01
  1.3017948e-01
 -1.6740687e-02
  6.7888147e-01
 -7.5921321e-01
  9.7950101e-02
  4.8145705e-01
 -1.4133491e-02
  1.5809424e-01
  2.7136075e+00
  3.7488547e-01
  8.1696242e-02
  4.0033214e-02
  3.7629315e-01
 -2.4248900e-01
  3.1260455e-01
  1.0094255e-01
  4.0185165e-02
  9.7014415e-01
 -4.5592168e-01
 -3.5201296e-02
 -3.1356994e-02
 -2.2129756e-01
  3.4451991e-02
 -6.7604529e-03
 -1.4999693e-02
  1.1349076e-01
  2.3267083e-01
 -1.9273461e-01
 -5.9296083e-02
 -7.2921641e-02
  2.8401798e-02
 -5.4511748e-02
  1.0878717e-01
  7.0279129e-02
  2.8205913e-01
  2.7426947e-02
 -7.6626815e-02
  6.9085926e-02
  2.2877955e-01
 -4.5603983e-02
 -1.9419956e-01
 -3.2161981e-02
 -8.3724305e-02
  9.3324475e-02
 -1.0156099e-02
  1.5710552e-01
 -5.4997157e-02
  6.3306905e-02
 -8.6454019e-02
  1.9410497e-01
  2.4031907e-01
 -1.8452950e-02
  2.6778679e-02
 -9.8488905e-02
  1.0168607e-01
 -3.0921337e-01
  3.4195542e-02
  1.1807624e-02
 -2.6231894e-02
 -1.5931584e-01
  2.3648730e-01
  1.8104097e-01
  4.8069984e-02
 -1.1104150e+00
 -2.1446178e-02
  1.3597333e-01
  8.2699768e-02
  2.8459900e-03
  5.1214460e-02
  3.9561695e-01
 -1.2304616e-01
 -6.6657528e-02
  1.3569985e-01
  2.3567866e-01
 -3.6727089e-02
  1.5478183e-01
  1.7248660e-01
  9.4157048e-02
  6.0188764e-01
 -9.0504795e-02
 -4.1321509e-02
  2.9425514e-01
 -1.9790874e+00
 -1.0057811e-01
 -1.0840325e-01
 -6.1592147e-02
  6.7948915e-02
  2.4431454e-02
  2.6757479e-02
 -7.7288844e-02
  2.3402590e-01
  2.4968931e-01
  1.9180143e-01
 -3.0769553e-02
 -1.8319522e-01
 -1.2147759e+00
 -2.5392142e-01
 -8.4685795e-02
 -1.7599249e-01
 -3.6073020e-01
  2.2530630e-02
  3.0835810e-01
  8.6581945e-02
 -2.7999604e-01
  1.0634045e-01
 -1.9351132e+00
 -2.1606283e-01
 -6.2422261e-02
  1.5987375e-01
  5.0595485e-02
  2.2323864e-02
  8.5889004e-02
 -4.2174824e-02
 -1.8569525e-01
  2.7175386e-02
 -4.5221888e-02
 -3.8295716e-02
 -1.3304503e-01
  6.7759037e-02
  4.4712409e-02
 -2.2208741e-02
  8.0845945e-02
  3.4689821e-02
  1.0359350e-01
 -5.0945455e-01
 -1.2954874e-01
 -1.4168472e-02
 -1.9485687e-01
  1.2226773e-02
 -3.4385778e-02
  1.5484074e-01
 -8.9252673e-02
  9.9309474e-02
 -7.7237263e-02
  1.0202923e-01
  2.1208318e-02
 -1.8786505e-01
  1.6277497e-01
 -2.4001332e-01
  2.0060405e-01
  8.7584846e-02
  1.1102531e-01
  6.9068506e-02
 -1.2093510e-01
 -7.2173512e-01
 -2.8037262e-01
 -2.4893302e-02
 -6.2367600e-01
  5.3626999e-02
  8.2726216e-01
  4.5035166e-01
  4.4070851e-02
 -9.4414198e-01
 -4.7168482e-02
  2.9179564e+00
 -1.5011914e+00
  5.7559890e-01
 -4.3406960e-01
  8.9228369e-02
  2.5049250e+00
  4.2049998e-01
  1.4127324e+00
  4.2497528e-01
  9.1544658e-01
 -2.5737000e+00
  2.5284320e-01
  2.5783241e-01
 -2.4923506e-01
 -2.3658192e+00
  8.9348680e-01
 -8.1525773e-01
 -9.9941218e-01
 -2.0062630e+00
  1.8360735e+00
 -1.3147266e+00
 -1.8567251e-02
  2.7561435e-01
  5.4840273e-01
  1.2888039e+00
  1.1064709e+00
  3.7096494e-01
  8.7496430e-02
  5.7959747e-01
  5.2117509e-01
 -1.5445280e-02
 -2.6191471e+00
  1.3855654e-01
  1.1149684e-01
 -4.9546205e-02
  8.7626261e-01
 -6.6909724e-01
  3.4890854e-01
 -1.2154870e-01
  6.5534547e-02
 -4.7158252e-02
 -3.2135312e-02
  1.9231279e-01
 -5.6827998e-01
  1.1444959e-01
 -1.1676674e-01
 -8.5432537e-02
 -5.0608765e-02
 -6.5093291e-01
  6.8809584e-02
  5.3201765e-02
 -1.5819877e-02
 -5.8804102e-02
 -6.1959589e-01
 -1.3245568e-01
  3.5410976e-01
  8.0113262e-03
  2.7596471e-01
  3.4510314e-01
 -2.8721353e-01
  8.1030823e-02
  2.5411379e-01
  5.1945381e-02
 -5.6164008e-02
 -2.0219013e-02
 -1.1481104e+00
 -3.7704498e-01
 -8.8765189e-02
  2.3172502e-01
  3.0625898e-01
 -4.0096354e-01
  1.3749434e-02
  3.2964000e-01
  6.5090798e-02
  2.0611577e-01
  1.7256439e-01
  6.6861995e-02
  9.0705581e-02
  6.4225346e-02
  1.2086307e-01
 -1.1988146e-02
 -2.5648559e-03
 -7.3816948e-02
 -7.9863030e-01
  9.6020326e-02
 -3.5869682e-01
 -4.2866352e-01
  2.2111557e+00
  1.4617089e-03
  2.6539510e-01
 -3.6889428e-01
 -3.6751051e-02
  1.2007337e-01
  6.9169319e-01
 -5.9564568e-02
 -5.6019282e-01
  2.5609103e-01
 -3.1788066e-02
  2.4609035e-01
  9.0789996e-02
  2.0950468e-01
 -1.7545149e-01
  1.1045994e-01
 -8.0375582e-02
  8.5773639e-02
 -2.2397092e-01
  2.5133131e-02
 -1.1769034e+00
  1.9280748e-02
  5.2168809e-02
  9.6335799e-02
  4.9461249e-01
  7.3514186e-02
  7.8511536e-02
  2.5807303e-01
 -9.9726431e-03
 -6.6352729e-03
 -6.5836951e-02
 -1.5142404e-01
 -3.7958473e-02
  2.5668243e-01
  4.4788495e-02
 -7.3307842e-02
 -1.5857835e-01
 -1.1383337e-02
  7.5491935e-01
 -3.4399047e-02
  9.4033974e-01
  5.5752024e-02
 -9.0141095e-02
  3.7904121e-02
  4.0315755e-02
 -4.0998425e-02
 -3.9184406e-02
  4.1069669e-01
 -6.3992828e-02
  2.6418289e-02
 -8.8121533e-02
  2.8597895e-02
 -6.5519027e-02
  2.6175040e-01
  1.2674112e-02
 -2.0568198e-01
 -1.3312559e-01
  6.5673608e-01
 -2.4409397e-02
  1.8834972e-01
  2.4548960e-01
 -1.0752845e-01
 -4.9951997e-02
 -4.3797317e-01
 -1.2704132e-01
  4.7264186e-01
  8.3642699e-02
  1.3017564e-01
  5.7411686e-02
  3.1306520e-01
  2.2189948e-01
  2.1755093e-01
 -3.1213770e-02
 -1.8313761e+00
  1.2225138e-01
  2.0800328e+00
  2.0514250e-01
 -3.7037335e-02
  1.0328127e+00
  2.5935254e-01
 -2.4034081e+00
 -1.8727477e-01
  2.6604855e+00
 -2.1259246e+00
 -2.9742291e+00
 -1.7248776e+00
 -1.8316075e-01
 -1.4801556e+00
  2.2346970e-01
  1.9821200e-01
 -2.9413849e-01
 -1.1979713e+00
  2.7766246e-01
 -1.2205879e-01
 -2.9325542e-01
  8.6443126e-02
  1.9420804e-01
 -1.0495339e-01
 -1.4389774e-01
  3.5806492e-02
  1.4526391e-01
 -5.1849778e-03
 -1.4993435e-01
 -3.5989925e-02
  1.2651632e+00
 -1.7301458e-01
 -5.4192368e-02
 -1.1345096e-01
 -1.6832614e-01
  3.5546073e-01
  8.9798324e-02
 -5.3940469e-01
 -4.8695046e-01
 -3.0846851e-02
 -2.5808092e-02
 -1.1928675e-01
  1.7531964e-01
  4.1346569e-02
  6.4541183e-02
 -5.9063688e-02
  1.8018270e-03
 -6.1317842e-02
  6.6822551e-02
 -6.8143678e-01
 -1.3174416e-01
 -1.2091638e+00
  3.8133261e-01
 -1.0860230e+00
  2.6654773e+00
  8.2739860e-01
  2.0807081e-01
 -6.1438119e-01
 -1.1578847e-02
 -1.2197383e-02
  9.9081963e-02
 -5.5413550e-01
  1.0278666e+00
 -3.9089710e-01
 -9.7326291e-01
 -1.9171267e+00
  2.8567882e+00
  5.0453311e-01
 -1.9024553e+00
  2.6802971e+00
 -5.8089775e-01
 -8.0708468e-01
 -2.3754880e+00
  4.2825982e-02
  8.4839761e-01
 -1.2238766e+00
  1.9293878e+00
 -3.9527342e-01
  9.5880032e-01
 -7.5707304e-01
  3.2834223e-01
  1.8946968e-02
 -4.0452966e-01
  7.0199120e-01
  1.6474387e-01
 -1.1385934e+00
  8.0565006e-02
 -1.4993905e-01
 -4.7530565e-02
  1.1119519e-01
  8.1185871e-01
 -1.1177803e-01
  1.8231454e-01
 -2.5851980e-02
 -3.5827973e-01
 -5.1567722e-03
 -7.3550111e-01
  1.9209303e+00
 -6.1362892e-02
  8.5366148e-01
  9.3144238e-01
 -1.4752705e+00
  8.3427414e-02
 -4.6240664e-01
 -4.9945554e-01
  2.1199804e-02
  8.0668908e-01
  3.6364947e-03
 -3.6133596e-01
  1.7657644e-01
  2.6060364e-01
 -5.3054357e-01
 -2.5723311e-01
  1.6287787e-01
  3.3211008e-02
  1.4840804e-01
  2.5662493e-02
 -7.3333359e-01
 -7.4373317e-01
  2.4122980e-01
  5.8440059e-01
 -3.8879353e-01
  2.4559242e-01
  5.1962900e-01
  1.7331192e-02
 -7.7064955e-01
  2.0956700e-01
  1.7112902e+00
  8.7142628e-01
  4.6246726e-02
 -7.3722854e-02
  3.4636870e-02
  2.5404608e-01
  1.5376197e-01
  3.5813700e-02
  5.9144229e-02
  1.9589908e-01
  1.4688447e-02
 -4.2942788e-02
 -1.6794302e-01
 -6.9060601e-02
 -1.2171825e-01
  5.7412565e-02
  9.5146015e-02
 -3.7649986e-03
  4.2205654e-02
  1.1661502e-02
 -1.7277300e-03
 -1.2431608e-01
 -1.1110032e-01
  1.1623916e-02
  1.8796980e-01
 -2.5090370e-01
  6.2903665e-02
  2.0561339e-01
 -4.2651683e-01
 -3.2258922e-01
  8.1755385e-02
  2.1443039e-01
  1.9029130e-01
 -2.7991623e-02
 -1.6852785e-02
  1.6865246e-01
  1.6368005e-01
 -7.6363736e-01
  2.6728728e-01
  2.5411699e-02
  1.8774329e-02
  1.5282642e-02
  8.8784192e-03
  1.5159801e-01
  2.8594172e-01
 -1.9778240e-01
  4.9807154e-02
  1.1240225e-01
 -2.7372146e-01
 -8.1665017e-02
 -8.0526844e-02
  7.8160606e-02
 -1.7245415e-01
  4.3629885e-02
  2.4577674e-01
  1.3754878e+00
 -6.8792135e-01
 -4.3377966e-01
 -7.2910804e-01
 -1.0197563e+00
 -8.6116940e-01
 -7.7388838e-02
  5.7718545e-01
 -1.4111757e-01
  2.0435172e-01
 -3.6106285e-01
  7.6038533e-01
  1.3137469e+00
  2.1556029e+00
  2.8829174e+00
 -7.5054032e-01
  7.9169464e-01
  1.5714131e-01
  1.6893208e+00
 -2.0861683e+00
  2.3071392e+00
  4.9806795e+00
  1.3826756e+00
  7.2839725e-01
 -1.0107601e+00
  2.2425430e+00
 -8.9890444e-01
  8.0311298e-01
  2.1920056e+00
 -6.1274832e-01
  1.2913684e+00
 -2.2845268e+00
  2.0894878e+00
  1.2807608e+00
  1.3322458e+00
  1.6866935e+00
 -1.7198938e-01
  8.3625931e-01
  4.3771066e-02
  4.0246356e-01
 -1.4155267e-01
 -9.6493118e-02
  4.2803343e-02
 -2.3601696e+00
  9.2109162e-01
  2.9044417e-01
 -1.1721486e+00
 -2.1555011e+00
  1.1755564e+00
  3.2950392e-01
 -2.3829682e-01
 -1.0162148e+00
 -2.6832101e-01
 -1.2758340e+00
 -1.6339739e-01
  4.8920628e-02
  4.4448519e+00
  8.5165463e-02
 -3.1360164e-01
  2.5345200e-01
 -1.4039905e-01
 -1.9477625e+00
 -1.3052527e-02
  1.5217414e-01
 -3.3661559e-01
  1.1013862e-02
  3.5673726e-01
  2.1020331e+00
 -2.3768319e-01
 -1.0951268e-02
  1.5905615e+00
  1.3848088e+00
 -6.2392145e-02
 -2.3204742e-02
  1.2522262e+00
 -1.8837616e+00
  4.6662003e-01
 -1.1491470e+00
  1.6879520e+00
 -1.4113672e-01
  3.7189573e-01
 -6.2668413e-02
 -4.0581640e-02
  6.3759722e-02
  3.9737689e-01
  6.6870280e-02
  3.4581004e-03
 -1.5401626e-01
 -5.6388247e-01
  1.7490647e+00
 -6.6673708e-01
  6.6414475e-04
  3.3891550e-01
 -2.8515682e-02
  5.0865334e-01
 -3.5934154e-02
 -4.0652123e-01
  3.7976358e-02
 -8.7663770e-02
 -1.2227671e-01
 -1.6836572e-01
 -2.0738135e-01
 -1.9818917e-04
 -1.8398857e-02
  1.0447383e-01
 -2.7127301e-02
 -1.2069064e-01
 -4.0062452e-03
 -6.5354630e-02
 -5.8380738e-03
  2.2280250e-02
  6.7761116e-02
  2.4819424e-02
 -9.1007054e-02
  1.1109878e+00
 -1.2866922e-02
  8.5704041e-01
 -4.0397707e-02
 -7.7647306e-02
  4.1896033e-01
 -4.3734372e-02
  3.6057308e-02
  1.0422154e-01
  2.4189290e-02
 -1.4818970e+00
 -4.0048695e-01
  1.1226203e-01
 -5.4712676e-02
 -5.4048234e-01
 -5.6216270e-03
 -6.7465659e-04
 -1.7706294e+00
 -2.6184389e-01
 -6.3193077e-01
 -4.8159531e-01
 -1.2744600e+00
  8.8229930e-01
 -1.0696889e+00
  8.3740705e-01
 -4.4949627e-01
 -9.1092384e-01
 -1.4986116e+00
  7.1134549e-01
 -9.0987243e-02
 -2.6035240e+00
  3.0233665e+00
  1.5448585e+00
  7.6268405e-01
 -5.1012814e-01
  3.1260675e-01
  2.1878374e-01
  8.9490488e-02
  2.2849557e-01
  2.1026428e+00
  3.0296175e+00
 -2.2735003e-01
  3.6092693e-01
 -5.7794821e-01
  3.1007552e-01
 -1.6494904e+00
 -3.0610338e-01
  3.3184340e+00
  2.0798211e+00
 -2.5194573e-01
 -3.2531306e-01
 -1.8144063e+00
  1.8442909e-01
 -4.8982260e-01
  1.6743194e-02
  2.9028334e-02
 -9.8601317e-01
 -7.2927289e-02
 -2.3092601e-01
  4.0134177e-02
 -8.7096564e-02
 -5.2372843e-01
  1.0086471e+00
  1.6730069e+00
  2.5076485e+00
  4.1480553e-01
 -9.1400325e-01
  3.0414877e+00
 -4.8084427e-02
  1.0231848e+00
  7.0486987e-01
  5.2243239e-01
  8.1179321e-01
  3.4027901e-01
  6.3408452e-01
  3.8573313e-01
 -4.7826403e-01
 -3.2674038e-01
 -9.3877859e-02
  8.5675552e-02
  6.6889346e-01
  4.7549829e-02
 -5.5818781e-03
 -5.0572854e-01
  2.7132668e-02
  1.5781370e-01
 -1.4447151e-01
  4.4234443e-01
  1.0198826e-01
  5.8353370e-01
 -5.5255902e-01
  3.9638913e-01
 -6.3180286e-01
 -1.7061779e-01
 -9.0258289e-03
 -3.5077362e+00
 -9.5171239e-03
 -2.4733886e-01
  1.7172441e-02
 -3.8300544e-02
 -3.3786529e-01
 -2.7802002e-01
  2.1118987e-01
 -1.2581550e-02
  3.3894531e-02
 -3.0812962e+00
 -5.0435847e-01
 -1.8676607e-01
  4.3495017e-01
  1.8808539e-01
  6.9780260e-01
  7.3799783e-01
 -7.4402958e-01
 -5.0079460e+00
 -9.1208279e-01
  6.9661683e-01
  1.8528730e-01
  1.1445985e-01
  1.8657420e-02
 -1.0892080e+00
  5.6810600e-01
  6.3573843e-01
  2.4188901e-01
 -3.7290418e-01
  2.0065159e-01
  1.7917914e+00
 -1.0252941e-01
  1.2971290e+00
 -1.5574256e+00
  3.3821111e+00
  1.0306464e-01
 -1.9583495e-01
 -7.8776306e-01
  5.7747912e+00
  2.4316669e+00
 -7.7024114e-01
  3.2491739e+00
  6.1463673e-02
 -3.6225823e-01
 -2.8604090e-03
  2.4318781e+00
  7.5582975e-01
 -4.9991053e-01
 -2.1993262e-01
  6.7297623e-02
  2.1784637e-02
 -5.6929481e-01
 -1.6057390e-01
  2.9058177e-03
  1.1924149e+00
 -7.7378356e-01
 -1.7138602e-01
  6.1482042e-01
  7.3568359e-02
  1.4495262e+00
  5.2933371e-01
  9.4116002e-02
  2.5383422e+00
 -1.8761104e+00
 -1.5683377e-01
  3.2034960e-01
 -9.8960537e-01
 -2.4517057e+00
  9.1574961e-01
  3.7855852e-01
  4.5283803e-01
  1.7501402e+00
  4.8721087e-01
  3.6099440e-01
 -2.4002906e-02
  1.5383334e-01
 -7.6834065e-01
 -2.7771404e-01
 -4.9463117e-01
  7.9093289e-01
 -5.0134201e-02
 -1.1488017e+00
  2.9850466e+00
 -4.4743133e-01
  3.1333336e-01
  3.4685460e-01
  1.1657749e+00
  1.9240334e+00
 -6.2248999e-01
  1.8797005e+00
  4.1560397e-01
 -1.3978654e-01
 -7.7007824e-01
 -9.5203994e-03
 -9.5693298e-02
  1.9169878e-05
 -1.0742268e-01
  2.3835690e-01
 -3.6444038e-01
  1.2747748e+00
 -1.6142108e-01
 -1.1133589e+00
  1.6180116e+00
 -2.1684351e+00
 -2.2180972e+00
 -2.2610836e-01
 -2.3472383e+00
 -1.3038008e-01
  6.9783318e-01
  2.5182886e-02
 -3.5045335e-01
  8.2245219e-01
 -3.5514176e-01
 -7.2021410e-02
  2.0986471e+00
 -1.5784235e+00
 -5.0921249e-01
 -2.8475469e-01
  3.4506419e+00
 -1.8454115e-01
 -7.0270824e-01
 -2.8412265e-01
 -1.4748511e+00
  1.6468431e-01
 -2.5911963e+00
  6.5844667e-01
 -9.1622734e-01
 -7.7452034e-01
 -1.5072240e+00
  2.2297225e+00
 -4.0314326e-01
  1.3175992e+00
 -7.3412162e-01
  4.0958464e-01
 -1.7386694e-01
 -2.3567267e-01
 -2.4675904e-04
 -1.2918381e-02
 -1.6375713e+00
  4.5046034e-01
  1.8664737e-01
 -1.0820258e-01
  2.4137738e+00
 -2.8261738e-02
  8.5206628e-03
  2.4705894e+00
  3.1411865e-01
  5.6898212e-01
  2.8484252e-01
 -5.1034592e-02
  6.2097019e-01
 -2.0735389e-02
  7.2534949e-01
  6.6522680e-02
 -1.2584145e-01
  8.8573001e-02
 -1.2702329e-01
  3.3665016e-01
 -3.8852307e-01
  3.2954400e-03
  6.7574853e-01
  1.1453900e-01
 -1.4892760e-01
 -6.2748455e-02
  1.2741081e-01
 -3.6921423e-02
 -8.1945378e-03
 -1.9431224e-01
  2.1898316e-01
 -4.1074537e-02
 -1.1671102e+00
  1.0924613e-01
  1.5666282e-01
 -8.0709115e-02
 -8.0090158e-02
 -1.6551143e-01
  1.5789007e-01
  9.8825805e-03
 -7.9582766e-02
 -3.6577463e-02
  2.7365941e-01
 -4.5774586e-02
  1.6029291e-02
 -4.4660301e+00
  6.6297829e-02
  2.7763103e-03
  3.4125496e-02
  9.3160248e-01
 -3.1618598e-01
 -1.3560231e-01
 -1.2721437e-02
 -1.5576418e-01
 -5.2293265e-01
 -5.2102965e-01
 -5.0564863e-02
 -3.0521277e-01
 -1.2455896e+00
 -2.6020202e-01
 -2.4469006e-01
 -6.0487252e-02
 -1.1537936e-01
 -4.8428449e-01
  2.5481063e-01
 -3.4403481e-02
 -1.7761305e-01
 -5.5088907e-02
  7.3967785e-02
  2.0311001e-01
  5.6695875e-02
  1.1712106e-01
  2.1569984e-01
 -2.0883825e-01
 -7.8192875e-02
 -5.5714655e-03
 -1.7799003e-02
  2.0168066e-01
 -1.8910025e-01
  2.6500651e-01
  4.6379179e-01
 -1.1439693e-01
  1.8881369e-01
  7.2759517e-02
  3.7362311e-02
 -1.8260044e-01
 -9.7566351e-02
 -3.9377120e-01
 -4.7032319e-02
  2.9742643e-01
  4.5547698e-02
 -2.2705181e-02
 -9.7462642e-01
  3.6875734e-01
  4.5793176e-01
 -8.4219170e-01
  1.0689940e+00
 -2.8532222e-01
 -1.0355787e-02
 -1.0888544e+00
 -2.4470964e-01
  1.3111608e-01
 -1.2041152e-01
  9.8680729e-01
  2.7909453e+00
 -9.1450550e-02
  2.0414857e-02
 -1.2187584e-01
 -6.8968415e-02
 -8.0426194e-02
 -2.0787930e+00
  1.1499887e+00
  5.4965641e-02
  3.7713915e-02
  8.4442705e-02
 -1.1736781e-01
 -4.3311596e-02
 -5.0824982e-01
 -3.1651626e-03
  7.3718235e-02
  1.0536299e-01
  1.3181755e-01
 -2.1549442e-01
 -1.4761740e-01
 -1.6170813e-01
 -7.3981255e-02
  1.7636169e-01
  3.1905696e-03
  2.3711957e-01
 -1.6543746e-02
 -5.4103844e-02
 -2.6891639e+00
 -3.6878228e-02
  1.0968524e-01
 -1.6432706e-01
  3.0901074e-01
  8.3658732e-02
 -2.8884664e-01
  5.7518744e-01
 -1.6624933e-01
  7.1692199e-02
 -3.0430036e+00
  2.7379912e-01
  5.2349228e-01
  2.6440895e+00
 -2.7124694e-01
  1.2578263e+00
 -5.2497261e-03
  2.3352703e-01
  1.2989285e-02
 -1.1433135e-01
 -2.2111783e+00
  3.4237858e-03
  7.5193256e-02
  1.3389036e-01
 -1.4368081e-02
 -1.9645628e-01
  3.7778739e-02
 -6.2230217e-01
  1.5419055e-02
 -8.6916882e-01
 -6.9072109e-01
 -3.8148096e-01
  2.1874249e-01
  2.5256226e+00
 -1.1372870e-01
 -3.2859940e-02
 -2.5246499e+00
 -6.7801394e-02
 -1.3431379e-01
 -5.1494682e-01
  1.2520936e-01
 -1.0656910e-01
 -1.8855168e-01
  1.0096859e-01
 -1.4066243e-01
 -1.5275230e-01
  1.7465591e-01
 -1.6751317e-02
  9.1057166e-02
 -3.1471989e-01
  2.5616270e-01
 -3.6021970e-02
  3.9046319e+00
 -7.5486779e-02
  1.5249965e-01
  1.2767965e-01
 -9.9802196e-02
  5.4605547e-02
  2.0442115e-01
  2.6928869e-01
  3.5659738e-02
 -3.2092750e-01
 -1.1472747e-02
  7.2220707e-01
  1.0463672e-02
 -2.3413871e-01
  4.1941968e-01
 -3.6344036e-01
  2.2535527e-02
  1.8282005e-01
  2.5005981e-02
 -3.2281655e-01
  1.4863759e-02
  1.1428540e-01
 -2.9302499e-01
 -3.5630828e-01
 -1.0812404e+00
  7.0886254e-01
 -4.9220748e-02
  4.0572111e-02
 -8.3311453e-02
  2.3469125e-01
  1.2530340e-02
 -9.6079655e-02
 -1.1916590e-01
  2.8098075e-02
 -1.2095748e-02
  1.1151893e-02
  1.1891195e-01
  3.2073468e-02
 -1.3812068e-01
 -1.9982629e-02
  1.6911606e-01
  4.9312528e-02
 -8.0796200e-01
  8.5235417e-02
 -1.0343481e+00
 -3.9379799e-01
  1.5445535e-01
 -1.5674933e+00
  1.2089074e+00
 -3.6011180e-01
 -8.6025838e-03
 -3.0968520e-01
  2.0158175e-01
  3.5527471e-01
 -1.5203445e-01
  1.7927451e-01
  2.6723796e-01
 -3.6758131e-01
  1.7710429e-02
  1.4619997e-01
 -1.5707682e-01
 -3.2934326e-01
 -5.8282252e-02
 -2.0572315e-01
  1.3475820e-01
 -4.0680087e-01
 -7.5246654e-02
  3.3037224e-01
  6.4615174e-03
  5.0791943e-01
 -1.2509136e-02
 -9.8877452e-02
  2.9753854e+00
  1.2925231e-01
 -1.6693206e-01
  3.1864814e-02
 -1.7779574e-01
 -2.4062081e-01
  7.1738943e-02
  1.0512796e-01
  2.4392935e-02
 -2.3056725e-01
  1.5871396e-02
  2.7875518e-02
 -4.3608379e-03
  6.4052218e-03
 -2.4372850e-02
 -1.6320618e-03
 -1.2197353e-02
  2.1797212e-02
 -1.3379874e-02
 -3.3283088e-01
 -7.8182496e-02
  1.2604964e-02
  3.2191947e-02
  3.1058925e-01
 -2.5900453e-01
  1.6462674e-02
 -4.5064382e-02
 -5.9896540e-03
  1.5538925e-01
 -1.5153994e-01
 -1.0515047e-01
 -8.4636539e-02
 -3.6434915e-02
  5.1588718e-02
  2.4528557e-01
  6.6669732e-03
 -1.3757218e-01
  2.8171539e-02
 -7.1743570e-02
  7.3404208e-02
  1.0604122e-01
 -5.6399211e-02
 -1.5941067e-01
 -1.2887970e-01
 -3.9262090e-02
 -3.2649755e-02
 -1.7336722e-02
 -1.8293778e+00
 -2.0740168e-01
  1.4642633e-02
  3.4986231e-02
  2.0979974e-02
  1.7334670e-03
 -1.6859958e-02
 -1.3648263e-01
 -4.4063352e-02
 -1.0950340e-01
  2.2874545e-01
 -4.0144730e-01
  2.4571722e+00
 -1.7537093e+00
  3.5366917e-01
  6.6779554e-01
  3.2404912e+00
  7.6257586e-01
  5.5188352e-01
 -1.6032007e+00
 -1.2159462e+00
 -1.5337263e-01
  5.9671736e-01
  1.1015880e-01
  1.8524175e+00
  7.1121341e-01
 -1.0517176e+00
  1.1606276e+00
 -8.7626892e-01
 -3.3346877e+00
  1.6944522e+00
  9.5323380e-04
  9.1481805e-02
 -1.2584999e+00
  5.8140814e-01
 -1.7698723e+00
  6.5352313e-02
 -7.8829426e-01
  1.7891735e-02
  2.7969864e-01
 -9.4487238e-01
  1.7476072e+00
 -8.7756842e-01
 -2.2956157e+00
 -5.8800691e-01
  3.0358930e+00
 -2.7829450e-01
  8.2186502e-01
  1.3366793e+00
  1.2011841e-01
  1.6162363e-01
  8.1897929e-02
 -1.3417673e-01
  1.5819666e-01
 -2.5734305e+00
 -1.0786268e+00
  1.3838384e+00
 -1.9740834e+00
 -3.8719627e-01
 -1.3489598e+00
 -1.9609523e+00
 -2.6298046e-01
 -1.2933627e+00
 -1.6852271e-02
 -1.3215910e+00
  4.6136701e-01
 -1.8473165e-01
  1.9715656e-01
 -1.6246486e-01
  5.3584063e-01
 -2.0736413e-01
 -3.9983293e-01
  5.4158401e-03
  2.2931840e-01
 -2.2801650e-01
 -1.2173915e+00
  7.1186459e-01
  9.7177021e-02
  1.8780330e-01
  1.4223878e+00
 -2.7003331e+00
 -5.5886704e-01
  2.9708412e-01
  1.2258746e-02
 -4.4496065e-01
 -8.8941497e-01
  1.4650184e+00
 -1.5790236e+00
 -5.8810866e-01
 -1.2545381e+00
  3.4091759e-01
  4.1573927e-02
 -2.8803140e-02
 -7.7259973e-02
 -4.0088415e-01
  1.2649997e-01
  1.6985564e-01
  1.6939974e-01
  6.0967326e-02
 -2.4713936e+00
  3.5781143e-03
  5.9682173e-01
  2.5927508e-01
  1.3632249e+00
  6.6001751e-02
  1.7873284e-01
 -1.3957252e-02
  6.6103131e-02
 -2.4597449e-02
 -4.6221727e-01
  3.3582911e-01
 -5.7290886e-02
 -4.7186650e-03
 -2.3260351e-01
  1.0135330e-01
 -4.6481207e-02
  3.3381101e-02
  1.0982319e-01
 -3.2684892e-02
  1.6088945e-01
 -1.2045878e-02
 -1.5167236e-01
 -6.7553079e-01
 -6.6425633e-03
 -5.1374577e-02
  3.0640397e-02
 -1.2929536e-01
 -4.1899008e-01
  1.4609186e-01
  6.7328468e-02
  3.3682086e-02
  7.6932736e-02
  2.2996649e-01
  5.1324293e-02
 -1.1308260e+00
  3.8892678e-03
 -2.3898193e-01
  7.0549615e-02
  6.0200643e-02
 -7.9785086e-02
  2.3669246e-01
 -2.7710095e-02
  4.2242643e-01
  1.3082142e+00
 -1.1810607e+00
  9.6041077e-01
  2.0182714e+00
  4.8055135e-02
 -6.2022865e-01
  1.6587087e+00
  2.1834097e+00
  6.9702494e-01
  7.7357702e-02
 -1.2973981e-02
 -1.5741897e-01
  9.4123787e-01
  1.7861395e-01
 -1.0475027e-01
 -1.9091101e-01
 -1.9846003e-01
 -1.0688162e-01
  7.7205199e-01
 -3.0373528e+00
 -2.1093419e-01
 -6.4865178e-01
 -9.8380691e-01
 -3.5457000e-01
  2.2946930e-02
 -1.3349806e-01
 -1.0708113e-01
 -2.8474152e-01
  1.8089307e-03
 -1.5431433e+00
  1.2517910e-01
 -2.2810657e-02
 -5.0231766e-02
 -8.3430216e-02
  1.0340949e+00
  3.9960814e-01
  9.2166293e-01
 -5.3286545e-02
 -3.0364877e-01
 -1.0056849e-01
  1.3591963e+00
 -1.4246537e-01
 -1.8388052e-01
 -2.3119777e-01
 -6.8433627e-02
  4.6534657e-01
 -7.2241807e-01
 -3.1416860e-01
  3.9890704e-01
 -2.4219772e-02
 -4.5997542e-01
 -1.2485945e+00
  2.7309775e-02
  6.4476289e-02
 -6.6844600e-01
  2.2392210e-02
  2.3033908e-01
  2.3468116e-01
 -3.7784621e-02
  1.8412484e-01
 -7.4607157e-04
 -1.6530840e-01
 -3.1561482e-01
  1.4389931e-01
 -7.8243308e-02
 -9.2581145e-02
  2.2429667e-02
  3.3409461e-02
  1.6641186e+00
  1.2381659e-01
 -2.4753630e-02
  5.6507236e-01
 -9.8624542e-02
  4.8870821e-02
  4.5516688e-02
 -3.2776237e-01
  5.0376702e-02
  6.0192579e-03
 -2.6484826e-01
  4.5851317e-01
  1.5054603e-01
  5.3626761e-02
  8.8675901e-02
 -1.5428585e-01
  2.8685665e+00
 -1.7925086e+00
  4.6170712e-02
 -7.8188407e-01
 -2.4498877e-01
  1.5570633e-01
 -2.1445556e+00
 -4.9962309e-01
 -1.7738103e+00
 -2.8694503e+00
 -8.2891770e-02
  8.6491570e-02
  1.2683684e-01
  1.1072563e+00
 -6.6996239e-02
  1.1248834e-01
 -3.5400957e-02
  2.3015614e-01
  1.4130580e-01
 -6.5948322e-02
 -7.1019940e-02
  1.5564302e-01
  1.7819507e-01
  1.9504745e-01
  2.5489955e+00
  2.4968067e-01
  1.3961214e-01
 -2.3363788e-02
  3.6553338e-02
  3.5021428e-02
 -1.5072082e-01
  2.9753465e-02
  9.7899688e-03
  2.2521377e-02
 -1.6288638e-01
  7.5378336e-02
  2.4363993e-02
  2.0988934e-02
  2.9519778e-01
 -6.4388037e-02
  4.8133165e-02
  3.3574381e-01
 -3.9364807e-02
 -3.5642639e-01
 -2.9314080e-01
  9.9953063e-02
 -9.0844683e-02
 -4.7178034e-02
  8.2417518e-01
  5.5624925e-02
  2.8746292e-01
 -1.5891421e-01
  1.7765259e-02
 -2.1715581e-01
 -1.0407470e-01
 -4.7738612e-02
 -2.0771362e-02
  4.4657269e-01
  4.9832333e-02
  3.4686245e-02
  9.6788034e-02
  2.9759133e-01
  2.4751604e-02
  5.1913954e-02
  6.8297647e-03
  5.6553546e-02
  4.8150115e-02
 -2.2432974e-01
 -4.5090802e-02
  1.2369882e-01
 -4.4540517e-02
  5.9765249e-02
  2.6764944e-03
  6.2499934e-01
  2.2586577e-02
 -1.7862527e-02
 -4.1225236e-02
 -4.1114613e-01
 -6.9756880e-03
 -1.1999740e-01
 -7.4715741e-02
 -9.3232989e-02
 -9.7199939e-02
  2.6143324e-01
 -3.7783458e+00
 -7.3265517e-01
 -2.1664301e-02
 -9.3813069e-02
 -3.3122137e-02
  1.1041604e-02
 -1.2638855e-01
 -2.6952875e-01
  1.9639455e+00
 -2.0679903e-01
 -8.9128740e-02
 -1.9007562e-01
 -5.0441772e-01
  9.9909508e-01
 -1.0345321e+00
 -4.1697988e-01
 -6.9394612e-01
  1.8439141e-01
 -4.9651444e-02
  1.6954683e-02
 -4.6203792e-02
  1.7164528e-01
  4.5617545e-01
 -3.7994578e-02
  1.3779745e-01
 -1.1377932e-01
  1.0072727e-01
  1.3671091e-01
  3.5282707e-01
  2.4992794e-01
  4.1470431e-02
  5.0747860e-02
  5.0213836e-02
 -1.1517838e-01
 -3.1944942e-01
  1.4347233e-01
 -5.0491719e-03
 -8.6599773e-01
  1.3821395e-01
  1.7629622e-01
  6.5255493e-02
  2.1887917e-02
  4.0500883e-02
 -1.6450819e-01
  1.4769223e-01
  9.9684820e-03
  1.6968967e-01
  3.3300936e-01
  3.9658371e-02
 -9.7266488e-02
 -4.6909496e-01
  1.6953152e+00
  2.1200446e-02
 -1.1350462e-01
  3.6176053e-01
 -8.9465529e-01
  3.8831756e-01
  3.3467486e+00
 -3.1133730e+00
  7.7256924e-01
  1.2021769e-01
 -7.1026343e-01
 -1.1771668e+00
  1.2492064e+00
  4.1493503e-03
 -7.8591809e-02
  1.2699260e-02
  1.9958746e-01
  3.0907795e+00
  6.8054651e-03
 -9.3613374e-01
 -2.8644629e+00
 -8.0717191e-02
  2.1935022e+00
 -1.1436423e-01
 -8.4908925e-02
  1.8417068e-01
 -7.7874470e-01
 -4.6724558e-01
 -9.1859561e-01
  9.1702729e-01
 -1.4975935e-01
 -1.8725272e+00
  7.0153123e-01
 -1.5079783e-01
 -1.7470185e+00
 -1.4571162e-01
  9.5711417e-02
 -1.6978076e-01
  6.7538381e-02
  1.3585284e-01
  7.8813300e-02
 -1.5204184e-01
 -3.9248420e-03
 -1.9952780e-02
 -6.1418086e-02
  5.5280870e-01
  3.0690173e-02
  1.5128332e+00
 -1.6769153e-01
  8.7800109e-01
  1.5496334e-01
  1.3217595e-02
 -3.0592871e-01
 -1.1271583e-02
 -1.6130422e-01
  3.0891325e-02
 -8.4331244e-01
  8.3747900e-01
 -8.6243801e-02
 -1.4180066e-01
 -7.3398709e-01
 -2.8462911e-01
 -1.3042324e-02
  1.8158574e-02
  9.6990258e-02
 -2.2591315e-01
  1.8379137e-01
 -2.1087250e-01
  5.5363212e-02
  1.5555234e-03
 -8.9636225e-01
 -4.1208220e-01
  2.1235046e+00
  4.3874207e-01
  3.8323402e-01
  7.0475638e-02
  3.4418190e-03
 -8.5092589e-02
  1.1754113e-01
  1.4260584e+00
  6.9710091e-02
  1.5523669e+00
  7.1147539e-02
  1.4738418e-01
 -6.3122392e-02
  8.3685733e-02
 -3.2526642e-02
  2.1967180e-02
 -8.6670801e-02
 -3.9876602e+00
  1.0800117e-01
  8.0411708e-01
 -6.1312973e-01
  4.2237941e-02
 -1.8236750e+00
  1.8565808e-01
  7.5186729e-01
 -6.5204096e-03
 -9.7906607e-01
  3.7436645e-02
  2.2203629e-01
  1.8072523e-01
  1.3614617e-01
  9.3948945e-02
 -5.7469636e-02
  1.6159567e-01
  3.3661270e-01
 -2.7350941e-01
 -8.0671996e-02
 -5.1829208e-02
 -4.2382351e-01
  5.8559310e-01
 -5.0066775e-01
 -3.2437593e-02
  2.5948446e-02
  6.2739991e-02
 -8.5113245e-01
  1.1320904e-01
  2.9083133e-01
 -5.9064060e-02
 -9.8213963e-03
  7.2032928e-02
  1.7462109e-01
  5.8032781e-01
  1.6055150e-01
  8.9079626e-02
 -1.8809029e-01
 -1.1859286e-01
 -2.8356370e-01
 -6.9843352e-02
  1.0188906e-02
 -1.8008126e-02
  2.7832568e-02
  2.7685335e-01
 -1.6599948e+00
 -3.4871003e-01
  3.4005266e-01
 -1.3552474e+00
 -2.6671565e-01
 -1.3443850e+00
  3.6612320e-01
  1.0402171e-01
 -1.7935089e+00
  1.2465165e+00
 -1.1535989e-01
 -9.4698921e-02
 -1.0920504e-01
  9.9686533e-03
 -7.0900536e-01
  3.4322065e-01
  2.5253531e-01
 -7.5057375e-01
  9.4292581e-02
  8.2335258e-01
 -2.4663799e-01
  6.3139421e-01
 -1.1248036e-01
 -4.5628834e-01
 -1.4714977e+00
  3.0811691e-01
 -4.4409928e-01
 -5.9468532e-01
  1.5124085e+00
 -4.1070178e-02
  9.5277980e-02
  5.4296637e-01
 -2.1893674e-01
  3.2165352e-01
 -1.2614963e+00
  2.8405297e-01
  4.6827588e-02
 -1.6895723e-02
 -5.3054623e-02
 -2.0604610e-01
 -1.1901788e-01
  4.7286101e-02
  6.4720285e-01
 -3.5925910e-02
  2.1325555e-01
 -9.4057864e-01
 -1.7610794e+00
 -3.3573928e-01
  1.2822465e+00
  1.6990228e+00
  5.0981635e-01
 -5.0164813e-01
  4.2167958e-03
  1.2157732e+00
 -4.8823807e-01
  3.5987090e-02
 -4.2700088e-01
  3.0471066e-01
 -5.5309886e-01
 -1.0504073e-01
  3.1400836e-01
 -2.1373594e+00
 -7.8021181e-01
  7.7365920e-02
 -4.9201289e-01
  8.9558132e-02
 -1.6908777e-01
  7.4346626e-01
 -1.3967602e+00
 -6.1499166e-01
 -1.4928937e-02
 -2.0217404e+00
 -2.8845188e-01
 -7.0378840e-01
  8.2442805e-02
 -6.7306185e-01
 -2.6820773e-01
 -2.8362983e-01
 -7.9105330e-01
  6.6102959e-02
 -1.6914633e-01
 -2.5382972e-01
  1.2069298e-01
  3.2249758e-01
  1.2393624e-01
  3.2556364e-01
  1.0707182e-01
  2.6847106e-01
 -3.1508344e-01
  6.9746858e-01
 -1.2889371e+00
  1.1438813e+00
 -2.8692022e-01
  5.8569664e-01
  1.0598385e+00
  7.3891848e-01
 -8.6435121e-01
 -5.4211169e-01
  2.5499523e-01
  2.2261475e-01
  1.1059810e+00
  2.5624182e+00
  4.8753529e+00
  3.3336663e+00
  1.5636692e+00
 -1.2650434e+00
 -2.0759469e-01
 -1.1452867e-01
  2.7007824e-01
  1.8274331e+00
 -1.1635778e-02
  1.2742513e+00
  1.4785220e-01
  5.9801720e-02
 -5.4213399e-01
  2.6098709e+00
  2.6794049e-01
  3.5926536e-01
 -1.3942846e+00
 -6.8613625e-01
 -1.0246004e+00
 -1.5872967e+00
  6.1885214e-01
  7.2765611e-02
  3.5153043e-01
  4.5990592e-01
  4.9179485e-01
 -6.5555876e-01
  5.9084201e-01
  1.4951688e-01
  6.4827216e-01
  1.1243961e+00
  2.0115808e-01
  1.2346056e+00
 -1.1421840e+00
  8.9542228e-01
 -1.1836159e+00
 -9.9138282e-02
  3.3185607e-01
  1.8753877e-01
  9.7978916e-03
  3.9189908e-01
  2.3945804e+00
  9.5473379e-01
 -1.8163972e-01
 -2.3217454e+00
  8.8404655e-02
  1.6017796e-01
 -7.5401354e-01
  1.4145709e+00
 -7.6947376e-02
  2.9752851e-01
 -2.3931587e-01
  3.1631944e+00
  1.2348935e-01
 -1.9982188e+00
  3.1173781e-01
  8.5650837e-01
  1.4992067e-02
  8.1859809e-01
 -1.1360388e-01
  7.8855492e-02
  8.6100712e-02
  1.5447108e+00
 -3.4627669e-02
 -1.1257112e-02
  1.1285561e+00
 -1.6967432e-01
 -1.5437788e-01
  8.1005639e-01
  1.0088099e+00
 -8.8145554e-02
  8.5622689e-04
  4.3953713e-03
 -9.7039115e-04
  1.6501453e+00
 -4.2057773e-01
 -2.1593305e-03
  1.3752375e-05
 -6.2063273e-02
 -1.2237395e-01
 -9.5446348e-01
  1.0588272e-01
  3.3662885e-02
 -4.7805512e-01
 -2.2291128e-02
 -1.2929492e+00
 -1.5360694e-02
 -1.8435214e-01
  8.8107973e-01
  1.3173141e-01
 -4.7267118e-01
 -1.7594560e+00
 -7.0715658e-02
  1.9728093e-01
  7.7657243e-03
  2.2819689e-01
 -3.7269503e-02
  1.9678634e-01
 -1.3203799e+00
 -2.9361513e-02
  4.8519999e-02
 -4.9437650e-02
  2.5964582e-01
 -2.9751226e-01
  5.6525908e-02
 -2.4934109e-01
 -2.8438452e-01
 -3.0981198e-02
  4.9046394e-01
 -1.4826947e-01
  5.0223148e-01
 -9.3885876e-02
  3.3051744e-03
  6.4905095e-01
 -4.1226018e-02
 -2.0238537e-02
 -1.3998152e-01
  1.1069179e+00
  7.9009843e-01
 -2.0316766e-01
 -6.2043709e-01
 -2.7820662e-01
 -1.6877326e+00
 -2.6542959e-01
  7.1443164e-01
 -1.0341144e-01
 -2.8367904e-01
 -5.2786249e-01
  2.3507513e-02
 -2.3375158e-01
 -7.0305663e-01
  4.4425815e-02
  3.3678252e-01
  7.7591442e-02
  1.3743527e-01
 -9.4633192e-02
 -9.8381519e-02
 -1.9319688e-03
 -2.0727581e-01
 -7.8225128e-02
 -2.4990445e-01
  9.4108444e-01
 -4.5334231e-02
 -7.7798629e-01
  6.9809988e-02
  3.1316632e-01
  1.0771053e-02
  2.5397491e-01
 -9.9331662e-02
  8.2269376e-03
 -2.0124194e-01
 -5.7273275e-01
  3.7319124e-02
  4.2551675e-01
  4.0134322e-02
 -4.0936293e-03
  3.4298193e-02
 -6.2297929e-02
  1.5259200e-02
  1.2299111e+00
  6.0164925e-02
  9.6968099e-02
  3.0949683e+00
 -7.1095431e-01
 -4.8024285e-01
 -2.4612198e+00
 -3.3497524e-01
 -9.9150133e-01
  1.3365803e+00
  3.3482552e-01
  3.5551466e-02
 -5.0139952e-01
  3.4701366e-02
  1.7646290e-01
  1.6192734e-01
  4.5808452e-01
  2.1965668e-01
 -5.9972095e-01
 -1.8446085e-01
  1.1975727e+00
  6.5159327e-01
  2.6623692e-02
 -2.0873472e-01
 -5.6063753e-02
 -3.4266728e-01
  7.8303730e-01
  1.8807335e-02
  1.0323302e+00
 -4.3900692e-01
 -1.2680910e+00
  7.2283298e-01
  3.9577018e-04
  5.4569691e-02
  6.6500586e-01
  5.7239199e-01
  2.3560596e-01
 -4.0632093e-01
  6.7196183e-02
  1.5054187e-01
 -1.2715624e-01
 -1.0182501e-01
  9.2126720e-02
  1.1675242e-01
 -5.3516132e-01
  1.2031088e-01
  1.5818129e-01
 -2.7793880e+00
 -3.1267614e+00
  9.8804343e-01
  6.7995995e-01
  1.7898958e+00
 -2.7732019e+00
  2.4187958e-02
 -1.2002356e+00
 -1.6470495e-01
  7.7231985e-01
 -1.4484837e+00
 -1.9976728e-01
  3.2094084e-02
  2.6602248e-02
  8.1661940e-01
  1.7158217e+00
  9.7137851e-01
 -1.0067904e+00
 -2.0714384e-01
  1.1719115e-01
 -2.2800858e-01
 -1.6564162e-01
  2.0878930e-01
  1.4150763e+00
  1.1167874e+00
  1.8552497e-01
  6.9983733e-01
  2.8306296e+00
  9.3639553e-01
 -4.6745950e-01
  1.6801393e+00
  3.3266485e-02
 -1.1146563e+00
  5.4252528e-02
  1.0117897e+00
  3.5280397e+00
 -4.2148713e-02
  2.3861705e-01
 -6.6764057e-02
 -1.1209229e-02
 -5.8831829e-01
 -2.3114042e-01
  9.5597349e-02
 -1.2162353e-01
  3.2095167e-01
  3.2610927e-02
  3.0992789e+00
  1.0451920e+00
  1.5660599e+00
 -2.2737518e-01
 -9.2239636e-01
  2.8083840e-01
 -4.7715402e-01
  3.0857265e+00
 -2.8168908e-01
 -5.8740449e-01
  1.6582404e+00
 -7.8262371e-01
 -4.2999381e-01
 -1.9025366e-01
 -4.0021816e-01
 -1.3100718e+00
  4.4006541e-02
 -2.0878589e+00
 -1.1837584e+00
 -7.3083214e-02
 -1.1917704e+00
 -2.9798469e-02
 -2.5029153e-02
  3.2226554e-01
 -3.0047343e+00
  8.4944386e-03
  1.5960746e+00
 -1.6619565e+00
  1.8457996e+00
  5.9112042e-01
 -4.8045009e-02
 -4.7760096e-01
 -1.4518334e-01
  1.2040719e+00
  4.7022652e-02
  1.4928882e-01
  5.3582138e-01
  2.9559857e-01
 -1.0445154e-01
 -1.7648123e-02
 -7.6553769e-02
 -4.5959461e-01
  2.6660128e+00
  1.9090433e-01
 -2.8037817e+00
  1.1602744e-02
  3.3949125e-01
 -1.9149333e+00
  1.1853111e+00
  1.2341974e+00
 -3.0149370e-01
  1.1601151e+00
  1.5688102e+00
  3.9515018e-02
  1.4894193e+00
 -3.5565009e+00
  2.4811664e+00
 -6.6837925e-01
 -3.5754272e-01
  7.4003965e-01
  5.0505352e-01
 -6.2430805e-01
  2.0130303e+00
 -2.7899006e-01
 -3.7713960e-01
 -2.0133557e+00
  5.1457953e-01
  5.1075649e-02
  2.1334168e-01
  5.8509994e-01
  3.0506700e-01
  1.4776149e+00
  2.4691448e+00
  7.6046455e-01
 -5.5761144e-02
  2.6780960e-01
 -7.4182612e-01
  3.9528921e-01
 -1.2063038e-01
 -5.1873970e-01
  1.4173493e-01
  2.6494291e-01
 -9.6917140e-01
 -3.3758211e-01
  3.2561427e-01
 -1.6487856e-01
  1.2849066e+00
  8.6885899e-02
 -4.4212040e-01
  1.5461403e+00
 -1.1349019e+00
  2.9965010e+00
 -7.8527749e-01
  1.3617160e+00
 -8.2741529e-02
  2.3715866e-01
  1.3573209e-02
  1.1835058e-01
 -3.0148020e+00
 -9.8784685e-02
  8.8731247e-01
 -5.1822895e-01
  4.4563207e-01
 -1.3992545e-01
  3.0851535e-02
  3.3802614e+00
 -1.1567755e-01
  4.1377068e-01
 -8.7653913e-02
 -1.4547614e+00
  1.7646866e+00
 -2.7070984e-01
 -1.3597940e+00
  7.8911006e-01
  2.3009125e-02
 -8.8393348e-01
  2.9670686e-01
 -1.2386147e+00
 -5.4853056e-02
 -6.9428647e-01
 -2.4557564e-01
  3.9279934e-02
 -2.9299323e-02
  8.0415584e-02
  6.9133319e-02
  3.1682681e-02
  2.0732279e-01
  6.5246999e-02
  2.9742952e-02
  8.3139580e-01
  1.5322043e+00
  7.5736064e-01
 -1.2185160e-01
  6.9419408e-01
  2.1464899e+00
  4.6224508e-01
 -5.1901847e-01
  3.3648697e-01
  1.4383455e-01
 -5.4697812e-02
 -2.3216760e-01
 -1.1234859e+00
  9.5410591e-01
 -7.8238904e-02
 -3.0866058e+00
 -2.3118787e-01
 -4.2484215e-01
  8.0423814e-01
  1.8281977e-01
 -5.6226915e-01
  1.5871001e-02
 -1.3964416e+00
 -2.8266172e+00
 -8.6010391e-01
  3.0073261e-01
 -2.3257931e-01
 -9.1447210e-01
 -3.6947414e-01
 -1.3392262e+00
 -2.7311468e-01
 -6.5899909e-01
 -6.7320675e-01
  1.1676676e+00
 -6.4405382e-01
 -8.3545136e-01
 -2.6244663e-02
  1.2757266e-01
  6.2848866e-02
  1.7831081e-01
 -1.6566096e-01
  2.2446539e+00
  3.9945260e-01
  8.5232809e-02
  2.3736162e-01
 -5.5792582e-01
 -6.6265136e-01
  2.0561868e-01
 -1.0336027e+00
 -1.6036524e+00
 -3.4316809e+00
 -7.3413450e-01
  1.1929532e-01
 -4.6992937e-01
 -3.6024910e-01
  1.3991596e+00
 -1.5199140e-01
  1.1019795e+00
  4.3640812e-03
 -2.2172067e-01
  6.4617075e-02
  1.0761793e+00
  7.5847679e-01
  9.6346223e-01
 -5.9462845e-01
  1.7843392e-01
 -1.8833815e-01
 -1.1480291e-01
 -1.2432960e-01
  9.5002092e-02
  7.8067797e-01
  4.4618794e-01
 -1.0118388e+00
 -8.1196713e-01
  2.2511341e-02
  1.4176157e+00
  1.3664898e-01
 -3.4725338e-01
  1.9932196e+00
 -6.9944717e-02
 -9.7576886e-01
 -5.7067901e-01
 -1.7965719e+00
 -3.5837924e-01
 -2.4415918e-01
  9.2495739e-02
  1.7066541e-01
 -2.5838545e-01
  3.0140455e+00
 -3.3203283e-01
 -9.9351317e-02
  2.7631029e-01
  1.2841635e+00
 -4.1450220e-01
 -3.8386643e-01
 -6.4693737e-01
 -1.3240696e+00
  8.3241087e-01
 -1.2085129e-01
  3.6837801e-02
  7.4522716e-01
 -9.4091922e-01
  1.1348990e+00
 -1.9238247e-02
  3.2947516e-01
 -3.8711986e-01
  2.2626731e+00
  4.2509249e-01
  1.0961977e-01
  1.1480225e+00
  2.1297164e+00
  2.9174044e+00
 -2.4124944e+00
  1.3285604e+00
  2.4114330e+00
 -1.8597180e-01
 -1.6201568e-01
  6.4652205e-01
  3.0637794e+00
  3.2463923e-01
  1.7003460e+00
  1.8310907e+00
 -6.2600070e-01
  1.2932259e+00
 -1.1796055e-01
  1.1879308e-01
 -2.0795083e-01
 -5.3033668e-01
  5.1508327e-03
 -9.5438575e-03
  3.3382457e-01
 -4.6207719e-02
 -4.7968429e-02
 -1.6911851e+00
  9.4861364e-01
  1.4910932e+00
  1.1717626e-01
  1.6868738e+00
  3.9518270e-01
 -8.5625333e-01
  4.7328791e-01
 -1.7331250e+00
 -6.5466446e-01
  4.8148093e-01
  1.0748891e-02
  5.4350650e-01
  2.2887133e-02
 -1.6975124e-01
  9.4391368e-03
 -2.5195292e-01
  2.0176630e-01
  9.3057148e-02
  3.3234553e-03
  3.1538340e-01
  1.5104175e-01
 -1.0731938e-01
  7.0241773e-01
  2.1055488e-02
  1.2196181e-03
  1.1083708e-01
 -6.0349345e-01
  5.7352728e-01
 -4.3608254e-01
  1.9021399e-02
  1.1159454e-01
 -1.0259317e-01
  5.2711678e-01
  1.6248544e+00
 -8.6630031e-02
  3.4397706e-02
 -1.0685906e-01
  5.6200128e-02
 -4.7676716e-02
  3.4189111e-01
 -3.3396575e-01
 -1.3315791e-01
  5.3913325e-01
  3.7465230e-02
 -3.6327049e-02
 -9.6885845e-02
  9.8744340e-02
  3.1806907e-01
  4.7368579e-02
  2.8454352e-02
 -1.7804635e-01
 -8.8422522e-02
  9.7336441e-02
  4.7921723e-01
  2.1312520e-02
 -1.5647124e-02
  6.2034744e-01
  2.5686376e-02
  3.5835143e-02
  1.0590596e-01
 -9.2221051e-04
 -1.4172153e-01
  7.1351245e-02
 -5.1047653e-02
  4.9608024e-03
 -1.8358304e-01
  5.5043962e-02
 -3.4156322e-01
 -1.3040164e-01
 -1.0151584e-01
 -3.1271419e-03
 -1.3741256e-01
  7.3566154e-02
  7.4703194e-02
 -1.9342186e-01
  1.0470217e-02
  1.9206678e-02
 -2.2872319e-02
  6.4168841e-02
  2.7316290e-01
 -9.6348204e-02
 -1.3815303e-01
 -1.0067427e-01
 -7.6954111e-02
 -1.1030972e-01
  1.5582721e-01
 -5.7120834e-02
 -3.9567156e-03
  2.5176480e-02
  1.1974953e-01
 -4.1925287e-01
  2.8703353e-01
  1.3109329e-01
  4.7988471e-02
 -3.3381382e-01
 -1.2204573e-02
  1.4068925e-01
 -9.4559312e-02
 -9.8670624e-02
  2.5048826e-02
  1.3710755e-01
 -3.8915996e-02
  1.8424493e-01
 -3.2437846e-02
  1.0195490e+00
  1.8749231e-01
 -1.3542052e-01
  7.5202465e-02
  2.6903317e+00
 -1.4973876e-01
  1.0251267e-01
 -1.8829304e-01
 -1.7812084e-02
  9.4080143e-02
 -3.5485938e-02
  7.3203051e-01
  1.2180676e-01
  8.5557595e-02
 -3.5390768e-02
  1.4179800e-01
 -2.0682363e-01
  2.1191012e-02
  4.0635678e-01
 -6.1234303e-02
 -1.1980819e-01
  4.1210565e-01
  9.3665481e-02
  6.0881093e-02
  6.9333412e-02
 -4.3467514e-02
  1.3943967e+00
 -1.2522751e-01
  1.8794633e-01
  4.2183098e-01
 -9.0485430e-01
  1.1011640e+00
 -9.5594805e-01
 -5.8598804e-01
  7.7448678e-01
 -7.3968858e-01
  2.2728125e-02
 -6.1888665e-01
 -1.9265538e-01
 -6.0387069e-01
  6.3268334e-01
  4.0615332e-01
 -1.7271858e+00
  1.4531463e+00
  3.2362118e-02
  7.2733086e-01
  9.7339809e-01
 -1.1446463e-01
  3.3745561e-03
 -1.1732996e-02
 -1.6247903e+00
  4.2069584e-02
  3.2049531e-01
 -2.6602621e+00
 -7.4920088e-02
 -1.6701593e+00
  1.3774203e-01
  2.0529211e+00
  1.1927795e+00
 -2.1733503e-01
 -3.1925142e-02
  1.1052626e+00
 -1.7805529e-01
 -2.3769623e-01
  5.4251470e-02
  5.0508755e-01
 -6.3293502e-03
 -1.3262632e-01
 -1.0823600e-02
  2.6299303e-02
 -1.0940599e-01
  1.1524934e+00
  9.1334328e-02
  6.2255297e-02
 -9.0057053e-02
  7.9333410e-03
 -2.6197215e-03
 -8.8220142e-02
  1.8008761e-02
  3.4012325e-02
  3.5579234e-02
 -1.4070904e-01
 -4.7695488e-03
 -2.8947255e-02
  8.9758947e-02
 -1.8301822e-01
  1.4093982e-01
  4.6742502e-01
 -1.9399820e-01
 -2.6107219e-01
 -2.7684003e-02
  1.1598445e-01
 -4.1167524e-01
  8.6244784e-02
  7.9566531e-02
 -9.2654057e-02
 -5.0485861e-03
  3.6737794e-01
 -1.6088839e-01
  7.5965874e-02
 -1.4814323e-01
 -1.8659294e-01
  1.6771616e-01
 -5.0047803e-01
  1.7040306e-01
  7.2435200e-02
  1.2546688e-01
 -2.4273656e-01
 -5.4075908e-02
  1.7840679e-01
 -1.2168351e-01
 -1.0389271e-02
  7.0043921e-02
  7.4940398e-02
 -1.4811995e+00
  5.8350199e-01
  5.0482792e-01
  5.5598164e-01
 -1.7396330e+00
 -3.9653208e+00
  3.6092585e-01
 -5.7039756e-01
  1.1455922e+00
  4.1521430e-01
  2.5899472e-02
 -1.3701402e+00
 -1.1546319e-01
  3.7330949e+00
  8.5273132e-02
  2.1494484e-02
 -2.9327471e-03
  2.2402006e-01
 -1.9256732e-01
 -3.7878215e-01
  1.7168563e-02
  5.5349868e-02
  3.0738741e-01
  8.2806915e-02
  5.8542752e-01
  2.9813850e-01
  2.0644042e+00
  7.1264791e-01
  1.5122958e+00
  1.7888518e-02
  4.1244334e-01
  7.2457188e-01
 -1.1006708e-02
  1.9020277e+00
  7.1762996e-03
 -2.8411734e-01
  1.2085445e-01
 -5.1992744e-02
 -1.3580003e-01
 -3.1322673e-02
  5.1544495e-02
  1.2993082e-01
  2.1803412e+00
 -1.0725649e-01
 -1.0426071e-01
  1.6734982e+00
  4.7992191e-01
 -1.8538229e-01
 -1.2127905e-01
 -1.0560762e+00
 -1.9438187e-02
 -1.1028300e-02
  1.2542021e-01
  6.2296230e-01
  6.2087957e-02
  1.9744396e-01
 -2.1646085e-01
  1.4228420e-02
 -4.8109405e-02
  3.8558409e-01
 -1.2276054e-01
 -3.1501204e-01
  2.4492042e-01
 -1.7032497e-01
  5.2834505e-01
  3.7108619e-02
  1.1382756e-01
 -1.9388492e-01
  1.1665353e-01
  2.0852059e-01
 -1.6443658e-01
  6.2859915e-02
 -6.7082178e-03
 -5.5546839e-02
  1.2958650e-01
 -1.6983157e-01
  3.3139605e-02
 -7.1175218e-02
 -3.1224594e-02
  3.5501757e-01
  9.1713957e-02
 -1.8095405e-01
 -1.1135557e+00
 -1.5688017e-02
  5.9374996e-02
 -2.6179749e-01
 -1.0120682e+00
  2.8486263e-02
 -2.6983958e-01
 -1.0820254e-01
  1.3591549e-01
  6.5874010e-01
  2.7247244e-01
 -2.0934176e-01
 -1.8984196e-01
 -2.4236143e-01
  8.3335668e-02
  7.4347574e-03
 -7.4733078e-02
 -2.9528869e-02
 -2.2703297e-01
  7.2002277e-02
  4.1504782e-01
  2.9255068e-02
  3.6143631e-02
 -3.4684077e-02
 -7.8723259e-02
 -7.2391783e-03
 -6.6306077e-02
  1.3775929e-02
  1.8372606e-01
  1.8276386e-01
  3.6651339e-02
 -7.6871157e-02
 -7.9627417e-02
  1.0580557e-01
 -4.1249137e-02
 -1.6856380e-02
 -1.2204242e-01
 -1.1108430e-01
  3.0178589e-01
  1.0469028e-01
 -8.7608516e-02
 -2.8817180e-01
  7.9649851e-02
 -1.9571072e-01
 -9.2525832e-02
  8.0437161e-02
 -5.9101567e-02
 -2.0110024e-02
 -6.5638557e-02
  2.9615752e-02
 -1.8217859e+00
 -5.5561829e-01
 -3.9169887e-01
 -2.7309358e-01
  1.2224422e+00
 -4.8026100e-02
 -4.9609041e-01
 -1.0845662e-01
  1.9509424e-01
  1.3864376e-01
  1.8600112e-01
 -1.6250447e+00
 -1.3604649e+00
  1.3232558e+00
  3.1531043e-03
  5.0202078e-01
 -1.7493992e-01
 -4.9501203e-02
 -8.9098185e-02
 -6.9365728e-01
  7.7879196e-01
  1.9186040e+00
 -9.4778992e-02
  1.4693585e-01
 -2.4532928e-01
  1.1491163e+00
 -8.4087986e-01
  4.2341415e-02
  1.5976505e+00
  1.4411184e-01
 -1.4392832e-02
 -1.1492672e-01
 -1.0467701e-01
  1.6088331e+00
  1.2526151e+00
  1.4021325e+00
 -5.9757747e-02
 -1.1950848e-01
 -1.3603336e-02
  5.6475323e-01
  8.9527301e-02
  3.0476293e-02
  1.8427128e-01
 -2.8221264e-01
 -9.6866852e-03
 -3.2453617e-01
  1.0799792e-01
 -1.6849522e-01
  2.0031091e-02
  6.0706194e-02
 -2.0836825e-02
  3.2978870e-02
 -5.9328862e-03
 -1.4186935e-01
  1.8308392e-02
  1.5258612e-01
  7.0971344e-03
 -4.3093306e-01
 -7.6065712e-02
 -1.3057332e-01
  1.8252209e-03
 -1.2524012e-01
  2.0232199e-01
  4.0474772e-02
  1.4828055e-01
  2.4604704e-02
 -1.1505486e-02
  3.0353539e-02
 -6.6424891e-02
 -2.7556565e-01
 -2.6388538e-01
 -1.1040676e-01
 -5.0369442e-02
 -3.3920157e-01
  1.1878695e-01
 -2.0504455e-01
  1.0947080e-01
  1.3901937e-01
  1.6256091e-01
  1.1160704e-02
  2.6282328e-01
  5.1961675e-02
 -7.5918660e-02
  8.6009808e-02
  8.8915296e-02
 -3.6761326e-01
  2.5663772e-01
  4.8236255e-02
 -8.5184854e-01
  1.3705708e+00
  1.3690486e+00
 -1.5666510e+00
  9.9915916e-01
 -6.2545121e-01
 -7.5502843e-01
  4.6330163e-01
 -8.5378325e-01
  1.3208235e-02
 -1.8737066e+00
  2.2496054e+00
 -1.0514344e-01
 -2.7212381e+00
  4.5245495e+00
  1.5281905e+00
 -1.9841790e-01
 -3.8893201e+00
  2.5287306e+00
  4.1781661e-01
 -3.2175407e-01
 -1.3610250e+00
  4.2033219e+00
  5.5591118e-01
  6.5800852e-01
  7.0332706e-01
  8.0593336e-01
 -5.9306726e-02
  4.1298192e-02
 -1.2954502e+00
  2.2064447e+00
  2.6271415e+00
  1.3544254e+00
  5.8226027e-02
 -6.0835338e-01
 -9.5579427e-01
 -2.7174292e+00
  3.3611113e-01
  1.6739459e-01
 -4.1871190e-01
 -7.4267197e-01
  1.6284009e+00
  8.8159017e-02
 -4.7122517e-01
 -5.3242125e-02
  1.6798080e+00
  6.7515105e-02
  3.1739211e-01
  6.2005591e-02
 -8.8231713e-01
 -1.5582325e-01
  1.7493416e-01
 -4.3214431e-01
  3.8835025e-01
  3.2110219e-03
 -2.5732266e-02
  1.4481018e-01
  9.8045558e-02
 -2.0197921e-01
 -6.0387664e-03
 -3.2213426e-01
  1.5093118e-01
 -3.7303001e-02
 -2.6550530e-02
 -1.2532502e-01
 -1.4896117e-01
  1.6812637e-01
  7.1936347e-02
  1.9082425e-02
  1.6452532e-01
 -3.3597645e-01
  1.0985582e-01
 -9.0062320e-01
  1.1604289e+00
  1.6900390e-01
  2.7043504e-01
 -9.4357783e-01
 -5.3332680e-01
  1.0394108e-01
 -2.3941439e-02
  3.2831311e-02
  2.1271344e-02
 -2.7177146e-01
 -2.1402985e-01
  1.8928695e-01
 -1.3486521e-01
  1.9967943e-01
 -5.3174037e-02
 -1.7117488e-01
  1.1195108e+00
  8.2898783e-03
 -4.5237727e-02
 -2.9066181e-01
 -2.2374637e-01
  6.5742232e-02
 -2.5879410e-01
 -1.0960282e+00
  2.5625128e-01
 -1.1295857e+00
 -3.3063674e-01
 -1.0705295e-01
  6.1604131e-02
 -2.4118076e-01
 -5.1773190e-01
 -9.8912194e-02
  1.5569410e-01
 -3.6955708e-01
 -1.4032748e-01
  5.8896851e-02
  3.2983088e-01
 -8.6943701e-02
 -8.8842076e-01
 -2.3267575e-02
  5.5085009e-01
 -1.5779671e-01
  5.1791050e-02
 -1.8075962e+00
  1.8922764e-01
 -9.2288814e-02
 -3.4207416e+00
 -1.2737019e-01
  6.4102530e-01
  1.2001609e-01
 -3.6046281e-02
 -8.0583729e-03
 -1.6771483e-01
 -7.2713055e-02
 -1.0586066e-01
  1.9514085e-01
 -1.3720733e-01
 -2.0707415e-01
 -5.4693092e-02
 -9.6366927e-04
 -2.8900878e+00
 -1.1398554e+00
  6.5519053e-01
  6.9127613e-01
  9.4450641e-01
  1.4755567e+00
  1.3388295e+00
 -2.4288187e+00
  6.1227453e-01
 -8.0320758e-01
  6.0759936e-02
 -2.2345974e+00
 -1.8104075e-01
 -1.6828349e-01
 -3.1449625e+00
  6.7029536e-02
 -4.0900517e-01
  2.1215950e-01
 -1.4911721e+00
  9.1593653e-02
  7.3890641e-02
 -3.9493954e+00
 -8.2930684e-02
  2.1678369e+00
  9.1330349e-01
 -9.4491765e-03
 -6.3215601e-01
  5.4919057e-02
 -4.4506035e+00
 -6.2710233e-02
 -1.0179098e-01
  9.8439628e-01
  5.3419638e-01
  1.3189061e+00
  1.3684973e-01
 -4.0096374e+00
 -3.0277032e-01
 -1.7090878e-01
 -3.8573027e-02
 -9.0075836e-02
 -2.4698317e-02
  1.2243192e-01
 -4.3933215e-03
  1.8027966e-01
  7.9878591e-02
  1.4097028e+00
  1.4817866e+00
 -6.4662623e-01
  1.3432622e+00
  1.9846205e+00
  4.7329307e-01
  1.5634888e-01
 -2.5128937e-01
  4.8498517e-01
  1.8281741e+00
 -2.2292256e-01
  2.4184696e-02
 -9.7030133e-01
 -4.2614242e-01
 -2.0255218e+00
  6.5763615e-02
  4.7747871e-01
 -3.8226865e-02
  6.8763550e-03
 -3.7290670e-02
 -3.0017719e-01
 -4.8309076e-01
  1.3248408e-01
 -4.3508682e-01
  2.6253374e-02
  1.8420701e-01
 -5.2175671e-01
 -2.0761423e-01
 -8.0877386e-02
 -6.2923133e-01
  5.5361384e-01
 -1.0023607e-01
 -5.2650750e-01
 -9.2143601e-01
  2.9902062e-03
  2.5915453e+00
 -2.6142415e-01
 -3.3445004e-01
  8.2784723e-03
  1.7368245e-01
 -5.2491017e-02
 -7.2574541e-02
  1.6184586e+00
  2.8347127e+00
  3.1460376e+00
 -2.7965274e+00
 -5.1747507e-01
 -9.5310307e-01
  5.2539152e-01
 -1.3039491e-02
  8.8957846e-01
 -1.1089323e-01
 -1.5793128e+00
  8.3612776e-01
 -2.4169721e-03
 -1.0122123e+00
  1.4137663e-02
 -2.7087718e-01
  1.4407185e-01
 -1.0088692e+00
  5.7081950e-01
  6.7976691e-02
  3.5270351e-01
 -2.6630059e-01
  1.2476109e+00
 -7.3650998e-01
 -3.4221357e-01
 -9.4080016e-02
  3.8283087e-02
  6.3049048e-01
  9.3475181e-01
  1.2922816e-01
  7.5719965e-01
 -5.2770555e-01
  7.6875435e-03
  1.5427944e-01
 -3.0276446e+00
 -2.2563083e+00
  1.5846514e+00
  3.7788182e-01
 -2.7211383e-01
 -2.4476977e-01
  1.2721224e-01
 -1.9926983e-01
  2.3695339e-01
 -3.9414737e-01
  5.1630240e-02
 -3.0277687e-01
  5.4958160e-03
  7.9987988e-02
 -1.0580525e-01
 -1.7505933e-01
 -1.2941669e-01
  4.4485582e-03
 -2.5408737e-02
  7.6439828e-02
  6.7781046e-02
 -1.5976521e-01
 -2.0411916e-01
 -1.2137160e-01
  6.5533692e-01
  7.2619498e-01
  8.5461698e-02
  1.0180769e-01
 -1.3551097e-02
  3.0132728e-02
  2.6365258e-02
 -3.0529547e-01
 -3.6276810e-02
 -4.2840451e-02
  7.1522877e-02
 -6.2935151e-02
 -7.9778105e-02
  4.7170188e-02
 -1.8084189e-01
  9.6496306e-03
 -8.4750915e-01
 -9.4544351e-02
 -4.1438069e-02
 -1.0239794e-01
 -6.4156987e-03
 -9.2450909e-02
  3.2721646e-02
 -7.2345801e-02
  6.2860757e-02
 -1.8044342e-01
  3.9392136e-02
 -6.3613892e-02
 -1.6619968e-01
  1.6386573e-01
  8.8636291e-01
 -1.3450149e+00
 -1.4704463e+00
  2.5253243e+00
 -2.9567316e+00
 -3.0388203e-01
  9.1813672e-01
 -1.4084988e+00
  2.1853540e+00
  1.3080979e-02
 -2.4266515e+00
  6.0956746e-01
  6.7258704e-01
  8.8563532e-02
 -4.1522205e-02
  3.4750310e-01
 -1.5347706e-01
 -7.7901483e-01
 -2.8930449e-01
 -7.3885238e-01
 -5.0293040e-01
 -2.4926715e+00
  7.4491590e-02
 -8.3037272e-02
  7.0382917e-01
  1.0456004e+00
 -8.4852010e-01
 -4.9393845e-01
 -2.5560920e+00
  1.2128469e-01
 -4.2004571e+00
 -1.3517804e-01
  3.0882093e-01
  1.4542077e-01
 -9.1971058e-01
 -3.0698445e+00
  5.7004333e-02
 -4.9319379e-02
 -5.2101284e-02
 -1.2298677e-02
  2.2483099e-02
  8.1379404e-03
 -3.8158634e-01
  1.8407544e-02
  1.2571869e+00
 -1.3370280e+00
 -5.1321077e-01
 -1.6287819e+00
  7.2120142e-01
 -5.0198679e+00
 -6.6753793e-01
 -3.6339438e-01
  2.9824767e+00
 -4.2475238e-01
  1.1542602e+00
  1.6039711e-01
 -3.5651404e-01
 -1.2261289e+00
  3.1171260e-02
 -9.8460011e-02
  9.6469051e-01
  1.2140379e+00
  2.5841378e-02
  4.5739374e-01
  2.2597911e+00
  4.7259173e-01
 -6.7119844e-02
  1.7361765e+00
 -6.0937357e-01
  5.2708216e-02
  9.5451362e-03
  1.7475137e+00
  2.4851999e+00
  1.5273635e+00
  3.7989759e-01
  2.2032435e-01
  1.5525889e-01
 -8.5690385e-01
 -2.9167622e-01
  2.3430693e+00
 -3.7029247e+00
 -4.4176304e-01
  1.3269538e-01
  5.4242158e-01
  3.4558028e-01
 -6.6068125e-01
 -1.0726638e-01
  1.7156351e-02
 -2.1605864e-01
  2.8009105e+00
 -7.0166647e-01
 -2.3125772e+00
 -1.8479187e+00
 -1.7925155e+00
 -1.5216656e+00
  2.1759050e+00
  3.5311828e+00
 -3.1592688e-01
 -6.0692614e-01
  1.3297206e-01
  6.8482524e-01
 -7.9822361e-01
  1.4521353e+00
  1.9601752e+00
  1.6138662e-01
 -2.3377491e-02
 -2.1443157e-01
  7.5696582e-01
 -6.5880224e-02
  1.4728345e+00
  1.6268840e-01
  4.3648326e-01
 -8.3405256e-01
 -1.5894543e-02
  6.4319187e-01
 -3.2125127e-01
  6.0455954e-01
  2.0824438e-01
  1.2672260e+00
  1.8469596e+00
  1.6234149e-03
  1.0758314e-01
  1.4683251e+00
  8.7077045e-01
  1.2223900e-01
  4.2880756e-01
  4.6620090e-02
  9.9412918e-02
  3.3992323e-01
 -1.9372378e-01
 -1.4586267e-01
 -2.0407464e-02
 -8.5351634e-01
 -1.2812846e+00
  6.9959961e-02
 -2.6985738e+00
 -5.3245074e-01
 -2.4382195e+00
  3.7139323e-01
  4.9186972e-01
 -6.6494632e-01
  8.1564873e-02
 -1.1496896e+00
  7.1759063e-01
 -1.2452056e+00
  1.7459796e-01
 -3.6774078e-01
 -6.3160354e-01
 -9.7740322e-02
  1.3480123e+00
  9.7434402e-01
 -6.2614065e-01
  2.5710195e-01
  1.3542017e+00
  5.0745118e-01
  5.8289808e-01
 -5.0069910e-01
  9.0464838e-02
 -1.8353336e+00
  8.1583124e-01
  9.3082029e-01
 -3.1841451e-01
  1.2139227e+00
  1.4327143e-01
  1.2021949e+00
 -1.9672897e+00
 -1.3886138e+00
 -3.3954542e-02
 -2.1301648e-01
  2.6354727e-01
  1.6080643e-01
  2.9609883e-03
 -6.4688951e-01
  3.2957456e-01
  2.1034771e-01
  8.9944400e-02
 -4.9197695e-01
 -9.2605823e-01
 -3.4611113e-02
  8.1087208e-01
 -1.9099552e-03
 -1.7962611e+00
  3.1384599e-01
 -8.7207325e-02
 -1.2388982e-01
 -1.5977255e-01
  8.9497909e-02
 -3.9127958e-01
 -5.5827445e-01
 -1.5040204e-02
 -6.0703006e-02
  7.2046980e-02
 -8.8056266e-02
 -4.1003266e-01
 -2.8182045e-01
  1.9367422e-01
 -7.5412649e-01
 -2.5285687e-02
  9.0728253e-02
 -1.5430576e-01
 -8.7001160e-02
  4.2493958e-02
 -8.0436915e-02
  1.0202039e-01
  4.4796634e-01
  1.3047151e-01
 -3.4969342e-01
 -5.7638910e-02
  1.4051048e-01
  2.1963033e-01
 -2.1197081e-02
  8.6988710e-02
 -1.7565459e-01
  7.5725332e-02
 -8.5782722e-02
 -1.0577367e-01
  2.0573531e-01
 -8.5739985e-02
 -3.2888778e-02
 -2.0135944e-01
 -2.3407147e+00
 -4.3791988e-01
  2.7050650e+00
  1.8667708e-01
 -2.1546607e-01
 -3.7027416e-01
  3.7010841e-02
  3.2027945e-02
 -1.0333504e-01
 -4.5299047e-01
  9.8049268e-02
  1.7637751e-01
  2.8941929e-01
  6.8240777e-02
 -9.4942309e-02
  2.7822835e-02
  1.4101880e-02
  3.9084730e-01
 -5.7498414e-02
 -3.9375957e-02
  1.9787875e-01
  1.7843826e-01
  9.7696289e-02
 -7.2552882e-02
  1.3324469e-01
 -1.8151073e-01
  1.9570108e-01
  1.4300949e-02
 -2.8413332e-01
 -2.3303261e-01
  3.8746157e-01
  1.0884394e-01
  8.1700861e-02
  1.1578789e-01
 -5.6496108e-01
  5.5544388e-02
  9.9883266e-02
  1.7514676e-01
  1.1584277e-01
  1.5047149e-02
 -1.4356002e-01
  1.2996797e-01
 -3.3956122e-02
 -1.8373008e-01
  2.9226217e-01
 -3.1093422e-02
  1.9178055e-01
 -2.2310495e-01
 -1.9600584e-01
  3.1561352e-02
 -1.8568292e-01
  1.7316183e-02
 -5.3651917e-01
  2.9352960e-01
  1.7010764e+00
 -3.2590428e-01
  1.3467835e-03
  4.9280342e-01
 -4.1547272e-02
 -3.5860094e-01
  2.5368324e-01
 -9.0153724e-02
  2.2473304e-01
 -1.8318128e-03
 -1.6743380e-01
  6.4925849e-02
  3.3432174e-02
 -1.6495232e-02
 -3.2697182e-02
 -4.8311215e-02
  3.7100848e-02
  1.6877833e-01
  8.7614185e-01
  7.3126726e-02
  7.7294484e-02
 -5.0019808e-02
  3.4552682e-02
 -3.3060083e-01
  1.5001297e-01
 -2.3521608e-01
  2.1809243e-02
 -1.9638318e-01
 -8.4363379e-02
 -7.8610539e-02
 -1.1408310e-01
  6.2619716e-02
 -3.1986287e-01
 -1.5763821e-01
  2.9090685e-01
  5.6112540e-01
 -4.0809748e-01
 -1.1820856e+00
 -3.5056421e-01
 -8.0746233e-01
 -7.8215677e-01
  6.0827631e-01
  4.4810943e-02
  4.8690009e+00
 -4.3394506e-02
  2.0612076e-01
 -1.7862916e-02
 -7.3896348e-01
  1.9293345e+00
  6.2278129e-02
  4.4469171e+00
  9.2674106e-01
  7.8278936e-02
  3.2719619e+00
 -1.7342441e+00
  3.0289287e-02
  5.0078273e-01
 -2.3410408e-02
  2.6998436e-01
 -6.8911862e-01
  9.3446273e-01
 -8.7797064e-01
 -2.5337009e+00
  3.9234114e-01
 -3.4468057e+00
 -3.6974186e-01
 -4.1001803e-01
  1.6779610e+00
  1.1531010e+00
  2.7147527e+00
  2.1199539e+00
  1.8432422e-01
  1.3819933e-01
 -1.6381988e-02
 -5.1009935e-01
 -8.9133412e-01
  4.0436336e-01
  4.2662378e-02
 -4.1369957e-01
  5.9059983e-01
  3.2959573e-02
 -3.1374797e-01
  1.7411865e-01
 -8.6573195e-03
 -2.7941442e-01
 -3.0664146e-02
 -3.9880387e-02
  1.3829975e-01
 -8.2502346e-03
  3.1191215e-01
 -7.9165071e-02
  1.7550877e-01
  5.7095520e-02
  7.4545246e-01
  1.8745203e-02
  5.2090399e-02
 -1.7685692e-01
  2.4635138e-02
 -3.4378913e-01
  3.2741547e-02
  2.1342143e-01
  2.9036325e-01
 -2.5713302e-02
 -8.2459226e-02
 -1.7376333e-02
  3.9228451e-01
  1.4217490e-02
  6.5678045e-02
  3.3721827e-02
 -1.0470130e+00
 -1.8587443e-01
 -1.5607391e-01
  3.7651338e-02
  6.1279114e-02
 -4.6371315e-02
  6.3859451e-01
  2.4377700e-02
 -3.0346900e-02
  2.5209926e-02
 -6.3298360e-02
 -1.1006518e-01
 -9.5081171e-03
 -2.0643862e-01
  7.7373046e-01
 -1.0318037e-01
 -1.9255875e-02
 -5.8186966e-01
 -1.4735186e-02
 -6.6050842e-02
  1.4561252e-01
 -3.1797874e-01
  2.7266499e-01
 -4.8921788e-01
 -7.2304779e-01
 -7.4479967e-01
  3.8413003e-01
 -9.9027537e-02
 -4.8845389e-01
  3.4296229e-02
  8.9421809e-02
 -6.4271793e-02
 -9.0820819e-02
  6.9042183e-02
 -1.5463416e-01
  1.8668376e-01
 -9.6946192e-01
 -6.2814265e-02
  5.5584982e-02
 -3.5149965e-02
 -1.3734065e-01
 -9.0507485e-02
  2.4785651e-01
 -3.3163011e-01
  2.1917498e-01
 -2.2131987e-01
 -5.1036146e-02
  5.1588100e-01
  1.8899225e-02
  5.5313639e-02
  2.8431258e-01
 -1.0896748e-02
 -6.5344363e-02
 -7.9655103e-02
 -8.6012110e-02
  1.2520543e-01
  2.7479926e-01
 -1.5310830e-01
  5.7884330e-01
  3.2451641e-02
 -5.2990955e-01
 -2.2469813e-02
  1.1414336e-01
  1.1671323e-01
  1.1833127e+00
 -7.7820852e-02
 -4.2470396e-02
 -1.1647385e-01
 -7.4639261e-01
 -2.7385029e-01
 -1.4104861e-01
  4.9090128e-02
  7.5655982e-02
  5.2661920e-01
  1.4470839e-02
 -1.1213533e+00
  7.2123818e-02
  4.0583692e-02
 -2.0257905e-01
  4.6977568e-02
 -2.5618315e-02
 -9.9907458e-02
 -1.3894539e-01
  1.0096855e-02
 -3.6812138e-02
 -3.5082750e+00
  3.6413714e-02
 -2.4329271e-02
  1.2345508e-01
 -1.0632966e-02
  5.4938710e-01
 -1.8245123e-02
  3.7752192e-02
  5.6615908e-02
 -4.6334192e-02
 -3.1083733e-01
 -4.6096593e-02
  8.5625604e-02
  1.4617960e-01
 -1.4341834e-01
 -5.4482352e-02
 -5.0517906e-02
  1.0278406e+00
  2.4667643e-01
  1.8327206e-01
 -7.9637818e-02
 -1.4373388e+00
 -7.0145088e-01
  9.8870434e-02
  7.1704936e-01
 -1.1676174e-01
 -6.2452193e-02
 -2.1857690e-02
  9.0384074e-02
  8.7682456e-01
 -4.6972729e-02
  6.7978388e-01
  2.8522501e-02
 -3.8031940e-03
  3.7006333e-02
  8.3877429e-02
  3.0558974e-02
 -4.8423266e-01
  1.4234987e-01
 -7.7502981e-02
 -2.3637233e-02
 -1.7087917e-01
 -2.5625929e-01
 -6.2483024e-02
 -3.7580711e-01
  1.7702459e-01
 -3.2444485e-02
 -1.8532605e-01
  7.3437977e-01
  4.1431516e-02
 -1.5892737e-01
 -5.8160561e-01
 -3.5384151e-01
  1.5010752e-01
  8.1409201e-02
 -1.2387447e-01
 -6.8576932e-02
 -1.8702735e-01
 -1.1707367e-02
 -1.4480963e+00
  5.9149176e-01
  9.9334294e-01
 -1.1721256e+00
 -2.3364882e+00
 -6.7136592e-01
 -1.4864300e+00
 -2.5634577e+00
  1.7804016e-01
  2.4761024e+00
  6.1206087e-02
  2.0975983e+00
 -5.0219172e-01
 -8.7868934e-03
 -2.5936541e-01
 -1.4614722e-01
 -1.1501634e-02
  4.6708003e-01
  1.8617885e+00
 -5.5897725e-03
  1.3353188e-02
  1.2520885e-01
 -3.2910410e-02
  1.2676986e-01
  1.4085709e-01
  7.2737640e-01
 -2.7390286e-01
  6.8845034e-02
 -1.1046964e-01
  1.0860663e-01
 -2.2961743e-01
  9.5075600e-02
  2.7110931e-01
 -2.6614881e-01
  2.8833233e-02
  1.5035252e-01
 -3.5213903e-01
 -1.6889839e-01
  1.7033277e-01
 -8.1060259e-03
  9.6976317e-02
  1.1938010e-01
 -7.5993404e-02
 -9.4640672e-02
 -4.6383563e-02
  5.5499393e-03
 -1.5035230e-01
 -7.2417739e-03
  4.1263796e-02
  1.0311698e-01
  9.8394603e-03
 -1.5599725e-01
 -4.7975186e-02
  2.5486660e-01
 -9.8113485e-02
 -2.8260013e-01
 -9.7779728e-02
 -2.3138689e-01
 -5.8092736e-02
  4.3932885e-02
 -1.1255194e-01
  9.3698420e-02
 -3.9171007e-01
  2.8859768e-02
 -1.6389802e+00
  4.8099768e-01
 -1.6809033e-01
 -8.1130832e-01
  5.1060714e-02
 -2.3966491e-01
  7.5235844e-02
  3.3515852e-02
 -3.4574259e-02
  9.7385734e-02
  1.3851163e-01
  8.4187418e-02
  1.1811435e-01
  7.8952573e-03
  8.2624443e-02
 -6.0103253e-02
  5.7358827e-02
 -7.2650827e-02
 -1.1690697e-01
 -7.0625797e-02
 -2.6183449e-02
  2.1099931e-01
 -5.3178251e-02
  3.2714701e-01
 -5.8106169e-02
  2.9997671e-01
 -4.3119735e-01
 -2.1222450e-01
 -6.1147207e-01
 -3.2395322e-02
 -9.7801185e-01
 -1.0738941e+00
  4.7658956e-01
  1.2117548e-01
  1.8494718e-01
 -8.0668822e-02
  1.4969137e+00
 -8.9795130e-01
  1.1210977e+00
 -2.1768043e+00
 -2.3586175e+00
 -2.0421066e+00
 -1.5889734e-01
  1.6702967e+00
 -1.4870352e+00
 -1.8747978e+00
 -2.4411571e+00
 -3.6050146e+00
 -1.2450111e+00
 -7.9594874e-01
 -1.0258340e+00
 -7.5447559e-01
 -9.7884029e-02
  1.7501833e+00
 -1.8759141e+00
 -1.2988323e+00
 -4.3947810e-01
  6.9894627e-02
 -1.0056840e+00
 -1.6404101e-01
  9.1196410e-02
 -8.7670434e-01
 -5.7601523e-01
  4.3508005e-01
  4.5092952e-01
 -2.1967322e-01
  8.6570889e-02
 -1.6759858e+00
 -2.7621165e-04
  1.0871594e+00
 -6.5157747e-01
 -4.5599452e-01
 -1.6869721e+00
  2.1555680e-01
  5.8753067e-01
 -6.1357129e-01
 -2.9613644e-02
 -9.5694149e-01
 -9.4924249e-02
  7.9998946e-01
  1.7459595e-01
  4.6544150e-02
 -7.9210415e-02
 -9.8125823e-03
 -2.4517251e-03
  1.9304906e-01
  2.3945245e-01
  3.1302765e-01
 -6.3880014e-01
  3.3978942e-01
 -6.7117527e-02
  3.0332473e-01
 -1.3815276e-01
  9.3554664e-01
 -3.4532651e-01
  9.1921061e-02
  2.7454186e-02
  8.1076920e-02
  6.0374582e-01
  1.3826786e+00
  8.2449609e-01
  4.8820412e-01
 -5.8846658e-01
 -1.7402335e+00
 -1.5310343e-01
  2.8556651e-01
 -3.3701530e-01
 -4.4283241e-02
  2.8385945e-02
 -1.1452924e-02
 -7.7399358e-02
  2.6569921e-01
  1.7209493e-02
  1.7625381e-01
  2.1152225e+00
  1.0512118e-01
 -7.8131074e-01
  2.1060574e-01
  2.1152136e+00
  2.9474392e+00
  2.1353743e+00
  8.7057728e-01
  1.0059441e-02
  1.9618775e-01
  5.8535856e-01
  1.1351938e+00
 -2.3978159e+00
  7.0790164e-02
  1.0841773e+00
 -4.2325816e-01
 -4.2931345e-01
 -3.1681758e-01
  1.0598882e-01
  9.0381569e-01
  4.7086671e-01
  1.7780890e-01
  1.1120529e-01
 -1.9448023e+00
  6.7856067e-01
  1.9197533e+00
 -2.7485344e-01
  3.7941949e+00
  1.0459221e-01
 -1.4363290e-01
  1.2902260e+00
 -1.7887129e+00
  6.1412916e-02
 -1.4604608e+00
  6.4649653e-01
  1.0825112e+00
 -1.1059670e-01
 -2.3397855e-02
 -7.0736818e-02
 -3.6368776e-02
 -1.9243213e+00
  3.4662145e-01
  2.2678686e-02
 -2.5527599e-01
 -5.7246518e-01
 -3.3346027e-01
  1.9157852e+00
 -1.0609066e+00
  4.2131755e-01
  1.5461749e+00
 -3.2840088e-01
  1.7815514e-01
  1.3526219e-02
  8.6333168e-01
 -1.0729320e+00
 -1.5118617e+00
 -2.3621909e-01
 -2.7498856e+00
  4.5548007e-01
  1.0836816e+00
  1.2758354e+00
  5.8792442e-01
 -3.2734661e+00
  3.7276835e+00
 -9.3100905e-01
 -1.5452673e+00
  2.0837897e-02
  1.2749549e+00
  1.2794657e+00
 -3.4221235e-01
  8.9866918e-01
  1.9719468e+00
 -7.2177237e-01
  4.4588247e-01
 -1.1964682e-01
  2.8155190e-01
  6.2145239e-01
 -3.8621966e-02
  5.2358890e-01
 -1.0246181e+00
 -3.3202713e+00
 -5.8816576e-01
  9.4362354e-01
  1.1228050e+00
 -4.1530023e+00
 -2.1819055e+00
  1.3028928e+00
  2.5713548e-01
 -1.5484874e-01
 -1.6191939e-01
  1.6112931e-02
  1.2990329e-01
 -1.1349285e-01
 -4.9222957e-02
  3.2391930e-03
 -2.9306749e-01
  5.5115122e-02
  2.1783777e-02
  1.0572537e-01
  4.8910367e-01
 -2.3717478e-01
  1.8889775e+00
 -1.4041843e+00
 -1.6107496e-02
 -2.4216591e-01
  1.5587501e-02
 -3.8715016e-02
 -3.5991102e-01
  1.6865264e+00
  6.3743614e-02
 -1.7278929e-01
  6.8843663e-02
  2.6721042e-02
  4.0203705e-02
  5.0593007e-02
  3.7257019e-02
 -5.6428716e-02
  5.2441981e-02
  2.0311637e-01
 -6.7559895e-03
 -3.1413662e-01
 -8.1243411e-02
  2.7064130e-02
  2.6363140e-01
 -2.2908017e-01
  4.4970442e-02
 -5.0077762e-02
  1.4411685e-01
  2.7536571e-02
  5.4440174e-02
 -3.9096019e-01
  5.8916122e-02
  5.1729333e-01
 -1.5724874e-01
  1.7606598e-01
 -1.3025700e-01
  9.7916889e-01
  1.0109749e-01
  1.6632970e-01
 -4.8838988e-02
  2.1782178e-01
  2.8607842e-02
  1.7075083e-01
 -6.1704718e-02
  9.9903591e-02
 -1.5712617e-01
  6.3058257e-02
  5.7819013e-02
 -4.4881672e-01
  1.0409646e-01
 -1.0487819e-01
 -5.6847250e-03
 -2.9758957e-01
 -3.5104957e-01
 -4.1708189e-01
 -8.6980611e-02
  1.2076851e-03
  1.1109446e-01
  1.8253012e-01
  4.0726267e-02
 -4.7726423e-02
 -9.0450719e-03
 -4.5250431e-02
  3.1631175e-02
  7.4471518e-02
  2.1076652e-01
  1.9783098e-01
  3.8100753e-02
  4.2382114e-02
  1.2536918e-01
  5.7560183e-02
 -6.3914075e-02
  1.5438263e-01
 -2.0189571e-01
 -1.8494785e-01
  6.8951696e-02
 -1.3774093e+00
 -1.8506004e+00
  3.0306500e-01
  1.8078429e-01
 -4.3423253e-01
  5.4622114e-01
 -9.5697802e-01
 -1.1041600e+00
  7.0824109e-02
 -1.0677404e-01
  1.0950297e+00
 -5.3532183e-01
 -2.1449458e-02
 -1.8643929e+00
  1.0339738e+00
  2.1518889e-01
  3.4109345e-01
  4.0634856e-02
 -5.4911596e-01
  3.4717321e-01
  5.5881119e-01
  2.4667095e-01
  1.7843040e+00
  2.5242226e+00
  2.2012921e-01
  1.8126009e+00
 -6.5560091e-01
  1.3701268e+00
 -1.9497551e+00
 -2.3585596e+00
 -6.8291569e-01
  4.3256679e-01
  1.6255859e+00
 -1.8903447e+00
  2.3645754e-01
 -1.3187379e-01
  1.6541834e-01
  3.1648979e-01
 -1.2432785e+00
  1.5335928e+00
 -8.2642728e-01
  8.6363129e-02
  1.6093967e+00
 -1.9386746e-02
  2.9223816e+00
  2.7804179e+00
 -2.2244577e-01
  1.5775889e+00
  1.3627218e+00
 -1.1509253e+00
 -1.6547537e+00
  8.0977917e-02
 -2.4947459e-01
  1.1548835e+00
 -6.1031014e-01
  2.0716066e+00
 -4.0457794e-01
  2.1986721e+00
  2.3569267e+00
  4.3389305e-01
  3.0742836e+00
  3.9326605e-01
 -1.0514870e+00
  6.2409453e-02
  2.5945332e+00
 -5.0264108e-01
  1.3005185e-01
 -3.5393398e+00
 -1.2394742e+00
  6.6161998e-02
 -6.8003821e-01
  3.4164926e-01
 -3.7148070e-02
 -1.0922008e+00
 -3.0722442e-01
 -8.0566370e-01
 -1.7326691e+00
  1.3242539e+00
  5.8895886e-01
 -2.8063781e+00
  2.2438115e-01
  5.6994420e-01
  1.4954184e+00
  1.5014368e+00
  2.0089853e+00
 -1.3180876e-01
 -9.1366798e-01
 -7.1811593e-01
 -2.2852187e-01
 -3.5395250e-01
 -1.5497036e+00
 -2.0592167e+00
  5.7990290e-04
 -1.0525184e+00
  4.3585930e+00
  1.3089776e+00
 -7.7826381e-01
 -5.2184623e-02
  1.7339185e-01
 -2.0315673e-02
 -1.4078505e-01
 -6.3935168e-02
  1.3426676e-02
  3.9682947e-03
 -6.0763504e-02
 -1.8784575e-01
  2.1397543e+00
  1.4079119e-01
 -9.9151701e-02
 -8.5045882e-02
 -1.6546052e+00
 -5.5183247e-02
  7.8764204e-03
  1.5878859e-01
  4.7533396e-01
 -1.5627894e-01
 -3.7396096e-02
 -5.1220518e-02
 -5.7756037e-01
 -3.3213678e-01
 -3.4472582e-01
  2.3152659e-02
  4.2118316e+00
 -1.8560235e-01
 -1.3841954e-01
  1.8604101e+00
  1.5069926e-01
 -4.5260239e-01
  3.1652626e-01
 -3.6738986e-01
 -1.8034187e-01
 -4.3189883e-01
  1.4653730e-01
 -4.1317520e-01
 -1.9652110e-01
  7.4370332e-02
 -6.9273827e-03
 -1.0011673e+00
 -6.1142576e-01
 -4.3400116e-02
  1.3917880e+00
  5.2539565e-02
  1.0152549e-01
  3.5195295e-02
 -2.7543962e-01
  4.8135161e-01
 -7.9735622e-02
  1.3245639e-01
 -1.0449575e+00
 -1.5142690e+00
  5.1462758e-01
  7.1066523e-01
 -9.9372581e-02
  9.4635856e-01
  8.2026237e-01
  2.2807777e-01
  2.2408102e+00
 -1.7167251e+00
 -2.1666245e-01
  5.1761401e-01
  4.2879267e+00
  2.8691450e-01
  4.0474784e-01
  1.4156951e-03
  1.5544659e-01
 -2.8555843e-01
 -2.5221198e-03
  5.2763897e-01
  1.1509534e-01
  2.0743977e-02
 -1.8240792e-01
 -7.6108137e-03
  7.5481695e-01
 -1.4593995e-01
 -9.4841063e-02
 -2.6063910e+00
 -5.2621841e-01
  2.6040661e-01
 -6.8998775e-03
  1.3496463e-01
 -4.0516627e-01
  7.1647930e-01
  1.4162157e+00
 -1.0057391e-01
  3.2738529e-02
  3.5465356e-02
  4.1228327e-01
  1.3265492e-01
 -1.4190850e-01
 -1.6591728e-02
  1.0014839e-01
  2.1765326e-01
 -2.1776345e-02
 -1.6532750e+00
  4.0216738e-01
  1.9192708e-01
 -1.6133846e+00
  8.1921406e-03
  3.5306979e-03
 -4.5473871e+00
  3.4924243e-02
  4.4173396e-01
 -4.3149513e-01
 -1.7953994e+00
 -1.7019349e-01
  3.9174953e+00
 -9.9644554e-01
 -1.4565387e+00
  6.0698066e-02
 -5.6346315e-03
  4.3838936e-01
  2.8905675e-02
 -4.9061441e-01
  3.2546708e-01
 -1.6774145e+00
  1.6593148e-01
  7.1189708e-01
 -9.3632728e-01
 -1.4045601e+00
  1.2739544e+00
 -1.0446903e+00
 -1.0674919e-01
  2.8479865e-02
 -3.5405329e-01
 -1.0741808e-02
  3.8624808e-02
 -2.8781204e-02
 -5.7414371e-01
  1.1569814e-01
  1.6443121e-01
 -3.1823638e-01
  2.3331746e-01
  1.8144776e+00
 -5.5937421e-02
 -9.3754208e-01
  1.0039660e-01
 -1.4427398e+00
 -3.2774490e-01
  1.3585812e+00
 -4.1200031e-02
  3.6563820e-01
  1.5850933e-01
 -1.2554415e-04
 -9.2916287e-02
  1.0969893e+00
  8.0560401e-02
  1.6464564e-01
  8.1491381e-02
  6.1998296e-01
 -1.2841264e+00
  5.5735379e-01
  1.1194085e+00
 -3.2741508e-01
  1.7912070e-01
 -1.0192645e-01
 -5.5562671e-02
  2.3380110e-01
 -1.2894376e-01
  9.3800381e-02
  2.5530851e-01
 -4.4807091e-01
  2.6029506e-01
  6.4792025e-01
  1.6272196e-01
 -2.1662734e-01
 -1.7959585e-02
 -6.8412477e-01
 -2.4453348e-01
  1.6659986e-02
 -2.1588935e-01
  6.6090316e-02
  9.9654846e-02
  7.0301667e-02
  3.5449225e-01
 -6.1302729e-02
  4.4414710e-02
  1.4126252e+00
  7.6096848e-02
  1.1078832e+00
 -4.6790816e-02
 -1.9306537e-02
 -2.2718123e-01
  1.1405413e+00
  1.7292641e+00
  1.8018501e+00
 -2.2110775e-01
 -7.4922428e-02
 -5.9018677e-01
 -1.3251795e-01
  1.7490062e-01
  1.2420338e-01
  6.3032145e-03
  6.0011861e-03
  1.7801488e-02
 -1.5420239e+00
 -2.8611574e+00
 -6.3798970e-01
 -1.9774760e-01
 -5.2954407e+00
  2.6078949e+00
  5.5159438e-01
 -2.3414563e-01
 -1.5005811e+00
 -1.4390036e-01
  3.8985634e-01
  6.8236426e-02
 -6.8026632e-02
  2.9165704e-02
  1.2635148e+00
  1.6818242e-01
 -4.7691420e-01
  1.8315488e-01
 -3.1666877e+00
 -8.9221710e-01
  1.0804597e+00
 -6.1399114e-01
 -3.8501915e-01
  2.0627366e-02
  1.8970941e-01
 -4.9843696e-01
  5.3757995e-01
 -6.0970169e-02
 -4.9517000e-01
  3.0685252e-02
  5.8819568e-01
 -2.2548299e-01
 -1.5160528e-01
  1.9260566e-01
  6.2048376e-01
  2.3134309e-01
 -1.7316142e-01
 -1.9594146e+00
 -1.8473728e+00
 -3.4707833e-02
  1.0753523e-01
 -2.9403526e-01
  4.2289305e-01
 -1.2446560e-02
  1.8684754e-02
  4.6720535e-01
  2.6834655e+00
  1.3862452e-01
  3.9502192e-01
  1.3548324e+00
  1.4712683e+00
  2.3484612e-01
  1.1967454e+00
 -7.3046643e-01
  2.2771668e+00
 -1.8129840e-02
 -1.0861114e+00
 -1.7042878e-01
  8.1457399e-02
  1.3119107e-01
  6.5137476e-02
 -3.7463877e-02
  1.4243935e-01
  4.0878378e-02
  1.7289307e+00
 -2.5019590e-02
  1.4191110e+00
 -6.3313460e-01
  2.8980389e+00
  1.0105354e+00
 -6.0622770e-01
 -7.2160852e-01
 -1.6827041e-01
 -1.1122890e-01
  4.2124239e-01
 -2.0905529e-01
  7.6843210e-02
  6.9654517e-02
  2.1793324e-01
  8.9573687e-01
  7.8942902e-02
 -1.1491451e-02
 -1.6938940e+00
 -4.4269100e-02
  1.3409986e-01
  2.3278944e+00
 -9.5651877e-01
 -1.1930317e-02
  2.7213761e-01
  8.3076898e-03
  9.1397506e-01
  9.8883316e-02
  1.9730805e-01
 -7.1761645e-02
  2.6461127e-01
 -1.9272475e-01
  2.3416685e-02
 -9.5468029e-02
 -1.0617177e+00
 -1.4986662e+00
  4.0442505e+00
  5.1816694e-02
 -3.3112532e-01
 -7.4981786e-02
 -4.6384704e-01
 -1.1377516e-01
 -6.0456894e-02
 -1.3358205e-02
  5.8140612e-01
  3.9908400e-01
  9.9528003e-01
 -4.5436555e-01
  5.2748885e-02
 -1.3893773e-01
 -4.4234437e-01
 -3.9421756e+00
 -5.4400349e-01
 -4.1247768e+00
  1.9298126e+00
  1.8050526e+00
 -3.2059915e+00
 -1.0942111e+00
  1.3715396e+00
 -4.3072425e-02
  6.2612407e-02
  6.3454054e-02
  1.6224259e+00
  8.1721753e-02
 -1.8721400e+00
 -4.0878019e-01
  6.7739964e-02
  2.3996015e+00
  2.4396429e+00
  5.1389802e-01
  2.8446370e-01
 -2.5501135e-01
  6.6370517e-01
  9.3168283e-01
  1.5484394e+00
 -1.3229531e-01
 -1.4762650e-01
 -8.5796095e-02
 -5.1997477e-01
 -6.6935152e-02
 -9.1950345e-01
 -8.6637087e-02
 -5.0438994e-01
 -4.3658906e-01
 -1.3703737e-01
 -1.9408286e-02
 -7.6202106e-01
 -3.8937632e-02
  6.2703853e-03
 -3.8033888e-01
  2.5863126e-02
  2.1215132e-02
  1.0219806e-01
  7.0704862e-02
  3.0489687e-02
 -2.5872943e-01
 -6.9861807e-02
 -5.6425564e-02
 -8.6191362e-01
  1.6801541e+00
 -6.2969953e-01
  1.7033941e-01
 -1.0680140e-02
  1.3495968e-01
  2.9830933e-01
  4.1019288e-01
  5.4843056e-01
  5.7276696e-02
 -6.8923406e-02
  5.1698011e-01
 -4.9140644e+00
  1.1320714e-01
 -4.2880941e-02
  2.1297298e-01
 -1.7965883e+00
  9.1144806e-01
 -2.5851307e+00
  1.0675267e+00
 -3.3519242e+00
 -2.6457124e+00
  1.2245709e+00
 -1.1384130e+00
  2.0936618e+00
  1.8196619e-01
  7.4560428e-01
  2.8987068e-01
 -9.1405213e-02
 -8.3114943e-03
 -7.5421774e-01
  2.3960955e-02
 -2.9945631e+00
  6.8069272e-02
 -2.4802725e+00
  2.5264840e+00
 -5.9526318e-01
  4.9020395e-01
  5.9690928e-01
 -1.8764620e+00
  4.8071575e-01
 -3.0421251e-01
  5.3409314e-01
 -1.0309711e-01
 -1.8069661e+00
 -2.7984250e-01
  4.0716776e-01
 -2.0692109e-01
 -2.0687814e+00
  8.4264851e-01
  1.2165568e+00
 -4.8922415e+00
 -4.5599775e+00
  1.1340120e-01
  5.2667731e-01
 -1.7560759e+00
 -2.7317297e-01
  3.3882382e+00
 -7.7637471e-02
  9.5448524e-02
 -1.7669413e+00
 -1.2780467e-02
 -3.7379291e-02
  2.7792677e-02
 -2.7705269e+00
 -1.3970168e+00
  6.2662452e-01
 -2.0468919e+00
 -8.0867422e-01
  1.4909073e+00
  7.4841249e-01
  4.0796437e+00
  3.2528783e-03
  2.1270135e-01
  1.1411393e-01
  2.8666189e-01
 -3.4694138e+00
 -3.7251767e-02
  2.9617665e-02
  5.5155061e-02
  1.2004407e-01
  3.7599039e-01
  4.5790872e-01
  2.6353808e-02
 -4.4129515e+00
  7.3864692e-01
  3.4012906e-02
  1.0114361e+00
  2.3314005e-01
 -1.3914301e-01
  1.1083122e-01
 -2.9006843e-03
 -1.1529100e+00
  2.0872627e-03
 -1.7458471e+00
 -2.7656692e-01
  1.6239240e+00
  5.3386122e-02
  4.0011005e+00
  3.0089078e+00
  2.6324201e-01
 -1.7209189e+00
  8.0009520e-02
  1.4138749e+00
 -3.6774611e-01
  1.9788304e-01
  1.9711274e-01
 -1.9936450e-01
 -1.5657157e-01
  2.2730482e-01
 -5.2923439e-03
  1.8953969e-01
  1.6856049e+00
  2.2121243e+00
  5.9013522e-01
  8.6905801e-01
 -9.4180018e-01
  1.1441277e-01
  1.5056418e+00
  4.8995405e-01
  1.3143817e+00
  1.2595795e-01
 -6.2757269e-02
  6.1864749e-02
 -1.8701606e+00
 -3.9656690e-01
 -1.2781860e-01
  2.5564309e-02
 -7.2694910e-01
 -5.6881505e-01
  2.8952854e+00
  1.8806913e-01
  3.6185017e-01
 -3.7969548e-02
 -3.7194374e-01
 -2.5087445e+00
  4.3925658e-01
  7.9251105e-01
  1.6687781e-01
  5.1543929e-02
  1.3919559e+00
  9.5383652e-02
 -3.3221021e-01
  2.4548128e-01
 -1.0491520e+00
 -1.1283675e+00
  2.6149201e+00
  1.1201299e+00
  1.9817917e-01
  1.5047216e+00
  9.0533239e-01
 -1.5793214e+00
  6.9299206e-02
  1.8677879e-03
  1.6683871e-01
  9.8574124e-02
 -2.5912872e-01
  4.6431692e-04
 -6.3587749e-01
  1.3134204e-01
 -1.3624206e+00
  6.4856470e-01
 -1.6403077e+00
  1.2697506e+00
  2.0169332e+00
 -1.3575451e-01
 -1.9818492e-01
  3.3024468e+00
 -1.9352212e+00
  5.3287104e-02
 -9.9135794e-02
 -1.9286077e-01
  3.0798545e+00
  7.0898132e+00
 -1.0524956e+00
  5.7701696e-02
 -2.1003583e-02
 -7.2181627e-02
  4.1755449e-02
  1.1764919e+00
  1.0446172e-01
  4.8744448e-02
  9.9223576e-02
 -4.5366162e-01
 -8.0505997e-02
  7.7577047e-02
 -2.5015178e-01
 -1.2917310e-02
 -1.9126585e-01
  7.2324604e-01
  1.4411435e-02
  1.2567113e-01
  1.7082592e+00
 -8.5806012e-02
  2.6288489e-01
  6.2668726e-02
 -5.3901988e-01
  3.0114815e-02
 -9.9139488e-01
  2.2555888e-02
  8.7070502e-02
  6.5473773e-02
 -1.8550812e-01
  4.8982704e-01
 -5.4943484e-01
  1.0981447e-01
  3.0799955e-01
  1.3148353e-02
  7.0773178e-01
 -2.0683603e-01
  4.6085224e-01
  2.1006370e+00
  9.6378648e-01
  5.0518695e-02
 -2.7268021e+00
  1.4721543e-01
  3.0662858e-01
  1.3614019e+00
 -8.8228928e-03
 -2.9953628e+00
  3.6912818e+00
 -1.1670175e-01
  4.0317245e-02
  9.2809752e-02
  3.2773879e+00
  1.6575119e-01
  9.1270787e-01
 -5.3688046e-03
 -3.4178117e-01
 -2.4354312e+00
  1.5475465e+00
 -9.0867467e-03
 -1.6110271e+00
  4.3279573e-02
 -1.5243158e-01
  6.5191478e-02
 -3.5925665e-01
 -5.5991364e-01
 -9.8557669e-01
  1.8373477e-01
  2.6347423e-01
 -3.2219667e+00
  1.5573533e+00
  7.4295819e-01
 -1.8041162e+00
 -2.7939603e-01
 -1.6610703e-01
  1.6395594e-01
  8.6481087e-02
  5.9263527e-02
 -1.1543002e-01
  5.3893179e-03
  2.1070335e+00
  2.7676094e-01
 -1.2792553e+00
 -8.7103736e-01
 -1.1673336e+00
 -3.7945759e-01
 -1.3503603e+00
  6.7517258e-02
 -2.1853568e-01
  4.2559472e-01
 -1.3015701e-02
  4.3103714e+00
  1.4352654e-02
 -2.6893012e-02
 -1.1502981e-01
  8.5048087e-02
 -1.7305726e+00
  7.6600206e-01
  7.7265543e-01
 -6.2062901e-01
  3.6140314e-01
  4.8057568e-01
  1.6629864e+00
 -2.6754899e+00
  4.5645013e-01
  4.4864449e-01
  3.0785224e-01
 -1.9938389e+00
 -1.1502279e-01
 -3.2850364e-01
 -2.0108934e-01
 -8.0139890e-02
  1.0445882e-01
  2.0493717e+00
 -3.9198372e+00
 -1.2970288e-01
  2.2071736e+00
  1.2587628e-01
 -2.0323724e-02
 -5.6155097e-01
  1.2678896e-01
  4.1582420e-01
 -4.3909824e-01
  5.1620826e-02
 -1.0427827e-01
 -6.6887073e-02
  3.4846347e-02
 -1.1648072e-01
 -5.0163894e+00
  1.2337077e+00
 -2.2093947e+00
 -3.8379930e-02
  8.1757134e-01
  3.9056253e-01
 -2.1013618e+00
 -2.4994796e-02
 -3.7359571e-01
 -1.6638567e-03
 -1.3127488e+00
 -1.0797668e+00
 -6.8723634e-02
 -3.0015162e-01
  4.0974457e-02
  6.5266147e-02
 -2.6300445e+00
 -6.8673305e-02
  2.1482663e+00
 -3.0207381e-02
 -1.8040253e+00
 -1.7951343e+00
  4.9926364e-01
  4.7582296e-01
  1.5190637e+00
 -1.0602784e-01
  1.4708602e+00
  2.3182473e+00
 -7.0688121e-02
  1.5510494e-02
 -5.4921889e-01
  2.3488687e-02
 -3.0464470e+00
 -3.4199975e+00
  6.0279630e-02
 -1.6191163e+00
 -3.4091253e+00
 -3.8391292e-01
 -8.5143220e-01
 -1.3037987e+00
 -5.5644786e-01
  3.5697892e-02
 -2.2745988e-01
 -2.1820769e+00
 -9.3480980e-01
  3.6099683e-02
 -1.9235688e-01
 -4.0689549e-01
 -2.7325431e-01
 -1.0962828e+00
  2.7223924e-02
 -4.8432392e-03
  1.4979731e+00
  1.2013561e+00
 -2.5469289e+00
 -2.1742115e+00
 -6.6279304e-01
  1.1173331e+00
 -4.7243470e-01
 -3.5306543e-01
 -1.3920577e+00
 -2.2864616e-01
 -1.2901872e-01
 -3.7866583e-01
 -5.0697648e-03
  8.6879933e-01
  1.3297226e+00
  3.8971156e-01
 -5.3610045e-01
 -6.6266799e-01
 -2.4565921e+00
 -2.8975612e-01
 -1.2674732e+00
  1.6669723e+00
 -3.8107138e+00
 -2.2452447e+00
 -7.8426486e-01
  1.9174580e-01
 -8.5805374e-01
  3.8248848e-02
 -2.8407192e+00
 -1.1983565e+00
 -8.1023580e-01
  8.5612252e-02
  1.3779935e+00
 -1.3803783e-01
 -1.7717366e+00
 -3.7924013e-01
 -1.7264320e+00
  3.1866935e-01
  1.5818447e-01
 -1.9341545e+00
 -2.5939098e-01
  1.3961488e+00
  2.2611676e-01
 -8.6684808e-02
 -1.8382664e-01
 -5.4718202e-01
  2.6729567e-02
 -1.0821261e-01
 -1.9690856e+00
  1.5361981e-01
 -4.9294782e-01
 -3.5216966e-01
 -2.5993516e-03
 -7.9055250e-01
  1.6681850e-02
 -1.9303684e-01
  2.1552056e-02
 -2.2626612e-01
  1.0629598e-01
  6.9241858e-01
 -1.2383250e+00
 -2.0418140e-01
 -7.0324802e-01
  2.0336473e-01
 -1.5349361e-01
  1.0036922e+00
  3.3109546e+00
 -2.2125590e+00
 -1.4099318e+00
 -1.1014479e-01
  6.2844217e-01
 -1.6599754e-02
 -8.3694744e-01
  5.6640911e-01
 -1.7587557e-01
  6.5017298e-02
  4.5415936e+00
 -4.4781134e-01
  1.3076161e-01
  1.5572796e-02
 -3.6916227e+00
  1.4337492e+00
 -4.4928784e+00
  1.6612458e+00
 -6.5784484e-01
  3.5034642e-02
 -1.4545757e-02
 -1.4124458e-01
 -2.2887878e-01
  4.1580789e-02
  3.4611338e-01
 -1.4546767e-01
 -3.2340376e+00
  4.1370279e-01
  3.6112881e-01
 -6.5243669e-02
 -2.9504604e+00
 -6.2807512e-01
  5.4480810e+00
  3.5177000e+00
  5.7647061e-01
 -7.2721559e-01
  3.1507632e-01
  8.3091968e-01
  9.4430121e-03
  6.5364614e-02
  8.6406954e-02
 -7.3159911e-02
  3.5621412e+00
 -5.1389819e-01
 -9.1165042e-01
  4.2569950e-01
  2.2180269e+00
  1.5563775e+00
  1.1446416e+00
 -1.0342649e-01
 -7.1654516e-01
 -1.3686624e-01
 -7.7500063e-01
  1.6829224e+00
 -4.4004306e-02
 -2.0200523e-02
 -1.6949661e-01
 -7.0705986e-01
  1.9521157e+00
 -1.3769127e+00
 -7.6956147e-01
 -5.5724923e-02
  2.8096471e+00
  2.1054454e+00
  4.9464703e+00
 -4.4613991e+00
  2.1413314e+00
 -8.1952699e-02
  1.1187442e-01
  5.2587497e-01
 -3.0355108e-01
  6.6250753e-01
 -1.9993241e-01
 -8.1905492e-02
  2.2888958e+00
 -7.2571719e-01
 -1.5272887e-01
 -3.7882293e-03
  3.6754792e+00
 -8.0163729e-01
 -6.2039636e-02
  2.8231318e+00
 -2.2340374e+00
  2.3455268e-01
 -3.1028521e-01
 -5.1179979e-02
 -5.0055858e-02
  5.8713382e-01
  9.5475964e-02
 -2.6587433e-01
 -3.5530005e+00
 -4.0624183e-01
  5.4459596e-01
 -1.3692675e-02
 -4.2122340e+00
 -2.6324236e+00
 -1.3670371e+00
 -2.6261563e+00
  1.1767251e+00
  8.5006960e-02
  1.2749707e+00
  9.0876371e-02
 -3.8990530e-01
 -2.3786938e-01
  1.1687220e-01
  2.2539191e-02
  1.2981436e+00
  9.8254544e-01
  8.4073597e-01
 -3.7633303e-01
 -3.6334109e+00
 -6.8770581e-01
 -2.4939430e+00
 -1.9375899e+00
 -2.6763687e-01
 -1.7249951e+00
 -8.8523769e-01
 -3.8225445e-01
 -3.7669194e+00
  2.3071791e-01
  1.2357012e+00
 -1.1913216e-01
 -1.5556338e+00
  8.9581415e-02
 -2.3808789e+00
  4.5628506e-01
 -5.1924462e+00
 -1.9780532e+00
 -1.5401992e+00
 -2.9688463e+00
 -9.8288339e-01
  9.1020808e-02
 -1.1108381e+00
  8.6553073e-01
 -7.0893699e-01
 -1.0711982e-02
 -4.1563522e-02
  3.3888283e-01
  2.7147517e-01
 -3.3983165e-01
 -1.2813437e+00
 -1.3890564e-01
 -4.2915320e-01
 -1.0726918e-01
 -5.0927971e-02
 -8.1500983e-01
 -9.6715754e-01
 -8.4431201e-01
 -1.9632499e+00
  2.2437905e-01
  1.0821692e-01
 -4.6473648e-02
 -5.9420109e-01
  6.6394076e-02
  4.3546667e+00
 -4.9025182e-02
  1.5097548e-01
 -9.8381400e-02
  6.6879725e-01
  1.3119344e+00
  2.7273827e+00
 -4.4002252e+00
 -3.1430323e+00
  8.6801335e-02
  8.1294274e-01
 -4.5189443e-01
  2.7541587e-01
  2.6336572e-01
 -2.5547357e-02
 -4.1327924e-02
  1.3510399e-01
 -3.2498848e-01
  1.3212469e+00
 -2.8295723e-01
  2.0075827e+00
  9.4051260e-01
 -1.1782229e+00
  4.7861740e-02
  5.0471026e-01
  2.4596126e-01
 -5.1131231e-01
  1.0243062e-02
  1.4211781e-01
 -1.3320947e-02
 -6.6852883e-02
  1.4361495e-01
  1.4375378e+00
  1.0793415e-01
  6.4491659e-01
 -1.5125678e-01
  1.3799499e+00
 -4.0014356e-02
 -3.9011985e-02
  1.6480035e-01
  1.9941448e-01
  1.6708174e-01
  4.3024519e-03
 -2.3416389e-02
  2.2771111e-02
 -7.9608606e-03
 -1.6175091e-02
  1.6540524e-01
  5.1473546e-01
 -4.1783556e-02
  3.8805526e-01
 -1.4838454e-01
 -3.7413120e-01
 -1.8505778e+00
 -4.0713823e-01
 -2.9611406e+00
  3.7518290e-01
 -3.3489010e-01
  9.3144822e-01
  1.4867014e-01
  4.4454250e-02
  4.5226970e-01
 -1.4405236e-01
 -6.1452053e-02
 -2.4459507e+00
  1.0892223e-02
 -1.1306946e-02
 -5.8579481e-01
 -1.1652651e+00
  5.2359644e-02
  4.1710275e-01
 -1.3675616e+00
 -4.8704344e-01
  4.0187573e-01
  2.3323694e-01
 -1.2933953e-01
  4.5668736e-01
 -1.2184696e-01
  4.1816214e-01
 -2.4094005e-01
  1.7179385e-01
 -3.2966006e-01
  1.0822933e-01
 -5.1895101e-03
  5.0682265e-01
 -2.8826648e-03
  1.7684019e+00
  6.1700839e-01
 -7.5840586e-01
  5.7132858e-01
 -7.2648652e-02
  6.7664333e-02
 -3.3213347e-01
 -2.2334240e-02
  2.0391557e-01
  2.3707753e-01
  9.6098608e-01
  2.1570509e-02
  2.4966824e+00
 -2.4428439e-01
  2.2905734e+00
 -1.7477967e+00
  5.9437907e-01
  4.5127430e+00
  8.2043475e-01
  1.7814144e-01
 -4.1964073e-02
 -1.3747241e-02
  1.5993173e-01
  1.0053650e-01
  3.8483579e-02
  3.6279249e-01
  2.7939315e+00
  6.4072555e-01
  6.7342371e-01
  1.3931234e+00
 -4.2745650e-01
 -3.4418893e-01
  1.6244619e+00
  5.1360905e-01
 -1.3518598e+00
 -2.2914454e-01
  7.6585938e-03
  7.2244829e-01
  1.4746938e+00
 -3.1777447e-01
  3.1379063e-02
 -1.9591944e-01
 -1.9810786e+00
 -1.1930333e+00
 -2.3339580e-01
  1.3308860e-01
  9.0085393e-01
 -3.6681283e-01
 -2.3069750e-01
  2.8724244e-01
 -1.0265267e+00
  1.1309759e-01
 -6.1965173e-01
 -8.9257902e-01
 -4.4097729e-02
 -3.3631942e-01
  5.6001112e-02
 -2.8882387e-01
  3.9931247e+00
  3.6293607e-02
 -3.7389820e+00
 -1.1258937e-01
 -2.3560922e+00
  9.8930973e-01
  1.2625183e+00
 -3.4549522e+00
  6.4211762e-01
 -7.2549023e-03
  2.9446199e+00
 -1.2378442e+00
  2.6067272e-01
 -4.7537562e-02
  5.2400351e-02
  5.2224922e-01
 -5.1309862e+00
 -1.4500609e-02
 -2.2685201e+00
 -2.9969100e-02
 -4.8885441e-01
  1.4607469e+00
  1.2296382e-01
  7.9139119e-01
 -3.2817473e+00
 -7.4494921e-02
 -2.0455830e+00
  1.4907379e-01
 -5.6949234e-01
  1.3587230e-01
  5.0318903e-01
 -1.1159695e-01
  1.5834726e-01
 -4.9150991e-01
  9.2641473e-01
 -9.1344053e-01
 -1.4604923e+00
  4.9056953e-01
 -9.9592960e-01
  1.5219569e+00
  8.8442677e-01
 -4.5894787e-02
  1.1723759e+00
  1.2822597e+00
 -9.5404029e-02
  6.1982550e-02
  1.3011782e-01
 -4.2402115e-01
 -9.6167110e-02
 -9.1105402e-01
 -2.8665692e-02
  2.9607725e-01
 -1.3239843e-01
  2.9457504e-01
 -1.6749043e+00
  1.8947915e+00
 -1.5022629e+00
 -3.3132355e+00
  9.2143469e-02
  6.5936613e-01
  3.5863146e-01
 -3.1277791e-01
 -9.1520089e-01
 -1.1066841e-02
  3.8004983e-02
  9.8187304e-01
 -9.5299661e-02
  1.5743792e-01
 -1.8488228e+00
  1.6386458e+00
  4.4981468e-01
  8.7423265e-01
  9.6003407e-01
 -2.6769066e-02
 -1.0168933e-01
  2.2485309e+00
 -5.0229082e+00
  2.7040192e-01
 -1.0382118e+00
 -2.2724122e-01
 -2.3962710e+00
 -1.5021038e-01
 -1.6669531e+00
 -2.2308393e-01
  4.6656128e-02
  8.6695075e-01
 -6.3106591e-01
  1.3077245e+00
 -2.2273581e+00
  1.2081096e+00
 -2.0480093e-01
  4.5421499e-01
  1.4741024e-02
 -2.8308851e-01
  1.7031807e-01
  4.8782095e-02
  2.0949795e+00
 -3.6580246e-02
 -4.2580578e-01
 -2.9636335e-01
  1.0384986e+00
 -2.8797803e+00
  1.4590781e+00
  1.5205265e-02
 -2.1604861e-01
 -4.2711899e-01
 -3.2705851e-02
 -3.2673258e-01
 -1.2851801e+00
  2.3876572e-01
 -8.3509254e-01
 -2.5214106e-01
 -1.1642305e-01
 -6.1041199e-02
 -1.2349617e-03
 -2.3792990e-01
 -6.6356122e-01
 -5.0652874e-01
 -1.1584251e+00
 -9.7246170e-01
 -5.3470671e-01
 -5.7794116e-02
  1.0026903e+00
 -2.2706865e-01
 -1.9290141e+00
  1.6217003e-02
  3.8136402e-04
 -4.9973395e-01
 -2.9520940e-02
 -2.0736204e-01
 -3.2934114e-01
 -5.4336470e-02
  1.1852340e+00
  1.0011043e-01
 -7.1014673e-01
 -1.6638862e-01
 -8.9112353e-01
  2.2465538e-02
 -7.4647689e-01
  1.6922422e-01
 -9.9037886e-02
  1.4655480e-01
  5.3827457e-02
 -2.6414785e-01
 -1.7371107e+00
 -3.8852355e-01
 -6.6421084e-02
  5.7118034e-01
  4.6064963e+00
  5.2999616e-01
  5.9323745e+00
  2.3006697e+00
 -1.6390249e+00
  3.0004540e-01
 -3.7643263e+00
  8.2843286e-01
 -1.0329026e+00
 -2.3665974e+00
 -7.9448545e-01
  5.5925507e-02
  9.8214585e-01
  4.7636088e-02
 -8.4926838e-01
  6.2107962e-01
  6.3844705e-01
 -1.5382826e+00
  2.8405385e+00
 -1.3312429e+00
  8.5170114e-01
  4.2658493e-02
 -3.9236721e-02
 -1.3949860e+00
 -1.5768684e+00
 -1.5544881e+00
  2.5402319e-01
 -3.8590353e-02
  1.3372058e+00
 -5.0929278e-02
  2.4393456e-01
 -3.3407542e-01
 -7.0954204e-01
 -3.3165021e+00
  1.0318768e+00
  2.3504834e+00
 -2.0857959e+00
 -1.0599069e-02
  1.7086402e-02
 -1.2798327e+00
 -1.4078143e+00
 -7.8721484e-03
  7.3107883e-02
  7.2608560e-02
 -2.3803632e+00
 -4.4421729e-02
  2.4541132e-01
 -5.6784667e-02
 -2.4602942e+00
 -3.8543003e+00
  1.2969026e-01
  1.9039527e+00
  5.3623766e-01
 -1.3372103e-02
  4.0801716e+00
 -7.6037087e-02
 -3.5127077e+00
  4.2466417e-02
 -2.0816174e+00
  6.9018644e-03
  2.3940911e+00
 -5.6765154e-02
 -3.5234892e+00
  8.9806125e-02
 -9.3617541e-01
 -3.1573780e+00
 -1.6219177e+00
 -1.2377013e-01
 -1.7573434e+00
 -2.3081341e-01
 -2.9504817e-02
  9.8508906e-01
 -2.2910967e+00
  5.0937165e-02
 -7.0229715e-01
 -1.0130246e-01
 -2.1059268e+00
 -1.2983177e-02
 -2.0371278e-01
 -9.1567740e-02
  2.0198026e+00
  2.3727610e+00
 -9.2424148e-01
  3.0218194e+00
 -8.1989337e-03
  6.0492653e-01
  3.9277676e-01
  9.0310979e-01
  2.9966023e-02
  1.1408945e-01
 -8.5274690e-01
 -8.5966676e-02
  2.0531717e-01
  1.1191173e-01
  5.0552368e-01
 -6.7531097e-01
  1.9890715e+00
 -5.9543443e-01
  6.4609237e-02
 -2.0722561e-01
 -1.4365070e+00
 -3.2604728e-03
 -6.2258650e-02
  7.5518355e-02
  9.4517380e-01
 -1.7897129e-01
  5.1795207e-02
  1.3062306e-01
 -1.9965199e+00
 -8.8917010e-04
  3.2224596e-01
 -4.6253979e-02
 -1.5456475e+00
  4.1952643e-01
 -1.0744169e+00
 -3.6394063e-01
 -3.3438158e-01
  5.4902207e-02
  5.3658324e-01
  2.1932760e-01
 -7.0256180e-01
  1.9302957e-01
 -3.8101724e-01
 -3.9491078e-01
 -2.2388315e-02
 -2.2440028e+00
  1.2442977e+00
  4.6677824e-02
  6.4286077e-01
  2.7758059e-01
 -1.7321814e+00
 -8.6147708e-01
  1.3575826e+00
 -5.8310211e-01
  1.4606777e+00
  3.9188856e-01
 -1.8233110e-01
  5.0127927e-02
 -8.2962885e-02
  3.4149301e-01
  7.5055057e-01
 -5.5400771e-01
 -1.3604645e+00
  1.1800206e+00
  8.4227121e-01
 -2.3689055e+00
 -9.9368252e-02
 -2.5162745e-01
 -6.5982628e-01
  1.7302437e-01
  9.0582734e-01
  1.4280134e-01
 -1.5839955e-01
  2.4390139e-01
 -2.0072293e-02
  6.6556282e-02
  2.0738134e+00
  1.7321582e+00
  2.5487184e-03
  7.6214123e-01
 -4.5934162e+00
 -1.2150061e-02
 -2.2352563e-02
  3.0247608e-01
  8.4413558e-01
  1.9819406e-01
  1.7124593e-01
  5.2461661e-03
  3.1771127e-02
 -1.4209741e-01
 -5.0123489e-01
 -5.7374515e-02
  4.4023362e-01
  3.2043290e-01
  9.4782226e-02
 -3.1268686e-01
  1.2920303e+00
  1.5843898e+00
  4.1996007e+00
  2.7238524e+00
  7.4234620e-02
 -3.3056793e-01
  3.5257199e-01
 -1.7455980e-01
  2.6732883e-01
 -4.4194028e-01
 -7.0909679e-01
 -4.6681315e-01
 -6.9174325e-01
  9.9723838e-02
  9.0997934e-01
  3.5602319e-01
  3.9001296e+00
 -1.6270096e+00
  3.0280974e+00
  4.9572434e+00
  4.6483290e-01
 -7.0597723e-02
  2.3129196e+00
  4.1341382e-01
 -6.4075029e-01
 -1.8282542e-03
 -1.8649873e-01
  9.2779450e-02
 -2.1073806e+00
 -9.8541576e-01
  7.6893747e-01
  8.9493757e-01
  1.8611310e+00
 -9.9529207e-01
  1.3053174e+00
 -5.9228915e-01
 -2.8968422e+00
  7.5644124e-01
  2.3104915e-01
 -4.5448393e-01
  2.4042992e-01
  7.7761376e-01
  5.6994636e-02
 -7.8931533e-02
 -2.5704417e-01
  3.9780787e-03
 -5.3726351e-01
 -1.5248926e+00
  1.0664023e-01
 -1.8053089e+00
 -3.3005562e+00
  2.7525675e-01
  5.0922728e-01
  8.0727719e-02
 -1.9054137e-01
  2.7001303e-01
 -4.3650563e-03
  2.7334952e-01
  4.6559712e-01
  2.3137698e-01
  4.0654068e+00
  5.5850542e-01
 -2.6994612e+00
 -1.2952214e+00
 -7.9158109e-01
 -8.8260479e-02
  1.6110528e+00
  2.4059162e+00
  3.1293442e+00
  1.2945713e-01
 -5.8633119e-02
  2.1739385e+00
 -1.1074990e+00
 -1.4521675e-01
  1.6307485e-01
 -1.9946082e-01
  2.0921081e-01
  6.2696266e-01
  9.8033732e-01
  8.5704394e-02
 -7.3188770e-01
 -3.5201585e-01
  1.5974587e+00
  2.3232436e+00
  1.1257560e+00
 -2.2025771e-01
 -3.2940030e-01
 -1.6738336e-01
 -3.7321857e-01
  6.2108509e-02
 -1.1137124e-01
 -1.6176626e-01
  1.3636049e+00
  5.3355867e-01
  2.6396041e+00
  2.0404775e+00
 -2.6280453e+00
 -1.5486244e+00
  3.7338755e+00
  2.1070988e-01
 -1.3389428e-01
 -9.0963989e-02
  1.1328592e-01
 -2.1732515e-01
 -2.2440326e+00
 -1.7039663e-01
 -8.4038597e-01
  1.5333043e-03
 -2.2040534e+00
 -1.1188541e-01
  2.4028885e+00
  6.1209446e-01
 -6.9397002e-01
 -1.9974000e+00
  5.5330628e-01
 -3.1313000e-03
  5.6772339e-01
 -9.3728226e-01
  4.7587398e-01
  2.6121121e-02
 -1.9448087e+00
  1.5716186e-01
  3.3487475e-01
  5.7348424e-01
  8.1455594e-01
 -3.3647316e+00
  1.3060728e+00
 -1.9163456e+00
 -2.8374918e+00
 -1.7531391e+00
 -1.7274743e+00
 -2.4757308e-01
  7.8604937e-01
  1.2839082e-01
 -1.0650848e+00
  3.4630239e-01
  2.7090533e-02
  1.4155804e-02
 -3.0628437e-01
 -1.1846685e-01
 -2.6527655e-01
 -6.6144466e-02
  1.0485054e+00
 -3.7181804e-01
  1.4403365e+00
  4.3182376e-01
 -4.3004949e-02
  4.6006042e-01
 -8.2882184e-01
  1.0948708e+00
 -3.7450379e-01
 -6.8842405e-01
  9.5945284e-02
  2.2707652e-01
  3.2367364e-01
 -1.0801139e+00
  1.5868793e+00
 -1.5086873e-01
 -2.5266972e-01
  1.8804489e+00
  9.6408987e-01
 -1.0967952e+00
 -4.0809551e-01
  2.5815439e-01
 -2.4449222e+00
  3.8536239e-01
  1.4855106e+00
 -8.8654947e-01
 -3.3380983e+00
  5.6916114e-02
 -5.3467774e-01
 -1.8036774e-01
  1.2353464e+00
 -1.1501781e-01
 -3.8738567e-01
  3.3429909e-01
  1.5369160e-01
 -1.2819945e+00
  2.5644212e+00
  1.3224821e-01
  1.1659387e+00
  8.0581360e-02
  1.4787774e+00
 -9.5330292e-01
 -3.9698049e-01
 -9.8248169e-02
 -2.9771907e-02
  1.6966605e-01
 -1.4205046e-01
  5.2612405e-03
 -1.3417587e-01
  5.7689227e-02
  1.9320308e+00
 -3.1468803e-01
  7.3811382e-01
  3.3792466e-01
  5.7500780e-02
  3.4167018e-02
  2.5048161e-01
 -6.5516758e-01
 -1.3018173e-01
 -6.8441339e-02
 -1.1265235e-01
  5.2843802e-03
  2.0772314e-02
 -1.3041525e-01
  9.4323538e-02
  1.0887869e-01
 -1.9502838e+00
 -4.0120115e+00
 -4.3399143e-01
 -4.1740019e-02
 -1.0901928e+00
  5.3095356e-02
  7.8702664e-01
  1.3629043e-01
 -1.7682836e+00
 -1.4925607e-01
  1.7639780e-02
 -9.6763588e-02
 -1.4595735e-01
 -1.1196089e-01
  5.6153721e-01
 -1.7163284e-02
  1.9053444e+00
  3.1180710e-01
 -1.1213780e-01
  6.2735993e-01
 -2.2668497e-01
  5.0474614e-02
  1.8083428e+00
 -7.0129879e-02
 -9.9314965e-02
 -5.1728528e-02
 -3.7076667e-02
 -8.0866270e-02
  1.9768702e+00
 -2.8443643e-01
 -1.8968258e+00
  1.5458089e+00
 -1.6905051e+00
  1.5905104e+00
  1.5535178e+00
  7.5492971e-02
  1.2020288e-01
 -1.3480035e+00
 -6.6018122e-01
 -9.2707199e-01
 -1.5250714e-01
  9.0674922e-02
 -1.5700759e-01
 -9.7959861e-02
  7.4335478e-02
  6.7119107e-02
 -1.9061892e-01
 -2.1185414e-01
  1.0548037e+00
 -1.3328919e-01
 -4.8130667e-01
  4.9413761e-01
  1.2487862e+00
  5.6908339e-02
  3.8566962e-01
 -1.4518237e+00
  1.6509028e-01
 -9.3359657e-02
  5.3504258e-02
 -2.2686191e-02
 -8.8897246e-01
  1.0911946e-01
 -8.8431334e-01
 -2.2805247e-02
  1.5297559e+00
  7.1927257e-02
  1.5667726e-01
 -3.5970221e+00
  1.5671188e+00
  1.1702577e-01
  3.8746098e-01
 -9.5950574e-01
  2.5333703e-01
 -5.0279373e-01
  7.1913913e-02
 -3.7071742e-02
 -1.4371140e+00
 -9.2684545e-02
 -1.7332873e-01
  1.0450467e-01
 -1.1859083e+00
  3.6327866e-01
  6.4153478e-02
  1.7959905e-01
  2.3047893e-01
 -2.6711662e+00
  1.5664592e-01
 -1.7301828e-02
 -4.3711039e-01
 -3.7962804e-03
  9.4669700e-02
  7.2076753e-02
  2.9827562e-01
 -3.7475803e-01
 -2.7548724e-01
  3.0144054e-01
  3.0207703e+00
  1.5790038e-01
  6.4197361e-01
 -2.1693476e-01
  1.9460186e-02
 -3.1667989e-01
  1.6050842e+00
  2.9181492e-02
  1.0454792e+00
  5.1785815e-01
  3.1585991e-04
  2.9732737e-01
 -1.0132746e+00
  7.5866781e-02
  1.5799697e-02
 -2.8215226e-02
 -1.8091309e+00
 -9.8645645e-01
  7.0232087e-01
  3.4827435e-01
  5.2261484e-01
  4.6188754e-01
 -1.3545144e+00
  9.6933728e-01
  6.5885514e-01
 -1.9907337e-01
 -3.0406144e-01
 -5.3248006e-01
 -2.6841500e+00
 -3.2613911e-02
 -3.2922095e-01
 -9.4109082e-01
 -4.2441874e+00
  2.7126321e-01
 -2.3953225e-01
 -9.1283925e-02
  9.7733116e-01
 -1.3658424e-01
  3.0897421e-01
  1.9928537e-01
  1.2221791e+00
 -6.1371114e-02
  4.3862566e-02
