nep3 4 C B H O 
cutoff 8 6 47 32
n_max 6 4
basis_size 12 12
l_max 4 2 0
ANN 100 0
  1.3397555e-02
 -5.5842798e-02
 -2.0499001e-01
  1.3880917e-02
  2.4844518e-02
  2.8211249e-03
 -1.7629673e-01
  1.7277786e-01
  2.1405672e-01
  1.2358329e-01
  2.5792615e-03
 -4.5170810e-02
  1.5679064e-01
 -8.0215514e-02
  2.2316678e-01
  1.5476018e-01
  1.1420879e-01
  2.7902117e-01
  8.3634347e-02
 -8.5566647e-02
  2.3342364e-02
  1.8892460e-02
 -1.0839947e-01
  1.4170295e-01
 -3.8158807e-01
 -3.3536471e-02
  1.7347077e-01
 -2.1336451e-01
 -9.1465786e-02
 -1.5064494e-01
 -7.6185227e-03
  5.2817386e-02
 -2.9242840e-03
 -2.0781383e-03
  2.1175347e-02
  2.2903478e-01
  1.8448189e-01
  2.3610128e-01
 -8.1105039e-02
  2.0930158e-01
  3.6704645e-02
 -6.5481499e-02
 -1.3901083e-01
 -7.7568561e-02
 -2.9854354e-01
 -1.4603807e-02
  1.5560991e-01
  3.1460002e-02
 -5.0185616e-03
  1.9329059e-01
  2.2402218e-02
 -8.4860854e-02
  7.2093084e-02
  1.3726600e-01
  1.9686067e-01
  1.4465860e-01
  1.0290539e-01
 -5.9984460e-02
  1.7957855e-02
 -2.0896800e-02
 -1.4041473e-02
 -9.8496880e-03
  3.7895162e-02
 -9.4779298e-02
  8.5138372e-04
  6.0361326e-02
 -3.9004248e-02
  8.5720465e-02
 -2.1413540e-02
  1.7097908e-01
  5.5076499e-02
  4.6649292e-02
 -2.4693429e-01
 -1.3165042e-02
  2.4282217e-02
  3.3441868e-02
  4.3301072e-02
  7.7214144e-02
 -1.7940711e-02
 -2.0175198e-02
  9.9555098e-02
 -1.5150331e-01
 -7.8648016e-02
  7.2588049e-02
 -3.2619372e-02
 -7.1389683e-02
 -8.4739998e-03
  3.5784125e-01
  1.5885424e-02
 -8.6459424e-03
 -1.7871124e-01
 -1.1961333e-01
  1.6228501e-03
  8.9174055e-02
 -2.2857164e-01
 -3.4514805e-03
 -2.3682000e-01
  2.0232951e-02
  4.1690677e-02
 -5.9129074e-02
  9.7474337e-02
  1.2985684e-01
  1.2720014e-02
 -2.6595530e-01
 -2.0008287e-01
 -1.5645517e-01
 -7.1678966e-02
 -7.0727192e-02
  2.1296490e-02
  4.5531757e-02
 -1.2132867e-01
  2.4823027e-02
  2.2255448e-01
  2.8739702e-02
  1.9681213e-02
  1.2789762e-01
  1.2975310e-01
  1.3464195e-01
 -3.4202278e-02
  1.1739900e-01
 -3.9274448e-01
  1.6252473e-01
  1.3516442e-01
  2.5106126e-01
  1.1744854e-01
  1.6231604e-01
  9.7268566e-02
  4.5394695e-01
 -5.2440381e-01
  1.0012767e+00
  5.9090905e-02
  9.1378488e-02
 -1.2908080e+00
 -1.2652160e+00
  1.6099038e+00
 -1.2902769e-01
  2.0932908e-01
  2.5920570e-02
 -3.1979784e-01
  6.2202561e-01
  5.1825553e-02
  1.4669357e-01
  3.1848687e-01
 -3.3556871e-02
  1.7957082e-02
 -1.2632758e-02
  3.3977109e-01
 -5.4103173e-02
 -8.6559489e-02
 -2.4641228e-01
  2.5624451e-01
 -8.3298393e-02
  8.2532465e-02
 -8.4090484e-03
 -1.3366787e-01
  5.1156119e-02
 -4.7703568e-02
  8.8094641e-03
  2.7658449e-02
  7.9608336e-02
 -1.4065467e-01
  1.8568358e-01
  1.6758637e-01
  3.6996323e-01
 -9.0124577e-02
 -2.8372314e-03
  2.8045112e-02
 -1.3908263e-01
  1.0437847e-03
 -6.5469369e-02
  2.0493766e-02
  3.3169612e-03
  7.7377044e-02
 -4.9896952e-02
 -1.1463657e-01
 -5.9059482e-02
  8.7292381e-02
  1.3770333e-02
 -1.3171890e-01
 -7.4723765e-02
  1.6216228e-02
  3.2173827e-01
 -1.3060613e-01
  1.4649695e-01
  1.6235547e-01
  2.0537910e-01
 -1.9406593e-01
  1.6485460e-01
 -4.7774136e-02
 -5.4226007e-02
 -1.7525578e-01
  1.1037294e-02
 -1.0752965e+00
 -2.3266475e-01
 -1.0129633e+00
 -8.8751304e-01
 -1.0636228e+00
  1.8934564e-01
 -4.7807693e+00
 -1.3547559e+00
 -1.7254908e-01
 -1.8906443e+00
 -1.2916526e+00
  1.5676293e+00
  2.2527461e+00
 -2.9016422e-02
 -3.5635412e-01
 -2.8657264e-01
  9.0203679e-01
  2.1627142e-01
  6.9508117e-01
  3.8446754e-01
 -8.5598612e-01
  1.0405497e-01
  8.3104771e-01
  5.6373227e-01
 -2.4430341e-01
  1.4464645e-01
 -2.6931825e-01
 -9.1950424e-02
 -1.7122025e+00
  1.2594415e+00
  1.7595044e-01
  5.8025515e-01
  8.2979068e-02
 -1.1241710e-02
 -1.1201756e-01
  1.9402711e-01
  9.5995776e-02
  9.5534079e-02
 -9.3484856e-02
  1.3685209e-01
 -5.6370195e-02
 -1.8213078e-02
 -4.1714545e-02
  2.2240055e-01
  4.1568380e-02
  9.7788513e-02
  5.6101486e-02
 -6.0809001e-02
  4.6785943e-02
  9.3317524e-02
 -8.2034342e-02
  7.1857095e-02
 -2.1729155e-02
 -1.1279287e-01
  1.3692382e-01
  7.1384065e-02
 -3.6449153e-02
 -3.5479441e-02
 -6.3924462e-02
 -6.2246686e-03
  3.8085707e-02
  3.2990582e-02
  9.7299349e-03
 -1.3369215e-01
 -4.0600721e-02
 -3.0077171e-01
 -1.2729567e-02
 -6.5826684e-02
  7.1644679e-02
  2.0918427e-01
  1.9951022e-01
 -1.8304537e-01
  5.0431412e-02
 -1.7386138e-01
  1.3144473e-02
  3.6791670e-01
  4.3386098e-02
 -1.1390077e-01
 -3.1913076e-02
  4.0819007e-01
 -3.9019253e-02
  6.4263634e-02
  2.2572108e-01
 -1.6566645e-01
 -5.5839993e-02
  6.3685067e-02
 -5.4262462e-03
 -3.5709862e-02
  1.4715519e-02
  1.0105897e-01
 -1.0779294e-01
  9.4879955e-02
  1.5688999e-01
  1.7986299e-01
 -1.4760937e-02
  1.2748833e-01
 -1.0888146e-01
  6.5140086e-01
  5.2121226e-03
  1.5688418e+00
  6.2865812e-01
 -1.9278316e-01
  1.7432988e-01
 -5.5553887e-02
 -1.6408765e-01
 -1.2224357e+00
  2.8680282e-02
 -2.1275082e-01
 -2.6552537e-01
  1.8335895e-01
 -3.4116060e-01
  1.5303648e-01
  6.5413035e-02
 -3.7157023e-01
  1.7732549e-02
  1.5617520e+00
  1.6074981e-01
 -7.3251738e-03
 -2.8113037e-01
 -2.5226733e-01
  3.7547770e-01
  1.4203259e-01
 -6.4067438e-02
 -2.5534989e-02
 -1.4714059e-01
  3.8775590e-01
  4.3621365e-02
  1.0647222e-01
 -6.9538003e-01
 -1.9601468e+00
 -1.1965224e-01
 -1.4417970e+00
  1.6609160e+00
  9.5806047e-02
  6.1766666e-01
  1.3028762e+00
  1.8449582e-01
  2.5911772e+00
  1.8885022e+00
 -2.8708336e+00
  1.4858875e-01
  1.0526216e-01
  2.5566095e-01
  1.4359356e+00
  6.1829728e-01
 -1.7556498e+00
 -4.5747676e-01
  1.3287133e+00
  2.7829504e+00
  9.4902498e-01
 -4.1775286e-01
  1.7463025e-01
 -2.4399327e-01
  7.5976735e-01
 -5.9253109e-01
 -1.5411216e-01
 -1.8098388e-02
 -9.6229422e-01
  1.6555326e-02
 -9.9679065e-01
  9.0168506e-02
 -8.5008955e-01
  2.1065605e+00
  3.6294255e-01
 -7.8599513e-01
  8.3860949e-02
 -2.2932063e-01
 -2.8450754e-01
 -2.0183721e+00
  2.0058690e-01
 -7.1232930e-02
 -3.9566302e-01
  1.3587377e+00
 -9.6935369e-02
  9.3137071e-02
  3.4983665e-01
 -9.9985439e-01
  4.5694122e-03
 -8.4319109e-01
 -8.1150174e-01
  7.1424764e-01
  1.1925046e+00
  6.1455768e-01
 -1.4324437e+00
  1.2121149e-01
 -1.5557852e-01
  6.4335220e-02
  2.8166124e-01
 -1.3547227e-01
  7.0382458e-01
  1.3073704e-02
  7.1475679e-01
  2.1454950e-01
 -1.4420912e-01
  2.2309905e-02
  1.1975425e+00
 -1.7264603e-01
 -6.1405972e-02
  1.8760901e-02
  1.1978597e-01
  1.0922001e-01
  1.7987768e-01
 -1.2970348e-01
  2.4439622e-01
  4.3931636e-01
 -7.4812725e-02
 -3.6578652e-02
  1.8408569e-02
  1.1653017e-01
  8.4266931e-02
  8.5793072e-03
 -7.7952272e-01
 -1.1058240e-01
  1.6041267e-01
  2.0137624e-01
 -9.1408968e-02
  6.1325040e-02
  3.9594010e-02
 -3.0640551e-01
  2.7034823e-02
 -2.9168930e-02
  6.3769251e-02
 -6.8607874e-02
 -1.2880519e-01
  3.1642148e-01
 -5.8735292e-02
 -8.6747324e-03
 -1.3288520e-01
  1.1697776e-01
  2.2825712e-01
  2.3631206e-01
  1.8905716e-02
  1.6587435e-01
 -3.5232417e-02
  4.6622075e-02
  1.4536040e-01
  1.6578792e-02
 -2.6122645e-02
  1.1333275e-03
  9.7560152e-02
  4.3702602e-02
 -1.8652709e-01
  3.0466363e-01
  3.4515746e-02
 -1.2106825e-01
 -6.9800392e-02
 -1.1665693e-02
  3.5781720e-01
  5.9283260e-02
  2.8744154e-04
 -4.9509566e-02
  9.3241625e-02
  4.3345764e-02
  6.6003345e-02
 -1.4148505e-01
 -1.5671918e-02
 -1.3314712e-02
 -1.1199441e+00
  1.4590144e-02
  1.6668355e-01
  1.8332911e-01
 -1.8921697e-01
  5.0115651e-01
  3.3526191e-01
  8.9108713e-02
  1.5658051e-02
 -1.9197550e-02
  1.4140424e-01
 -1.0291547e-02
 -1.0916908e-01
 -1.6505475e-01
  1.5794492e-01
  1.0348563e-01
 -3.9669208e-02
 -3.4988791e-02
  3.3891913e-02
  1.3127613e-01
 -4.6532460e-02
 -2.3914561e-01
 -2.5295624e-01
 -2.6755674e-02
  1.4240489e-02
 -2.9163441e-01
 -4.4091776e-01
  1.8094635e-01
 -6.0550286e-03
 -2.0552011e-01
 -5.2341305e-02
 -4.6225138e-02
  2.4964526e-02
  9.0910867e-02
 -2.0904215e-01
 -1.6201610e-02
  1.0523320e-02
  1.7800709e-02
 -6.7701384e-02
 -8.0523558e-02
  1.8684432e-01
  9.0627283e-02
 -3.4410574e-02
  3.8996357e-01
  8.0276802e-02
  1.8437911e-02
  2.6402909e-01
  1.1314148e-01
 -1.8955080e-01
  1.4111800e-01
  3.5581470e-02
 -6.2310267e-03
  6.9213025e-02
  1.3122635e-01
  6.4456217e-02
  2.1617576e-02
  5.9274159e-02
  1.8723527e-02
  1.6362980e-01
 -2.4992849e-01
 -1.1678691e-01
  3.7692040e-02
  9.0459093e-02
 -1.5385839e-01
  1.0618772e-01
 -8.9604026e-03
  6.1134692e-02
  4.3867636e-02
  2.8747644e-02
 -4.8395509e-01
 -4.6305805e-02
 -2.9833072e-01
  5.0220709e-02
 -6.2096272e-02
 -2.4642664e-01
  5.0218582e-02
  1.5852550e-01
  1.4615460e-01
  7.6076860e-05
  1.5120627e-01
  4.5826744e-02
  3.3429541e-02
 -2.7928561e-02
 -5.0932668e-02
 -3.8803361e-02
 -1.4677569e-01
 -4.2751491e-01
  1.2961656e-01
  1.9363690e-02
  9.9060759e-02
  1.4867181e-02
  1.9718669e-01
  4.2058021e-02
  1.5797190e-01
  3.1020897e-02
 -1.2015367e+00
  1.4225958e-02
  6.4600539e-01
 -5.1546043e-01
 -8.8642448e-01
  1.1861188e+00
  1.1924942e-01
  6.3812548e-01
  2.2481119e-02
  1.1864657e-01
  5.2374613e-01
 -2.6471314e-01
  2.6618367e-01
  1.2071961e+00
  3.4750172e-01
  7.0833671e-03
 -1.2916702e+00
  9.4529873e-01
 -1.5303302e+00
  1.9626158e+00
 -3.6154631e-01
 -6.1242843e-01
 -6.5711558e-01
 -1.7816533e-01
  2.9008597e-01
 -5.3044751e-02
 -3.5217083e-01
 -4.1676848e-03
  1.9092778e-02
 -3.2936092e-02
  1.3090011e-03
 -1.0056159e-02
 -2.3575313e-01
  3.5726137e+00
  1.9480662e-02
 -5.9217840e-01
  1.3980801e+00
 -4.8726684e-01
  3.9222822e-01
 -2.0123579e-02
 -4.3678364e-01
  1.2354677e-02
 -1.3047534e-02
 -7.3180097e-01
  8.1592286e-01
 -3.3981445e-01
  1.5772481e+00
 -5.4471609e-03
 -2.1328653e-01
  5.4706478e-01
  5.0361663e-02
  3.6632076e-01
 -6.3745677e-01
 -1.9581416e-03
  2.2566645e-01
  1.0576576e-02
  1.4656037e+00
 -8.2117133e-03
  2.1134908e-01
  1.0544313e+00
 -7.9887845e-02
  3.4947374e-01
  1.0251264e-02
  2.3888516e-01
 -2.5283885e+00
 -5.1030666e-01
  3.0337319e-01
  2.1492642e-01
 -2.4687836e-01
  2.5119915e+00
  1.4177541e-01
  1.4477066e+00
 -3.9861035e-02
  2.0858345e+00
  2.2705358e-01
 -1.9412662e+00
 -2.6228225e-01
  1.2976679e+00
 -1.0353091e-01
 -2.0641877e-01
 -3.6061628e+00
  6.2237048e-01
 -1.8300663e-01
  8.3935064e-01
 -1.1741717e+00
 -1.5557425e-03
 -8.7347023e-02
  2.0037459e-01
  3.3187191e+00
 -2.3027441e-01
 -1.3536382e-01
 -1.1883377e-01
  1.4734439e-02
 -1.4522517e-02
 -4.9856249e-03
  3.5440359e-02
  1.6753132e+00
 -3.2273033e-01
  1.9387881e+00
  9.2120208e-02
  4.6377751e-01
  6.8581772e-01
 -1.9451650e+00
  9.3050748e-01
 -1.1356765e+00
 -2.3452411e+00
 -1.5521751e-01
 -5.1041216e-01
 -2.4426711e+00
 -5.7289000e-03
 -7.8190982e-02
 -1.8572087e+00
  7.3163927e-02
  1.6856012e+00
  2.3620765e+00
  1.4653490e+00
  4.3167640e-02
 -3.4440833e-01
  3.3646331e+00
  1.0507493e+00
 -1.5329051e+00
  9.2687132e-03
 -4.4328356e-01
 -7.6154310e-01
 -3.4036372e-02
  6.9147892e-02
 -4.4477519e-02
  9.1244650e-01
  4.1118622e-02
  7.0917353e-02
 -2.4994893e-02
  8.9649834e-02
  1.4128974e-01
 -4.2230304e-02
  1.7020100e-01
  6.9308169e-02
  6.0645742e-03
  1.3196908e-03
  2.0411949e-01
  2.6788849e-01
  3.8035069e-02
 -3.5844527e-03
 -1.4965110e-02
  4.2173836e-02
  8.8893980e-02
  9.3493626e-02
 -2.1821421e-02
 -2.9303215e-02
  8.6091638e-02
 -3.3707604e-02
 -3.2021627e-02
  9.5092423e-02
 -1.1036589e-02
 -1.0456027e-01
  2.9151082e-02
 -1.6101083e-01
 -7.3185369e-02
 -1.2207988e-01
  1.3168517e-02
  3.6307927e-02
 -1.5959665e+00
  8.2671410e-01
  4.5743868e-02
 -3.8983279e-01
 -1.6234053e+00
  1.6171698e-01
  6.4839490e-02
  7.2049707e-01
  2.2497050e-01
  9.4378495e-01
 -1.1657273e-02
 -3.3020377e-01
  1.8354053e+00
 -8.7412141e-02
  8.2127684e-01
 -7.1297008e-01
 -3.4882402e-01
  5.1348233e-01
 -1.2420470e+00
  1.6710796e+00
  2.0139164e-01
  4.5437366e-03
  5.1736295e-01
 -1.5271559e+00
  1.0091112e+00
  4.6425310e-01
 -1.0342445e-01
  9.6183884e-01
  5.7933491e-02
  3.1669308e-02
  8.0387786e-02
 -1.8581326e-01
 -1.6187091e+00
  1.5188901e+00
 -6.1644578e-01
  7.0471406e-01
 -2.1304207e-01
 -3.3091635e-01
 -1.6094010e+00
  1.2886558e-01
 -4.6313378e-01
  1.5359881e+00
 -8.0400281e-02
  2.5298741e-01
 -1.5079002e+00
  2.5923243e-01
 -1.6033614e+00
 -3.5702577e-01
  1.5169615e+00
 -6.0220238e-02
 -1.2022043e+00
 -1.1195295e+00
  9.3848991e-01
  7.5569218e-01
  2.6245838e-01
  1.9143010e+00
 -5.3232282e-01
 -1.2308187e+00
 -1.0571805e-01
  1.1499040e-01
 -3.7865868e-01
 -2.8023925e-02
  1.8217159e-02
 -4.9437466e-04
 -1.8291225e-01
  6.9522314e-02
  1.2610711e-01
 -2.6101446e-01
  6.6563860e-03
 -1.4484763e-02
  9.5230483e-02
  4.9760779e-03
  5.5247113e-02
  2.8682062e-01
 -1.2614186e-01
 -6.4386286e-02
  1.1984611e-01
 -2.7650040e-02
 -2.6013752e-02
  4.9476246e-03
  7.0201894e-03
  2.7844188e-01
  1.7886305e-01
  1.9390453e-01
 -1.2101473e-01
  4.5092935e-03
  2.6118591e-01
 -2.0812156e-02
 -1.0847598e-01
 -1.3324772e-01
 -9.5060512e-02
 -1.2376165e-01
 -1.0116749e-01
  6.0291000e-02
  1.6117547e-01
 -1.1979056e-01
 -1.2703155e+00
 -3.6334816e-02
 -3.9976642e-02
  2.0504595e-01
 -4.1764793e-01
  4.4605902e-01
 -2.3914971e+00
  2.1002816e-02
  2.5629329e-02
  4.6613088e-01
 -1.0727438e-01
  1.4932451e-01
  1.9691927e-02
  4.1061018e-02
 -1.1769764e-02
 -2.0614561e-02
 -9.5877248e-01
 -8.6934823e-01
  2.3787034e+00
 -2.2192314e-01
 -2.2132300e-01
  6.7041479e-03
 -4.7542652e-01
  2.8178945e-01
 -7.0132859e-02
  4.8670187e-03
  1.1890776e-01
  6.4026847e-02
  4.7003251e-02
 -5.3767031e-03
  4.0431514e-01
  8.8470466e-02
  6.7713153e-01
 -5.3054053e-01
 -5.0852919e-01
  1.8511438e+00
  5.1769480e-02
 -5.0727630e-01
 -9.2683089e-01
 -9.4453961e-01
 -2.0563668e-01
 -3.9549100e-01
 -5.2590437e-02
  8.4824067e-01
  1.0418247e+00
 -1.4891392e+00
 -1.3134078e+00
 -4.9352002e+00
  1.9085314e+00
  4.7829455e-01
 -5.7717657e-01
 -1.9159648e+00
  8.2561898e-01
  1.6455028e+00
  3.1607208e-01
 -1.1515845e-01
 -3.3699191e+00
  1.4612275e+00
  1.1401042e+00
 -7.1146053e-01
 -9.9353462e-02
  1.3242652e-01
  1.6291016e-01
  2.4539905e-02
  1.3284071e-02
  6.9480139e-01
 -6.1512303e-02
 -5.0101146e-02
 -1.6720026e+00
 -1.5466643e-02
 -1.9662945e-01
  5.6363586e-02
 -2.0516040e-02
 -5.0781213e-02
  2.0018884e-03
  4.1115798e-02
 -3.6387056e-02
  9.4690278e-02
  6.2882574e-03
  1.6594422e-01
  3.3154674e-02
  1.7850647e-02
 -2.9836845e-01
  8.3529437e-04
 -3.5379743e-03
 -7.9770587e-02
 -1.9460268e-01
 -1.1809626e-01
 -9.1154553e-02
  2.6973004e-02
  3.4598351e-02
 -3.3326570e-02
 -5.1446773e-02
  2.5289070e-02
  1.2344528e-01
 -1.3285244e-01
  8.4128350e-02
 -1.9580537e-01
  1.0258588e-01
 -7.2500773e-02
 -1.9709201e-01
  6.8022482e-02
 -3.7933034e-01
 -3.9869454e-02
 -2.8935652e-02
  6.5235384e-02
  6.1879510e-01
  2.3814411e-01
 -1.4342172e-01
 -9.4063081e-02
  2.9809324e-02
 -1.1277093e-01
 -1.1551900e-01
  6.3868903e-02
 -9.1729954e-02
 -1.2922353e-03
  3.0500670e-03
  1.8673399e-03
 -1.2439044e-01
  1.9003572e-01
 -9.1104791e-02
  2.0467845e-01
 -4.1928567e-02
  1.3668627e-01
 -5.1426813e-02
 -2.1118039e-02
 -1.3940731e-02
  3.5697359e-01
 -1.0665620e-01
  5.6629933e-02
 -1.4403826e-01
  1.8044440e-02
 -7.9888682e-04
  1.7675379e-02
  2.8998067e-03
 -1.0680423e-01
  3.6029581e-02
  1.0802565e-01
  1.0132445e-01
 -1.3037976e-02
 -4.1295210e-01
 -4.7423702e-02
 -2.1485549e-01
  1.9845897e-01
 -6.2447254e-02
  2.5220183e-03
  2.2694342e-01
 -1.8900713e-01
 -8.9187533e-02
  1.7749797e-01
  4.6638552e-02
  2.2373493e-01
  7.7425890e-02
 -1.4723207e-01
 -6.1320856e-02
 -2.0195191e-01
  2.9308340e-01
 -1.4090043e-01
  1.4854333e-01
  1.1217655e-01
 -2.4012122e-01
 -2.1176748e+00
 -1.6421435e+00
 -6.8377250e-01
 -5.7948399e-02
  1.3189368e+00
  1.6860503e+00
  5.0744164e-01
 -5.5191316e-02
  1.3375547e-02
  1.6450588e-01
 -1.0110560e-02
 -1.5446274e-01
  1.4753637e-01
  2.2669321e-01
  7.6546506e-03
  4.7199868e-02
  2.7453011e-01
  3.5131949e-01
  9.5716760e-02
 -3.6322080e-02
 -1.3118906e-01
  1.6884691e-01
  1.6939555e-01
  1.0817669e-01
  5.9851769e-02
  1.1025609e-01
 -2.2939820e-02
  1.4175820e-01
 -2.3074621e-01
  2.8409833e-01
 -4.5950454e-02
  3.8209736e-02
 -1.9753119e-01
  4.2770863e-02
 -1.3088923e-03
 -2.4964008e-02
 -2.0078450e-02
 -7.6167062e-02
 -5.8968760e-02
 -1.9005857e-01
  6.2913690e-03
 -4.2251877e-02
  3.8126417e-02
  3.0743175e-03
  3.2733571e-02
  9.3785889e-02
 -5.8649991e-02
  3.5466887e-03
 -7.0981316e-02
  1.5250677e-01
 -1.6640094e-01
 -8.1234939e-02
  8.6660400e-02
  6.8457529e-02
  1.5100953e-02
  4.3466613e-02
  3.3602808e-02
 -3.9678413e-02
  3.4233657e-01
  3.9093889e-02
  7.3987432e-03
 -1.2950197e-01
  7.6628119e-02
 -9.8378733e-02
  1.0302015e-01
  2.9486006e-01
  1.4284670e-01
 -1.1482000e-01
 -9.3095535e-01
  2.3911968e-01
 -1.0451583e-01
  6.0470507e-02
  5.0050184e-02
  1.3955043e-01
  1.0953257e-01
  3.0406061e-01
  3.2156568e-02
 -8.5479476e-02
  6.9566397e-03
  1.8339047e-02
 -2.3338713e-02
  2.8860388e-02
  1.0792982e-01
 -5.5274174e-02
  1.4268308e-02
  2.9873824e-02
  2.9260832e-01
  1.4038999e-01
 -7.1340596e-04
  3.3537713e-01
  5.7591394e-02
 -2.4515621e-02
  1.1706705e-01
  9.7525902e-02
  4.4714123e-02
  2.4454702e-02
 -5.6205917e-02
  5.2161729e-01
 -1.1418255e-01
  1.6855801e+00
  1.2302401e-02
 -5.9164619e-01
 -5.4628424e-02
  1.5086206e-02
  5.8417939e-02
  1.6414514e-02
 -1.6987120e-01
  1.4751621e-01
 -5.9340063e-02
  4.8640519e-01
  3.4490943e-02
  1.3801815e-01
  1.2455775e+00
  6.1417431e-01
  1.0589239e-01
  4.3683568e-01
  3.4865597e-04
  4.5535685e-03
 -4.0066363e-03
 -7.1203403e-02
  2.0513275e-01
  1.6869922e-01
  8.1217766e-02
 -6.2069362e-01
  8.2132891e-02
  1.5325066e-01
  2.3401114e-01
 -1.0507843e+00
 -2.1285118e-04
  1.6803926e-02
 -1.9809905e-01
 -8.8094401e-01
 -1.2505726e+00
 -1.2944130e+00
  8.5705256e-01
 -1.4610974e-01
 -3.4382407e-02
 -3.0619297e-02
 -5.0034696e-01
  2.0030593e-02
 -3.2159698e-01
 -1.8836124e-01
 -1.4227897e-01
 -2.8812850e-01
  1.5107211e-01
  3.6235914e-02
 -2.9490063e-01
  9.9437915e-02
 -4.3158114e-01
 -3.6305110e-03
 -9.6825890e-02
 -2.4443945e-01
 -2.2941756e-01
 -1.3026425e-01
 -1.4619279e-01
 -1.1165292e-01
 -1.2304871e-01
 -3.9802648e-02
 -8.4600262e-02
  3.4693463e+00
 -3.4493688e-01
 -2.7450312e-02
 -3.0595875e-01
 -8.9100182e-01
 -2.2053599e-01
 -4.7154509e-02
 -6.4722411e-02
 -3.6042225e-01
 -1.1278532e-01
  7.1291976e-02
 -4.6811897e-01
 -2.9145211e-01
 -1.2158734e-01
  3.3023342e-02
  1.7695794e-01
 -1.7176326e-02
 -1.6054811e-01
  1.1066993e+00
  2.2274362e-01
 -1.0912144e-01
  3.5301048e-02
  1.1088277e+00
 -2.9868674e-01
 -4.2230856e-02
  3.5793430e-01
 -9.8277330e-02
 -3.2958356e-01
 -1.7747808e-02
  5.3023856e-02
 -1.4017193e-01
 -2.1703719e-01
  8.4645480e-01
  1.1137170e-01
 -1.0606154e-02
 -2.7624846e+00
  2.9841182e-01
  6.1641145e-02
 -1.2773657e-01
 -1.9941853e-01
 -5.5919796e-01
 -3.6905766e-01
  3.4934491e-01
 -1.1010362e+00
 -1.5664832e-01
  9.5254809e-01
  1.8083434e-01
 -2.3689444e-01
 -2.4454879e-02
 -4.6226200e-02
 -1.7671026e-01
 -2.7035892e-01
 -1.2448875e+00
  6.5193132e-02
 -5.8819395e-01
  1.1225066e-01
  3.8417298e-02
 -1.8513635e-02
  1.3866638e-01
  9.5338635e-02
  2.7517833e-02
 -3.6879882e-02
 -2.1406945e-02
 -1.2344778e-01
  5.1934564e-01
  1.3792710e+00
  1.0957839e+00
 -2.4249046e+00
 -2.9775143e-01
 -2.4747963e-01
 -2.9620710e-01
 -5.5820125e-01
  2.0548135e-01
  8.9903921e-02
 -5.2754459e-04
 -4.7897566e-02
  1.9085981e-01
  2.0165262e-01
  1.3054376e+00
  1.7648318e-01
 -2.1954404e-01
 -2.3108624e-01
  1.4128725e-01
  2.3912594e-02
  3.1786484e-01
  1.8143539e-01
  1.7225800e-01
 -3.5287276e-01
 -3.8393551e-01
  2.6264483e-01
  1.7566293e-01
  1.0015531e-01
 -4.6839751e-02
 -8.0244420e-03
  1.0932842e-02
  6.5049492e-02
  2.8735530e-01
 -9.2885983e-01
  6.5134239e-01
 -1.4405392e-01
  1.2619340e-01
  4.2428148e-01
 -2.2148553e-02
  1.1988572e+00
  9.5519942e-01
  1.5281363e+00
  2.9467481e-01
 -3.1519282e-01
  7.9645997e-01
  2.2524688e+00
  4.3992651e-01
 -2.5594291e-01
 -1.4055838e-01
  1.0504249e+00
 -3.6834273e-01
  1.4537888e+00
 -4.2920014e-01
 -2.2443456e-03
  2.1845493e-01
  4.1220215e-01
  5.0096428e-01
 -1.0246516e+00
  3.6474821e-01
 -1.2713327e+00
  3.0835825e-01
 -1.6029469e+00
 -1.5049661e-03
  2.4943800e-01
 -2.2791651e-01
 -3.3551580e-01
  8.1700375e-03
 -9.1193169e-01
 -1.2797219e-01
 -1.6992360e-01
 -2.3975188e-01
  1.0479464e-01
  3.3370855e+00
  3.9061941e-02
 -1.8609434e-02
 -7.3513277e-02
 -4.1906919e-02
 -9.6742558e-01
  5.2245486e-01
  4.3918267e-02
 -2.5811421e-02
  3.5906154e-01
 -9.1659334e-03
 -2.2020461e-01
 -9.9406280e-03
 -3.8521174e-01
  6.7140716e-01
  1.4461483e-01
 -6.6644132e-01
  2.4696413e-01
  1.7611606e-01
 -1.5454060e-01
  2.0304553e-01
 -1.9498400e-01
  1.2193232e-02
 -6.7283916e-01
 -1.7663902e-01
 -2.5263190e+00
  2.9310286e-01
 -1.1017134e-02
 -1.9732155e-02
 -1.0643063e-02
  6.7397499e-01
  8.0203898e-02
  1.5307793e-01
 -7.7311583e-02
 -4.1007068e-02
 -5.8655411e-02
 -1.5675715e-01
 -6.9577262e-02
 -1.5618621e-01
 -7.0813820e-02
 -1.9609950e-01
 -1.1802014e-02
 -2.9030817e-02
  9.5437035e-02
  5.3576812e-02
  8.1892157e-01
 -2.4139024e-02
  1.6770020e-02
  3.8089719e-02
  8.5664471e-04
 -3.6012235e-01
  9.4340228e-02
  5.8989171e-03
 -3.8502462e-02
 -8.4393583e-02
  2.8512400e-02
  6.8023604e-01
  3.7046725e-01
  2.2660267e-02
  7.9300678e-01
  1.1733710e+00
  6.3359898e-01
 -9.1454107e-01
  5.4532605e-01
  1.3432951e-01
  4.9127350e+00
 -5.7710028e-01
  7.4227369e-01
 -1.4977957e+00
  1.1551808e+00
  2.6299283e-01
 -8.3181284e-02
  3.5316581e-01
  2.1996996e+00
 -1.4422973e+00
  5.8846718e-01
  4.4266185e-01
  1.2313954e+00
 -2.8990668e-01
 -2.5422752e-01
 -5.6992501e-01
 -9.9827796e-02
  4.5346379e-01
  5.1030242e-01
 -4.4800919e-02
  4.6049336e-01
  3.4427810e-01
 -2.9118967e-01
  1.4761259e-01
  5.7511352e-02
 -2.0943737e-01
  1.3486810e-02
 -1.9425141e-02
 -1.3927637e-01
  7.4488953e-02
  2.8033292e-01
 -4.9240426e-03
  1.5995331e-01
 -1.8693377e-01
 -7.9205949e-03
  1.2037835e-01
  3.0034654e-02
  1.0566390e-01
 -1.6992647e-02
  1.4430387e-02
  1.9776627e-02
  7.3183082e-02
 -4.7353631e-01
 -1.3073519e-01
  2.0577816e-02
 -4.9444638e-02
 -2.3979200e-02
 -1.4172304e-01
 -3.5102960e-02
  1.5314764e-01
 -2.2335391e-02
  8.4541272e-03
 -1.5651439e-01
  1.5548570e-01
  4.3581679e-02
 -1.1777199e-02
 -1.0567891e-04
 -1.2194768e-01
 -5.6511149e-02
  1.1373314e-01
  2.7138108e-01
 -4.2092016e-01
  1.2580478e-01
 -3.0569997e-01
 -5.1104963e-02
 -2.0728305e-01
  1.6690466e-01
  8.6946085e-02
  1.1557749e-01
 -5.9094507e-02
 -1.1162598e-01
 -3.2177389e-02
  4.3106452e-02
 -6.1155941e-02
 -1.0223258e-01
  4.0815294e-02
  6.6880345e-02
  4.4332683e-02
  1.1295018e-01
  4.0321171e-02
 -4.0383711e-02
  5.7005119e-02
  1.3866515e-01
 -2.4793326e-04
  1.6773322e-03
  5.6724362e-03
 -1.2250913e-02
 -1.0674246e-01
  1.2780858e+00
 -2.2007996e-01
 -2.7809240e-02
  5.3839064e-01
 -7.4334353e-01
  1.6114109e+00
 -4.9708616e-02
 -2.2502935e-02
 -5.0868057e-02
 -1.1146219e-01
  7.0294216e-02
  4.2442400e-02
 -1.2039936e-01
  1.0897265e-02
  4.6513855e-02
 -2.8500730e-02
 -2.3794925e+00
 -2.4454532e+00
  5.4513302e-02
  5.8020666e-02
  1.0883063e+00
  1.0603462e-01
 -2.3357490e-01
 -5.5938266e-02
  2.9988050e-02
 -6.8393789e-02
  1.0100793e-01
 -1.7359231e-01
  1.7493705e-01
 -1.8849974e-02
  3.8229804e-02
 -1.9107193e-01
 -1.4260912e-01
  3.9126750e-02
 -8.3195128e-02
  6.6758104e-02
 -2.6287186e-01
  1.5046182e-01
  1.9574839e-01
 -5.1211938e-02
 -2.9717445e-02
 -1.2439767e-01
  4.6043056e-01
  2.3871441e-01
 -9.4248019e-02
  1.4521746e-01
  4.3978021e-03
  2.7812895e-01
  1.3469313e-01
  5.8209352e-02
  5.2502081e-02
 -1.4777614e-01
 -4.4856861e-02
 -1.2224464e-02
  6.5643869e-02
 -3.1454302e-03
 -1.7078940e-02
  1.4603078e-02
 -4.9954526e-02
  1.6361739e-01
 -8.8410728e-02
  2.0209510e-02
 -2.6473213e-02
  1.7112163e-01
  9.5625870e-02
  4.3189339e-02
  1.8357642e-02
 -9.2894413e-02
  1.5462554e-01
 -1.4925325e-01
  2.7156614e-02
 -7.3958613e-02
 -8.3657838e-02
  1.9065190e-02
  1.1276022e-02
 -6.6319175e-02
  1.7016692e-01
 -5.6620373e-04
  1.1633337e-01
 -4.3894466e-02
 -5.7497680e-02
  2.7206361e-02
 -2.4125986e-02
 -4.9727941e-03
  3.1652756e-02
 -3.1626996e-01
  2.4216394e-03
  1.3920793e-01
 -3.0070660e-01
 -1.9076161e-01
  1.3557906e-01
 -1.2880418e-02
  2.9820463e-01
 -2.5543618e-01
  3.0679557e-01
  1.0709602e-01
 -1.3525729e-01
  5.5026151e-02
 -3.5811380e-02
  2.9368604e-02
 -1.8148850e-01
 -1.4621604e-02
 -1.0248657e-01
  5.7228059e-01
  8.8616259e-02
 -4.5574466e-03
 -3.3882394e-02
  6.5034740e-02
  9.1893800e-02
  1.2424245e-01
 -9.8318174e-02
  5.2811742e-02
 -1.3345145e-01
  1.0767251e-01
  7.8875490e-02
 -2.4539527e-01
  7.4667096e-02
  1.3268520e-01
 -6.3285910e-02
  2.4205318e-01
  2.5708199e-01
  4.2086288e-02
  7.9012364e-02
  5.5647433e-01
 -5.5724028e-03
 -2.1163906e-01
 -1.0927449e-01
 -1.0641812e+00
 -5.1146007e-01
  5.1324755e-01
  1.9397629e+00
 -4.2238912e-01
 -1.3632061e+00
  2.1821794e-01
 -2.8424799e-01
 -4.2030573e-01
 -8.6280294e-02
 -2.5638189e+00
 -1.0892680e-01
  7.1403079e-02
  1.1994876e+00
 -6.6337359e-01
 -1.0103099e+00
  8.7864727e-01
  9.3472022e-01
  5.2828985e-01
 -2.8318307e-01
 -2.1992652e+00
  2.9383035e-02
 -3.7054428e-01
  5.2064055e-01
 -7.3506123e-01
 -1.5496283e+00
 -3.8014609e-01
  5.8667537e-02
 -3.4976751e-01
  1.5099637e-01
 -5.4413732e-02
 -1.1116141e-02
 -1.4432825e-01
  2.3627312e-01
  2.7983990e-01
  6.7758915e-04
  1.1080903e-01
  4.4561643e-02
  4.3633193e-02
 -1.6069052e-01
 -7.3285125e-02
 -1.9323231e-01
  5.6547612e-02
 -4.4450060e-02
  1.5630259e-01
 -2.1230908e-01
  5.6794561e-02
  3.0220002e-01
 -8.4848683e-03
 -9.9032531e-03
  1.3599251e-02
 -2.4798778e-01
 -8.2966529e-02
  5.6497410e-02
 -2.7431506e-01
  5.7381396e-03
 -7.1088083e-02
  5.9258893e-02
 -2.1328256e-01
  2.1193664e-01
 -3.1864735e-01
 -2.4335071e-02
  1.4774837e-01
  8.0589853e-02
  3.9713781e-02
 -1.0250772e-01
 -2.4358371e-01
 -1.2386150e-03
  1.7099900e-02
  9.3447708e-04
  3.0706632e-01
 -2.0664275e-01
 -3.0037779e-02
 -3.9449070e-02
  7.3919185e-02
  4.0461324e-02
  6.4164497e-02
  2.5264630e-01
  2.6609531e-02
  2.0036936e-02
  2.3658487e-01
 -9.0648822e-02
  4.6735920e-02
 -1.0798260e-01
 -1.5128876e-01
 -3.8428083e-02
  8.9778237e-02
 -2.4659196e-01
 -8.5154343e-03
 -3.6624554e-01
  1.7685252e-01
  7.9395771e-02
 -1.1202119e-01
 -8.3221436e-02
  9.5169067e-02
  2.3967966e-01
 -3.4693488e-01
 -1.8684733e-01
  1.1270715e-01
  7.8503624e-02
 -2.1208752e-02
 -8.3353586e-02
  5.8230132e-02
 -9.9607974e-02
 -5.7366401e-02
 -9.6912794e-02
  2.2550096e-01
 -2.9648878e-02
  3.1836715e-01
  2.5484815e-02
 -1.7497273e-02
  3.0576602e-01
  1.8492796e-01
  1.6312662e-01
 -1.3162330e-01
  3.6998626e-02
 -8.4783763e-02
  2.8411123e-01
  4.1870527e-02
 -1.7832880e-01
 -4.7782321e-02
 -8.6472733e-03
  1.4448489e-02
  3.3242613e-02
 -2.5080433e-01
  9.7568072e-02
 -1.0391656e-01
 -1.6161162e-01
  7.9945105e-01
  6.7994332e-01
  1.5825865e-01
 -1.1182987e-01
  6.3414425e-01
 -9.8324299e-01
 -6.5707404e-04
 -1.6227062e-01
  1.1634859e-01
 -5.3930134e-01
 -1.0871219e-01
 -1.2897949e-01
 -3.6455795e-01
 -1.1711373e-01
 -2.5196651e-03
 -1.4828514e-02
  8.7337933e-02
 -8.3047968e-01
  7.0782566e-01
 -1.2359616e+00
  3.9401643e-02
 -4.5819990e-03
 -4.0606577e-02
  3.9352381e-01
 -1.4603233e-01
 -5.4019578e-02
  3.3046710e-01
 -4.7094718e-02
 -1.1122543e-01
  1.0749404e-01
 -4.8318081e-02
  5.2029219e-02
  2.7263401e+00
 -1.8303235e+00
 -2.0939554e-01
  5.3884512e-01
 -5.6730413e-01
 -1.7402586e+00
  2.4669836e+00
  6.3964009e-01
 -1.4467348e-01
  1.9887528e-01
  7.3805265e-02
  5.4690562e-02
 -1.1089764e+00
  1.2310372e-01
 -3.4146816e-03
  2.3416484e-02
 -1.2146397e-01
 -2.4297180e+00
  2.2984867e+00
  3.6464658e-01
  1.2707397e-02
  1.5126395e-03
 -1.0367062e+00
  5.3476506e-01
  1.0234416e-01
 -1.9116357e-01
  2.3077568e-01
 -2.7971208e-01
  1.0202922e-01
 -6.7056797e-02
  2.7203340e-02
 -1.0565288e-01
 -9.2252754e-02
 -2.1978142e-02
  6.7734264e-02
 -9.5262222e-02
 -8.9483410e-02
 -3.9060004e-02
 -6.4983055e-02
 -6.3014984e-02
  4.2901215e-01
 -2.0570669e-01
  2.5126010e-02
  2.0001437e-01
  7.8714758e-02
 -7.5787216e-02
 -2.7568327e-02
 -1.0880143e-01
  6.7327499e-02
 -3.3934642e-02
  2.7662271e-01
  5.9946375e-03
 -1.3663611e-01
 -7.5484812e-04
 -1.5725134e-02
  2.0456836e-02
  6.4796112e-02
 -4.3586273e-02
  1.6043548e-02
 -1.1905932e-01
  1.9800070e-01
  2.2601296e-01
  7.9618394e-02
 -1.1214905e-01
 -2.8932732e-01
 -1.5946993e+00
  3.4013814e-01
 -1.3460391e+00
 -3.2473940e-02
  3.9333134e+00
 -8.3241373e-01
 -1.9475056e+00
  1.4917307e-01
 -1.0549674e-01
 -1.1467811e-01
 -3.2037690e-01
 -4.2149916e-02
 -2.6220253e-01
  1.2702091e-01
 -1.1807846e-01
  7.6490790e-03
 -1.9445896e-01
 -2.0565692e-01
 -1.5094709e-01
  6.2799835e-01
  6.5600507e-02
 -6.3365415e-02
  5.4924047e-01
  3.5159796e-02
  1.8919224e-01
  5.0834668e-01
 -4.7920026e-02
 -1.6991287e-01
 -3.2849971e-02
  7.8980468e-02
  1.5393046e-01
 -1.3753324e+00
 -4.6471897e-01
  2.2057453e-01
 -9.7592312e-01
  2.4546312e-01
  8.7595683e-01
  1.2889056e-02
  1.6353827e-02
  1.4918792e+00
  5.2025110e-01
  2.1564938e-01
  7.5538594e-01
 -5.1657152e-01
  3.2168386e+00
  2.2857958e-01
  1.8752601e+00
 -1.1778427e-01
 -1.0622982e+00
 -5.1208348e+00
  3.1538790e-01
 -6.1185438e-02
  1.4912613e-01
 -5.2560353e-01
 -1.8529562e+00
  5.2910781e-01
 -1.5557156e-02
 -7.0819545e-01
 -1.7274660e-01
 -5.4483999e-02
  1.8495027e-02
  8.1654042e-02
 -9.4464886e-01
 -2.6753268e-01
  2.2814669e-01
 -1.9173549e-02
  3.4554076e-01
  1.8004952e-02
  1.3980649e-01
 -5.3604852e-02
  1.9779021e-01
 -3.4625915e-01
 -3.1165875e-02
 -1.2719396e-01
  3.0910717e-03
  4.4431202e-03
  2.5347468e-02
 -2.6932687e-01
  7.1338609e-02
  1.9796745e-01
 -2.5447465e-02
 -1.4652226e-02
 -2.7568933e-02
  9.8524861e-02
  1.3753307e-01
  8.4443316e-03
  2.3648167e-02
 -1.5554092e-02
 -1.7065768e-01
  7.3691659e-02
  1.0044707e-01
 -1.6965996e-01
 -6.2336177e-02
 -1.7364232e-02
 -5.8868311e-02
  3.1424209e-01
  1.2809775e+00
  1.3997746e+00
  6.9737256e-01
  1.0355469e+00
 -4.8411983e-01
  1.2601093e+00
  6.4321542e-01
  1.1607442e-02
  8.5438538e-01
  9.9524617e-01
 -4.3094325e-01
 -1.2877646e-01
 -4.8557039e-02
 -7.4471748e-01
  1.0696781e-01
 -3.1159925e-01
  7.7070260e-01
 -2.0905726e-01
 -1.0694367e-01
  8.8616401e-02
  4.1451240e-01
 -1.1659874e+00
  4.2390290e-01
 -2.1027802e-01
  4.5480198e-01
  5.1287317e-01
  5.2132502e-02
  1.0520808e+00
 -4.2037582e-01
 -1.5056515e-01
  5.7594213e-03
 -4.5466926e-02
 -3.1919055e-02
  6.4599819e-02
 -6.0980998e-02
 -4.5816332e-02
  4.0682141e-02
 -2.7124483e-02
  2.3359881e-01
  2.2913454e-01
 -9.8601356e-03
 -6.5958738e-02
  2.1269076e-02
 -2.6108545e-01
 -5.1009491e-02
 -3.5872649e-02
  1.9199824e-02
  6.7503698e-02
 -7.7474900e-03
  9.9499011e-04
 -1.9083615e-01
 -2.8395000e-01
 -1.0331276e-01
  5.0950301e-01
 -6.4255767e-02
 -3.1214327e-02
 -7.8752577e-02
  3.6145184e-02
  2.8973413e-03
 -3.7198588e-01
  6.9851026e-02
  1.9519918e-01
  9.1287121e-02
 -1.2207805e+00
 -3.9448002e-01
  1.4747303e+00
  2.7624717e-02
  9.5349169e-01
  3.1284988e+00
 -3.7881997e-01
 -1.3071954e-01
 -4.5541771e-02
  7.8791656e-02
 -6.6609599e-02
 -7.8984267e-01
  3.5068983e-01
  1.0421174e+00
  1.4578335e-01
 -5.7949714e-02
  1.4167131e-01
  1.4697097e-02
 -4.2634764e-01
  9.5730394e-02
 -2.7848527e-01
 -7.3023206e-01
  1.1477164e+00
 -2.7482411e-01
  3.4245528e-02
  1.1689616e-01
 -1.4559174e-01
 -9.7877771e-02
 -8.2001969e-02
 -3.6387682e-01
  8.3550610e-02
 -7.1407491e-01
  8.6974151e-02
  7.1784943e-02
 -2.7211918e-02
  1.8213086e-01
  2.4266714e-01
  1.2511091e-01
 -5.9163447e-02
 -1.0506568e-01
  3.7334237e-02
  3.2579708e-03
 -5.2249916e-02
  1.4331156e-01
 -1.1730254e-01
  1.6147541e-01
 -8.2730368e-02
  4.9272209e-02
  8.1448041e-02
  9.4778731e-02
  1.3575660e-01
 -4.7032870e-02
 -1.8071091e-01
 -1.2790104e-02
  1.9153072e-01
 -4.3576688e-02
 -1.1593726e-02
 -1.1215980e-01
  3.2593515e-02
 -6.5194897e-02
  2.1568792e-01
  1.1805249e-01
 -2.9812418e-03
  1.0250445e-01
 -1.9582263e+00
  4.8779473e-01
  2.6416771e+00
 -7.1292973e-01
 -6.4805412e-01
  8.3182228e-01
  1.2792063e+00
  7.4587035e-01
 -6.9065416e-01
  1.0649738e+00
 -3.7111566e+00
  1.1531192e+00
 -4.5354465e-01
  9.1584526e-02
 -9.1788717e-02
 -2.3043427e+00
 -6.8613070e-01
  8.8678151e-01
  1.1707940e+00
  1.1531428e+00
 -3.0548317e+00
 -1.4354483e+00
  3.4496093e-01
 -6.7174733e-02
  2.0714908e+00
 -1.5121392e+00
 -4.0171713e-01
 -5.3324778e-02
 -4.3701136e-01
 -2.0919435e-01
 -4.9139194e-02
  2.4981909e-02
 -3.5078754e-03
  1.2529649e-01
  2.3635565e-01
 -6.6517258e-01
  6.1284825e-02
  5.8803987e-02
 -5.3928424e-02
  1.3429424e-01
 -3.5127230e-02
 -9.0634733e-02
  3.4945437e-03
  7.8087181e-02
 -8.2689263e-02
  7.5499937e-02
 -9.8078674e-01
 -2.0607328e-01
 -2.9553410e-01
 -1.9221038e-01
  4.6318084e-02
  1.7745052e-02
  5.4891920e-05
  2.9382709e-02
  8.4947623e-02
  1.2524326e-01
  1.9164311e-03
  1.6775300e-01
  2.4690967e-02
  3.9129172e-02
 -1.5495433e-01
 -5.7402667e-02
 -4.8449546e-02
  5.3966159e-01
  2.1153221e-01
 -6.0284089e-02
 -8.4156893e-02
  5.7541110e-02
 -1.2601303e+00
 -1.7271911e-01
 -1.2536796e+00
  6.2391534e-02
  1.6114047e-01
 -4.1286249e-02
  2.0035401e-02
 -2.9423200e-02
 -1.8965318e-04
  8.9616068e-02
  2.7573161e-02
  2.9016194e-01
 -1.1459345e-01
  4.7930954e-03
 -2.5613232e+00
 -1.8012046e-03
 -2.4023740e-02
 -1.2743585e-01
  4.3373555e-02
  4.6106800e-02
 -2.4831535e-02
  1.0265903e-01
 -4.7322221e-02
  2.0278599e-02
 -5.5544935e-02
 -1.9113626e-02
  1.4795482e-01
 -1.7966202e-02
 -9.7879368e-01
 -1.3540334e+00
  2.2031758e+00
 -1.6816860e+00
 -8.0868113e-01
 -3.4699896e-01
  8.6842783e-02
 -2.2070706e+00
 -1.4426179e+00
 -2.2394075e+00
 -1.3474889e+00
  3.9116659e+00
 -5.8274019e-01
 -3.6341012e-02
 -1.5807895e-01
 -1.6034879e-01
 -3.7984711e-01
 -1.6837040e-01
 -1.3276622e-01
 -4.1665471e-01
 -4.5606682e-01
 -1.0247533e+00
 -9.5786810e-01
  2.4459350e-01
 -5.1820159e-01
  1.4014381e-01
  2.9893047e-01
 -2.9304942e-01
 -6.9633402e-02
 -1.1142457e-01
 -2.2384253e-01
 -7.0042215e-02
  1.4255558e-01
 -1.1008838e-03
 -7.0793075e-03
 -1.7798651e-02
 -7.4589707e-02
  1.5060092e-02
  1.1672398e-01
  8.8862076e-02
 -2.6832573e-02
 -3.4550846e-01
  1.2158065e-01
  4.2509090e-02
  1.4988245e-02
 -8.2761168e-02
  1.2850156e-02
  2.4473809e-01
 -1.3649991e-01
 -2.0764466e-02
  1.4009371e-01
 -1.7409943e-02
  4.9215503e-02
  4.5854454e-03
 -1.2527701e-03
 -3.9225867e-01
  3.4463000e-02
  1.2811005e-02
  1.2300415e-01
  1.9685041e-02
  4.6160903e-02
  2.5381371e-01
 -4.5878910e-02
  1.6959414e-01
 -6.3848764e-01
  4.3383576e-02
  2.4658903e-02
  4.7103260e-03
  3.4039810e-02
  4.6163145e-01
  3.8602126e-01
 -4.1355401e-02
  1.6301505e-02
 -8.8814467e-02
  6.5775767e-02
 -2.7037768e-02
  1.7684452e-01
  1.4749955e-01
  1.1106885e-01
 -3.1778406e-02
  2.2191634e-02
  1.5554832e-01
 -1.5096277e-01
  1.4228739e-01
 -5.5427924e-02
 -9.7800717e-02
 -4.8201732e-02
  3.2864161e-02
 -7.5370207e-02
  1.1813653e-01
  1.9930890e-01
  1.1803265e-01
 -6.2519208e-02
  2.0460439e-01
  1.2106194e-01
  1.5997675e-01
  3.7534888e+00
  8.6028028e-01
 -1.8252380e-02
  1.9054488e+00
  9.3609944e-02
 -2.5943372e+00
 -2.2710919e+00
  6.5616000e-01
 -6.6711850e-02
 -1.9481827e-01
  3.9756629e-01
  1.8635939e-01
  6.2207174e-02
  1.6256623e-01
  1.5869640e-01
 -2.1385060e-01
  3.4121022e-02
 -8.6684115e-03
 -7.6963276e-01
 -4.0718401e-03
  1.3798061e-01
  7.7103215e-01
  8.0158219e-02
 -1.0334713e-01
  6.2002484e-02
  1.5442204e-01
  4.0220875e-01
 -3.9110631e-01
  8.6852185e-02
  3.8628198e-02
  8.3681129e-02
 -1.5926830e-01
  1.4202002e+00
 -5.6324270e-02
  2.7498357e+00
  8.1232107e-01
  1.0646635e-01
 -7.4886966e-01
  1.4556774e-01
  8.1520909e-03
 -2.0682812e-01
 -8.4949180e-04
  1.5648374e-01
 -2.3093679e+00
 -3.6410883e-01
 -2.2090840e-01
  3.1300560e-02
 -3.4109673e-01
  5.5166537e-01
 -2.3405465e-01
 -1.1052815e+00
  1.9566107e+00
  3.5495999e-01
 -9.6852314e-01
 -1.3966866e-01
  1.7696574e-01
  2.3383009e-01
  3.0905783e-01
 -2.9071099e-01
  8.1674218e-02
  7.1377903e-02
  3.1586224e-01
 -7.5310370e-04
 -7.7415064e-02
 -2.0567332e-01
 -1.9007226e+00
 -1.1703555e-01
 -5.7407463e-01
 -1.6502848e-01
  1.1572001e+00
  9.0094739e-01
 -2.3096750e+00
 -9.6074499e-02
  1.0131643e-01
 -3.6796656e-01
 -2.3519499e+00
  1.3632445e+00
 -4.2247158e-01
  7.2271812e-01
 -2.0831321e-01
  1.4665979e-01
  2.0542994e+00
 -3.5190222e-01
 -2.8342676e+00
 -8.0841318e-02
 -1.2256173e+00
 -7.6031340e-03
 -1.5385802e+00
 -6.4996660e-01
 -1.3294223e-01
  4.7552884e-02
  7.8331307e-02
 -4.8608005e-01
 -2.6339909e-02
 -1.1774453e-01
 -1.5998654e-01
  2.2592992e-01
  4.1756462e-02
  8.8570312e-02
  1.4000483e-01
 -4.6539062e-01
  1.8975401e-01
 -6.7569032e-02
 -1.3985381e-01
  1.7977163e-02
  1.4700558e-03
 -3.7223160e-02
  1.9000852e-01
 -1.4928530e-01
  1.5543012e-01
  5.1206654e-01
  5.1796688e-03
  1.1100725e-01
 -2.9086566e-01
  7.6323375e-02
  8.1188582e-02
  6.2192239e-02
 -6.6539384e-02
  8.8968471e-02
 -7.9002328e-02
 -1.2755165e-01
  1.0384148e-01
  9.5894575e-02
 -2.7655195e-03
 -1.9236696e-01
 -2.4500588e-02
 -1.8228734e-02
  2.0721834e-02
  1.0106517e-01
 -7.2034456e-02
 -6.5907449e-01
  4.3748878e-02
  5.6496841e-01
  1.9568698e+00
 -1.5443246e+00
  1.7063847e-01
  2.0468272e-01
  2.6564702e-01
 -5.0277226e-02
 -4.3253487e-01
  1.5491670e-02
  5.7001716e-01
  6.2015134e-01
  3.8655272e-01
  2.3646213e-02
  2.7237689e-01
  6.7367233e-02
 -8.9933695e-03
  1.0741638e-01
 -6.6524184e-01
 -3.8340073e-02
  3.9074251e-01
  1.3652539e-01
 -1.9274166e-01
 -8.2294956e-02
  1.5395564e-01
  4.2223018e-03
 -1.2160891e-01
 -3.5463247e-02
  2.6868749e-03
  1.7858210e-01
  5.0266421e-01
  4.1095644e-01
  4.7857799e-02
 -7.5798273e-01
  1.1783440e+00
 -1.3166188e+00
 -6.2973064e-01
 -2.1675520e-02
  3.7614131e-01
  1.7251107e-01
  1.5008679e-01
 -3.4456545e-01
  3.9662954e-01
  2.8200707e-01
  1.6458568e-01
 -2.5839394e-01
 -6.9743536e-02
 -2.8412781e+00
  1.9057424e-01
 -1.8651588e-01
 -8.8989541e-02
  1.1482861e-01
  4.9433149e-02
  1.1453238e-01
 -3.8609024e-02
  2.4857180e-02
 -1.2286383e-02
  1.7150818e-01
  1.9755632e-01
 -8.7751262e-02
  1.3671504e-01
 -8.8197388e-02
 -1.3050266e-01
 -5.6712266e-02
 -4.3042330e-03
 -4.8335284e-01
 -1.1301872e-01
  2.9887590e-01
 -8.8981941e-02
  1.0391810e-02
 -2.5845179e-01
  1.4258882e-01
 -4.2501280e-01
  3.5369828e-01
  6.5311961e-02
  1.3294974e-01
 -2.4648305e-02
  7.1834132e-02
  9.1661915e-02
  8.4716320e-02
  6.5095752e-02
  2.7802014e-01
 -1.6456163e-02
 -1.3576289e-01
  3.5635162e-02
 -2.6474389e-01
 -1.1882009e-01
 -6.0842489e-03
 -2.5589351e-02
 -4.0809929e-01
  2.1944346e-02
  2.4881613e-01
  2.0232044e-02
 -1.7609397e+00
 -1.0267367e-01
 -1.1952100e-01
  9.2754968e-02
  6.0873616e-01
  1.8948698e-02
  1.9581417e+00
 -1.2638095e-02
  4.5455866e-02
  2.2408593e-01
  6.4726256e-02
 -1.4315020e-02
  2.7695593e-01
  1.6360706e-01
  2.1893434e-02
  7.1975820e-02
 -2.7087197e-01
  5.0353478e-03
 -1.4320161e+00
 -2.9906690e-01
 -8.1473839e-01
 -4.5900294e-01
 -3.9450374e-02
 -1.2844746e-01
  6.3466959e-02
  2.6822928e-02
 -2.2573635e-01
  3.6176798e-01
  2.0616616e-01
  2.0714831e-01
 -2.6806554e-01
  8.6699508e-02
  4.3491025e+00
  4.2624173e+00
  5.1249154e-02
  1.5116353e+00
  1.5694611e-01
  7.6245755e-01
 -1.4160822e-01
 -4.6378407e-03
 -1.4900370e+00
 -9.8947281e-01
  6.3126063e-01
  1.2922624e+00
 -1.9735435e+00
  1.3339826e-01
  2.3898368e-01
  5.4490097e-02
 -2.5363353e-01
 -3.9443502e-01
 -5.7852201e-02
 -9.8989289e-03
 -1.9978699e-01
 -1.5518621e-01
 -9.2933066e-03
 -1.8560521e-02
  4.7276899e-02
  2.4427329e-03
  3.4918834e-02
  6.6753328e-02
  2.2739820e-01
 -6.7017108e-02
  4.2097904e-02
 -4.4214755e-02
 -4.7214804e+00
  1.3003731e+00
  4.9501115e-01
  1.3234428e-01
  5.2038354e-01
 -2.7066875e-01
 -4.9007317e-01
 -4.3804991e-01
  3.2294455e-01
 -6.6966608e-02
 -1.2381717e-01
  1.2507012e-01
  1.8541430e-01
  1.6317855e-01
  1.0808051e+00
  2.1751437e-01
 -1.8372101e-01
  2.3081182e-01
 -6.3711083e-01
  3.2658526e-01
  3.5847463e-02
 -6.4690125e-01
 -9.4620876e-02
  5.9477830e-01
  1.6450976e+00
  9.9950485e-02
 -9.7309768e-01
  6.9377907e-03
  1.7162308e-01
  1.0124782e-01
 -1.0952893e-02
  2.5389826e-01
 -7.9302317e-01
  1.6864312e-01
 -3.5248482e-01
  4.6842265e+00
  9.7111875e-01
 -2.8040007e-02
 -2.1567719e+00
 -8.3367598e-01
  1.2631512e-01
  2.7990991e-01
  1.5844667e+00
  7.1549982e-02
  1.4948277e+00
 -5.1487988e-01
  3.3884370e-01
  2.5397480e+00
  9.1062963e-01
  2.5244472e+00
 -2.1768236e+00
  3.6533856e-01
  9.2559278e-01
 -6.4311326e-01
 -2.2696649e-01
  5.7219422e-01
 -6.3026178e-01
  1.3601000e+00
  7.4815243e-01
  1.7134583e-01
  5.6332871e-03
 -2.6752090e-01
 -8.9775212e-02
  2.2279321e-01
  1.1581235e-01
 -2.5884891e-03
 -1.3246851e-02
 -1.1053905e-02
 -5.7356775e-01
 -1.3748363e-01
  2.5658533e-01
 -2.8633803e-01
  6.8271853e-02
 -1.2574610e-01
  8.6864149e-03
  1.1018951e-01
 -4.1983906e-02
 -1.4262611e-01
  1.5342098e-01
  1.8822152e-02
 -1.3016541e-01
  1.9695614e-01
 -6.8253942e-02
 -2.8144600e-02
 -7.4068638e-03
  4.1894838e-02
 -1.3883251e-01
 -4.3276563e-02
 -1.9855882e-01
  2.2743506e-02
 -8.1536993e-02
 -2.4227273e-02
 -4.2295247e-01
  2.1570753e-02
 -9.0904273e-02
  1.0674489e-01
  2.6248971e-01
 -4.1634378e-01
  9.7786626e-03
 -3.0223026e+00
  4.8458118e-02
 -1.6624585e-01
  6.0846823e-01
  1.2492234e-01
  3.8526323e-01
 -1.9504124e-01
  1.3465316e+00
  4.6879724e-01
 -1.6022196e+00
  7.0274103e-01
  9.9542326e-01
  9.6475232e-01
 -1.7103605e+00
 -2.2033034e-01
  5.6328022e-01
 -3.4345579e-01
  2.3324344e-01
 -6.4490688e-01
 -1.4720585e+00
  3.9430086e-02
 -5.3728066e-02
  8.4441006e-01
 -2.9198778e-01
 -1.8041399e+00
  1.7328241e+00
 -1.9933360e-02
 -5.3254759e-01
 -5.4971182e-01
 -1.1881910e-01
  1.0505556e-01
  1.0454815e-01
 -6.4773953e-01
 -4.8633523e-02
  8.3394557e-02
  1.0096549e-01
 -6.4609848e-02
  7.8197762e-02
 -6.0277108e-02
  1.0875135e-01
 -5.7425980e-02
 -1.4253312e-01
  7.8310475e-02
  2.5585217e-02
 -7.3825739e-02
  9.8910809e-02
  6.6045415e-01
 -2.6785946e+00
 -5.6684572e-02
  6.0337800e-01
  1.2594208e-01
 -7.8636140e-02
 -5.9283316e-02
  7.1327174e-01
  4.7604423e-03
 -2.4554358e-01
 -2.6046967e-02
  5.9063710e-02
  2.7370434e-02
  1.3710038e-01
  1.6424116e-02
  2.1251049e+00
  2.1990700e+00
  1.5295548e+00
  2.5017760e+00
  2.0832903e+00
  1.4332817e+00
 -9.5349663e-01
  2.2822556e+00
  7.2709747e-02
 -1.4489880e-01
  9.5949724e-02
  4.7272678e-02
  9.8502362e-01
  2.5078470e-01
 -5.3066134e-02
 -1.6564998e-01
 -1.0319389e+00
  1.2654959e+00
  3.1322870e-01
 -1.2817776e+00
 -2.3997779e-01
  5.5069989e-01
  9.0553522e-02
  2.9368117e-01
 -2.7818556e+00
 -6.2926096e-01
  1.1905367e-02
 -1.1998997e-02
 -2.2496143e-01
  4.8177198e-02
  6.9235206e-02
  7.7641509e-02
  1.3924018e-02
  5.6991540e-02
  2.0353707e-02
  9.5318109e-02
  1.0937780e-01
  7.2621740e-02
 -4.9413107e-02
  1.2931314e-01
 -1.9993895e-01
 -5.6596726e-02
 -1.2569541e-01
  7.0065022e-02
  7.4900812e-03
  1.8162696e-03
  4.3647163e-02
  1.0227633e-03
  5.5908110e-02
 -1.2956275e-01
  8.6968735e-02
 -7.7087386e-03
 -3.5257023e-03
 -7.0006472e-01
 -2.0089237e-02
 -1.7942650e-02
 -1.1942940e-01
 -3.4089800e-02
 -1.2366628e-01
  1.2627603e-01
  2.8221628e-01
  8.6943574e-02
  5.0214611e-02
 -4.7799215e-02
  1.2214543e-01
  8.8264519e-01
  8.8860564e-02
 -1.3319284e-02
  1.2157991e+00
 -2.2547636e+00
 -1.8155525e+00
 -1.9267573e+00
 -7.4294806e-02
 -1.5261114e+00
 -2.1383340e+00
 -8.0779511e-01
  8.0607258e-02
 -6.2193871e-02
 -6.6482745e-02
  8.1610922e-03
  3.8574296e-01
 -2.0884330e+00
  2.2163029e+00
 -1.5755239e+00
  4.1506347e-01
  6.7001396e-01
  1.6577984e-01
  1.8628295e-01
 -1.0877268e-01
  9.1651089e-02
  3.3154148e-01
  2.3030494e-01
 -1.5329863e-01
  6.0538299e-02
  5.6818638e-02
  2.8462834e+00
  1.0439976e+00
  1.1149312e+00
  1.8941749e+00
  1.2823225e+00
  4.1518331e-01
 -2.5029449e+00
  3.0622947e+00
  1.7933893e+00
  6.4842820e-02
  1.7139745e+00
  2.2855182e-01
  4.1316935e-01
 -1.2004042e+00
  4.0346962e-01
  1.2219837e-01
  3.8343659e-01
 -1.2302935e+00
 -4.1973621e-01
 -3.2815616e+00
 -1.3374336e-01
 -8.8540934e-02
  6.2653840e-01
  1.5302838e-01
  1.0750653e+00
 -1.9634264e-02
  4.2616692e-01
  1.6702315e-01
 -7.0342086e-02
  4.5450509e-01
  6.7024343e-03
 -3.0414848e-02
 -4.3075386e-01
  5.5582352e-02
 -4.7875941e-02
  9.6859269e-02
  7.8757338e-02
 -1.2337279e-01
  4.4116635e-02
  2.2905834e-02
  5.6983531e-03
 -4.1334817e-01
 -3.1437731e-01
  3.5827801e-02
  3.4286466e-01
  1.2576444e-01
  3.0003488e-05
 -1.4067815e-01
  1.2311851e-01
 -1.3161206e-01
 -6.4478621e-02
 -4.9165669e-01
  2.0810720e-01
 -1.5296724e-01
  2.8441879e-01
 -1.3489217e-01
 -8.9118771e-02
 -3.8581494e-02
 -1.1727150e-01
 -1.2312528e-01
 -2.9685143e-01
  6.3605785e-02
 -3.9546122e-03
  1.3040888e-01
  2.7700763e-02
  2.2572042e-01
  1.2733768e-01
 -9.1238387e-02
 -1.3799122e-01
  4.7221851e-02
  8.5279070e-02
  1.1284487e-01
 -1.1909205e-02
  1.6924436e-01
 -2.2591580e-02
 -4.5984030e-02
 -1.7206149e-01
 -7.9438068e-02
 -2.6553404e-01
 -9.7175390e-02
 -2.1410840e-02
  5.3423919e-02
  1.3924748e-02
 -2.5791314e-01
  8.9802764e-02
  1.1008130e-01
  5.0419725e-02
 -1.0034041e-01
 -1.4154960e-01
 -4.5922253e-02
  1.5401661e-01
 -1.2744883e-01
  6.4510539e-02
 -2.4428810e-01
 -1.2323660e-01
 -5.3238268e-03
  1.6307052e-03
  7.0479029e-01
 -5.1621325e-02
 -3.1010967e-02
  2.7342367e-01
 -2.2427216e-01
  2.1175015e+00
  7.6124811e-01
 -5.7125372e-01
 -4.1324332e-02
  4.1602379e-01
 -1.0092234e-02
 -7.4369103e-02
 -3.5448715e-02
 -1.4561336e-01
  3.9659691e-01
  1.2809063e-01
  7.3054999e-02
 -5.8601409e-01
 -6.2538826e-01
 -1.9871587e-02
  5.7797786e-04
 -5.8311462e-02
 -8.7499338e-01
 -1.2320141e-01
 -1.2873086e-01
 -2.4947937e-01
  3.3737656e-01
  5.4828454e-02
 -1.4904284e-02
 -1.7993635e-01
  1.4687847e-01
 -3.2021862e-02
  1.6073581e+00
 -2.3142125e-02
 -1.5754873e+00
 -7.0248848e-01
  7.5434667e-01
 -2.3643927e-01
 -2.9026427e+00
  4.7580317e-01
 -1.7613636e-01
  1.6086285e-01
  2.2228102e-01
  4.8054404e+00
 -1.8377991e-02
 -3.8863786e-02
 -1.2807225e-02
 -1.6550800e-01
 -4.2904392e-02
 -1.1998551e-01
 -1.2280051e-01
  2.4983586e-01
  5.9736855e-02
 -9.5236605e-01
  9.7551890e-02
 -3.9450284e-02
  5.6447659e-02
  6.9607325e-02
  3.6681492e-02
 -1.7589718e-02
 -3.3050647e-01
  7.5699841e-03
  9.8984502e-02
  1.8438348e-01
 -1.4367461e-01
 -4.7938205e-02
 -9.4388433e-02
 -1.1181401e+00
 -1.3247332e-01
 -6.2580347e-01
 -7.9318070e-01
  7.5265509e-01
 -1.3256633e+00
 -3.8811678e-01
  1.5854727e-01
 -3.6348909e-02
  7.4819334e-02
  2.4028167e-01
 -2.0429197e-01
  1.4191993e-01
 -4.1896412e-01
 -9.6639708e-02
 -2.6077467e-01
 -1.3421926e-01
 -3.8110577e-03
  6.3761123e-02
 -5.2591465e-02
 -5.0726049e-02
 -5.7103828e-02
 -9.2937410e-02
  1.0887481e-01
  3.0706398e-02
  8.2726799e-02
  7.6253407e-02
 -4.4482904e-03
  3.5444915e-02
 -1.2380655e-01
  2.1849449e-03
  2.9293252e-03
 -1.1091346e-01
 -3.4008029e-01
  3.7092302e-02
 -1.2434562e+00
  1.0785090e-02
  4.0752951e-02
  8.2643824e-03
  3.2097968e-01
  3.8762417e-02
 -1.0617971e-01
 -1.4668006e-01
 -4.2608550e-01
 -1.3873835e-01
 -5.2943653e-01
  3.3743367e-02
  2.0571941e-01
 -7.1346754e-01
 -5.2081257e-02
 -5.8328952e-03
  1.4051627e-02
  5.5043373e-02
 -3.4511620e-01
  2.6046162e-02
 -5.2628297e-02
  8.5311890e-02
 -1.8754463e-01
  3.1936434e-01
 -1.2679370e-01
 -9.6645132e-02
  4.6747223e-02
  5.9183393e-02
 -8.3397202e-02
 -1.2573053e-01
 -6.7141898e-02
  2.7962342e-02
  9.7545519e-02
 -1.6773254e-02
 -1.0162257e-01
  2.7480495e-01
 -4.8580515e-01
  1.0497949e-01
  1.3646077e-02
 -8.0268681e-03
  2.9495570e-01
  9.3296617e-02
 -1.9728558e-01
  1.5656771e-01
  9.1287926e-02
 -9.3488091e-01
  2.1809040e-02
  7.7634960e-02
  1.1304577e-02
 -6.5069199e-02
 -1.9406209e-02
  2.0734684e-01
 -3.0350646e-01
  8.5436933e-02
  5.2712433e-02
  1.3198197e-01
 -1.0914622e-02
  6.9462112e-03
 -1.2583716e+00
 -9.1125160e-01
 -4.3938100e-01
 -1.5338161e+00
 -1.3846275e+00
  6.6951817e-01
 -2.4682009e-01
  1.3526748e+00
  1.6892147e+00
 -1.0875541e-01
  5.3351474e+00
 -1.7722832e+00
 -7.6029354e-01
  3.0308557e+00
  3.2602396e+00
  5.4760237e+00
 -2.0128541e+00
 -2.2408338e+00
  5.7033980e-01
  5.0337815e-01
  3.8486218e+00
 -4.5080796e-02
  1.2155118e+00
 -5.3644735e-01
 -8.0942053e-01
  2.8666849e+00
 -1.3081373e-01
 -9.4062424e-01
  4.0838051e-01
  1.3034685e+00
 -6.4449824e-02
  2.7843246e-01
 -2.8420835e+00
 -4.3231341e-01
 -5.7660484e-01
 -2.9518053e-01
 -1.7255675e+00
 -3.8165021e-01
 -4.6613288e-01
 -6.1771274e-01
  1.4298822e-01
 -3.1607324e-01
 -1.3425805e-01
 -1.3852419e-01
 -2.7852796e-03
  7.1368560e-02
 -1.7202072e-01
 -3.6919016e-01
  9.4527014e-02
  1.3020294e+00
  2.0964577e+00
  6.2925959e-01
 -2.1843862e-02
 -2.8287867e-04
 -2.9826531e-02
  6.8074964e-02
 -3.1527299e-02
  5.6560937e-02
 -2.9083282e-01
 -3.8055085e-02
 -2.0660184e-01
 -8.9656368e-02
  8.3068460e-02
  1.1826684e-03
 -6.8110578e-02
 -1.2512614e-01
 -7.3528506e-02
  1.4816996e-01
  1.5607770e-01
 -1.1552684e-01
 -2.5889007e-02
  6.6507403e-03
  5.0965774e-01
 -5.5431008e-02
 -1.2187999e-01
  5.4185003e-02
  2.1546371e-02
 -6.6857887e-03
 -5.2698441e-02
  5.1539630e-02
  2.6240361e-01
  2.0437936e-01
 -1.5849231e-02
 -5.8997262e-02
  9.3882665e-02
 -1.3892865e-01
 -1.6828639e-02
 -2.2078859e-02
 -3.4706175e-01
 -2.7176186e-02
  1.4490421e-01
 -9.9382386e-02
  3.2195234e-01
  5.1560353e-02
  8.6720295e-02
 -2.2136812e-01
 -3.2412279e-02
 -1.2264860e-01
 -2.6030764e-01
  1.9101802e-02
 -1.5567228e-01
 -2.6399266e-02
 -2.9194197e-02
 -1.1061117e-01
  5.7997885e-03
  7.4082904e-02
 -6.3446723e-02
  1.2323388e-01
  1.5375490e-02
  4.7513317e-02
  7.0564203e-02
 -1.3235162e-01
 -3.2412571e-01
  8.3902955e-02
  1.1841508e-02
  1.0690116e-01
 -3.4377250e-01
 -5.0006968e-01
 -9.4384290e-03
  1.2529479e-01
 -5.5659626e-02
  3.9592866e-02
 -8.1990898e-02
 -6.1192168e-03
 -1.2829313e-01
  7.6519899e-02
  1.6966411e-03
  2.0947742e-01
 -4.6694130e-02
 -7.2961561e-02
  7.4270695e-02
  1.7117271e-02
 -3.0345492e-02
 -1.0286855e-02
  2.8443173e-02
  3.2807234e-01
  1.9398153e-01
  3.7960091e-01
  4.3964908e-02
 -3.5176739e-02
  1.0922346e-01
  8.4882841e-02
  1.6987997e-01
  6.9002353e-02
 -9.4187362e-03
  7.7470466e-02
  1.2043075e-01
 -5.7230666e-02
  2.9749936e-01
  1.9481173e-01
 -7.6527193e-02
  1.4254288e-01
 -1.0545569e-02
  2.4872670e-02
  1.8572520e-01
 -3.2690357e-02
  1.4492369e-01
 -1.9448103e-02
 -7.1052238e-02
  1.1539147e-01
 -4.0721861e-01
 -9.4604933e-01
  5.5045974e-01
  5.6011242e-01
  3.5539979e-01
 -1.6825085e+00
  1.7053628e-01
  5.4657688e+00
  2.4419934e-01
 -1.4152132e-01
  1.2820991e+00
 -7.1161020e-01
  6.8478471e-01
 -1.7755409e-01
  6.5767837e-01
  7.9778247e-02
 -3.0938990e+00
 -4.5738602e+00
  9.3516028e-01
  8.9545548e-01
 -2.7912506e-01
 -2.9723251e-01
  7.0447099e-01
  9.3469143e-01
 -8.4479040e-01
 -4.3539044e-02
 -2.3933528e-01
 -8.5715018e-02
  1.2061527e-01
 -3.8476046e-02
  1.0681207e-01
  6.9393046e-02
 -1.0437895e-01
  1.5321755e-01
  1.0448088e-01
  1.0291515e-01
 -5.1105004e-02
 -5.7695314e-02
  1.8926881e-01
  1.6296522e-01
 -9.5004074e-02
 -1.8137203e-01
  1.9440264e-02
  8.0426037e-02
 -7.9779662e-02
  3.2867146e-01
  4.3094892e-02
 -1.3731709e-02
  1.6475460e-01
 -5.7628300e-02
 -1.1407956e-02
  3.4579363e-02
  1.5026194e-01
 -1.3110532e-01
  9.4142608e-02
 -9.7709838e-03
 -1.0514475e-01
  3.9535475e-01
  7.8924913e-03
 -2.2904040e-02
 -4.2109787e-02
  1.1399968e-01
 -3.3077858e-02
  9.7315991e-03
 -2.0182271e-01
 -5.2589313e-03
 -1.3293122e-01
 -3.3593073e-02
  1.2506822e+00
 -1.9987209e-02
  2.5397584e-01
 -1.6089652e-02
  3.2889415e-02
  1.0911623e+00
  1.4430751e-01
  6.0409588e-01
 -2.5652021e-01
  1.4925185e-02
  3.2713410e-01
  7.6906703e-02
 -9.8051302e-02
  7.8971934e-01
  4.6588400e-01
  1.3077104e+00
 -1.3504232e-01
  1.1472884e-01
  1.1764441e+00
  8.0007768e-01
  4.7942217e-02
  8.7393343e-01
 -1.2971491e+00
 -3.9770743e-01
  1.6158822e-01
  2.5635833e-01
  3.1077826e-01
  2.9125175e-01
 -5.7111643e-02
  1.6265911e+00
 -3.7043560e-01
 -8.3579302e-02
 -1.6480341e+00
  1.0689174e+00
  2.0030172e+00
 -1.0808918e+00
 -1.4385217e-01
  2.6353083e+00
  1.1524656e-01
 -4.9644876e-03
 -1.9258934e+00
 -2.9163069e-01
  3.3916295e-02
 -9.8996712e-03
 -1.4864024e+00
 -2.9780993e-01
  1.2957861e-01
  3.3162184e-02
 -6.2558508e-01
 -7.1531102e-02
 -1.7626265e-02
  1.0784515e+00
  1.1153549e-01
  1.2661937e-01
 -3.8769960e-01
 -1.0750280e-01
 -7.4262488e-01
  1.0230891e-01
 -2.5660816e-01
  1.7209598e-01
 -1.8890263e-01
 -2.8959508e+00
 -1.0342396e-02
 -1.5442401e-01
 -1.0327576e+00
 -1.9922171e+00
 -1.3794688e+00
 -1.7012149e-01
 -1.5890027e+00
 -8.8106138e-01
  3.4408939e-01
  8.5409917e-02
  4.7520676e+00
 -3.8519108e-01
  2.2066021e+00
  5.6974534e-02
  5.1141983e-01
  1.3247879e+00
  9.2774272e-01
  2.0499784e-01
 -8.4831518e-01
 -1.5372963e-01
 -1.0653394e-01
 -7.2894287e-01
 -5.3892815e-01
 -1.6472163e+00
 -2.8185179e+00
  3.1486395e-01
 -8.9443717e-03
  1.3383124e+00
 -8.7006396e-01
  8.1025548e-03
  2.2220704e-01
 -7.2914585e-02
 -1.6326911e+00
  1.4817113e-01
  1.4075573e-01
  2.7830383e-02
  1.6342731e-02
 -2.3324299e-01
  1.9800501e-01
 -1.5668262e-02
 -9.2895347e-01
 -1.3589702e-02
  8.7560847e-02
 -4.0808174e-01
  4.9591443e-01
 -1.2355298e+00
  2.5977451e-01
  3.2677442e-02
  2.8398708e-01
 -2.6957002e-02
 -7.2343029e-02
  6.3975346e-01
 -4.9785563e-01
  4.8136333e-01
 -8.3168828e-01
  3.5012022e-02
  1.4632745e+00
 -1.3280487e+00
  1.4833103e-01
 -3.0775887e-01
 -1.1906207e+00
  9.7747251e-02
 -1.3008140e-01
 -3.4349181e-02
  2.0119427e-01
 -5.4898359e-02
  1.6102722e-01
 -1.4834560e-01
 -2.6393902e-01
 -2.2011553e-01
 -5.0593102e-01
  5.1768297e-01
  2.9509411e+00
  1.0008423e+00
  5.2292638e-02
 -8.7407196e-01
  8.1425928e-02
 -4.0319640e-02
  1.5752688e-01
  2.2323672e-01
 -2.1873680e-01
  2.2561271e-01
 -8.5757399e-01
 -2.6747903e-01
 -7.2161481e-02
  1.2989957e-02
 -3.3024478e-01
  2.3310113e-01
  4.7717415e-02
 -2.5707033e-01
  9.2922360e-01
 -2.5552633e-01
  1.5613881e+00
  7.2741807e-02
 -1.1504511e+00
  6.0092159e-02
 -6.3452065e-01
 -2.0777826e-01
  1.3399816e-01
 -1.2672914e+00
  5.6055967e-02
 -2.6316980e-01
 -1.8453328e-01
 -1.3954551e+00
  4.0440536e-01
 -7.6724932e-02
 -3.8540497e-01
 -2.1639299e-01
  6.4227618e-02
  1.8391493e-01
 -3.5791519e-01
  2.5311151e-01
  1.3135527e+00
  1.5067340e-01
  1.6681014e+00
  1.0692650e+00
  6.6875058e-01
 -2.9190389e-02
 -3.9870280e-01
  3.9160216e-01
 -1.5821937e-01
 -2.6307657e-02
  3.2220572e-01
 -2.9386947e-01
 -4.1250333e-01
 -6.8388981e-01
  1.3938881e-01
  7.4370704e+00
 -1.8395382e-01
  6.4346351e-02
  3.2767095e-02
  5.4932922e-02
  3.4748694e-01
 -1.7408819e-01
 -9.5907164e+00
 -4.4323522e-01
 -6.0138822e-02
  6.8645515e-02
  3.7485588e-01
 -6.0700697e-01
 -9.3252212e-01
  1.1706195e+00
  1.4861563e-01
 -4.4296345e-01
 -6.4987373e-01
  1.3447771e+00
  4.1926962e-01
  4.7433543e+00
 -2.1810102e+00
  2.0219974e-02
 -5.3395200e-01
  8.0065125e-01
  1.4334545e+00
 -1.5888004e+00
  7.5730026e-02
 -6.0449034e-01
 -1.3843761e-01
  3.3496791e-01
  3.8523507e-01
  2.2589240e+00
 -1.3288328e-01
  7.0711309e-03
 -4.8188139e-03
 -9.1560048e-01
  8.6315536e-01
  9.2896357e-02
 -2.0626780e-01
  3.9641430e+00
 -6.5365909e-03
  3.5632215e-02
 -1.0456130e-01
 -1.0070693e-01
  5.8213778e-02
  1.4931590e-03
 -1.4998908e-02
 -4.7963372e-01
 -5.5969054e-01
  2.1943253e-01
  3.0287531e-01
  1.1535616e+00
  8.0072366e-02
 -7.4926451e-02
 -2.0835919e+00
 -9.8870391e-01
 -2.8133592e-01
  9.5622146e-01
 -2.3999901e+00
  2.7768686e-01
 -2.3134140e-02
 -9.0242922e-01
  1.2963803e-02
  1.8623645e+00
 -1.7313224e-01
  1.2749942e-01
  2.8812610e-02
  1.2896179e+00
 -9.5470011e-02
  1.9526532e-01
 -9.0618908e-02
 -2.0808169e-01
  3.4721753e-01
 -3.1859875e-01
 -2.4732852e-01
 -7.9501077e-04
 -1.0959542e+00
  1.8671851e-01
  3.3748228e-02
  1.5475050e+00
  2.7634487e-01
  3.1765874e-02
 -4.9278066e-03
 -3.5314126e+00
 -9.1470391e-01
 -1.2833717e+00
 -7.5344497e-01
 -4.1458803e-01
  5.6078118e-01
  1.7269146e+00
  1.3376483e-01
  6.5574504e-02
 -6.4744353e-02
  2.3348896e-01
  3.2790473e+00
 -8.1021655e-01
 -7.5009726e-02
  2.4615489e-02
  4.4666228e-01
 -6.7034755e+00
  6.8253124e-01
 -8.5890865e-01
 -5.9894228e-01
  1.5572493e+00
 -1.7841453e-02
  1.3925377e-01
  2.2113958e-01
 -1.2478817e-01
  1.4363599e-01
  5.4561013e-01
 -3.4790702e-02
  2.0635397e+00
  1.0948210e-01
  1.6650689e-01
  9.6275590e-02
 -1.1828983e-01
  2.3634376e-01
  3.4878928e-02
  3.1144977e-02
  1.3979644e+00
 -1.9746344e-01
  1.2618654e+00
  4.2575345e+00
  7.1395302e-01
  1.9360052e-01
 -1.4762348e-01
 -4.9097171e-01
  1.8302000e+00
 -1.9376790e-02
 -4.0630338e-01
  3.8349825e-01
 -3.4020617e+00
  3.6668333e-01
  9.0910304e-01
  8.9594716e-01
 -1.3192601e+00
 -1.2031467e+00
 -9.4422549e-01
  3.2255098e-02
 -4.6657380e-01
 -8.8834040e-02
  3.8677648e-01
 -7.8798813e-01
  4.2112902e-01
  6.2378943e-01
  4.5478140e-04
  5.0065362e-01
 -1.5876484e-01
 -7.3766935e-01
  1.3788185e+00
  7.4511403e-01
 -2.2326374e+00
 -2.1955087e+00
 -4.1888976e-01
 -1.2283033e+00
  1.0851513e+00
  4.5737322e-02
 -9.1082618e-02
  5.3758430e-01
 -1.1747157e-01
 -1.5942231e-01
 -4.7044035e-02
  6.2908754e-03
 -9.7104138e-01
 -9.0090239e-01
  8.4069002e-01
 -2.0246420e+00
  1.3233691e+00
 -8.1508589e-04
  1.0314512e-01
 -7.4211276e-01
 -2.8918490e+00
 -4.3429711e-01
 -4.3175638e-02
  2.1696310e+00
 -2.1771514e+00
 -1.4695741e-01
 -3.6168811e-01
  1.3755368e-01
 -1.0028410e+00
  1.8021524e+00
  1.3094725e-01
  3.5254958e-01
  4.7225112e-01
 -2.8096857e-02
 -9.7388613e-01
 -4.8019525e-02
  1.4153712e+00
 -1.1716805e-01
 -1.6367906e-01
  4.6445644e-01
 -6.3905627e-02
  3.9162078e-01
  1.3189520e-01
 -1.3499808e-01
  6.3128710e-01
  1.8874904e+00
  2.3270748e+00
 -9.4095737e-01
  2.0768328e+00
  2.9286425e+00
  8.2906461e-01
  7.2133340e-02
  1.1173374e-01
  1.2737430e+00
  5.9217447e-01
 -9.8609793e-01
  1.8560396e-01
 -6.9573961e-02
  4.5265639e-01
  6.1310989e-01
  1.9957575e+00
  1.0132805e-01
  1.4210960e-01
 -1.8402702e+00
  2.0608609e+00
  4.5506965e-02
  9.7764142e-02
 -8.1034847e-02
  3.8592031e+00
 -8.9727886e-02
  1.2770923e+00
  2.8635049e-01
  9.7431028e-01
  3.5948941e-01
  1.0061391e-01
  2.6297803e+00
 -2.6998634e+00
  6.2774795e-01
  1.3740642e-01
  7.9147808e-02
  1.2224839e+00
 -2.7920630e-02
 -6.3283634e-01
 -5.8838117e-01
 -8.3913857e-01
  1.4704975e-01
  2.8528151e-01
  5.5982667e-01
 -4.9005979e-01
 -1.3628063e-01
  9.4565265e-02
 -4.6382707e-02
  8.0898114e-02
  3.6541808e-01
 -1.9095558e-01
  2.9290500e-01
  1.5856685e-01
  2.8108650e-01
  8.0469954e-01
 -3.0923428e-02
  4.3798895e-03
  1.6759214e-01
  2.4441205e-01
  1.7457716e-01
  5.1463787e-02
 -1.7913896e-01
 -1.7605141e-01
  1.8606251e-01
 -1.0555542e-01
  2.5130669e-03
  1.9200832e-01
 -1.6573553e-01
  8.0865067e-01
  1.0207675e-01
  3.9690159e-02
  1.7065133e+00
  2.8161757e+00
  1.7683852e-01
  2.6348576e-01
  2.5851339e-01
 -3.1587297e-01
 -2.6341167e-01
  4.4737583e-01
 -1.9494990e-01
  4.1258321e+00
 -9.1584817e-02
  3.8189461e+00
  1.7674968e-02
  1.8380330e+00
 -2.8531520e+00
  2.4815059e+00
  4.5953354e-01
 -5.9716499e-01
  5.1098120e-01
  2.1364464e-01
  1.3603950e-01
  2.5293159e+00
 -2.4738014e-02
  3.8400829e-01
 -1.6947998e-01
  1.5142083e+00
  2.2700877e-01
 -1.3052677e+00
 -1.7221606e-01
  6.1396921e-01
  1.9390166e-01
  1.5630213e+00
 -8.8965647e-02
 -4.5767990e-01
 -1.5186581e-01
  2.9484445e-01
  9.1121805e-01
 -2.5526931e+00
  2.7702846e-02
 -4.3707743e-02
  1.0154671e-01
  2.0058845e-01
  3.1153288e-02
 -2.6758742e-01
  7.5447261e-02
 -1.8809433e+00
  7.2772938e-01
 -4.9494165e-01
 -1.6884791e+00
 -1.2950146e+00
 -1.8220694e-01
  1.7028505e-01
  2.4257421e-01
 -1.3410115e-01
 -1.4767386e-01
 -1.6208901e-01
  1.6448781e-01
  2.3265085e-01
  1.3374768e+00
  3.5669666e-02
  3.0329740e-01
 -9.5190490e-03
  9.7602510e-01
  1.5285577e+00
 -1.4255711e+00
  1.6286586e-01
 -4.4769194e-02
  1.1342151e-01
 -3.0280486e-01
  4.6738395e-01
 -6.7048900e-02
 -1.7852280e-02
  2.2082755e-01
  2.0870186e-01
  3.0481669e-01
 -8.1754458e-01
 -3.2492331e-01
 -1.8118100e+00
 -1.0038358e+00
 -1.1744807e+00
 -3.2966799e-01
  1.2745999e+00
 -2.8420405e-02
  3.5483840e-01
 -4.6957605e-02
  1.9148026e-01
 -1.0274623e-01
 -2.2748925e-01
  1.7195089e-02
  1.1561366e+00
 -9.2289895e-02
  3.5901609e-01
  6.4342862e-01
  5.6595039e-01
 -8.7962270e-01
 -2.1319561e+00
  2.5389683e-01
 -1.0976177e+00
 -4.5237567e-02
 -2.9461278e-02
  2.2491923e-01
 -2.4577692e+00
 -3.4562117e-01
 -2.6341826e-01
  1.1866879e-01
  3.5070920e+00
  1.7865923e-01
 -6.0450804e-01
  2.5084805e-02
  1.0361491e+00
  5.2693146e-01
 -2.4207380e+00
  7.7910073e-02
 -1.2788823e+00
 -3.7190512e-01
  8.4353954e-01
  5.2749735e-01
  2.9752438e+00
  7.4622505e-03
  3.4549794e-01
 -1.9887676e-02
  6.5625131e-01
  1.5778590e+00
  8.2815528e-01
 -5.5754993e-02
 -8.6393398e-01
 -1.1963232e+00
 -9.7862023e-01
  5.9051037e-01
  1.5109301e-01
  5.2717906e-01
  4.5877542e-02
  6.5052244e-03
  8.7300473e-01
  1.2103651e+00
 -7.6128721e-02
 -2.5513364e-02
 -4.5209971e-01
 -3.6464475e-02
  5.7833499e-01
 -2.7785385e-01
 -1.0338682e+00
  7.2443128e-01
 -4.0727280e-02
 -9.4944936e-01
 -9.3816465e-01
  1.0279409e+00
 -9.0720505e-03
  7.9997078e-02
  3.1907037e-01
 -1.2461235e-01
  2.0829062e-01
 -2.1867853e-01
 -3.2446575e-01
 -1.2656690e-01
  2.0748380e-01
  8.3540535e-01
  2.3210187e+00
  1.0029781e+00
 -4.9474764e+00
  1.0250998e+00
 -1.4348097e+00
 -8.7576932e-01
 -6.3712701e-02
  1.0051029e-01
  2.0155613e+00
 -2.5322393e-01
 -1.0809131e-03
 -3.2503932e+00
 -2.7601084e-01
  5.4317856e-01
  2.1651120e-01
  7.1124375e-01
 -1.9137580e+00
  4.6252728e-02
  1.8042746e+00
  5.4561064e-02
  2.8175592e-01
 -9.4871789e-02
 -5.4990977e-01
  1.8860149e-01
  1.6280241e-02
 -1.2252456e-01
 -1.1537446e-01
 -6.1365884e-02
 -4.7862477e+00
  1.2936860e-01
  7.9317853e-02
 -2.3907213e-01
 -6.0941923e-01
  1.5797640e-01
  1.6569707e-01
 -5.8837976e-02
  4.0338752e-01
  1.9243854e-01
  1.2274291e-01
 -2.5393757e-01
 -1.5133193e-01
 -1.6940933e-02
  1.1630028e-02
  3.7026003e-02
 -1.7744642e-01
 -1.5618850e-02
  4.8820715e-02
 -1.0585954e-01
 -8.8360286e-01
 -1.8363069e-03
 -6.6863394e-01
 -1.5936360e+00
  4.7417608e-01
 -7.7848338e-02
 -1.6214262e+00
 -6.3118418e-03
 -1.0174064e-01
  5.1341537e-02
 -1.0029542e-01
 -1.1237795e-02
  1.0077224e+00
  2.4111626e-01
  1.7191572e-01
  5.4139931e-02
  1.6539817e+00
  2.2388144e+00
  7.4679154e-01
  6.0809832e-02
  1.2550617e+00
 -9.6874732e-01
  1.0773859e+00
  8.5491411e-02
 -9.4165498e-01
 -2.6567271e-02
  4.8915964e-01
 -5.0391549e-01
  3.8657423e-02
  1.9027027e-01
 -1.5352862e-01
 -4.5117643e-02
 -5.5491382e-01
  5.0377950e-02
  7.4276465e-01
  4.2030981e-01
  4.8647061e-01
 -4.8891366e-01
  1.3669194e-01
  1.3770953e+00
  7.5866604e-01
 -1.1312737e-01
  3.5047957e-01
 -2.0802137e-01
  1.8568194e-01
  5.5266762e-01
  2.4757427e-01
  1.0122208e-01
  5.1252574e-01
 -7.4093640e-02
  6.9417322e-01
  9.9539930e-01
  1.0922594e+00
  1.2592980e-01
 -3.2253500e-02
 -1.8472232e-01
  3.5469213e-01
  1.2987915e-01
 -1.7301766e-02
  2.4844861e-01
 -1.0983663e+00
  1.8273064e-01
  7.2550297e-01
  4.2588234e-02
 -8.9214593e-01
  1.0066646e+00
 -2.7198285e-01
 -1.7923607e+00
  1.0204391e+00
  2.1588878e-01
  1.0689526e-01
 -9.1662121e-01
 -1.1614923e+00
 -8.6359888e-02
 -1.2350998e-01
  9.2914617e-03
 -3.5724044e-02
 -3.6916354e-01
  1.3657314e-01
 -1.2918036e-01
 -9.4659239e-01
  1.3034139e+00
  8.0904204e-01
 -3.2179520e-01
  1.9596491e+00
 -2.9226133e-01
 -1.0624432e-02
 -9.9857442e-02
 -1.5930372e-01
 -1.0100058e-01
  7.9442963e-02
 -2.8462836e-01
 -7.0587981e-01
 -1.5674172e-01
 -5.9816379e-02
  3.4769461e-01
 -3.4390633e+00
 -5.9848380e-01
  7.5661935e-02
  1.1801434e+00
 -2.2331911e-01
 -1.2911595e-01
 -2.7362695e-01
  1.7097044e-01
  5.6896430e-01
  1.0879976e-01
 -4.5575652e-02
 -2.7782673e-01
  1.2177999e+00
  5.8854425e-01
 -2.7654716e-01
  3.8798992e-02
 -6.2541299e-02
  5.0473011e-01
  2.9619876e-01
  6.6989541e-01
  6.0892302e-01
 -3.7114590e-02
  1.2595186e-01
  1.1267267e+00
 -2.9956722e+00
  2.4798353e-01
 -9.5495045e-02
  4.3234892e-02
 -4.5069233e-01
  2.5795348e+00
  4.5606405e-01
  4.3393873e-02
 -2.8247446e-01
  6.7926389e-01
 -3.4290868e-01
  5.9373587e-01
 -3.1743956e+00
  7.9706602e-05
  2.7887926e-01
  7.0812039e-02
  2.2655475e+00
 -1.7924696e-01
  1.3963713e-01
 -2.1910958e-02
  2.2291619e-01
  1.1194022e+00
 -3.7600085e-02
 -7.9428747e-02
  3.8715916e+00
  3.0916915e+00
  4.3826944e-01
 -3.4270144e-01
 -4.4758838e-01
  1.1317666e+00
  2.5193539e-01
  3.3783677e-01
 -1.4286801e+00
 -1.2191330e-01
  2.3239002e-01
 -2.8894737e-01
 -2.3849826e+00
  1.3592100e-01
  7.3395634e-01
  7.9844870e-02
 -4.4463736e-01
  1.1854418e-01
  1.8913329e+00
  7.1316648e-01
  1.0832086e+00
  8.7442473e-02
 -1.0813156e+00
  2.9984975e+00
 -3.0841127e-01
 -4.8646107e-01
 -6.3994861e-01
 -5.4408169e-01
  1.0948154e+00
  7.8025001e-01
 -1.6073418e+00
 -2.3520081e+00
 -5.4858327e-01
 -1.3095704e-01
 -6.8542790e-01
 -1.2277421e-01
  5.9448856e-01
  4.1712686e-02
 -1.9560957e-02
 -4.6802252e-03
  3.8586453e-02
 -1.5155324e-01
  2.8423798e-01
 -8.7739509e-03
 -2.1932511e+00
  7.0782483e-01
 -1.6606020e-02
 -2.6225415e-01
 -6.5761781e-01
  4.6449471e-01
  1.9340198e+00
 -5.6565359e-02
 -3.4824255e-01
 -1.8417642e-02
 -2.7088001e-02
  2.1451795e-01
 -1.3675004e-02
 -1.5748021e-01
  8.6744741e-02
  7.1977384e-02
  4.2445225e-01
 -1.8766635e-03
  2.4055915e-01
 -6.1429369e-01
  2.0384613e-01
 -5.9761298e-01
 -2.3749368e+00
  2.3537368e-01
  2.0953295e+00
 -2.6453570e-01
  4.3600070e-01
 -2.1868302e-02
  3.5182674e+00
  3.4250811e-01
 -3.1431336e-02
  6.7332613e-01
  1.3781023e+00
 -7.7939671e-01
  1.4827989e+00
 -3.5976255e-01
  2.9879048e-02
  2.9389613e+00
  2.9419944e-01
 -1.0411198e+00
  2.1551576e+00
 -1.3825611e-02
 -6.7499685e-01
 -6.8081982e-02
  6.4779508e-01
 -1.3744527e-01
  2.0002225e-01
  4.5448471e-02
  1.2829278e+00
 -1.3099825e+00
  2.7340534e+00
  1.7714705e-01
  1.4009700e+00
  1.9891045e+00
 -6.0862172e-01
  2.1505389e-01
 -1.3466569e+00
 -5.9802905e-02
  5.5327857e-01
  1.5561646e-02
  1.8877150e+00
 -4.0054508e-02
  1.0219688e+00
 -4.7105163e-02
  1.5407223e+00
  1.0283746e+00
  1.0387365e+00
 -3.0070873e-02
  6.3121241e-01
 -1.6349857e+00
  8.4272981e-01
  1.4742669e+00
  2.2608356e+00
 -1.7907966e-02
 -3.9629839e-02
  1.8696184e+00
  1.0438888e+00
 -2.8356269e-01
 -1.0776968e+00
 -2.0163661e-02
 -2.0449882e+00
  9.9883556e-01
 -8.7294191e-01
 -3.8974740e-02
 -2.6554236e+00
 -9.0684623e-01
  6.3811517e-01
  1.0435550e+00
 -1.7214489e-01
  2.5441730e-01
  1.1998148e+00
  7.7167445e-01
  6.0129511e-01
  1.3185048e-02
 -2.2100669e-01
  5.5657530e-01
  2.2787509e+00
  1.0842127e+00
 -4.3796399e-01
  8.3841574e-01
 -9.9361569e-02
  4.0432081e-01
 -1.4213474e+00
 -2.0166415e-01
 -2.9518015e+00
 -2.0802967e-01
  1.1503143e-01
 -1.9522771e-01
  6.3736029e-02
  9.5499702e-02
 -1.1570768e-01
 -6.2723464e-01
 -2.9509013e+00
 -1.2985843e-01
  4.1490987e-01
 -2.4529903e-01
 -2.7250201e-01
  1.8497108e-01
 -6.0556644e-01
 -1.7009085e+00
 -1.9630071e+00
 -2.5761640e-01
 -6.6584057e-01
 -4.7078773e-01
 -1.4699473e+00
 -1.7235335e-03
  2.3075845e+00
 -2.3958072e-01
 -2.0098710e+00
 -9.3805224e-01
 -7.2710133e-01
 -1.5879146e+00
  1.1421922e+00
  1.1566739e+00
 -2.3853409e+00
 -2.2387490e+00
  2.4720272e-01
  8.9077391e-02
 -1.3635914e+00
  1.3891652e-01
 -9.0818480e-03
  2.3102200e-01
  1.7008494e-01
  4.0513445e-03
 -1.3416733e-01
  3.5645351e-01
 -1.3971782e+00
  6.8780220e-01
  2.5977659e-01
  6.6611089e-02
 -7.0519185e-01
 -6.3789062e-02
  2.2342706e+00
  9.1751927e-01
 -9.3464708e-01
  5.2671582e-01
  1.4492232e-01
  4.9131215e-02
  1.1172204e+00
  4.6754313e-01
  8.0517846e-01
  1.9640129e+00
 -2.6785660e+00
 -1.8145667e-01
  1.3657629e+00
 -2.2184116e-01
 -6.7874455e-01
  2.8709906e-01
  4.6908537e-01
 -2.3658790e-01
 -2.5236842e-01
  4.9991142e-02
  2.2210555e-01
  3.1260502e-02
 -1.5825535e-01
 -2.2638942e-01
  7.7834171e-01
  3.5534766e+00
 -1.1898835e+00
 -1.1575127e+00
  1.5503749e+00
 -9.9068892e-01
 -1.9217514e+00
  7.7377051e-02
  8.8177401e-01
 -1.2256901e-02
  4.0461940e-01
  5.8167124e-01
  3.8569036e-01
  3.9980266e-02
  2.8389347e-01
  4.1314504e-01
 -7.4901623e-01
 -1.5058848e-01
 -6.2350526e-02
  9.2561301e-03
  2.0099404e+00
  1.8149003e-02
  1.9354794e+00
  2.0471258e+00
  9.4305344e-02
  2.4829793e-01
  4.0115155e-02
  2.0839854e-01
 -3.5115534e-03
  4.0583700e-02
 -1.1264738e-02
  4.7186077e-02
  2.4142173e-01
 -2.3887631e-01
  1.4354983e-01
  4.3955748e-03
 -2.7114887e+00
  4.3249485e-01
  1.7545915e-01
 -2.5887099e-01
  1.5742081e-01
 -1.2168002e-01
 -2.4425294e-02
  1.5030465e-01
  2.1541553e-02
  2.6696794e-02
  1.7756607e-02
  8.4261425e-02
  4.0032403e-03
 -1.1330538e-05
 -1.7139748e-01
 -1.2692371e-01
 -1.6858864e+00
  1.0002685e-01
 -1.8560374e-02
 -4.9450782e-01
  1.4259313e+00
 -1.4584908e-01
 -2.6930599e-02
 -6.4852566e-02
 -5.6719518e-01
 -3.0326813e-02
  1.1089379e-01
  4.2560974e-01
  2.9447720e+00
 -1.3821626e-01
 -7.0512718e-01
  3.7738290e-02
 -2.2685362e-01
  1.3753068e-01
 -1.6078063e+00
 -5.6183264e-02
  1.9286802e+00
 -4.0160269e-02
  7.0132851e-03
  5.8865655e-02
 -1.0103032e-01
 -9.3920790e-03
  9.6012197e-02
  7.0493497e-02
  7.2567403e-01
 -4.4583854e-01
 -5.6950562e-02
 -5.5201411e-02
  9.6259758e-02
  1.0502994e+00
  2.2815847e+00
  1.1877915e+00
  7.6005362e-02
  4.6460070e-03
 -2.5714200e+00
  3.4221968e-01
  8.5602826e-01
  3.8085125e-02
  1.3922635e-02
  1.2634185e-01
  5.4119874e-02
 -3.4226391e-01
 -1.1047658e-01
 -3.6616328e-01
 -1.6275381e+00
 -3.0657327e+00
  2.2002365e-02
 -1.2505858e-02
  3.1872213e-02
 -8.9864418e-02
  6.9281870e-01
  3.5483606e-02
  3.0374036e+00
 -3.4432513e-01
 -2.4681365e-01
  5.8728063e-01
  5.2911699e-01
  4.7059901e-02
  6.1789468e-02
  1.0166422e-01
 -1.2462456e+00
 -4.2477739e-01
  2.4143119e+00
 -1.9425801e+00
  1.1833389e+00
 -5.6396477e-02
  3.4891731e-01
 -8.1064455e-02
  3.7344170e-01
 -1.6391376e-01
 -4.7948462e-01
 -2.4850762e-01
 -5.2341002e-01
 -2.0290022e-01
  4.4666538e-01
  1.7407353e-01
  1.5598608e+00
 -8.5987407e-01
  7.7376521e-01
  2.1086921e-01
  1.3155743e+00
 -1.4153381e-01
  6.4195246e-02
 -6.2633969e-02
  1.1276879e+00
  3.1408656e-02
  9.0773210e-02
  7.0073739e-02
 -1.5871533e+00
 -1.7059703e-01
 -4.1359767e-01
 -1.0410996e-01
  1.0864128e+00
 -3.2682147e-02
  1.9055890e+00
  7.4078500e-01
  1.0993161e+00
  2.6400530e-01
  3.6392126e-02
 -2.3392910e-01
 -1.5431330e+00
 -9.5461053e-01
 -5.6364227e-02
  1.8521059e-01
 -1.7484492e+00
 -6.9654071e-01
  2.0540573e-01
 -7.5629991e-01
 -1.6175896e+00
  8.3356452e-01
  1.6730476e-02
  2.2102973e-01
 -1.7739148e-01
  1.8044652e-01
  1.0604540e-01
  5.2142728e-02
  8.6477482e-01
  1.2782605e-01
 -1.2126082e-01
  5.8627419e-02
  2.3444073e+00
  4.1798168e-01
  1.2914278e-01
  1.5171020e-01
  2.1798782e+00
  1.7400047e+00
  5.0115770e-01
  9.9057376e-01
 -3.5163824e-02
 -1.2135577e-01
 -1.3689921e-02
 -9.4975354e-03
 -2.0842376e+00
  1.4487635e-01
 -1.5695871e-01
  2.3294364e-01
  4.3543842e-01
 -8.9984564e-03
  1.9807012e-01
  7.4855074e-02
  9.2190409e-01
  8.9701617e-01
  1.1991146e+00
  1.2097207e+00
  4.5699874e-01
  9.7390093e-02
  3.1782934e-01
  2.4508093e-02
  2.5083888e-01
 -9.1413796e-02
  2.3326126e-01
 -1.8960955e-03
 -2.3804879e-01
  2.7998546e-02
  6.5659636e-01
 -4.6553788e-01
 -4.2013299e-01
  1.6321164e+00
 -1.8820056e-01
  5.1090795e-01
  2.8818963e+00
  2.3010133e-02
  4.8702485e-03
 -6.0949725e-01
  2.5005586e+00
  6.5366481e-03
  2.0048457e-01
  1.4733680e-01
 -9.6295065e-01
  6.7293249e-02
  1.4832273e-02
 -4.8254873e-03
 -1.1724129e+00
 -9.6235774e-02
  1.8815851e+00
  9.7129601e-01
  2.4856976e-01
  1.0041642e-01
  6.9630861e-02
  4.7097456e-02
  7.8881264e-02
  1.1150818e-01
  3.7087914e-01
 -9.9688061e-03
  7.4976647e-01
 -1.8692294e-01
 -5.0615333e-03
  1.0316614e-01
  1.1677963e+00
 -1.1604880e+00
 -1.2800790e-01
 -4.0208194e-01
 -1.3801566e-01
  5.5172034e-02
 -2.5910890e-02
  2.8705984e-01
  1.9791828e-01
  6.0469795e-02
 -4.2121511e-02
  2.1170573e-01
  3.9522734e-02
 -7.5599402e-02
  7.1706981e-03
  5.0392464e-02
  2.0397711e+00
  6.6533530e-01
  1.1729913e+00
  2.8920902e-03
  1.7289627e-01
 -2.8589774e-02
  1.3101174e-01
 -7.3850383e-03
  6.2165910e-01
  1.5057081e-01
 -2.5056678e-01
  5.2433524e-02
  1.0804816e+00
  1.1546838e+00
 -1.2066083e+00
  4.7028500e-01
 -4.8939344e-01
  6.1866009e-01
 -1.0059438e+00
  3.3162513e+00
  1.1024961e+00
 -7.0631802e-02
  1.8590213e-01
 -2.5314713e-01
 -1.1025350e+00
  1.2179064e-02
  1.8742321e-01
 -6.4036384e-02
  3.3253620e+00
  2.6067743e-01
  9.9600982e-03
  1.2010682e-01
  5.8021527e-02
 -9.5017743e-01
  2.8533111e+00
  3.7585339e-01
  1.4853083e+00
 -2.6840158e-02
 -7.9752006e-02
  5.8438618e-02
  1.7509023e+00
  3.8253665e-01
  9.8237954e-02
 -9.8398246e-02
  5.7728815e-01
 -3.0013284e-01
  6.8846470e-01
  7.0965216e-02
 -6.2991995e-01
 -3.0753655e+00
 -4.5887080e-01
 -1.0916790e-01
 -3.1097400e-01
 -3.9784461e-03
  1.3169031e-01
 -1.3490416e-01
  1.3113400e-01
 -2.7580453e-02
  3.1931054e-02
  4.8326316e-01
  1.3332711e-01
  3.3704218e-02
  3.0884898e-01
  3.8818967e-02
  1.0776316e+00
 -1.5294665e-01
  2.1905079e+00
 -4.3313190e-01
  1.4126506e-01
  1.5159756e-02
  1.3003564e-01
  1.5419235e-02
 -3.8286081e-01
 -1.3257909e-01
  1.6756560e-01
 -3.7340769e-01
  1.0458795e+00
 -2.6467946e-01
  8.3650839e-01
  6.1090684e-01
  2.7101314e+00
  1.8309109e-01
 -3.4532225e-01
  9.7034663e-02
  2.6879534e-01
 -2.5710699e-01
 -1.8227746e+00
  3.2988500e-02
 -6.7458338e-01
 -1.3366285e-01
 -6.4381589e-03
 -2.1556127e-01
  1.3736887e+00
  2.9757187e-01
  1.1614392e+00
  1.9019334e-01
  1.0027426e+00
 -6.7626715e-02
  1.8116990e+00
 -2.9323316e-01
  1.2591490e+00
 -2.8975418e-01
  9.7623713e-02
  9.8624691e-02
  1.2280642e+00
  2.4845134e-01
  7.0289910e-01
  2.4823400e-01
 -5.8512378e-01
  1.4995422e+00
 -9.1636807e-01
 -7.0208859e-01
 -1.6185129e+00
 -1.3445859e-01
 -3.8471702e-02
  3.7860700e-01
  9.4065648e-01
  4.2019945e-02
  3.6644170e-03
  1.9967940e-01
  2.8466803e-01
 -2.9408300e-01
 -8.7552637e-02
 -4.1804682e-02
 -8.2580401e-03
  6.0034621e-01
  3.0449476e-02
 -1.8605916e-01
 -2.8484566e+00
 -6.0259253e-01
 -1.3647488e+00
  7.4629813e-01
 -2.8765623e-03
 -3.7544236e-02
  2.4636047e-01
  9.2078105e-02
 -1.0747107e+00
 -8.5362387e-01
 -7.3336214e-01
  5.6560218e-02
 -1.7904546e+00
  1.2620097e-01
 -1.8762456e-01
  6.8635744e-01
  8.4634805e-03
  1.2457184e-01
  1.0342401e+00
  3.7506092e-01
  1.0799612e-01
 -1.8384825e-01
  2.3886831e-01
 -5.6293026e-02
  4.5385557e-01
  3.4535217e-01
 -8.1171907e-02
  6.6501811e-02
  2.8915125e-01
 -2.4407570e+00
 -2.1006102e-02
  3.6712077e-02
 -4.5700705e-01
  7.0043534e-01
 -1.8598464e+00
  1.9562021e+00
 -4.8807633e-01
  1.0421672e+00
  2.5348294e+00
  2.3450725e-01
  3.0707755e+00
  6.2186575e-01
  1.8541367e+00
  1.5325326e-01
  1.6803435e+00
  8.5968608e-01
 -7.4810058e-02
  1.0837200e-01
  4.8802757e-01
  4.0767226e+00
  2.5045159e+00
  2.4595351e+00
  2.3503218e+00
  7.3294508e-01
 -9.5482804e-02
  1.0355321e-01
  1.8812971e+00
  1.6419955e-01
 -5.6688730e-02
  2.5684275e-02
  5.7979357e-01
 -3.1736007e-01
 -1.8983407e-01
 -4.2295682e-01
 -2.9697579e-01
  1.6515312e+00
 -9.1088064e-02
 -1.0971878e+00
  9.1393727e-01
  2.8575204e-02
  5.2290106e-01
  1.9147057e-02
  2.1142246e-01
 -2.1059899e-01
 -9.4863279e-03
 -7.6603152e-02
 -4.1669752e-02
  3.7592914e-02
  2.4281414e-02
  8.5680395e-02
  7.5494456e-01
  1.9302034e+00
 -2.7523370e-02
 -3.4965248e+00
  8.0639377e-02
  5.8993861e-02
 -2.3242605e-01
  3.6884036e-02
 -1.6722615e+00
  1.7841944e+00
 -8.5160822e-01
  2.2118665e-02
 -3.2946762e-01
  1.8526962e-01
  3.3971781e-01
  4.4786584e-01
 -3.5311931e-01
  6.7668444e-01
  5.0277942e-01
 -1.4869093e+00
  1.0675987e+00
  6.3466489e-01
 -1.6790964e-01
 -1.6700481e+00
  1.5823965e+00
 -1.1076149e-01
 -1.3009715e-01
  1.7142133e-01
  4.4575989e-01
 -6.0080439e-01
  2.0825069e-03
  2.3830177e-01
  3.2259643e-01
 -1.9104695e+00
 -1.7355535e+00
  1.2054203e+00
  1.2585479e+00
  3.3355284e-01
 -1.7758422e-02
 -1.6306405e-01
  6.6474736e-01
 -7.0479177e-02
  6.0091835e-01
 -2.0178977e-02
 -3.5051060e+00
 -4.1883674e+00
 -1.5957398e-02
  1.1824021e+00
  1.0719182e+00
 -1.5446587e+00
 -9.1180271e-01
  1.0011462e+00
  4.4231540e-01
  4.9497107e-01
  2.6191503e-01
  5.1600283e-01
  3.7646979e-01
  2.3821825e-01
  1.4541715e-02
  6.5685779e-02
  1.6391275e+00
 -6.5131086e-01
  4.6863300e-01
  3.8767359e-01
  1.8829798e+00
 -1.8339357e+00
 -6.3418382e-01
  1.4552677e+00
  3.3838898e-01
 -2.5753424e-01
 -4.6031189e-01
 -9.7534731e-02
  1.2457820e+00
  1.1878006e-01
 -5.8020455e-01
 -4.4616554e-02
  4.9700490e-01
  1.3725815e+00
  2.8896546e-01
 -1.8310589e+00
  2.5122437e+00
  5.7473356e-01
  1.3237596e+00
  1.6494656e+00
  1.6192228e+00
  1.8151714e+00
  1.7284884e+00
  1.4825649e-02
  2.6094079e+00
  5.9101060e-03
 -8.5064501e-01
  8.4719044e-01
  1.8455148e+00
  3.7452946e+00
 -1.4941851e-02
  1.4917077e+00
  3.5596120e-01
 -2.1308313e-01
  2.1636477e+00
  8.5123616e-01
  4.8422080e-01
  3.2627338e-01
 -5.2062895e-02
 -8.6637877e-02
  1.6074978e+00
  1.7403941e-01
  3.3141115e-01
  4.9594682e-02
  1.8960208e+00
 -1.5063116e-01
 -6.2150437e-01
  4.2909855e-01
 -1.5815440e+00
 -2.1109672e-01
  1.1512100e+00
  9.3576354e-01
 -7.9752946e-01
  2.1998668e-01
 -2.3762421e-01
 -4.5629200e-02
  3.6277936e+00
  1.1999842e+00
 -4.0122023e-01
  3.2755294e-01
 -1.2866325e+00
 -1.1919186e+00
  3.1970862e-01
  1.7551488e-01
 -3.1443832e+00
 -1.7650750e+00
  1.6606715e+00
 -2.4223411e+00
  1.7254940e+00
  2.6977801e-01
 -1.3799393e+00
 -3.6289787e+00
  9.4680643e-01
  1.4623972e+00
 -6.4400574e-03
 -1.2018692e-01
  1.7119826e+00
 -2.7763966e-01
  2.2238049e-01
 -1.0015777e+00
 -1.4858773e+00
 -1.9407200e+00
 -1.1234109e+00
 -2.1680295e+00
  1.9305557e+00
  2.4978500e-03
  8.2216084e-02
  7.3255521e-01
  2.0322564e+00
  8.2596958e-02
  4.8006615e-01
 -2.1942687e-01
  6.8548024e-01
 -2.1884925e+00
  2.7265552e-02
  1.9284470e-02
  1.2553555e+00
 -2.8328729e-01
 -2.0454216e+00
  2.2156915e-01
  1.7371565e-01
 -1.4514122e+00
  1.8375974e-02
 -2.3204988e-02
 -2.0557349e+00
  1.3664027e-01
 -2.4081698e-02
 -6.8778194e-02
 -1.4444124e+00
 -1.8433406e+00
  2.8660750e-01
  3.2254583e-01
  1.1161991e+00
  1.6205947e+00
  8.4157288e-01
  2.3947290e-01
  1.6767429e-02
 -4.5380622e-02
  7.9028711e-02
 -1.5611862e-01
 -1.1263209e-01
 -5.4406624e-02
 -3.2665979e-02
  3.9860478e-01
 -2.0458989e+00
  4.5278570e-01
 -8.0624763e-03
  1.6869175e-01
 -2.2614789e+00
 -2.4238181e-01
  3.8713214e-01
 -1.6528942e-01
  3.3587828e-01
  2.1304574e-02
 -2.2769115e+00
 -9.2887193e-02
 -6.5898919e-01
  4.0844984e-02
  1.0866524e-01
  1.5108612e-01
  2.2647808e+00
  5.7331264e-02
  2.4998198e-01
  3.6990251e-02
 -1.2783965e+00
  4.1837117e-01
  4.0970880e-01
 -8.4153908e-01
 -1.1206903e-01
 -4.3501762e-01
 -3.1581789e-02
  1.8232418e+00
 -1.9188409e+00
 -7.5099520e-02
 -3.6609170e-01
  9.0162061e-02
  1.3622744e+00
 -3.6259513e+00
 -2.9991647e-02
 -4.1160442e-02
  4.3162694e+00
  1.0252763e+00
  1.7315279e+00
  5.5200309e-02
 -6.0767448e-01
 -1.3922671e+00
 -1.5489432e-01
 -6.9067872e-01
  2.1581796e-04
 -2.0393007e-02
 -8.9845777e-02
 -9.1939420e-02
 -2.5856044e+00
 -2.5960830e-01
 -1.4608203e-02
  1.0982407e-01
  1.3325806e+00
  1.3117038e-01
  1.2432456e+00
  5.9123796e-01
  1.2157813e+00
  1.1002737e-01
  6.0442381e-02
 -3.9812475e-01
  1.5065782e+00
 -6.5225057e-02
  5.0072479e-01
  6.9806963e-02
  6.7666280e-01
  3.0994076e-01
 -8.3822572e-01
 -9.7412862e-02
 -1.0688326e+00
 -5.2784455e-01
  3.8471103e-01
 -2.1764143e+00
  8.8506556e-01
 -9.7260252e-02
 -3.7541208e-01
 -7.4242991e-01
 -1.0166516e+00
 -1.4026150e-02
  7.9549260e-02
 -4.1264147e-01
 -1.4269588e+00
 -1.1040326e-02
 -3.6547773e-02
 -1.3597491e+00
 -3.6123962e+00
  1.5535994e-02
 -5.5272199e-02
 -2.7404494e+00
 -7.9020280e-01
 -1.2548371e-01
  1.8492766e-01
 -1.1467235e-02
  9.1279286e-01
  4.1194674e-02
 -4.0945110e-01
 -2.2594491e-01
 -9.2911083e-01
 -2.2171428e+00
 -5.4850176e-02
 -6.0664910e-01
  2.4026504e-01
  7.5564933e-01
 -5.0582546e-01
 -2.6498423e+00
 -1.6397994e-02
 -5.1890578e-02
  4.1993961e-02
  2.4402339e+00
  4.2836733e+00
  1.4491355e-01
  1.6197171e+00
 -2.7302476e-02
 -3.5462084e-01
 -1.1473902e+00
  2.0202767e-02
  1.2637274e+00
  9.3870515e-01
  1.7822703e+00
  1.9085363e-01
  2.5128219e+00
  1.6446445e+00
 -1.6647403e-01
  4.1734865e-03
  7.5039452e-01
 -8.4866574e-03
  1.0840373e-01
  3.3980235e-01
 -1.3545105e-01
 -2.3398683e+00
 -4.0828240e-01
 -1.3203788e-01
  2.4125575e-01
  1.3078332e+00
 -1.1151283e+00
  1.5303384e-01
  2.5743525e+00
 -4.9661074e-02
  1.3492317e-01
 -5.2253050e-01
 -5.3162092e-01
 -7.5805014e-01
  1.0119987e-02
 -2.0110998e-02
  1.8759700e-03
  7.1279317e-02
 -6.6599578e-01
  3.6170017e-02
  3.7001517e-02
  1.2461869e-01
 -9.8170120e-01
  1.1296945e+00
  1.8266091e+00
 -1.3721044e-01
 -1.8163672e-01
 -2.5919694e-01
 -1.3710506e+00
 -1.4281844e+00
  1.7990230e-01
 -9.7968382e-01
  2.7725035e-01
  1.4757332e+00
  2.3539052e+00
  3.4113288e-01
 -2.5014541e-01
  2.7870560e-02
 -1.3645420e+00
  5.1619256e-01
 -5.0183046e-01
 -7.4334008e-01
 -1.6185656e+00
  5.4527259e-01
  7.9551339e-01
 -1.2933283e+00
  7.9768009e-02
 -2.2795007e-01
  5.5842322e-01
 -2.6250559e-01
 -9.2237920e-01
 -4.1894552e-01
  4.5086759e-01
  2.1961195e+00
  2.6042371e+00
 -1.8464264e+00
  5.3811174e-02
 -2.1850711e-01
 -2.2849646e-01
 -9.1709822e-02
 -7.7652037e-01
 -3.2110459e-01
  9.8121859e-02
  1.4497240e+00
 -8.1878290e-02
  2.1218381e+00
  2.2324981e-01
 -1.8522573e-01
 -4.0900207e-01
  4.0490284e+00
  2.2393637e+00
  2.6639140e+00
  4.2384443e+00
  9.3262333e-01
  1.0897807e-03
 -1.6756056e-02
  1.2473308e+00
 -1.5541946e+00
  9.4968537e-03
  1.2480286e-01
  6.0083685e-03
  2.2181413e+00
  1.1454217e+00
 -8.7697946e-02
  1.5063737e-01
 -1.6424434e-01
 -7.2695041e-01
 -1.3439528e+00
 -2.2642882e+00
  4.6811447e-02
 -3.6440578e-01
 -3.5768822e-01
 -1.3218494e-01
 -2.1150634e+00
 -1.0688905e-01
 -1.9801992e-01
 -1.5610757e-01
 -1.1405599e+00
  1.2835577e-01
 -1.1073515e-01
  1.2365606e+00
 -4.3533688e+00
 -1.2194545e+00
 -3.7063360e+00
 -3.5512385e+00
  1.8424524e-01
 -8.2544327e-02
  4.0889923e-02
 -1.5136606e+00
  1.2482845e+00
  7.2600640e-02
 -8.7638304e-02
 -2.4160810e-01
 -2.8394244e+00
 -2.2174356e+00
  3.3745402e-01
  4.1248906e-01
  3.3203492e-01
 -1.4300501e-01
 -3.2391508e+00
 -1.4913151e-01
  7.8844190e-01
 -2.2770637e-01
 -2.6922240e+00
  1.5731107e+00
  1.8105890e+00
  1.0931680e-01
  1.3016092e+00
  1.4429294e-01
  1.1184732e-01
  4.7696337e-01
 -5.9077591e-01
 -2.3881707e+00
  2.5487566e-01
 -9.4128244e-02
  1.7258201e+00
  2.4988873e+00
  9.2360103e-01
  3.5656852e-01
 -3.4523677e-02
  8.1623155e-01
 -1.5586188e+00
  9.2583045e-02
 -3.5618159e-01
 -4.9146345e-01
  6.5207295e+00
 -2.1333983e-02
  5.3086277e-02
  1.5065251e-01
 -3.0552499e+00
 -5.7585635e+00
 -2.2843671e-01
 -2.7603087e+00
  2.9807723e-01
 -3.7616101e-01
 -2.9231390e-01
 -4.4229198e-01
 -1.0195683e+00
 -1.8857032e-02
 -1.9744149e-01
 -3.2382693e-02
 -2.3705068e+00
 -1.6517398e+00
  2.1257049e-01
  1.1396565e-01
 -2.8312666e+00
 -1.1184275e-01
  3.0477992e-01
 -1.9736711e+00
 -2.9932578e+00
 -3.7624237e-01
  8.4759587e-01
 -9.3521369e-01
  8.0540329e-02
  2.3878252e-02
  4.0965056e-01
  6.3225633e-01
  1.3337471e+00
 -3.6816013e-01
  3.3499468e-02
  1.0538113e+00
  1.1822895e+00
  1.4162430e+00
  9.6116698e-01
  1.0408603e+00
  2.1831594e+00
  1.0528694e-01
 -1.0224377e+00
  6.7792624e-01
 -1.6683309e+00
  3.4712589e-01
  2.2822544e-02
 -2.4465454e-01
 -5.4905659e-01
  2.5233406e-01
 -1.2975755e-01
 -1.5218364e-01
  2.3220847e+00
  3.1321571e+00
  2.5913689e+00
  3.6087329e+00
  9.3060231e-01
 -7.8348592e-02
  3.4297463e-02
  3.9758317e+00
 -5.6138963e-01
 -3.1931159e-01
  4.6097079e-01
 -8.2241535e-02
 -4.3520991e-02
  1.1234382e+00
  2.2648351e-01
  7.1407455e-01
  1.5241672e+00
 -1.1997781e+00
  2.5733199e+00
  1.9080081e+00
 -1.1071048e-01
  2.4533708e-01
  4.5231754e-01
  1.6764796e+00
 -2.3565385e-01
  1.0725719e-01
  1.2815672e-01
  4.5080805e-01
 -2.0471749e+00
  2.6090683e-02
  2.4942957e-01
 -1.2504240e+00
 -6.7623717e-01
 -1.8466841e+00
  1.0510631e+00
 -5.7372206e-01
 -1.6189041e+00
  7.0750177e-02
  8.4168708e-01
  7.2684062e-01
 -1.3099523e-01
  1.2453962e-01
  2.0555852e-01
 -5.2040514e-02
 -2.4129779e+00
  7.4925803e-02
  6.4819098e-02
 -5.6858681e-02
  4.3641183e-01
 -1.0957508e+00
  2.6069790e-01
 -3.6065483e-01
 -3.6295158e-01
 -4.6277810e-02
  4.2838108e-02
  2.5033608e-01
  1.3126220e-01
 -7.2270459e-01
  8.3821371e-02
  5.4185951e-01
 -1.5477049e+00
 -1.2023507e+00
 -2.2916806e-01
 -2.8243208e-01
 -2.9759145e-01
  5.9966058e-01
  4.9752083e-01
 -8.9536512e-01
  2.0564575e+00
  4.5104101e-01
 -1.8306211e-01
 -7.2812307e-01
 -7.5336403e-01
  2.8359661e-01
 -6.7891210e-02
 -1.5588306e-01
  1.0109426e+00
  1.8778647e+00
 -1.1150454e-02
 -1.8400067e+00
  3.6671309e+00
  1.3458594e+00
 -1.8498331e+00
  3.6046448e-01
 -1.6977578e+00
 -4.8320652e-03
 -1.4977631e-01
 -6.0751253e-01
  4.8248487e+00
  3.5148862e-01
  2.1868080e-02
  1.1137936e-01
 -3.4574264e-01
 -6.3095194e-01
  7.4815102e-02
 -1.3965881e+00
 -1.9328290e+00
 -1.0390084e+00
 -1.5204887e+00
 -9.3801506e-02
  2.0493698e-01
 -6.3961819e-02
  2.2572839e-01
  8.4624300e-04
  8.5694349e-01
 -1.5081400e-01
 -1.7184988e-01
  1.0828369e-02
 -2.0566182e+00
 -7.2129714e-01
  1.0725977e-01
 -8.5948192e-02
 -3.0506141e+00
 -1.4758326e+00
  4.8945400e-01
 -1.2863200e+00
  1.4886374e+00
  1.5112394e+00
  6.1049446e-02
  3.4973238e-02
  1.5912056e-02
  1.2867687e-02
  2.8133827e-01
  7.0963895e-01
  4.0881076e+00
  5.3098184e-01
 -8.3597314e-01
  1.3946140e+00
  2.5019553e+00
  1.2896106e+00
 -4.4024009e-01
  7.3045255e-03
 -1.8337466e+00
  6.8005574e-01
 -7.5935200e-02
 -2.8005857e+00
  4.9319804e-01
 -1.0809615e-01
 -1.3364950e-01
 -1.0966212e-01
  4.9327496e-01
 -2.3548317e+00
 -4.2761862e-02
 -4.5749555e+00
 -1.5121824e+00
 -6.5863460e-01
  2.7552971e-01
 -1.0827525e-01
 -1.3104064e+00
  5.6096399e-01
  1.2339333e-01
 -2.9492489e-01
 -1.3883158e+00
 -1.8539451e-02
  2.7003616e-02
 -2.8498618e-02
 -2.2395420e+00
 -1.1675581e+00
  6.6837811e-01
 -3.0494583e+00
  1.6669900e+00
  2.0788452e-03
 -6.2709874e-01
 -2.5205679e+00
  4.8837379e-02
  4.6235508e-01
  9.6113160e-03
  9.8701388e-01
  7.6831156e-01
  2.8345951e-01
  5.8811885e-01
  5.5131531e-01
 -2.9439884e-01
  8.1834262e-03
 -9.6037507e-01
 -4.7563538e-01
  8.2982492e-01
 -8.3439577e-01
 -9.3708479e-01
 -8.0147952e-01
 -1.7775523e-02
  1.1390158e+00
 -4.0287357e-02
 -3.1831935e-02
  4.5768533e+00
 -1.9262275e-02
  2.3293141e-01
 -4.1896176e-02
  1.2591977e+00
  3.4716370e+00
  1.4883997e-02
 -5.9744954e-01
  3.8720508e+00
  7.6464361e-01
 -2.1507490e-01
  2.3067424e+00
 -2.2177751e+00
  4.2990866e-01
 -1.2560047e-01
 -1.4217663e+00
  3.8410873e+00
 -8.2265049e-02
  1.6346996e-01
  1.9733883e-01
 -1.5206484e+00
 -1.7478768e+00
 -2.6137269e-01
 -1.3673644e+00
  6.4585322e-01
  1.1364291e+00
  1.3432946e+00
  1.8745276e+00
 -1.3411822e+00
  1.2746928e+00
  3.1265000e-01
 -5.0354153e-01
  5.3620821e-01
 -4.8531431e-01
 -7.2552070e-02
  4.3926027e-02
 -1.8138194e+00
  1.6891138e-01
  3.1095690e-01
 -2.5456650e+00
  6.4079762e-01
  3.0528957e-01
  5.4557234e-01
  1.2765778e+00
 -6.9166727e-02
  5.7263809e-01
  1.3922902e-02
  2.0959304e-01
 -1.6073250e+00
 -6.7172921e-01
  8.8578098e-02
  3.2655969e-02
 -1.8968723e+00
  9.6497372e-02
 -2.5213504e-01
 -2.2615105e-01
 -5.9695762e-01
  1.4963792e-01
 -3.2057356e-02
 -5.1434249e-02
  1.3867642e-01
  7.0128506e-01
  5.3384211e-02
  8.4424919e-01
 -3.3215351e+00
  5.3687119e-03
 -7.8674376e-02
  1.8537271e-01
 -1.0203713e-01
 -8.6695993e-01
  3.1869140e-02
 -1.3613403e+00
  1.5166966e+00
  5.4328287e-01
  2.5309643e-01
  3.7658256e-01
  4.9542838e-01
  1.7909456e+00
 -1.7399928e-01
  4.9173310e-01
 -3.4415403e-01
 -5.1465112e-01
 -1.2072805e-01
  2.5926387e-01
  5.3004462e-01
  1.7549062e+00
 -1.8244168e-01
 -1.3449227e+00
  5.6200194e-01
  1.2407541e+00
 -7.4239790e-01
  1.5192373e+00
 -4.2527464e-01
  4.8589078e-01
  3.8676715e-01
  7.0936739e-01
 -1.8417335e+00
  2.6834188e-02
  5.2280098e-01
 -2.8949288e-01
 -5.7035934e-02
  1.0924999e+00
  1.9068669e-01
 -1.1789026e+00
  3.2881286e+00
  2.4651303e+00
  3.1386051e+00
  6.9330635e+00
 -1.8471368e-01
  3.8678564e-02
 -2.1018738e-01
 -3.5892529e+00
 -2.3175573e+00
  2.6243178e-02
 -5.1585543e-03
 -9.2977040e-02
  6.9754539e+00
  4.3060872e-01
  6.5186219e-03
  9.1413088e-02
 -5.4588895e-03
  2.3751561e-01
 -1.0244001e+00
  2.6126888e+00
  2.5007535e-02
  3.4813565e-01
  1.8768797e-02
 -7.5580424e-01
 -1.2041603e+00
  3.9129324e-02
  2.7373863e-02
 -8.2929134e-02
  1.8460567e+00
  1.1031495e-01
 -3.5761821e-03
  2.3835793e-01
 -2.1150131e+00
 -5.0319829e+00
 -4.2757717e-01
 -4.5757284e+00
 -6.0730135e-01
 -1.8722822e-01
  3.6115980e-01
  2.2549889e+00
  3.5170171e-01
 -1.7884342e-02
 -9.0781994e-02
  4.8538807e-01
 -2.7703879e+00
  7.3620856e-01
  5.7819325e-01
  3.6345613e+00
 -3.4641105e-01
  4.6685219e-01
 -1.3705493e+00
 -1.9379838e+00
 -4.0599325e-01
  1.3261947e-01
 -6.1171237e-02
 -3.1674761e-01
  2.5611179e+00
 -1.1097056e-01
  3.1281215e-01
 -1.6902404e-01
  1.3379586e-01
 -1.4677332e-01
 -1.4126879e+00
  1.7093867e-01
  1.9001580e+00
 -3.6855847e-01
  2.3793111e+00
  2.0103690e-01
  3.0701461e-01
  1.4875084e-01
  6.5680039e-01
 -2.9205160e+00
  2.4997082e+00
 -6.5180391e-01
  7.2191244e-01
 -4.2777103e-01
 -1.5287127e+00
  2.1272945e-01
  2.5566003e-01
 -1.1897737e-02
  1.9412169e+00
  2.2851610e+00
  2.7999775e+00
  2.5448117e+00
  1.5583167e+00
  1.6137861e-01
  4.8710678e-02
 -5.2936339e+00
 -1.1232029e+00
 -4.6859026e-01
 -5.6478299e-02
  8.9657828e-02
  1.4785620e+00
  4.3225665e+00
  6.8731582e-01
  5.1272488e-01
  6.5505821e-03
 -1.4797227e+00
  3.4690397e+00
  5.0778240e-01
 -1.9550264e-01
 -1.5617478e-02
  9.1344558e-02
 -3.7526089e-01
 -3.3719897e+00
  1.3912739e-01
  8.4380317e-01
  1.6947135e-01
  7.2162104e-01
  3.3760788e+00
  1.7696563e+00
 -9.6545541e-01
 -8.6059165e-01
 -5.7065177e-01
  3.8789496e-01
 -1.1604576e+00
 -3.0342333e+00
 -1.0661999e+00
 -1.4750601e+00
 -7.3029166e-01
 -1.2928618e+00
 -3.1535038e-01
  1.2584302e-02
 -2.7213198e-01
  7.6164627e-01
  5.2064180e-01
  1.5118016e+00
 -1.9046487e-01
 -3.3616910e+00
 -1.3437661e+00
 -8.0754203e-01
 -2.1101992e+00
 -2.3921154e+00
 -9.5433891e-03
 -1.0348886e-02
  4.1775904e+00
 -1.6151518e+00
  1.5572658e-01
  1.2260314e-01
 -9.0622686e-02
  5.0545359e-01
 -3.8874838e+00
 -4.6971789e-01
  2.6629326e+00
 -1.3696592e+00
  1.2874477e+00
 -2.7589619e+00
 -5.8794075e-01
  1.0014684e+00
  4.5428276e-03
 -5.4873335e-01
  1.6701001e+00
  1.5786840e+00
 -1.7230887e-03
  4.1871712e-01
 -7.6056528e-01
 -1.0202131e+00
 -6.7869467e-01
 -8.2097128e-03
 -4.8084635e-01
  6.9150400e-01
  1.9850736e+00
 -1.8336594e+00
  4.7641250e-01
  2.6987789e+00
 -9.7116813e-02
 -5.7036862e-02
 -1.4798300e+00
  1.0685983e+00
 -1.0405380e-01
  4.0650991e-01
 -3.7618583e-01
  9.7516634e-02
 -2.2670083e+00
 -2.3130868e-01
 -8.6501621e-02
  1.7967122e+00
  2.4060760e+00
 -7.3388195e-01
  9.2117524e-01
  2.0424626e+00
 -6.7109764e-01
 -4.7561505e-01
 -2.8439286e+00
  2.1311169e+00
 -4.1981816e-01
 -9.1563826e-03
 -1.1137143e-01
  1.0704945e+00
 -5.2079335e-02
 -4.5591602e-01
 -5.8136320e-01
 -2.3814449e-01
 -2.1455803e+00
 -7.5788134e-01
  1.4692780e+00
  2.5582187e+00
 -1.6426586e-02
  2.3089811e-02
 -7.8502679e-01
  1.1875786e+00
  8.2583940e-01
 -2.4859624e-01
 -1.2850280e+00
  4.0666908e-01
  2.3655493e+00
 -1.8850920e+00
 -8.5654902e-01
  4.1287166e-01
  1.8199521e+00
 -5.2316755e-02
 -3.1109413e-02
  6.8761535e-02
  4.0033296e-02
  6.4433143e-02
  3.5115504e-01
 -1.6982412e+00
  1.8067874e-02
 -1.2363761e-01
 -1.7917307e-01
  3.7545912e+00
  1.0062119e+00
 -2.3087228e-02
  1.3985999e-02
  1.3108354e+00
  7.7275658e-01
  7.4925429e-01
  5.5912232e-01
 -3.4399779e+00
  5.0863869e-02
 -1.3187869e-02
  1.2032795e-01
 -6.1394566e-01
 -1.2970595e-02
  1.7579503e-01
 -8.6407945e-02
 -1.4379717e+00
  4.2197177e-01
  6.3563190e-02
 -1.9848287e-02
 -2.7295325e-03
  3.8975576e-01
 -1.5596720e+00
  5.0536430e-01
 -2.9686396e+00
 -2.0199247e-01
  4.1609180e-01
  1.0485097e-01
 -1.0943489e+00
 -8.3632374e-01
 -1.1785146e+00
 -1.0387112e+00
  1.1706266e+00
  1.4354866e+00
 -7.2922862e-01
 -3.4029439e-02
  3.1127715e-01
  1.3416358e+00
 -1.1694905e+00
  1.0811921e+00
  3.0054243e+00
 -8.1459522e-02
  2.6439390e-01
 -2.1035521e+00
  2.9191360e+00
 -3.6989203e-01
 -3.4548324e-02
  4.8740957e-02
  3.1065300e+00
  1.3009765e+00
  5.4737419e-01
  4.2036715e-01
  3.8817722e-01
 -3.2942688e-01
  2.3157516e+00
  3.8839498e-01
  2.1696501e+00
 -3.3118829e-02
 -1.4593529e+00
 -2.1974874e+00
  2.3275049e+00
  7.3032811e-02
  1.0364918e-01
 -2.7157390e-01
 -2.5982034e-01
  2.1374710e+00
 -1.0501760e+00
 -2.5242093e-01
 -3.2982582e-01
 -4.6787232e-01
  1.8144133e+00
 -2.2652316e+00
 -1.7633036e+00
 -1.9695960e-01
  4.0801927e-01
 -3.7988562e-02
  2.1685038e+00
 -3.9805792e-02
 -5.4725575e-01
 -1.2838687e-01
  7.4191117e-01
  1.0553787e+00
 -4.9075803e-01
  3.2162762e+00
  1.8310111e+00
 -7.0540351e-01
  4.6021450e-01
 -2.7622805e+00
  1.2892806e-03
 -7.5090742e-01
 -1.8389876e+00
  1.5032770e-01
  2.2490854e+00
 -8.5343874e-01
 -8.4941679e-01
  1.9583355e-01
 -2.4597862e+00
  4.4828346e-01
 -1.1410867e+00
 -2.0822730e+00
  2.6184459e+00
 -1.3215663e-01
 -4.2923176e-01
 -7.9368484e-01
 -1.7892511e-01
 -2.9023370e-01
 -9.3957894e-02
 -8.9648163e-01
 -9.5735168e-01
 -1.1358929e-01
 -4.2445797e-01
 -9.2267871e-02
 -1.4794072e+00
 -1.9437634e+00
  1.6509559e+00
 -1.5750808e-01
 -2.4799988e+00
 -7.3845667e-01
 -4.7064593e-01
 -1.5615743e-01
  3.0363855e+00
  1.0123777e-01
 -8.8061249e-01
 -1.5681359e+00
  2.0427345e-01
 -7.3991515e-02
  3.3957906e-02
  1.3492644e+00
 -5.7575881e-01
  9.2221648e-02
  2.1153908e+00
  1.5193166e+00
 -2.1957593e+00
 -9.1536030e-02
 -8.4609711e-01
 -7.7468973e-01
 -4.9521214e-01
  1.1697145e+00
 -7.9686046e-02
 -1.0394534e+00
 -2.8870615e-01
 -9.3223667e-01
  5.6116460e-03
 -4.9170434e-02
  1.3781964e+00
  8.8674891e-01
  1.9480979e+00
  1.5767804e+00
 -1.6979873e+00
 -1.3627180e-01
 -1.6831111e+00
 -2.0907362e+00
 -8.2688779e-01
  1.6435643e+00
 -2.1340862e-01
 -2.0137603e+00
  8.8173229e-01
 -3.4750663e-02
 -4.8811041e-02
  3.3985513e-01
  1.4576788e+00
 -4.6933976e-01
  5.0481915e-01
  2.7548203e+00
 -1.3807006e-01
  1.1274978e+00
 -1.3564082e+00
 -8.0060852e-01
 -1.5362043e+00
  8.5670054e-01
  9.6224242e-01
  1.0596756e+00
  1.7968148e-01
  1.9028379e-01
  8.4897391e-03
 -1.6253060e-01
  6.0951048e-01
 -2.3428383e+00
  4.7374564e-01
  7.2857875e-01
  1.5198613e-02
  1.5198613e-02
  1.5198613e-02
  1.5198613e-02
  1.5198613e-02
  1.5198613e-02
  1.5198613e-02
  4.1905637e-03
  4.1905637e-03
  4.1905637e-03
  4.1905637e-03
  4.1905637e-03
  1.8647361e-03
  1.8647361e-03
  1.8647361e-03
  1.8647361e-03
  1.8647361e-03
  2.7604410e-03
  2.7604410e-03
  2.7604410e-03
  2.7604410e-03
  2.7604410e-03
  1.5210704e-03
  1.5210704e-03
  1.5210704e-03
  1.5210704e-03
  1.5210704e-03
  1.8803289e-04
  1.8803289e-04
  1.8803289e-04
  1.8803289e-04
  1.8803289e-04
