nep3 4 C B H O 
cutoff 10 6 73 32
n_max 8 4
basis_size 12 12
l_max 4 2 0
ANN 100 0
  6.7289543e-01
 -7.5384015e-01
  1.8022774e-03
  5.6312297e-02
  5.5172801e-01
  3.4188971e-02
  8.2461578e-01
  5.2575199e-03
  3.3375867e-02
 -2.7087826e-02
 -2.2097821e-03
  5.0038807e-02
  2.4096253e-03
 -4.4450924e-02
 -8.1922449e-03
  3.6962017e-02
 -2.9983336e-02
  2.1626900e-03
 -6.4777648e-03
 -7.5500190e-01
  8.2714491e-02
  2.3863716e-01
  9.4227087e-01
 -6.6551171e-02
  3.3105340e-02
 -3.7055720e-02
  7.0951185e-03
 -1.1958145e-01
 -9.4637759e-03
  2.9360600e-02
 -2.0872757e-02
 -4.1853639e-01
  3.0654274e-02
 -1.0892506e-02
  1.4581053e-01
 -3.3431864e-01
 -3.5508633e-01
  1.8851194e-01
  1.6056364e-02
  8.8777058e-03
 -2.8858519e-01
  3.0888544e-02
  4.0262318e-01
  1.3673174e-02
 -2.9992029e-01
 -6.9302684e-01
 -8.3999641e-02
  3.8474398e-03
 -6.4766422e-02
  2.8800990e-02
 -5.7048067e-02
  7.9709119e-01
  3.3974871e-02
 -2.7240890e-01
 -1.0510398e+00
  9.6535511e-02
  3.6988795e-01
  3.6236864e-01
  1.2730537e-02
  1.1022626e-02
 -4.0798586e-02
  6.3289471e-02
 -1.0449356e-01
 -8.9969374e-03
 -3.2052528e-02
  2.2943694e-02
 -3.8789019e-02
 -2.1528392e-01
 -6.9371704e-03
  2.1253334e-02
 -1.9369608e-02
  2.3757990e-02
  6.6834658e-02
  1.0090738e-01
  1.0752900e-02
 -4.6127759e-02
 -1.9062184e-01
 -8.8313678e-03
  4.8316814e-02
 -3.9644927e-02
  5.7628844e-03
  1.7786464e-02
 -1.4269237e-02
  1.1816308e-02
  3.1344365e-02
  3.1127684e-02
 -5.2705407e-02
  2.6194273e-02
  4.5228947e-04
  6.2157407e-02
  2.5895089e-01
  1.2145705e-02
  3.6230899e-02
 -2.7250588e-02
 -7.0080109e-02
 -2.4634358e-03
  1.5884306e-03
 -1.3891550e-02
  1.7603232e-02
  1.6126625e-02
  7.4587345e-02
  4.1551188e-02
 -1.4030966e-01
 -1.4489436e-01
  2.3415828e+00
  6.4459962e-01
  4.6124667e-01
  1.7637603e-01
 -2.3354046e+00
 -1.1790620e+00
  3.3261359e-01
 -2.6781716e+00
  3.2614864e-02
  1.7828448e+00
  1.1993473e-02
 -4.3409214e+00
 -4.3963251e+00
 -9.9710763e-01
  3.8572037e+00
  9.3548849e-02
 -3.3323636e+00
 -2.2376344e+00
 -3.6160748e-02
  6.9735944e-01
 -5.0127465e-01
 -1.6302578e-01
 -7.2309017e-01
  1.1248374e+00
  7.4231875e-01
 -4.7376117e-01
  8.5602120e-02
 -5.5438094e-02
  3.0894458e-02
 -8.4749281e-01
 -1.6708789e-02
  1.6480488e-01
 -8.6720977e-03
  6.5307678e-03
 -1.5748404e-02
 -4.7673319e-02
  6.0205087e-03
 -1.0048973e-03
 -3.3298817e-02
 -5.0908476e-02
 -1.9100979e-02
  2.7447822e-02
  1.4778630e-02
 -5.4691281e-02
  1.7106059e-01
 -4.9898304e-02
  3.4998529e-02
 -2.7603149e-02
 -9.9286392e-02
  5.8003990e-03
  1.3939883e-03
 -1.2099477e-02
 -1.1902601e-03
 -1.0250718e-02
 -3.7871078e-02
  1.9486912e-02
  2.2584965e-02
 -4.4207010e-02
  1.4822021e-02
 -2.4253296e-02
  1.8001255e-02
 -2.8530495e-02
  2.4020554e-02
  2.1516057e-02
 -1.2663089e-01
  9.1083437e-02
 -4.9022794e-01
  2.6411420e-01
 -2.2064788e+00
 -1.1776901e+00
  7.9879516e-01
 -7.0645857e-01
  1.8876281e+00
 -2.2438779e-01
  2.2106875e-01
 -6.9014221e-01
 -2.3349087e+00
  1.6053884e+00
  4.9387085e-01
 -1.0642335e+00
 -1.7270993e+00
 -2.2741675e+00
  8.7458462e-02
  7.0375824e-01
 -3.0328383e+00
 -8.2344759e-01
  3.7722647e-01
 -2.3369184e+00
  2.0905089e+00
 -1.5775574e+00
 -6.2823510e-01
  6.9442123e-01
 -1.0446085e+00
  5.6650871e-01
  6.0879195e-01
  2.7899064e-02
  2.6822253e-03
 -1.6137222e+00
 -1.7120259e-01
 -2.3707868e-01
  7.3275709e-01
  2.9023688e+00
 -1.1865346e+00
 -1.3631436e+00
 -3.6709166e-01
  5.8966577e-01
  5.4906285e-01
  2.8429875e-01
 -6.5527302e-01
 -1.2263140e-01
  1.3631544e-01
 -9.8725017e-03
  4.0073348e-03
 -7.1413894e-03
 -5.9848675e-03
 -2.6210901e-01
 -2.3658872e+00
  1.4126305e-02
 -2.2596683e-02
 -4.9620904e-03
  1.9715309e-02
 -1.6866606e-01
 -4.6931073e-01
  1.8564250e-02
  4.4342153e-02
  3.4370407e-01
 -5.3944290e-02
 -7.5582117e-02
  2.3485399e-03
  9.0328306e-03
  1.6323429e-02
  3.2809150e-01
  3.0956805e-02
 -1.4391910e-01
 -4.9436569e-02
 -4.8158299e-02
 -2.6564809e-02
  6.2342355e-04
 -2.4631677e-02
 -2.7084563e-02
  2.0024950e-02
  8.1688166e-03
 -4.5667533e-03
  5.6057023e-03
 -2.6824607e-02
 -4.0604812e-03
 -1.7432265e-03
 -3.3611782e-02
  2.6786553e-02
  6.6822082e-02
 -1.2386786e-02
  2.4010038e-02
 -9.0362467e-03
 -3.6416021e-03
 -8.5574930e-04
  4.0575843e-02
 -1.0001548e-02
  1.8341146e-02
 -1.5039825e-02
  7.4090748e-03
  7.7902456e-03
  5.3342110e-03
 -4.9565885e-02
  1.4048122e-02
 -5.6124099e-02
 -9.6073341e-01
 -9.7609209e-03
  4.8138872e-02
  3.9999223e-01
  6.8921983e-01
 -2.6064548e-01
  1.6493326e-01
 -3.0438024e-01
 -9.1272779e-02
 -7.0730132e-01
  1.3663180e-02
  8.7444566e-02
 -2.2460207e-02
 -2.9376393e-02
 -3.7382224e-01
  6.5030560e-02
 -4.5960736e-01
 -6.6807657e-01
  1.7777583e-02
 -4.8332140e-01
  2.3070298e-02
  2.5139552e-02
 -1.3896014e-02
  1.0523760e-01
  5.5276129e-02
 -8.3738878e-02
 -6.5826678e-01
  6.9039986e-03
  7.8591667e-02
 -3.4294333e-02
 -3.6153880e-01
 -5.6452379e-03
  2.2176981e-02
 -1.4644552e-02
  6.9004758e-03
 -2.5310436e-02
  1.2071866e-02
 -5.1333603e-02
  1.0256629e-01
  4.1011661e-02
  2.5252366e-02
 -3.0835802e-02
 -4.8782978e-02
  3.0568919e-01
  7.0642173e-02
  9.2855670e-02
  7.5034862e-03
  4.5574516e-02
  1.3927170e-03
 -1.1970901e-01
  7.1429983e-02
  1.8355014e-02
  4.0194541e-03
 -1.5378991e-02
  1.8842839e-02
 -1.3219987e-02
 -6.8108559e-02
  6.0923737e-02
  2.1723656e-02
 -6.4157076e-02
  1.3804913e-02
 -2.3751408e-03
  5.9553076e-02
 -1.3359087e-02
 -1.1367036e-02
  2.3278408e-06
  1.7150948e-02
  4.0126864e-02
  6.6842213e-02
 -1.9553886e-03
 -5.1750999e-02
 -1.1726630e+00
 -9.6028298e-01
  2.3734832e+00
 -3.9067650e-01
 -4.3331379e-01
 -6.1254030e-01
 -1.2274390e+00
 -2.7652195e-01
 -1.2063552e+00
 -2.2843830e-02
 -2.0047672e-02
 -1.6223453e+00
 -5.7406228e-02
 -5.8859688e-01
 -8.4086591e-03
 -5.2390628e-02
 -8.0362809e-01
 -2.4567865e-01
  1.9093536e-02
  4.8285954e-02
  3.2331736e+00
  5.9158623e-01
 -1.8780085e+00
 -1.1222778e-01
  1.4097649e-01
  9.8469013e-01
 -3.0964291e+00
  2.0116664e-02
  1.3734318e-01
 -2.9739300e-02
  1.3971081e-02
  2.9464165e-02
 -1.7341685e-02
  1.2726645e-02
 -1.1458800e-01
  8.5167587e-01
 -2.2213173e-01
  1.2681253e+00
  7.4647081e-01
  1.2326094e+00
  5.9717226e-01
  1.7697720e-01
  1.1636623e-01
  1.1333182e-01
  5.6205716e+00
  2.7802399e-01
  1.1002372e-01
  2.4737017e+00
 -7.5728977e-01
 -1.2098743e+00
 -9.3541163e-01
 -3.6043152e-01
  1.6903876e+00
  3.7125745e-01
 -7.1397448e-01
 -3.2779685e-01
 -3.8914615e-01
  1.9553009e-01
 -1.3469487e+00
 -4.0379170e-01
 -9.0807483e-02
  5.7237524e-01
 -3.1825769e-01
 -3.2860436e-02
  6.1486578e-03
  7.7372754e-01
  7.4372810e-01
  9.9047795e-02
  2.4154922e-03
  1.0439524e-02
  9.9826669e-03
  2.9343191e-01
 -9.0916120e-03
 -2.1460466e-04
  3.7412159e-04
 -6.9595590e-02
 -1.5767111e-02
 -2.1704881e-02
  4.2977687e-02
  2.3744872e-02
  1.6157260e-02
 -1.2749643e-02
  2.2890408e-02
  7.6653184e-03
 -5.0101145e-03
 -1.9257871e-04
  5.8920305e-02
  1.9565929e-02
 -4.0855151e-02
  5.1450543e-04
  1.3185067e-02
  2.1970514e-02
 -2.8443485e-03
  9.0031791e-03
  4.8211381e-02
 -1.0086517e-02
 -2.2494351e-02
  8.4314644e-03
  6.7794278e-02
  1.3210827e-02
  5.3564969e-02
  3.1601310e-02
 -1.3353013e+00
  1.6076334e-01
  9.3086404e-01
  2.2946712e-02
  5.1741606e-01
  1.1339311e-01
  5.1245600e-01
 -4.8433548e-01
 -1.6360787e-01
  1.1894921e+00
 -2.0189646e-01
 -1.7478107e-01
  3.1402722e-02
  1.0166323e+00
  5.2611911e-01
 -1.2887275e+00
 -1.3032085e-02
 -3.4177423e-01
  9.0168977e-01
  6.6925955e-01
 -3.3834606e-01
  5.7290709e-01
 -1.8749112e-02
  4.0830103e-01
  1.8075959e-01
 -1.0170452e-01
 -1.4429513e-01
 -8.3371735e-01
  1.9095367e-02
 -1.6002115e-02
  3.9608018e-03
 -1.6768687e+00
  5.6136137e-01
  9.9307261e-03
 -1.3964211e-02
  6.6699290e-01
 -1.1663998e+00
 -7.1269512e-01
  6.0874653e-01
  1.0507748e+00
 -3.4275615e-01
  4.5745033e-01
 -5.2923720e-02
 -2.8999804e-02
  4.3705076e-01
  1.7901132e-01
 -1.0012524e+00
 -9.6594435e-01
 -6.3095975e-01
 -2.5765920e-01
 -3.5206309e-01
 -2.3249848e+00
 -1.8432340e-01
 -1.3870521e+00
 -7.7179864e-02
  1.4068481e+00
  3.2031751e+00
  2.7416484e+00
 -7.2861975e-01
 -2.1527836e-01
 -1.5381011e-01
  2.3162991e-02
  2.7824855e-01
  3.5206797e-03
 -3.1140558e-02
 -7.0289904e-03
  3.1125749e-02
  1.2885921e+00
  3.2506078e-02
 -3.4617126e-02
  5.5197575e-03
 -6.4402330e-03
 -1.0120724e-01
  4.4721376e-02
  2.1207817e-01
  6.6605560e-02
 -6.0095316e-01
 -4.3190159e-02
  1.0109210e-01
 -4.2400569e-02
 -2.3933505e-03
 -5.6955963e-03
  2.0338336e-03
 -7.1354009e-02
  1.7738667e-01
 -1.6429519e-02
 -4.4300981e-02
  1.7752402e-02
  8.9357965e-02
  8.2550291e-03
  6.6409893e-02
 -7.8439005e-03
 -1.5124154e-03
 -2.2533629e-02
  5.8554120e-02
  1.1518948e+00
  3.9414376e-02
 -4.0078168e-03
 -1.3105135e-02
  5.0649619e-01
  3.5132062e-01
  8.4856749e-02
 -6.8724042e-01
 -3.0867546e-03
  1.4491460e-03
  1.0722337e-02
  1.4287503e-02
  3.5949938e-02
 -3.8830906e-02
 -9.2522632e-03
 -1.8082282e-02
 -6.7911122e-04
  3.9546847e-02
 -2.4359891e-02
 -1.4361245e-02
  1.0068434e-01
  3.1563297e-02
  1.0887274e-02
  7.1787171e-02
 -9.0518221e-02
  7.6332390e-03
 -1.0596254e-01
 -6.8306085e-03
  1.1892145e-02
 -2.4309842e-01
 -6.7280978e-02
 -5.7992157e-02
 -4.8029184e-02
 -3.5473786e-02
 -5.2094173e-02
 -2.4484254e-02
  2.6320800e-02
  1.8794103e-02
  4.6096753e-02
  1.2521006e-02
  1.7579994e-01
  1.1655992e+00
 -9.6549791e-01
  3.1722796e+00
 -8.0386788e-02
 -1.0790956e+00
 -4.1142973e-01
 -1.2160252e+00
  1.4489157e+00
  1.9008223e+00
 -6.2769628e-01
  5.1489449e-01
 -1.4542948e+00
 -2.4205198e+00
  1.0567772e+00
 -2.2936463e-01
 -1.2399238e-02
 -9.0620741e-02
 -2.4291096e+00
 -1.1508310e+00
  2.2172660e-01
  8.4382808e-01
 -1.5802300e+00
  1.1914052e-01
  2.9235694e-01
  1.1048507e-03
  2.1980858e+00
 -4.1367203e-02
  2.1273530e-01
 -4.3025678e-01
  4.8671216e-02
 -2.6048416e-01
 -2.5914842e-02
  3.9645737e-01
  3.6259726e-02
  2.1762671e+00
  2.7648565e-01
 -5.1803792e-01
  2.2960861e-01
  2.0883274e+00
  3.0938327e-01
  8.8036239e-01
  8.5218346e-01
  7.0804162e-03
  3.3928506e-02
  2.3360297e-02
 -9.2608929e-01
  3.7609148e-01
  2.5648069e-01
 -6.1573940e-03
 -5.1727355e-02
 -1.3287091e-01
  1.8792737e-03
  1.3482688e-02
  2.5957668e-02
  1.6993946e-01
 -1.5783305e+00
 -6.0061616e-01
 -2.4759159e-03
  3.1625503e-01
 -1.0556059e-02
  1.2860839e-01
  1.2242880e-03
 -3.8296056e-01
  2.4946325e-02
  3.0359300e-04
 -8.1551775e-02
  4.3709439e-01
  2.7559176e-02
  1.5269734e+00
  8.3168060e-01
  6.6156280e-01
  2.4522357e-01
 -1.2110580e+00
  1.2637281e+00
 -1.9281709e+00
  7.7598381e-01
 -2.0955701e+00
 -3.4823332e-02
  4.2764778e+00
 -2.5607345e-01
  1.8722451e-01
 -2.5361326e-01
  1.0776634e+00
 -1.1116570e-02
 -9.5142484e-01
 -8.7233561e-01
  1.5439790e-02
  2.0772164e+00
 -2.0817027e+00
 -1.1479706e+00
 -5.9839697e-03
 -1.4133677e+00
 -6.2604117e-01
  4.7407284e-02
 -7.2392362e-01
 -2.0955162e+00
 -5.9876919e-01
  9.8821083e-03
  1.2079207e-02
  7.2427195e-01
  5.2205950e-02
  2.5922245e-01
  1.5526474e-01
  2.1272218e-01
  8.7182313e-02
  4.7971453e-03
  6.3913929e-01
 -4.0487313e-01
 -4.3424571e-01
 -3.2250900e-02
 -1.9067793e-01
  6.3287489e-02
  2.2602361e-02
  3.1173792e-01
 -9.9218329e-03
  2.6851524e-02
  4.2615947e-03
 -2.3430295e-01
 -3.9179236e-02
 -2.0939372e-03
  2.5577189e-02
 -2.0587368e-02
 -1.5527910e-03
  1.2944050e+00
 -1.3886215e-03
 -1.4538255e-01
 -1.8186849e-02
  3.7617758e-02
  8.4753680e-01
  9.1089599e-02
  3.2823529e-02
 -1.0774241e-01
 -4.8253540e-05
  1.0833491e-03
 -5.5182826e-02
 -2.1249950e-02
  3.4572628e-01
 -1.8552197e+00
  1.8124903e+00
 -2.0709682e-01
  3.5822073e-01
  1.0067005e+00
 -8.9120954e-01
 -5.6671721e-01
 -5.4040968e-01
 -7.6626557e-01
  2.9732049e-01
 -1.2880625e-01
  1.5437043e-02
 -1.6287693e+00
 -7.1896052e-01
 -3.6266230e-02
 -1.8051827e-02
 -4.1625771e-01
 -1.0841832e+00
 -3.0546803e+00
  1.6772249e-01
  1.8662184e-01
 -3.7444569e-02
 -9.7904247e-01
 -9.8824650e-01
 -9.8785106e-03
 -1.0618833e+00
  2.7499817e-02
 -7.6806657e-02
 -4.2196311e-02
  4.1474566e-02
  2.5166810e-01
 -1.8898533e-03
  2.6060399e-02
  2.1391690e-01
  4.0192667e-01
 -4.8065412e-01
 -3.7486014e-01
  1.0505877e+00
 -4.7427613e-02
 -4.3846175e-01
 -8.8501453e-02
  2.1414925e-01
  2.6279658e-02
 -2.5667000e-01
 -5.7278935e-02
  2.1160200e-01
 -4.0374169e-01
 -2.3703342e-02
 -6.4407684e-02
  1.9230425e-01
 -8.4614074e-01
 -3.0371970e-01
  1.8015238e-03
  9.5178224e-02
  1.8688536e-01
 -3.4675203e-02
 -9.1102317e-02
  6.6112198e-02
  1.9271390e-01
  8.2709484e-02
  8.1101090e-02
 -2.5222326e-02
 -2.7734846e-02
 -3.3028387e-02
 -5.9014606e-01
 -1.4691098e-01
 -6.1143488e-02
  5.2964997e-01
  5.2392721e-01
 -2.7358379e+00
 -1.5707649e+00
 -4.0513170e-01
  7.3061252e-01
 -1.2945150e+00
 -7.3888823e-02
  5.7174712e-01
  9.4397436e-04
  1.0790672e+00
  9.5891082e-01
  5.3509492e-01
 -9.8547548e-01
  1.5905568e-02
  6.1682242e-01
  1.0682356e+00
 -4.8573278e-02
 -2.8095487e-01
 -5.9393970e-03
  1.4012569e+00
 -9.8667890e-01
 -1.4824649e+00
 -3.1877469e-02
 -2.5169826e-01
  1.4191502e-02
 -3.3607233e-02
  6.5307248e-01
 -9.4646268e-02
 -8.1858777e-02
 -7.2934255e-02
  2.0136547e-01
 -1.6140270e-01
  7.6074645e-02
 -1.2596576e-01
  6.8697798e-01
 -3.1083358e-02
  2.0031745e+00
  1.1751763e+00
  6.3978720e-01
  3.0677299e+00
  1.9669852e+00
  4.1534585e-01
 -9.3269688e-01
 -5.2801328e+00
 -7.3161554e-01
 -8.5835986e-02
  4.9482277e-01
 -5.3093684e-01
  2.5128974e-03
 -1.2660807e-01
  2.4598570e+00
  2.0908448e-01
 -2.8017635e-02
  7.8503782e-01
 -3.3260884e+00
  7.0175028e-01
  1.6141771e+00
 -6.2094398e-02
 -9.0409034e-01
 -8.3511811e-01
  2.0711480e-02
  2.0807627e-01
  3.2515358e-02
 -1.3412006e-02
  3.8586321e-01
  2.1046291e-01
 -3.2100775e-03
 -6.2954855e-01
 -1.0314066e+00
 -9.3664363e-04
 -3.4051138e-01
  5.6513643e-01
 -9.7787797e-01
  4.1648158e-01
 -7.1469140e-01
 -1.1623028e-01
 -5.8440208e-01
 -6.6887517e-04
 -8.7473309e-01
 -4.4846529e-01
 -6.9524549e-02
  5.7413292e-01
  2.0292172e-02
 -8.0605283e-02
 -3.6545956e-01
  7.2400412e-03
 -7.8060728e-01
  7.6667331e-02
 -1.6645957e+00
  6.0220987e-01
  2.9900020e-01
  4.2356586e-01
 -7.9599082e-01
 -1.1976261e+00
 -7.5240834e-03
  1.0682412e-01
 -1.7311618e-02
 -5.0964469e-01
 -1.2094673e+00
 -1.3197064e-01
 -3.3711521e-03
 -1.0813088e-01
  1.5244612e+00
 -1.3726504e+00
 -1.1579883e+00
 -8.0040902e-01
  4.0167657e-01
  2.9360542e-01
 -5.3241175e-01
  2.7356694e+00
  5.3984708e-01
  1.5588802e-02
  1.1097354e+00
  1.6011602e+00
 -8.3153350e-03
  1.1198848e-01
  2.8634758e+00
 -9.5733774e-01
  1.2829027e+00
  3.9190984e-01
 -1.6360487e-01
  2.8809805e+00
  8.0381358e-01
 -1.6899180e+00
  2.0255454e-02
 -1.2209246e+00
 -2.9406697e-02
  6.7785704e-01
  1.2773088e-01
  2.3947928e+00
  1.8940622e-02
 -9.5742369e-01
  2.7326453e-02
  7.0972383e-02
 -8.5563492e-04
 -1.5078618e-01
 -5.6893235e-01
  2.0084737e-01
  5.3400874e-01
 -2.6826141e+00
  1.8210895e+00
 -6.3298088e-01
  9.6993834e-01
 -1.3062905e-02
 -2.5146192e-02
  4.2315632e-02
  8.0690575e-01
  4.1639891e-01
  4.3937750e-02
 -4.5463450e-02
 -2.3720603e-02
 -5.6921780e-01
 -4.3635881e-03
 -4.2637158e-02
 -1.7580374e-01
 -3.5348606e+00
  1.6381899e+00
 -8.3958751e-01
 -2.1649966e-01
  1.9744726e-01
 -8.4929787e-02
  6.6060382e-01
 -1.5645636e-02
 -3.0645964e-01
  2.2660809e-02
  2.0478079e-03
 -5.3814310e-01
  2.5437862e-01
  2.5773790e-02
 -9.9979150e-01
  9.9913031e-02
  2.8684381e-01
 -1.7556456e-01
 -1.0108315e+00
 -3.5631909e+00
 -1.1799523e+00
 -1.2923992e+00
  2.0197635e+00
 -3.6867082e-02
 -5.7165790e-01
  8.3174986e-01
 -7.4399877e-03
 -6.8797559e-02
 -7.2623038e-01
  8.0940686e-03
  9.9145688e-02
 -5.1486857e-02
 -3.1031884e-02
 -7.4178749e-03
  1.4753493e+00
 -1.9564040e+00
 -7.7274108e-01
 -9.1488995e-02
 -5.0935072e-01
 -7.2510195e-01
 -4.5022767e-02
 -5.9446943e-01
 -2.1715533e-02
 -8.7498908e-04
 -4.3523636e-01
 -7.4687399e-02
 -7.2945930e-02
  7.7511385e-02
 -9.3900198e-01
 -1.2281307e+00
 -2.4795790e-01
 -5.5397171e-01
  9.8583519e-02
 -7.7663225e-01
 -7.6337762e-02
  7.8440920e-02
  1.1173218e-01
  3.4147300e-02
  2.0924936e-01
 -2.9499853e-01
 -7.4983384e-03
  3.3584204e-01
 -5.2450560e-02
 -4.9694836e-01
 -5.0898015e-01
  3.5275832e-02
 -5.7644602e-02
  8.2266635e-01
 -2.5519767e-01
 -9.8949492e-01
  1.4634948e+00
  4.7093771e-02
  1.6836423e-01
  5.6569368e-01
 -2.4271636e-01
  2.2063451e-01
 -2.7990681e-01
 -2.1212356e-02
  8.1742611e-03
 -4.5007977e-01
  1.1253773e+00
 -2.8526150e-02
  2.1261163e-01
 -4.8225453e-01
  2.8711253e-01
  3.0644995e-01
 -3.4320080e-01
  8.9213276e-01
  5.7755047e-01
 -5.3576517e-01
 -3.3109692e-01
 -1.8764445e-01
 -3.9194417e-01
  3.4724586e-02
  7.8313522e-02
  4.9888462e-02
 -8.8870935e-02
  4.8577985e-01
 -3.1529751e-01
  8.8620532e-01
  6.9256115e-01
 -2.2397014e-01
  2.3267714e-02
  8.8847750e-01
 -3.4297708e-01
  5.1706150e-02
 -2.9541078e-01
  3.9652011e-01
  8.7927878e-01
 -5.9393984e-01
  6.7840058e-01
 -9.6087843e-02
 -2.0689697e+00
  5.6713127e-02
 -1.5321698e+00
 -1.0273386e-02
  9.5752543e-01
 -4.3552151e-01
 -1.3001930e+00
 -4.3023029e-01
  1.3842013e-01
 -2.0894070e-01
  7.4849427e-01
 -1.4925091e+00
  9.5242344e-02
 -1.8836568e-01
 -1.1871965e-01
 -1.8435668e-03
  6.5368652e-02
 -8.3896303e-01
 -2.5965346e-02
 -4.1168457e-01
 -3.4669462e-01
  1.8704306e-01
 -4.4241291e-02
 -1.9674417e-01
  6.9362558e-02
 -4.0380877e-01
 -1.4331343e+00
 -1.8257523e-01
 -6.3399148e-01
  2.1385338e-02
 -4.7376060e-01
 -6.3411975e-01
 -1.4639194e-02
 -5.4522298e-02
 -3.8900342e-02
 -2.2027646e-01
 -1.3422176e+00
 -3.2784648e-02
 -6.4771343e-04
 -4.5195360e-02
 -5.9343614e-03
 -1.9191397e-02
 -3.5278504e-03
 -9.2915691e-02
  4.6119832e-02
  2.8138146e-02
 -2.3311358e-02
  1.4512990e-02
 -4.3177539e-03
  2.8896701e-02
  2.8248411e-02
  1.6616464e-02
 -1.9872166e-02
 -2.6250968e-02
 -3.1915780e-02
  4.8172023e-02
  9.1309594e-03
  2.9446622e-02
 -1.0291052e-03
  1.3149437e-01
  6.9345720e-04
 -1.4079084e-02
 -4.6192827e-03
  7.5197756e-02
 -4.4493597e-02
  4.2504281e-02
  1.2316509e-01
  2.1119485e-02
 -2.6922800e-02
  7.1643586e-03
  3.4732148e-02
 -5.2317061e-02
  4.0534136e-01
  1.5871496e+00
  1.7573669e+00
  1.3659354e-01
  5.6395137e-01
  4.1278875e-01
 -6.0469711e-01
 -1.1607368e+00
  2.1803527e+00
 -2.0750985e+00
 -2.3820907e-01
  9.5536804e-01
 -1.1830801e+00
 -3.4570186e-03
 -2.0468607e+00
  9.5688462e-01
  2.1749847e+00
 -2.8408425e-02
  7.3783320e-01
  4.6890405e-01
  4.8532102e-01
 -1.3910995e+00
  4.1817164e-01
  6.1861426e-01
  3.1815746e-01
  1.6145698e+00
 -1.1949141e+00
  1.1969202e-01
 -9.0080076e-01
 -4.6358258e-03
 -9.7892487e-01
 -1.4850779e+00
 -1.2143835e+00
 -6.6018805e-02
  1.4364916e-02
  3.9213356e-01
 -1.9459246e-02
  1.0223221e-01
 -7.3736441e-01
 -1.3872748e-03
  2.9771021e-02
 -2.6203511e-02
  4.0047549e-02
  4.9637783e-02
 -7.6070905e-02
 -1.1610441e-01
 -1.4965548e-03
  5.6207504e-02
  1.5391065e-02
 -4.8839585e-03
  2.3502115e-02
  1.4661583e-02
  2.0870142e-02
  8.4773928e-02
 -1.1341294e-02
 -6.6643134e-03
  2.7586214e-02
  5.8793727e-02
 -1.5754579e-02
 -1.0313853e-03
 -1.0838620e-01
 -1.6123312e-02
 -4.6590772e-02
  7.6240106e-03
  2.9887274e-02
  2.5984753e-02
  2.5332592e-02
  4.3725368e-02
  3.0546659e-01
  1.7470904e-01
 -5.8681313e-02
 -7.5456299e-02
 -3.6346644e-02
  1.7567100e-02
 -3.2169718e-01
  3.4758911e-02
  1.2366816e-01
 -1.8671265e-02
 -8.2530081e-02
 -2.3738700e-01
 -2.5837447e-02
 -1.1260071e-02
 -1.2517754e-02
  3.5593174e-02
  1.2632203e-01
  6.6295274e-02
 -4.1651033e-02
  4.7630831e-03
  3.4540139e-02
  6.0993438e-03
 -1.3229939e-01
 -1.9739144e-02
  2.2468028e+00
 -3.1625073e-02
 -1.3406588e-01
  1.1674431e-02
 -5.6448717e-02
  4.2729281e-02
 -1.1609368e-02
  4.5097869e-02
 -2.0514023e-01
  7.5760903e-04
 -8.8520013e-02
 -6.1683380e-03
 -3.8823369e-03
 -1.1150407e-02
  3.2510474e-01
  2.9298298e-02
 -1.5294325e-01
 -6.5924032e-03
 -2.5417482e-02
 -4.0485289e-02
 -1.0881409e-01
  5.7009999e-02
  1.0286459e-02
  1.8002571e-01
  6.2543061e-03
  6.6124573e-02
 -2.8196903e-02
  1.4050053e-02
  2.9509256e-03
 -4.0655967e-02
 -8.1876323e-02
  9.5713418e-04
  1.6371878e-02
 -5.3112106e-03
 -6.0150895e-02
 -2.7215350e-02
  1.6910162e-02
  3.9044783e-02
  2.0933799e-03
  7.2072886e-02
  2.4642160e-02
  7.8979164e-02
  1.5093744e-02
 -8.2831748e-02
  1.3801527e-02
 -1.9535471e-01
  5.0041759e-03
 -4.7795109e-02
  8.1315311e-03
 -2.9684190e-02
 -2.1836331e-02
 -2.9861530e-02
  3.6909722e-02
 -6.5659016e-02
  1.4343872e-02
  5.1461282e-04
 -1.4080621e-02
 -4.6775054e-02
 -3.8634636e-04
  5.1482860e-03
  2.9258186e-02
 -5.1511507e-03
  5.2258265e-03
 -3.8448144e-02
  5.4171208e-02
  5.8575370e-03
 -1.2243942e-01
 -7.4013970e-03
  1.8736642e-02
  1.2071290e-02
 -1.8457574e-01
 -3.5103478e-03
  6.8068081e-01
 -8.7792287e-03
 -3.9577447e-03
  5.4697972e-03
 -4.5938008e-02
 -1.7832018e-02
  4.9225420e-01
  1.3868603e+00
 -1.2707840e+00
 -2.4932382e+00
  9.0805404e-02
  3.4520552e-01
  3.4446546e-01
  2.2649447e-02
 -2.6845720e-01
  6.9273718e-02
  1.4520317e+00
  2.1377370e+00
  2.0018104e-02
  4.0522609e-02
  6.7414291e-02
  1.1683686e-01
 -1.0519622e-01
 -1.3268905e+00
 -1.4653251e-02
 -1.5664175e-02
 -2.6651430e-01
 -3.5078821e+00
  2.1500304e+00
 -5.8274752e-01
  3.8094170e-02
  2.8047687e-01
 -1.7621886e+00
  6.2800074e-01
  1.4599341e+00
  2.3202907e-02
  4.5283258e-02
 -4.4487894e-02
  1.4758240e-02
  7.8001350e-02
 -6.1671418e-01
 -1.2406424e-01
  5.1374058e-03
 -1.2241614e-02
 -1.2080433e+00
  3.6008909e-01
  4.0856872e-02
  2.5448315e-03
  7.8191824e-02
  5.0437148e-03
  1.6025456e-02
 -6.7847535e-02
 -2.3611361e-02
  1.0132626e-02
 -3.5536268e-03
  1.8156303e-02
  1.3850070e-02
  1.9834908e-02
  6.8011517e-03
  1.1029138e-01
  2.0822473e+00
  7.8054350e-03
  5.8781677e-01
  5.2187447e-02
  6.9329806e-02
 -3.2744922e-02
  3.0816842e-02
  5.9974291e-03
 -8.8627040e-03
  5.5703472e-02
 -4.5080055e-03
 -3.1770177e-03
 -4.9355836e-03
  1.3291413e-02
  1.3800831e-01
  9.1935573e-03
  5.2076280e-03
 -5.2394643e-03
  1.0024079e-02
 -2.8009426e-02
 -2.0458041e-02
  3.0611804e-02
  3.6882449e-02
  1.9462435e-03
 -4.4784360e-03
  2.8577371e-02
  2.0262979e-02
 -7.9926029e-02
 -3.0390430e-02
  2.1128526e-02
 -4.8559830e-02
 -1.1649663e-03
  2.9450702e-03
  6.1541023e-03
  6.1352607e-02
  4.2443457e-01
  1.1121957e-02
 -6.2183898e-02
  6.1462075e-03
 -1.6922350e-03
 -6.1017334e-02
  1.3977778e-04
  7.5245284e-02
  3.7820246e-02
 -4.3802778e-03
 -1.5114028e-02
  7.8078331e-03
 -2.4103390e-02
 -7.9181949e-03
 -1.5739163e-02
  4.9607954e-03
  1.4061783e-01
 -7.4897124e-03
  1.4629458e-02
  2.0106344e-02
  1.1193583e-02
 -2.0006536e-01
 -2.2080982e-02
 -1.5736546e-02
  4.6616350e-03
 -1.2130359e-02
  1.0114398e-03
  2.7358543e-02
  3.7858084e-02
 -1.6756413e+00
  5.1763650e-02
 -2.8240129e-01
 -1.5234079e-02
  1.0007666e-04
 -1.5924936e-02
  1.0682193e-02
 -1.9567197e-02
  5.1354475e-02
  2.7745072e-02
 -1.1438735e-02
  9.6554190e-02
  2.3884773e-02
 -3.6635986e-03
  5.9698373e-01
 -4.0953844e-03
 -6.8520211e-02
 -2.8976735e-02
  6.5955229e-02
  3.9440710e-02
 -5.8940137e-03
 -7.0910892e-03
 -6.1674565e-02
 -2.3505930e-02
  1.0920699e+00
 -3.6113724e-02
  8.4266823e-04
  7.0320666e-03
 -3.6605292e-03
  3.6011238e-02
 -7.2301030e-03
 -1.9602757e-04
  3.7660589e-03
  2.0607975e-03
 -3.3960515e-04
 -8.9318238e-02
 -1.6633997e-02
 -1.7871106e-02
 -5.0496422e-03
  1.6611714e-02
 -5.3768072e-02
 -6.0298011e-02
 -1.3396042e-02
  1.4206816e-02
  5.6713000e-03
  5.1533446e-02
  9.0474859e-03
 -4.9964860e-03
 -4.1004037e-03
  4.2180967e-02
  3.2939129e-02
 -4.4434266e-03
 -2.6582315e+00
  1.6140522e-01
  2.0098429e+00
  4.9233887e-01
  2.5782359e+00
 -2.8936252e-02
  2.4482925e+00
 -2.0538158e+00
  7.7793825e-01
 -1.8832853e-02
 -3.4604535e-02
  1.0993556e+00
  9.5088357e-01
  6.3013826e-03
  7.1361964e-04
 -5.8016610e-01
 -1.2603682e+00
 -5.7874513e-01
 -7.4975258e-01
 -3.4157595e-01
 -1.6585703e+00
 -1.3612393e+00
 -5.9163707e-01
 -6.5482318e-01
 -8.6382717e-01
 -9.5295447e-01
 -4.0708962e-01
 -1.1584473e+00
 -8.0772422e-02
 -6.9106556e-03
  7.0399925e-02
  9.0771693e-01
 -1.1036793e-02
 -2.1240223e-02
  1.0344395e-01
  1.7339123e-02
  5.2440023e-01
  6.5885526e-03
 -7.4745141e-02
  1.4487788e-01
  1.6456571e-01
  5.9185378e-02
 -7.3209769e-01
  2.5669320e-02
 -5.1313122e-03
  1.8341321e-01
  3.5183556e-02
 -3.4550764e-02
  4.3417100e-02
  5.6015374e-03
  1.3176605e-02
 -1.4536706e-01
  4.4889856e-02
  7.1179951e-03
 -1.9963020e-03
  1.0177605e-02
 -1.0895528e-02
 -2.0012733e-02
  3.0147135e-02
 -2.6784171e-03
  8.7455854e-02
  4.2748926e-03
 -2.2235489e-02
 -2.9679166e-02
  4.8661390e-03
  1.6504776e-01
  5.3128138e-02
  2.3442488e-03
 -1.1954366e-02
  3.9901786e-02
 -3.6303066e-03
 -2.0613575e-02
 -5.0848879e-02
  1.6014713e-03
 -1.7308859e-02
  6.1178554e-02
  2.3056410e-02
 -9.5499237e-04
 -5.7346184e-02
  2.9681103e-02
  2.2382073e-02
  4.6041314e-03
  1.1054409e-02
  2.6165232e-02
 -1.3527801e-02
 -5.1581706e-03
  1.1961198e-02
 -2.1015910e-02
  4.6346616e-04
 -6.0258806e-03
  3.5533845e-02
 -6.5036230e-02
  1.0817778e-02
  2.7698111e-03
  3.2458801e-02
 -5.5965893e-02
 -1.6035987e-02
 -1.0647435e-02
 -3.4284465e-02
  4.2031068e-02
  2.4374302e-02
  1.5822913e-02
 -7.0868306e-02
 -4.9651399e-02
 -2.1111976e-02
  4.1510858e-02
  3.0428630e-01
  3.7383933e-02
 -2.3221314e-02
  3.0362806e-03
  5.0033055e-02
  3.5445627e-02
  4.5548379e-03
 -6.2493002e-03
 -4.4533268e-02
  5.2084230e-02
 -2.4210843e-01
 -1.2325555e-02
 -2.6085081e-02
 -2.9038813e-02
 -2.5326421e-02
  2.6789172e-02
  1.0719455e-01
  3.2635275e-03
 -1.0149655e-01
 -5.7545464e-02
  2.0525153e-03
  2.5709607e-03
  4.3196287e-03
  2.4309579e-02
 -6.4676832e-03
  1.7292464e-02
  5.1513053e-02
 -3.8969904e-02
  1.7086202e-02
 -5.7686497e-03
  2.4651639e-01
 -4.2628806e-02
 -1.0556919e-02
  3.4429282e-02
  3.6274932e-02
  4.6909943e-02
 -7.7797044e-03
  8.7871850e-03
  2.3994382e-02
 -8.5602328e-03
  9.8209549e-04
 -2.8937990e-03
 -1.3106837e-02
 -7.6078430e-02
  7.5045228e-02
 -2.0695131e-02
 -8.9162946e-02
 -2.1361282e-02
 -3.6014773e-02
 -1.1642401e-01
 -2.0056503e-02
 -4.8406132e-02
 -6.0086222e-03
 -2.8182229e-02
  2.4332916e-03
 -3.7285317e-02
 -1.1638654e-02
  7.2119585e-03
  1.9062778e-02
  3.5169266e-02
  6.4071968e-02
 -5.3030852e-02
 -4.8268181e-03
  3.4990732e-02
 -4.9996230e-01
 -5.8815068e-01
 -1.5684910e+00
  1.3252367e+00
  7.8095376e-01
  1.3615437e+00
 -2.7039884e-02
  1.0145205e-01
  9.3003243e-02
 -1.4231786e+00
 -2.2398922e+00
  3.1761930e+00
 -4.4561896e+00
 -1.2451024e+00
 -2.3789766e+00
 -1.5897081e+00
 -2.0773098e-02
  2.2274645e-02
 -1.4616130e-02
 -1.9083338e+00
  1.0754372e+00
  7.0123631e-01
  6.6683894e-01
  1.3267080e+00
  5.4872639e-02
 -2.2809680e+00
  2.3057938e+00
 -9.5408547e-01
  5.1974571e-01
 -6.5577976e-02
  2.7811723e-02
 -9.0269685e-02
 -2.5656855e-01
  2.1161664e-02
 -1.0167921e+00
  1.9378948e+00
 -1.8830410e+00
  1.3920418e+00
  4.5530042e-01
  1.3668748e+00
  1.6302301e+00
  2.1014564e-01
  9.3615055e-01
 -1.1086521e+00
  4.0865082e-01
 -3.8818982e-01
  2.7341280e-02
 -3.9324686e-02
 -1.9224361e-02
  6.4135605e-01
 -1.3386269e+00
  2.4561167e+00
  2.2464016e-02
 -5.0955653e-01
 -1.2784312e+00
 -7.9827346e-02
 -7.0142078e-01
 -9.2696714e-01
  3.1480107e-01
 -9.5449887e-02
 -1.3116645e-02
 -4.3339273e-01
 -1.6023285e+00
 -3.5075545e-02
  6.9975224e-03
 -3.6091301e-01
 -5.3739116e-02
  2.5467576e-02
 -2.0246041e+00
 -1.5975565e-01
 -5.3664404e-01
 -1.0080087e+00
 -4.5192695e-01
  2.5624081e-01
 -3.7948695e-01
 -2.9635030e-01
  6.5678775e-01
 -6.3344657e-01
 -7.0576751e-01
  7.7393305e-01
 -4.4845361e-02
 -2.7491846e+00
  1.6900815e-01
  1.8299335e+00
  3.5832098e+00
  2.2857478e+00
 -1.3589177e-01
  6.7977560e-01
  4.1977177e+00
  2.6782839e+00
  8.3843285e-01
  1.8208768e-02
  1.7537231e-02
  8.8584259e-02
  4.0798628e-01
  1.3886470e+00
 -1.2575145e+00
  3.2784035e-03
 -1.0583691e-02
  2.8005606e-02
  1.8067464e-02
 -2.4024987e-01
  1.6454734e-01
 -2.8131574e-01
 -4.3134558e-01
 -9.3677253e-02
  4.9652979e-01
  2.0345102e-01
  2.3531456e+00
 -2.4778415e-01
 -3.4050684e-02
 -5.9144908e-01
 -6.9756351e-02
  5.0786996e-01
  5.3201604e-01
  1.9516450e+00
 -6.1392695e-01
 -5.1418662e-02
 -2.1879436e-01
  3.8694954e-03
  2.8681412e-01
 -1.0870961e-01
  9.2610967e-01
 -2.1502729e-01
 -3.4739189e-02
  1.2852989e+00
 -7.3550081e-01
 -1.5510361e-01
 -5.3376373e-02
  7.5481242e-01
 -6.1078005e-02
 -3.2784630e-02
  2.3338805e-01
  2.8177559e-01
 -2.9788834e-01
 -9.6710652e-02
  2.2489223e+00
 -1.2153323e+00
  2.8121142e+00
  7.8242838e-01
  1.3092901e+00
  1.7463037e-01
 -6.0089415e-01
  2.5884694e-01
 -1.8301495e+00
  6.8625221e-03
 -4.3032385e-02
 -3.4037571e-02
 -6.9610775e-02
  3.1608406e-02
  3.7687323e-03
 -2.4842251e-02
 -1.4608161e-02
  4.2966727e-02
  1.9330686e-02
 -8.6068856e-03
 -3.1447452e-01
  4.4791885e-03
 -1.4091939e+00
 -9.7626997e-03
  7.9493923e-04
 -3.9978925e-02
 -8.8432007e-02
 -2.0580141e-01
 -1.9223788e-03
  1.1223370e-02
 -4.3604750e-02
  3.3082366e-02
  2.3577234e-02
 -4.7562834e-02
 -8.9358687e-03
 -1.0356295e-01
  7.5157294e-03
 -2.8760666e-02
 -2.7401406e-02
 -2.1377530e-02
 -2.8477710e-01
 -1.1266116e-01
  1.1818984e-01
 -1.9323207e-01
 -7.0631601e-02
 -1.4176146e-02
  4.7448102e-02
  1.1598604e-02
 -1.9995902e-02
  1.8826894e-02
  1.1355486e-02
 -3.5167269e-02
 -1.0100477e-02
  5.7722409e-03
 -6.1502981e-01
  3.6610700e-03
 -2.2666427e-01
 -1.0164442e-02
  4.6342025e-03
 -1.1454035e-02
 -5.9039190e-02
 -1.3727896e-02
 -5.8098696e-05
  7.5184628e-03
 -6.0593646e-02
  2.6690561e-02
 -2.3617759e-02
 -4.1884031e-02
 -6.8140274e-01
  9.9244386e-02
 -3.7490908e-02
  2.1363279e-01
  7.5443378e-03
 -1.9225221e-02
 -6.4808905e-02
  8.9683819e-01
 -3.3896956e-01
  7.5179271e-02
  4.2708060e-01
  1.2890573e-01
  2.3384282e-02
  6.9215493e-03
  2.0552814e-01
 -3.8819715e-02
 -3.8916778e-02
 -1.5845932e-02
  1.2916513e-04
  8.7253317e-02
  2.5893039e-01
  1.2487964e-01
  7.4449696e-02
  2.4753856e-02
 -5.3690605e-02
 -4.0871367e-02
 -1.6265046e-02
 -9.2431791e-03
  3.7307810e-02
  9.9460008e-03
 -3.7687365e-04
  1.1239854e-01
 -6.1266022e-03
 -3.0551165e-02
  1.1766499e+00
  2.3463842e-01
  1.1666050e-01
  1.1908408e-01
  1.8128405e+00
 -4.8470618e-03
 -8.1354785e-01
  6.1037736e-03
 -3.3827552e-01
 -2.9904250e-02
 -1.1717905e-01
  2.7809346e-02
 -4.3658033e-02
 -1.6355790e-02
 -2.2279531e-02
  4.5110835e-03
 -3.3692243e-03
  4.7164140e-03
 -3.7752905e-01
  3.5173539e-04
 -6.8185067e-01
  2.2441207e-01
 -1.0257836e-01
  1.0840914e-01
 -6.7935954e-04
  2.4973351e-01
 -5.8464967e-03
 -6.5907013e-01
  1.8457009e-02
  2.9461758e-02
 -2.1412936e-03
  1.9034822e-02
  4.1066863e-02
  4.5638293e-02
 -1.7368674e+00
  8.5543521e-02
 -2.3763953e-01
  1.7972174e+00
  2.1369135e+00
  1.3996589e+00
  2.3126335e-01
  1.1984705e+00
 -1.9470233e+00
 -8.3680800e-04
  1.8592678e-01
 -3.3892795e-01
 -3.0832419e-01
 -1.2063275e-01
  4.6381958e-02
 -3.8583241e-02
 -2.2347693e+00
  2.9084303e+00
  2.3823738e-01
 -6.7611486e-03
  7.9384834e-01
 -1.1502811e+00
 -2.1854765e+00
  3.5477528e-01
  2.9100295e-02
 -6.0758543e-01
  6.9782704e-01
 -1.0635939e+00
  9.5636010e-01
 -9.2411295e-02
  4.8247101e-03
  3.7393548e-02
  7.7521726e-02
  1.2813173e-02
  5.5752057e-01
 -8.9508787e-02
  1.5620358e+00
  1.7146233e+00
  7.4023521e-01
 -6.8547696e-02
  1.2845437e-01
 -1.8238609e-01
 -7.7487928e-01
  5.9918365e-03
  1.4665182e+00
  3.7342432e-01
 -4.5948412e-02
  1.0128773e+00
 -2.5636269e-02
  8.6233445e-02
  1.2906045e-01
 -2.4106112e-01
 -3.7455499e-02
  4.5009935e-01
  9.4421095e-01
  5.9541637e-01
  2.2603052e+00
  4.7415331e-01
  2.1068823e-02
 -5.1407403e-01
 -3.9360803e-01
 -3.0489284e-01
 -1.4910053e-01
  6.5377653e-03
  9.0730153e-03
 -2.0516610e-02
  7.8428999e-02
  3.7613783e-02
  1.6310087e-01
 -5.2710950e-01
  3.5178506e-01
 -2.7997995e-02
  1.7033226e+00
  8.2542282e-01
 -5.7050741e-01
  2.0591010e-01
 -1.9200752e+00
  6.2673509e-02
 -6.0912177e-02
 -3.4579328e-01
 -2.0129837e-01
 -1.3021198e-02
 -1.1834091e-02
  1.1680262e-02
 -3.3924600e-01
  1.8304569e-01
 -1.0166160e-02
  2.2606160e-02
 -2.8111005e-01
  1.5557928e-01
  2.9967657e-01
 -1.1188677e-01
 -3.5633937e-02
  4.7148031e-04
  6.3772058e-01
 -3.7672274e-02
  4.5276359e-01
  6.2901359e-03
 -3.3910461e-02
 -3.3523380e-03
 -9.6901292e-03
  1.5807945e-02
  7.6058276e-02
  8.4872711e-01
  1.4656097e+00
  7.8629947e-01
 -3.9466522e+00
 -2.4640396e-01
  7.1614462e-01
  6.4212555e-01
 -1.4716744e-01
 -6.5823041e-02
 -1.6970311e-01
  3.5846177e-02
  1.0763910e-03
  1.3924918e+00
  6.6835552e-01
  3.8521633e-02
 -4.8143736e-01
 -9.3175465e-01
 -3.4049106e-01
  8.9744031e-01
  4.4679275e-01
 -9.7653978e-02
 -1.2575272e+00
  4.0013605e-01
  6.3294148e-01
  2.0626196e-01
 -3.1829742e-01
  9.5815182e-01
  2.5595704e-01
  8.0930650e-02
  4.5005735e-02
 -2.9648054e-01
  1.7116036e+00
  1.0400482e-02
  2.6441094e-01
 -3.8323605e-01
 -7.8679979e-01
  2.3219606e-02
 -2.5543997e+00
 -3.2225478e-01
 -1.9956352e-01
  4.8985857e-01
 -2.6752846e+00
 -1.5128870e-02
 -6.5692163e-01
  3.9686257e-01
  5.8868667e-03
 -1.1095324e-01
 -1.1933371e-02
 -3.9117163e-01
  8.3209714e-03
  2.6516473e-01
  1.9666487e-02
 -6.6004610e-03
  1.8339208e-01
 -2.5459048e-01
  7.8538620e-01
  4.7945168e-02
  6.4903470e-03
 -1.9640282e-02
  1.9424523e-01
 -7.9936720e-03
 -4.8843436e-03
 -4.0370416e-02
 -2.8954085e-02
  3.6518360e-03
  1.3168536e-01
  1.2253739e-02
 -9.5725244e-01
 -1.5454063e+00
  1.5794423e-01
  2.7491516e-01
  3.3516974e+00
 -6.1930549e-01
  9.6000904e-01
 -2.0297140e-01
 -2.2537224e-01
 -6.3110518e-01
  2.3923232e-03
  8.1438977e-01
  7.2579598e-04
  7.8307673e-02
  4.1127624e-03
  1.5533321e-01
 -5.0614681e-02
  3.4849524e-01
 -6.9228522e-03
 -7.6962423e-01
  8.4022629e-01
 -3.9401245e-01
  1.6035770e-01
 -7.9797573e-02
  1.4843020e-02
 -4.3187596e-02
  5.4718596e-01
  1.0262685e-01
 -1.9666223e-02
  2.9190376e-02
 -2.3148913e-02
  6.0962361e-01
 -9.8505065e-02
 -6.7849690e-03
 -8.7155610e-01
  1.2037531e+00
 -2.6364880e+00
 -9.3961157e-02
 -4.8003399e-01
 -2.2975166e+00
  2.1413116e+00
  1.8069842e-01
  4.0934253e+00
 -7.4736848e-02
  1.6685399e-01
 -5.8326405e-01
  4.4618323e-03
  1.3861063e+00
 -8.5237421e-02
  9.3636326e-02
  2.6216352e-01
 -7.7989912e-01
 -1.2921724e-03
 -1.9909241e+00
  1.6789305e+00
  1.6071945e-01
 -1.7867332e+00
 -3.2171801e-01
  6.2791348e-02
  5.0153553e-01
  1.0450919e+00
  1.0953293e+00
  3.8066361e-02
  1.0627953e-02
  3.7954587e-01
 -3.2516322e-01
 -5.0627696e-03
 -1.2965627e-02
 -1.0860753e+00
  2.6306471e-01
  2.4694216e+00
 -1.8969440e+00
  1.3950714e+00
 -2.0449612e+00
  2.2145388e+00
 -6.4570159e-01
 -6.4129454e-01
 -1.2755666e+00
  1.0301199e-01
 -1.8161426e-01
 -3.3964392e-02
  3.0183899e-01
 -1.1717122e+00
 -1.3806716e-01
 -6.5585238e-01
  9.4991721e-02
 -3.5857871e-02
 -1.9665711e+00
 -7.8953642e-01
 -8.7044424e-01
 -1.0048312e+00
 -1.4675659e+00
 -1.0850905e+00
 -4.0428883e-01
 -1.1671503e+00
 -3.3475348e-01
 -4.0327308e-01
 -3.0988296e-03
 -1.5308514e-02
  2.6834855e-02
  6.5472893e-02
 -1.0679037e-02
 -3.6939192e-01
  2.2879142e-01
  3.2848492e-01
 -1.7777059e+00
  2.8090097e-04
  7.0468396e-01
  1.4243294e-01
 -2.7101906e-02
 -2.0354287e-01
  3.7448221e-01
  7.6811165e-03
  1.3013811e-01
  2.8533597e-02
  1.1216544e+00
  5.8276460e-02
 -2.0496355e-02
  4.5376548e-01
 -6.0259694e-01
  1.4938073e-01
  6.2872577e-01
  4.4140164e-03
  9.9408012e-03
 -2.3654786e-01
 -6.9871716e-02
  5.6076933e-02
 -1.7923564e-01
  3.4433874e-01
 -1.6756412e-03
 -6.0992146e-01
  1.5697837e-01
 -3.1999573e-02
  2.7022142e-02
  4.4869369e-01
  5.0836120e-02
 -8.6152703e-02
 -5.3362030e-01
 -5.0783235e-01
  5.0155800e-03
  7.0611097e-02
 -1.1364912e-01
 -1.2684190e-01
 -3.1321713e-01
  2.3047125e-01
 -5.9085488e-02
 -1.0448996e+00
 -9.2913164e-03
  1.6461328e-01
 -5.6445170e-02
  1.6380129e-02
  1.8060409e-01
  2.6998505e-01
  3.8620327e-02
 -3.6782354e-01
  8.6474515e-02
 -3.6129320e-01
 -1.6291145e-02
 -1.3360262e-01
 -5.8509094e-01
 -5.3301662e-02
  1.9744714e-01
  3.9033085e-02
 -6.0689473e-03
 -2.1191569e-01
  3.6934454e-02
 -9.8853484e-03
 -4.2257521e-01
  3.5494413e+00
 -8.4603829e-03
 -1.3404723e+00
  9.3932045e-01
 -1.4714578e-02
  3.3135778e-01
  6.3133371e-01
  6.8501480e-02
  1.4536721e-01
 -3.6778706e-01
  3.8015640e-01
  7.5698388e-01
  1.4518120e-02
 -4.1342229e-01
  2.1080465e+00
  1.7576216e-01
  1.2119601e+00
  6.6812354e-01
 -1.0677670e+00
  1.4365799e+00
  4.4795465e-01
 -6.5094620e-01
  3.4911668e-01
  5.9549201e-01
 -7.4436474e-01
  3.6454417e-02
 -4.1257124e-02
 -1.5092522e-01
 -1.0152497e-01
  5.7901397e-02
 -2.4801314e-01
  1.2324576e-01
 -1.9035349e-02
 -6.1097032e-01
  4.2954221e-01
  3.9108180e-02
  1.2761464e+00
 -6.1591017e-01
  1.0308430e+00
 -8.2407370e-03
  1.2170502e+00
  1.9166514e+00
  3.7944123e-01
  1.0366802e+00
 -1.0994675e+00
  1.2748362e-01
  5.3619304e+00
  1.4083102e-01
  1.1860783e+00
  2.2193940e+00
  7.5158429e-01
  1.0434201e+00
 -3.6311464e+00
 -2.9303665e+00
 -2.4308681e+00
  8.4283018e-01
 -1.3831726e-01
 -9.5315731e-01
 -2.4964828e+00
 -1.0652686e+00
 -9.7647592e-02
 -1.4988618e-02
 -1.3497998e-01
 -1.1863824e+00
  5.2330017e-01
 -1.5328674e-01
 -1.5314557e-02
 -2.3289463e-01
  4.6091849e-01
  7.7534407e-02
  1.9746889e-01
 -1.9855035e-02
  2.0962398e+00
  4.1111991e-01
 -3.1014662e-03
 -1.0975845e-02
  3.0991254e-02
 -1.5472932e-01
  1.9997342e-02
 -6.8983035e-03
 -2.1307379e-02
 -8.3608096e-03
 -2.4218854e-02
 -2.5432715e-01
  9.4236331e-03
  3.3649039e-02
  4.5225588e-03
  1.7287537e-02
 -1.1630030e-04
  2.2643495e-02
  2.6718593e-01
 -6.0868368e-02
  3.3460486e-01
  3.2313005e-04
 -1.0058680e-02
  1.5268466e-02
 -1.0226050e-01
 -1.4316114e-03
  5.2977162e-03
  3.0551392e-01
  1.9348799e-03
  3.7041262e-02
 -1.4677531e-02
  8.8024139e-03
 -2.9637656e-01
  8.0099724e-02
 -3.2157326e-01
 -7.2763562e-02
 -1.0050564e-01
  7.4873191e-01
  3.3534374e-02
  3.1090361e-01
 -9.3340361e-01
  3.9401684e-02
 -9.1816121e-01
  1.7532201e-01
 -3.1948276e-02
  3.3602196e-01
  3.9860826e-02
  4.1703153e-02
 -8.9096047e-02
 -3.5033569e-01
 -1.1761244e-01
  7.5799590e-03
 -3.5908964e-01
  1.4039512e-02
  5.2405417e-01
  3.9155349e-02
  1.8500041e-02
 -5.8094323e-01
 -3.4677094e-01
  2.2383496e-02
 -4.2662237e-02
 -8.1794746e-03
 -3.0229393e-02
  5.1337665e-01
  3.2000822e-01
 -2.8459441e-02
 -3.7397310e-02
 -3.7408467e-02
  6.7448937e-03
 -5.0960958e-02
  1.8237967e-02
 -3.8506940e-02
 -3.4500502e-02
  1.2968525e-02
  1.0050048e-01
 -9.4274443e-04
 -3.4815504e-04
 -4.1192822e-02
  5.8876432e-02
 -5.8502341e-03
 -1.4802008e-02
  2.3453813e-02
 -4.0159810e-02
 -7.6981023e-02
  9.3162172e-03
 -1.5319404e-02
 -1.6031286e-02
 -7.0920130e-03
  5.1399689e-02
 -1.9138920e-01
  5.9864381e-03
  1.7905235e-04
 -1.2236916e-02
 -2.0792453e-02
 -2.7104739e-02
  2.1784822e-02
 -2.3306012e-01
  3.2104142e-03
 -1.1420446e-02
  6.1377168e-02
  8.4861275e-04
 -2.7225511e-02
  3.2143176e-02
  3.2683246e-02
 -2.2990964e-02
  1.4794172e-02
 -9.5581844e-02
 -1.5313551e-02
  7.5022024e-03
 -1.8114956e-02
  4.5813667e-03
  2.3077631e-02
  9.6961223e-03
 -2.1353498e-02
 -8.2514957e-03
 -4.5217359e-03
  3.0377144e-02
 -5.2953083e-03
  1.3341244e-02
 -1.2613227e-02
 -1.3985126e-03
 -6.1426876e-04
  2.5909669e-03
 -2.3404812e-03
 -1.1776010e-02
 -2.0636616e-02
  4.7421367e-03
 -8.2473364e-03
 -2.7287647e-02
  2.6855122e-02
 -1.8600440e-02
 -4.8652817e-02
  2.3036761e-02
  3.3881587e-03
  1.9945495e-01
  1.0469370e+00
  1.9363826e-03
  3.9839730e-01
 -1.5831175e+00
 -4.6372262e-01
 -4.1326541e-02
  1.2601873e+00
  6.7601967e-01
  2.8375816e-03
  6.0524887e-01
  1.7010150e+00
 -1.2189585e+00
 -1.7957705e+00
 -1.2185820e+00
 -2.6471794e+00
 -1.0522461e+00
 -6.6106427e-01
  3.2477188e-01
  1.5386842e-01
 -6.8096751e-01
  3.0506381e-01
  1.7071421e-01
  3.1182253e-01
 -9.4728255e-01
 -8.3451509e-01
  1.9599512e-01
  3.4021965e-01
 -6.5832600e-02
  5.5461721e-03
 -4.9082172e-01
  2.6121587e-01
 -2.8345854e+00
 -2.5423823e-02
 -7.6041079e-01
  5.4566640e-01
 -6.7428493e-01
 -5.1458091e-01
  3.1896695e-01
 -1.1746283e+00
 -1.5176430e+00
 -5.1518625e-01
  7.0935619e-01
  2.1658657e-01
 -3.6956593e-02
 -2.4447940e-01
 -1.5285101e+00
 -3.7304476e-02
  3.8377875e-01
 -3.7800097e-01
 -1.1596218e+00
  1.2114949e+00
 -6.6360133e-03
 -8.7249446e-01
  6.4490592e-01
 -2.0154524e-01
 -7.5674081e-01
  4.3251568e-01
  1.7035957e-01
  1.7303814e+00
  4.3805441e-01
 -2.4603938e-01
 -6.0008103e-01
 -2.7639676e-02
  8.8787729e-01
  1.9931574e-01
  1.7394940e+00
  5.0685452e-03
  9.4822057e-02
  2.3671980e-03
 -2.0381434e-02
  1.1371577e-02
  1.7863017e-01
 -7.4320096e-03
  9.1845065e-02
  1.2076295e-02
  2.6683310e-01
 -2.2077807e-03
 -8.3204079e-03
  5.5354973e-03
  2.9542170e-02
 -2.6581462e-02
  9.9767717e-03
  2.6035536e-02
  4.6102587e-02
 -1.4551295e-02
  4.2824438e-03
 -3.9066197e-03
  7.0136972e-02
 -5.8830190e-03
 -1.4880136e-02
  3.8664408e-02
 -5.7545483e-02
  8.4310442e-02
  1.5928231e-02
 -1.2147389e-03
 -2.3042224e-03
  1.9490607e-02
 -3.5634305e-02
 -4.6033924e-03
 -1.2492286e-01
 -1.3958361e-02
  1.5006843e+00
 -3.5538491e-02
  1.1578882e-01
  5.1594198e-01
 -2.8058369e+00
  4.3998080e-01
 -3.4061368e+00
  2.5278953e-01
 -8.1834382e-01
 -8.3870981e-03
 -2.0537600e-03
  2.6946929e-01
 -2.9199379e-02
  4.9229823e-02
  1.3888795e-02
 -2.8527844e-01
  5.5296326e-01
  4.0352508e-01
  7.9582259e-02
 -1.4261730e+00
 -1.4279197e-01
  1.2386551e-01
  6.4599979e-01
  2.8104410e-02
  1.3693301e-02
  3.3828616e-02
 -1.2151086e-01
  1.0179505e+00
 -1.0193098e-01
 -2.0571811e-02
 -2.9306412e-03
  1.3592102e-03
  2.8448040e-02
  1.6068131e-02
 -3.7477788e-01
  4.8329109e-01
 -3.0379183e+00
  1.0073832e+00
 -1.6090636e+00
  6.2177992e-01
  1.1880552e+00
 -2.3796196e+00
 -1.9765529e-01
 -6.5128982e-01
 -2.7419111e-01
 -1.8157300e+00
 -1.3171313e+00
 -5.3246605e-01
  2.9180624e+00
 -9.0337944e-01
 -2.3747468e+00
 -2.0861483e+00
 -2.3343994e-01
 -3.2751623e-01
  9.8278292e-02
 -2.5413132e-01
 -5.0719976e-01
 -4.9873963e-01
  7.2346635e-02
  1.0134392e-02
  9.1276482e-02
  1.5802217e-01
 -4.5930244e-02
  5.6911677e-02
  3.8795286e-01
  2.1428106e+00
 -5.7493784e-02
  3.5389926e-02
 -3.1060398e-01
  1.4723265e+00
 -1.2349896e-01
 -1.1782807e+00
 -7.4955887e-01
 -1.3869581e-01
 -1.3355021e+00
  2.9204559e-01
 -1.8787339e-01
 -1.1180896e+00
 -4.3492351e+00
 -3.3220991e-01
 -4.3094087e+00
 -1.2485844e+00
 -2.7104850e+00
 -5.1477116e-01
  3.9490502e+00
 -1.3639542e+00
  4.9524134e-01
 -1.3027246e+00
  3.2266596e-01
  3.3516495e+00
  3.0301178e+00
 -3.9613984e+00
 -6.6195524e-01
 -9.3108326e-01
  1.2367276e+00
 -2.3926189e+00
  4.5097911e-01
 -2.0992970e-02
 -6.1586328e-02
 -3.0654727e-02
 -3.0520231e-01
 -2.8086027e-02
 -1.5599749e+00
 -1.0439813e+00
  2.5874991e+00
  8.0588013e-01
  1.2463105e+00
  9.8636802e-03
  7.5527489e-01
  4.1051191e-01
  4.1265017e-01
 -5.3051943e-01
 -1.5129928e-02
  3.9589345e-02
 -2.5274849e-02
  1.7907426e-02
 -6.4330733e-01
 -1.4221300e-02
 -1.2206192e+00
  1.8585520e-02
 -6.7399830e-01
 -9.4216281e-01
 -4.1719981e-02
 -6.2831715e-02
 -6.2157071e-01
 -1.4335138e+00
 -5.5056483e-01
 -3.9234169e-02
 -2.6607940e+00
  6.6994794e-02
  2.8966013e-02
  4.5784827e-02
 -8.3593571e-01
  6.4901210e-02
  4.0758085e-03
  2.4595525e-02
 -3.8579073e-02
  1.0201550e-03
 -1.6590033e-01
  8.2195904e-03
 -2.5001627e-01
 -1.0273914e+00
  6.7863770e-02
  1.1165321e-03
  8.6343735e-02
 -6.5613883e-03
 -4.8784584e-02
  4.0456623e-02
  1.6928505e-04
 -7.4079923e-02
  3.9038565e-02
 -7.1974233e-02
 -3.6274540e-01
  5.8131456e-02
 -4.4222856e-03
 -1.2295073e-02
 -1.2218874e-02
  6.2565285e-01
 -1.4521085e+00
 -1.5678944e-02
 -8.8635311e-03
  5.2985560e-02
 -3.2477688e-02
 -2.5780054e-03
 -3.1946278e-03
  6.6189580e-03
  8.6480547e-03
 -6.5530697e-04
 -8.6337477e-02
 -2.6396956e-02
  1.3231804e+00
  3.6449242e-01
 -3.4186742e-01
 -1.0963944e+00
  2.6387215e-01
 -5.5978306e-02
  1.3858353e+00
 -1.5178688e-01
  5.0464559e-02
  1.4231282e-01
 -2.4910340e+00
 -6.9879040e-02
 -3.9028194e-02
  6.6961443e-01
 -3.8860876e-02
 -1.2989920e+00
  8.1324500e-01
  1.4059230e+00
  9.2107469e-01
 -3.1489406e-03
 -6.9176692e-01
  1.4385611e+00
  2.9082801e+00
 -2.6279273e-02
  1.1431772e+00
 -1.3923994e-04
  8.2543784e-01
  1.0864263e-01
 -6.7945015e-01
 -6.8935305e-02
  7.7833459e-03
  2.5127956e-01
 -4.6208653e-01
 -1.6633686e-02
  2.5569890e-02
 -1.0906253e-02
  2.0291547e-03
  2.0117689e-02
 -7.2699450e-03
  5.6238249e-03
 -1.4870092e-02
  8.8182852e-02
 -1.9152731e-02
  3.7771754e-02
  2.7242947e-02
 -1.4466201e-02
 -5.4080300e-03
 -1.7623340e-03
 -1.5700554e-02
  6.9270276e-02
  2.4478554e-03
 -2.5232840e-02
  1.2830343e-02
  8.2236510e-03
 -2.2931121e-02
 -1.2428751e-02
  4.2579528e-02
 -1.3534208e-03
  3.4438893e-02
  8.5285325e-03
  1.1791237e-01
  3.2389902e-02
  4.5673650e-02
  3.6371429e-02
 -1.6189558e-02
 -5.9055495e-03
 -3.1901408e-02
 -5.4145362e-03
  7.8702858e-03
 -7.3727425e-03
 -7.4545026e-02
 -4.8604645e-02
 -8.8181300e-04
  3.3862229e-02
 -1.6981918e-02
  2.0859793e-02
 -5.8754915e-03
 -3.3518024e-02
 -2.6765931e-02
 -7.1909344e-03
 -4.0630989e-02
 -7.3490064e-03
  8.4001593e-02
 -1.2486608e-01
  6.7896643e-03
  4.2464335e-02
  8.5906819e-02
  2.2927899e-02
  3.4447073e-03
 -5.7607669e-02
  1.6787365e-02
 -2.2327084e-02
  4.7187109e-02
 -3.5498343e-02
  2.0823896e-02
  1.7656162e-02
  1.4949136e-02
 -1.3994094e-02
  4.3072950e-02
  1.4210877e-02
  3.4513097e-02
  2.0228932e-03
 -1.1435447e+00
 -1.2876230e-01
  3.2129765e-01
  3.6378071e-01
 -5.4043601e-04
  1.1113856e+00
 -9.4281471e-01
 -4.1419217e-01
  3.6561001e-02
  2.5466215e-02
  5.0301164e-01
 -1.1565170e+00
 -2.7659088e-02
 -2.2504270e+00
 -5.2019022e-04
  1.8801893e-01
  1.0618978e+00
 -8.9128351e-01
 -7.8427130e-03
  5.1442385e-01
  1.0927359e-01
 -1.8184429e-01
  1.4449148e+00
 -5.2225137e-01
  1.7837157e-03
  2.7161846e-02
 -1.7737424e-01
 -1.8682070e-02
  3.6625406e-01
  5.3695887e-02
  5.4151312e-02
  7.5686687e-01
 -1.8962767e-02
  1.3290916e-02
 -2.1210347e-01
  1.6164217e-02
  1.5044940e-01
 -3.3930387e-02
  9.0819424e-01
  7.3888415e-01
  3.1676874e-02
  6.5560833e-02
  1.4663382e-01
  7.7879936e-02
 -9.8060574e-03
 -1.7131798e-01
  7.7528819e-03
 -5.6167904e-02
  4.3173674e-02
  1.4748506e-02
 -2.1830739e-02
 -2.9157776e-02
 -1.6373215e-02
  5.8407541e-02
  5.2335370e-01
  3.4027159e-01
  2.9144019e-01
  1.5503990e-02
  4.3380469e-02
 -1.3090798e-01
  5.0284612e-01
  9.0683031e-01
 -8.7035224e-03
  1.2516174e-03
 -1.1189943e-02
  3.6740687e-02
  4.6681806e-02
  6.2237871e-03
 -3.4423563e-01
  2.9777640e-01
  7.6929915e-01
 -1.4626093e-02
  1.1458776e+00
 -8.4501266e-02
 -8.3282918e-01
 -7.9681945e-01
 -1.0454983e+00
 -4.3333411e-02
 -6.3242072e-01
  1.5138133e+00
 -2.1996043e+00
  7.9393572e-01
 -1.2632582e-02
  1.4759300e+00
  3.8380959e+00
 -4.3483782e-01
 -3.6513593e+00
 -6.2116683e-01
  3.4428928e-02
  3.3745277e+00
  1.1404792e-01
 -5.2995700e-01
  5.4524964e-01
 -1.9968828e+00
  1.4600958e-01
 -2.5577195e+00
  4.0974662e-01
 -3.1169444e-02
 -1.5766235e-01
 -3.1109479e-01
  1.0575029e-02
 -2.0242104e-02
  2.3877089e+00
  3.3180577e-01
 -1.1694117e-01
 -6.3936348e+00
 -2.6531971e+00
 -5.3303593e-01
 -1.3531230e-01
  4.2655461e-02
 -1.1476330e-01
 -4.1402891e-02
 -8.4028296e-02
 -1.5645139e-02
 -2.8020786e-03
 -3.7738219e-02
 -9.2703812e-03
 -3.1286057e-02
  2.4582373e-02
  1.3414922e-04
 -1.5440445e-02
 -1.6848330e-01
  5.3391837e-02
 -8.8340235e-01
 -8.9961492e-02
 -1.0404130e-01
  2.7841418e-03
 -5.3823497e-02
 -1.5405410e-02
  2.5130494e-02
 -2.0336486e-02
 -7.6585829e-02
  1.4944394e-02
 -8.2334718e-03
  1.7504524e-02
 -4.7394074e-02
  4.7808886e-01
 -4.9224582e-01
  6.0240990e-01
  3.9295280e-01
  1.0816017e+00
 -9.5905650e-01
  3.6778975e-01
 -1.2680864e+00
  6.4240378e-01
 -2.0913262e-02
 -1.8890444e-02
 -1.6909665e-01
  7.1599125e-04
  3.5906495e-03
 -6.7305982e-02
 -8.2263220e-03
 -2.4904042e-02
  4.8728651e-01
  1.4758023e-02
 -3.7204781e-01
  1.2114807e-02
 -5.0856698e-01
 -9.1654010e-02
 -1.4756024e-02
  1.2389156e-02
 -1.7275387e-01
  2.4018346e-01
  2.6211949e-02
  7.1965784e-02
 -2.5280375e-02
  1.5463056e-02
 -2.7717364e-01
 -1.3313864e-02
  1.9468077e-02
 -6.2434316e-02
 -1.0450752e-02
 -2.7649730e-02
  5.6184876e-01
  5.5962030e-02
 -3.4530405e-02
  3.4544684e-02
 -5.1924717e-03
  2.1249466e-02
 -1.0726189e-03
 -2.5306689e-04
 -5.1333860e-02
  5.5440627e-02
  1.8807203e-02
 -3.4953829e-02
  4.6469201e-03
 -3.7767004e-02
 -3.9730813e-02
 -9.1623478e-03
  1.6196513e-03
  3.9385753e-03
 -1.5901033e-02
 -4.5069046e-02
  8.1198486e-03
 -2.3704460e-02
  3.7878091e-03
  4.0946119e-03
 -3.4110419e-02
  7.6991636e-03
  5.2515917e-02
 -4.9052320e-02
 -1.8184615e-02
 -4.4634648e-02
 -2.2965223e-03
 -5.1373976e-01
  2.9513919e-01
 -3.7083435e-01
  4.8001802e-01
  9.5288202e-02
 -4.4773638e-02
  1.7951731e-01
 -2.1990925e-01
  2.5673825e-01
  1.0934920e+00
  1.7368041e+00
 -4.2710748e-01
  3.4776005e-01
  4.5522320e-01
  2.0392399e+00
  1.3427413e+00
 -1.2517207e+00
 -9.6076662e-03
  3.1032274e+00
  4.9920309e-01
 -1.8996257e-01
 -8.0468154e-01
 -1.1354955e-01
  9.8501521e-01
  6.3501930e-01
 -1.1373316e-01
 -2.3169291e-01
  6.5527475e-01
  4.2832345e-01
 -6.3189834e-01
  2.8855985e-01
  1.7805186e-01
  2.6594257e+00
  1.8176515e+00
  6.6992533e-01
  8.8920787e-02
  3.0770829e-01
  7.0013590e-02
  1.4935524e+00
  1.4253853e-01
 -2.0003343e-02
  7.6761983e-02
 -1.7778035e+00
  2.3947710e-02
  2.5668321e-04
  3.1944275e-02
 -3.2759118e-03
  7.0743546e-02
  1.1952318e-02
  8.4065802e-02
  1.0450169e-02
  1.0497758e-01
  1.0428770e-02
 -1.0530217e-02
  2.2949392e-01
  3.6469081e-01
  9.4446903e-03
  1.0899146e-01
  1.9895790e-02
  2.8587326e-02
 -1.5524903e-02
  7.6044388e-02
 -4.2042979e-03
  1.2099881e-01
 -1.8925190e-02
 -6.3371165e-03
 -3.9467849e-02
  8.1587536e-03
  2.2544424e-01
 -1.8537238e-02
 -1.2357524e-02
  5.1214069e-02
  1.5013115e-02
 -1.6614370e-02
 -7.1623817e-02
  3.4525245e-02
 -5.9426297e-04
 -2.1328474e-03
 -2.1790551e-02
 -3.9071538e-02
  7.0757233e-02
 -6.1911318e-02
 -1.0931903e-02
 -1.5707614e-02
  5.3509297e-03
  1.1335024e-01
  1.5311000e-02
 -4.9016226e-02
 -2.7460147e-02
  5.4139066e-02
 -1.0702944e-02
  1.3866520e-04
 -8.7153956e-02
  5.0167087e-02
 -9.3150223e-03
 -4.4401265e-03
  1.8654928e-02
  5.6920156e-02
 -3.1619921e-02
 -2.2987548e-02
  2.4125263e-02
  1.8386157e-03
 -4.2561999e-01
 -1.2298401e-01
  1.7641878e-02
 -2.4947089e-01
  4.0128760e+00
 -5.6545909e-02
  1.9073684e+00
  5.4557715e-03
  3.4860072e-01
  8.9248046e-03
 -2.2853667e-02
  4.2665834e-03
  5.6469880e-02
 -4.1010149e-02
 -5.8640614e-02
  5.2166112e-02
  5.8327872e-01
 -2.2126433e-02
  8.7554105e-02
  2.2335760e-02
  5.4421020e-01
  3.4789377e-01
 -1.5824013e+00
 -2.1355215e-01
 -2.3012294e-02
  3.5521168e-02
  2.0351698e-01
 -6.6820987e-02
 -4.6563293e-03
  3.5233553e-02
 -3.8262252e-02
  2.8423866e-02
 -4.2308092e-02
 -2.1148168e-03
  9.2871922e-01
  1.7159486e+00
  1.5362552e-01
 -8.2332510e-01
  2.3840906e-01
 -9.6570593e-01
  1.0763431e+00
  3.0406812e-01
 -2.2750880e-01
  4.0186200e-01
  1.7019585e+00
 -1.6366069e+00
  1.8577580e+00
  3.5951707e-01
  1.3175473e+00
  1.8621382e-01
 -1.6482030e+00
 -1.6798382e+00
 -1.1671269e+00
  1.0457408e+00
  4.6411926e-01
 -8.7329066e-01
 -1.0512636e+00
  2.6498711e+00
  7.6789510e-01
  2.0699260e+00
  6.2453455e-01
 -2.4040720e+00
  1.3688174e-01
 -1.0602110e-01
  1.5733223e-02
 -1.1217352e+00
  1.5053445e+00
  2.5972724e-02
 -1.1213163e-02
  7.3188111e-02
  2.0660799e-02
  4.2396318e-03
  1.4735393e-01
 -2.6166718e-03
 -9.6071833e-01
  8.7786354e-03
  2.2715647e-02
 -7.5287841e-02
  2.2662995e-02
  3.2414857e-02
  4.2586755e-03
  7.9801977e-03
  2.3808178e-02
 -5.9907950e-02
 -5.6757476e-02
  3.2525036e-02
 -3.7974432e-02
 -1.9588552e-02
 -6.4130753e-02
 -2.0397507e-02
 -1.6333865e-02
  2.9423088e-04
  1.6025241e-01
 -3.4779105e-02
 -9.4323460e-04
  4.8878536e-02
  8.4070936e-03
  5.5531459e-03
 -3.8435951e-02
  6.4519063e-02
 -5.0008059e-02
  7.2460085e-02
  2.4089856e-02
  3.5148203e-02
 -1.7699406e-02
 -1.5203215e-02
 -5.5890903e-02
  2.2266915e-02
  3.0206962e-02
  2.6094347e-02
  3.6523022e-02
  5.9598079e-03
  2.3794157e-02
 -2.9271188e-01
  1.5920956e-02
  9.3955500e-03
  2.2372261e-02
  6.0302985e-01
 -1.1937633e-02
  2.1378513e-02
  2.5658216e-02
  1.5983399e-02
  2.4735671e-02
  7.5259268e-02
 -2.1132514e-02
 -2.1386396e-02
  3.4525048e-02
  2.4131238e-02
 -5.5410233e-03
  6.2668070e-02
  9.3789972e-02
  1.6639369e-02
 -9.4277844e-02
  3.0136048e-03
 -4.9141962e-03
 -3.4337115e-02
  2.2334412e-03
  2.8441451e-02
  6.4814286e-03
 -2.7468240e-02
 -6.1104959e-04
 -1.9443309e-02
  4.6743896e-02
 -1.7808594e-03
  6.2113926e-03
 -6.8153374e-02
 -1.3189932e-02
  2.6954288e-02
  1.3873999e-02
 -2.0531034e-02
 -7.6041650e-04
  1.2546632e-02
  1.5738657e-02
  1.4922058e-03
 -4.6289206e-02
  5.3830076e-02
 -4.8417570e-03
  2.1056533e-02
  6.9145262e-03
  2.5245594e-02
 -5.7493253e-03
  9.3415640e-03
 -4.8473094e-02
 -5.2589279e-02
  3.2874249e-02
  2.2896402e-02
  5.7565127e-02
  3.8332008e-02
 -2.7992822e-02
 -6.2514944e-03
  2.1990685e+00
 -4.4283419e+00
 -5.2778363e-01
 -2.7594013e+00
  1.2893287e+00
 -3.9637083e-01
 -1.2982887e-01
  8.5052931e-01
  5.5802220e-01
  1.3812416e+00
  9.0121162e-01
  3.8754977e-02
  7.5652248e-01
  2.2072229e+00
  9.7336315e-02
 -6.3414842e-02
 -2.7325056e+00
 -1.3161669e+00
  4.1659707e-01
  1.0500858e+00
 -1.8093085e+00
 -5.0264192e-01
 -6.9298375e-01
  1.7688114e-02
 -3.4234498e-02
  1.8258799e-02
 -6.5175503e-01
 -2.1568520e-01
  5.2474338e-01
 -2.0023812e-02
  7.9662636e-02
  2.1299542e-01
  5.6059875e-02
 -3.1307817e-02
  8.7201500e-01
 -1.8222593e-01
  8.4863383e-01
  1.3592830e+00
  1.1425037e+00
  3.0767981e-02
 -1.1093462e+00
 -2.2148213e+00
  1.4392316e-02
 -8.3021033e-01
 -3.4826040e-01
  3.1779194e-01
 -9.6320385e-01
  1.3197093e-01
 -2.3425320e-02
  4.3499234e-01
  2.4940325e-01
 -2.2271465e-01
 -9.7752221e-02
  1.1481974e+00
 -3.9005846e-02
 -1.0482599e-01
 -1.1306567e-01
  3.4837237e-01
 -1.9291790e+00
  4.5815098e-01
 -1.8002740e-01
 -1.0138024e-02
  1.0423999e-02
 -2.0261155e-03
  1.1567652e-02
  8.2793035e-02
 -1.8520736e+00
 -7.3512271e-03
 -1.2357803e-01
  2.1698387e+00
 -1.5776256e-01
 -1.8109044e-02
 -6.1035484e-02
 -8.4272695e-01
  5.5712622e-01
  2.8142384e-01
  3.9082584e-01
 -2.5279610e-04
  3.0776959e-02
  9.3012923e-01
 -1.2821049e-03
 -2.4286442e-01
  7.2628609e-04
 -7.0004365e-03
 -4.9045068e-01
 -4.5306733e-01
 -1.1951419e-02
 -6.5554035e-01
 -1.0555650e+00
  5.1409012e-01
  3.4137766e-03
 -8.7994514e-03
 -1.3282192e-01
 -5.3630704e-03
  5.6529988e-02
  7.7871896e-02
 -1.6443006e-03
  3.2537416e-02
  1.7621063e-02
  3.0689949e-01
 -1.0889318e-02
  1.7751262e-02
 -5.0049938e-02
 -1.8784255e-01
 -1.0244306e-03
 -1.6959709e+00
 -9.0151370e-01
 -6.8043572e-01
  4.8420447e-01
 -6.0554207e-03
  1.2382649e-02
  2.3569502e-02
 -5.5634491e-02
  4.1783297e-01
  7.6313433e-03
  4.5724136e-01
  4.2838159e-01
  4.3079618e-01
  1.4727849e-02
  7.1342522e-01
 -2.2084539e-01
  1.3136055e+00
  2.7586131e+00
 -2.9477601e+00
  2.0150321e+00
  2.1445835e-01
 -1.3513426e+00
 -3.4706976e+00
  3.0893316e+00
  6.2820810e-01
 -2.2710168e+00
  8.7361896e-01
  7.4647385e-01
 -5.7363254e-01
  5.6227464e-02
  1.3089020e+00
 -8.2013449e-03
  1.2373588e+00
  2.4489503e+00
  1.9744189e-02
  7.8191329e-03
 -1.2150716e-01
  1.3720970e-01
  9.8677939e-03
 -5.1010333e-02
  7.1002805e-01
 -1.9081029e-01
 -1.1778658e-02
 -2.2172479e-02
 -2.4979399e-03
 -1.2381251e+00
  1.2940434e+00
 -9.4251847e-01
  9.8399580e-01
  7.6580954e-01
 -1.3109365e+00
 -1.2285253e-01
  1.4741887e+00
 -1.5491619e+00
  8.9255649e-01
 -9.4547957e-01
 -1.1327269e+00
 -1.8983202e+00
  3.1307158e-01
 -1.5653230e-01
 -2.7860802e-01
  7.1754968e-01
  1.5664090e+00
  1.7140456e+00
  1.0656850e+00
  1.6214554e-01
  1.8811651e-02
 -8.2237698e-02
  1.0769682e-02
  6.8346375e-01
 -1.1017420e+00
  1.5110161e-02
 -2.7253997e+00
  6.4152920e-01
 -2.2516921e+00
 -4.2925423e-01
  2.7471101e-01
 -4.5240179e-02
 -5.9252400e-02
  4.9531424e-01
 -1.3283083e+00
  9.7244453e-01
 -5.9018433e-01
 -5.2629697e-01
  6.4957017e-01
 -9.6810535e-02
  6.4510989e-01
  4.4928133e-01
  1.1368217e-03
 -6.2888539e-01
  1.6683987e-01
 -2.4135562e-03
  1.8113842e-02
  1.0965835e-02
 -9.2335308e-01
  1.4087425e-01
  2.1439571e+00
 -1.5655358e-01
 -1.9560795e-01
  9.9848174e-02
 -4.6499519e+00
 -8.6657731e-03
 -2.5737000e-01
  1.5333976e-01
  3.0188026e-02
 -2.0537572e-01
  1.4194207e-03
 -3.6797372e-01
  4.4800618e-01
 -3.8722404e-03
  1.0320700e+00
  4.9183920e-01
  2.8347322e-01
  1.2962262e-01
  5.9402788e-01
  7.0021695e-01
  3.9439175e-01
 -1.9579540e-01
 -1.5598321e+00
 -4.1081569e-01
 -4.9521798e-01
  3.0644548e-01
 -1.3787701e+00
  9.6305513e-01
  1.0594716e+00
 -1.9526301e-01
 -1.7767155e+00
 -1.1756870e+00
 -3.7301132e-01
  5.2850218e-03
 -5.3160322e-01
  4.2696122e-02
 -2.3976837e-01
  4.7724556e-02
 -1.0296346e-01
  1.1942361e-01
 -7.5361520e-02
  8.4379219e-02
  2.1338791e-02
 -4.9846448e-02
 -4.4532064e-01
  1.5589039e-01
 -8.7893708e-04
 -1.9930084e-03
  2.7441524e-02
 -3.5950639e+00
  5.2034074e-01
 -4.8616135e-01
 -9.8332191e-01
  9.0490900e-02
 -3.3633965e-01
  1.2388142e-01
  1.8570390e-01
  2.8079921e-01
  3.4180450e-01
  1.5576231e+00
  4.9907589e-01
 -2.6402512e-01
 -2.9032773e-01
 -3.4103599e-01
  5.0324863e-01
  8.7408423e-01
 -2.0373092e+00
  1.3737903e+00
  4.1896215e-01
 -8.2812354e-02
  2.2264788e-01
 -7.3136903e-02
 -7.4979975e-03
 -1.0743859e+00
  9.5450622e-01
 -1.4266580e-01
  4.0086609e-01
  8.8566065e-01
 -3.4771929e+00
  4.4793078e-01
 -1.5559497e-01
 -4.4221815e-01
  2.3788832e-02
  1.6567273e-02
  2.4884722e-01
  1.0765962e-01
  8.5612196e-01
 -1.1360114e-01
 -1.7766245e-01
  4.2064846e-02
  2.4331176e+00
  1.4086773e-01
  5.8802222e-03
 -1.9927955e-01
  4.1582033e-01
  1.0315458e-02
  1.0794720e-02
  5.7051736e-03
  2.2082591e-01
 -2.1947436e+00
 -4.1705608e-01
 -7.7774701e+00
  3.3535631e+00
 -5.5674776e-02
  5.0924011e-02
  2.4586769e-02
 -1.2030983e+00
  2.3757191e-02
 -2.9562688e-01
 -6.3908413e-02
  8.7214792e-01
 -5.7316136e-02
  6.0593921e-01
  1.4724525e-02
  3.1340644e+00
  1.8748592e-01
  1.1702107e+00
  3.8472351e-02
 -1.3239393e+00
  8.9285649e-02
  3.2734251e-01
 -2.4760352e-02
 -6.5287286e-01
 -1.8426692e-02
  2.0466613e-02
  2.1771345e+00
  1.8997946e-01
  8.3292583e-03
  6.2427614e-02
 -6.0355347e-03
 -3.4748890e+00
  1.9478220e-02
  1.8163435e-02
  2.7162459e-02
 -1.4007232e-02
 -7.9114690e-02
  4.8953742e-03
  8.0345133e-03
 -1.8960994e-02
 -6.6695041e-03
 -2.2132905e-02
 -1.6906556e-02
 -7.2605766e-02
  6.0087096e-02
 -4.5125145e-03
  7.9007428e-03
  1.1470778e-02
 -7.0159375e-03
 -3.6764860e-02
 -2.9187869e-02
  6.5804160e-01
  1.2321264e-03
  6.6941160e-01
  3.9151710e-02
  3.6743619e+00
  1.5008153e-01
 -2.9171604e-01
  3.3650368e-02
  2.3197405e+00
  2.5199667e-01
 -1.6720818e-02
 -1.9289061e-02
 -5.3417403e-01
  2.7604019e-03
  4.3198523e-01
  1.3120337e-03
 -4.9336523e-01
 -3.8910466e-01
 -3.4714022e-01
  5.0935596e-01
 -2.5056806e-01
 -3.4323901e-02
  1.9312222e-02
  5.7697715e-03
  1.0974736e-02
  1.4754935e-01
  3.1575590e-02
 -3.2138213e-04
  2.2709515e+00
  2.6597830e-02
  1.7981358e+00
 -1.5776481e-02
  1.7224276e+00
  1.0686144e-02
  4.8892334e-01
 -3.2548416e-02
  4.2822888e-01
 -6.0210127e-02
 -3.1202136e-02
  2.7867593e-03
  1.1761817e+00
  1.1423450e-02
 -6.6212867e-04
  1.0234004e-02
  3.9754826e-01
  8.2903756e-03
 -3.8145002e-02
  7.1364101e-03
  1.4459642e+00
 -1.0181727e-01
  1.5341861e-02
  1.9647335e+00
 -1.0116192e+00
  3.3228579e-03
  4.8669583e-01
  1.5725672e-01
 -8.4593314e-01
 -5.1389642e-02
 -3.0733786e+00
  4.3295529e-02
 -3.1424753e-02
  4.2838119e-02
  8.8513535e-01
 -8.6912829e-03
  9.8673403e-03
 -1.2212122e-02
  2.3311732e+00
  5.4991925e-01
 -2.8753579e-02
 -4.7067538e-02
  2.1627707e-02
 -1.6292562e-01
 -1.8858561e-02
 -7.8685591e-03
 -1.3942683e-02
  5.5508766e-02
  2.4059370e+00
  6.6388838e-02
 -9.5129907e-01
  2.3873812e-01
  2.0084825e+00
  1.2390070e-01
 -6.1820745e-02
 -1.8379599e-02
  1.3458067e+00
 -3.9386429e-02
 -3.0780250e-01
 -9.2655616e-03
 -5.1618535e-03
 -6.4412146e-03
  9.6999638e-02
 -1.1190818e-02
 -3.4745163e-01
  2.0967503e-03
 -2.9648739e-01
  6.2057722e-01
  1.2403596e-01
  9.1015929e-03
 -2.5228402e-01
  5.2690655e-03
 -2.0231524e-01
  1.2798730e-01
 -6.3618841e-03
  1.4476733e-01
 -3.0579617e-02
 -2.7429434e-02
  9.1253355e-02
  3.8168952e-02
 -9.7139263e-01
  1.8302254e-02
  1.0086631e-01
 -5.5328794e-03
 -8.3443657e-02
 -2.0759510e-02
  8.3950973e-01
  2.1970138e-02
 -1.0249329e-01
 -3.1329229e-01
 -3.0322540e-01
  2.5522457e-02
  1.6908213e-01
 -9.3655987e-03
  8.4490955e-01
  2.3920381e-02
  6.0800284e-01
  5.3258404e-02
 -3.7101753e-02
  3.1665187e-02
 -1.3733248e-01
  6.5795332e-01
  5.8732599e-01
  3.7776005e-01
 -9.2466331e-01
  6.3281424e-02
 -1.2271341e+00
  2.6514447e-01
  6.2595314e-01
 -3.1047355e-02
  6.1390374e-02
  3.3221420e-02
 -1.1957780e+00
  6.2632553e-02
 -2.3624499e-01
  1.8465024e-01
 -1.0203280e+00
  6.9537628e-01
  5.1313019e-01
  2.1111775e-02
  7.9792663e-03
  3.5400634e+00
 -1.4644547e-02
 -5.0916934e-01
  7.7344537e-01
  1.2148059e-01
  2.5798235e-02
 -3.7095723e-01
 -1.7928481e+00
  2.2188993e+00
 -2.2838274e-01
  2.5588483e-01
 -7.5680965e-01
  4.0937260e-01
 -2.2007675e+00
  1.9778827e+00
  1.1119969e+00
  1.7720164e-01
  5.5412531e-01
  7.1032286e-02
  6.5800565e-01
 -2.8929138e-01
 -2.7712759e-01
  1.7297590e-02
  3.7057881e+00
  3.2010379e-01
 -2.9806991e+00
  7.7354535e-02
 -1.7592058e-01
  7.0664212e-02
  2.8752878e-01
  9.5344990e-01
  1.1889234e+00
 -5.8882702e-03
 -6.4386658e-02
  7.8056681e-01
 -4.3259423e-02
 -9.9806581e-03
  2.9402671e-02
 -3.0976327e-02
  1.4144665e-01
 -1.1220497e-01
 -1.9306595e-02
  8.8960882e-03
  1.0919290e-01
 -6.3237801e-02
 -1.7536125e-01
  2.1518374e-02
  1.2123058e+00
  7.2696283e-02
  6.6952169e-02
 -1.5082393e-02
  7.2649375e-02
  1.0627668e-01
 -2.9006363e-03
  5.1514367e-03
  8.1579533e-04
  4.6304809e-03
  9.7128436e-02
 -8.5446171e-02
  2.7348083e-01
 -1.8793883e+00
  1.0330473e-01
 -4.8066740e+00
  7.3745584e-01
  2.9682171e-01
 -1.2651119e-01
 -1.7682338e-01
 -7.1850441e-02
 -1.0329793e-01
 -2.5294274e-01
 -9.8119667e-03
 -4.7514516e-01
  2.0065827e-02
  8.6825627e-01
  5.9731767e-02
  1.4690528e+00
  1.2476403e+00
  2.0074599e+00
  4.8248062e-01
  5.1108656e+00
 -1.0387592e-02
  4.6762568e-01
  2.6280144e-01
 -3.5333636e-01
 -4.9374718e-02
 -6.8188973e-02
  1.7272830e-02
 -1.6104240e+00
  7.1211318e-03
 -9.0676564e-01
  9.4385618e-01
  7.5981237e-02
  4.8603605e-02
  1.6572181e+00
  1.0742719e+00
  1.9694163e-01
 -1.2647829e+00
  6.6713840e-02
 -2.0007598e+00
 -5.6665218e-01
  1.0614289e-01
 -1.3584444e-01
  1.1902272e-01
  1.7017989e+00
  7.9942241e-02
  9.2098999e-01
 -1.3535097e-01
  1.6161264e+00
  1.9635592e-02
 -6.9018062e-03
  5.7313555e-01
  1.3903891e-01
 -2.1082456e-03
 -4.7761672e-03
 -2.5104568e+00
  1.1320958e+00
 -1.7106384e-01
 -2.0781083e-01
 -1.6497096e-01
 -1.5999103e-01
  9.9149948e-01
 -3.5471516e-04
  1.8232232e-02
  1.1774292e-01
  1.0033097e+00
  2.4011126e+00
  7.4309725e-01
  1.2870286e-02
  7.5958222e-02
  4.4122013e-01
  3.9426211e-02
 -1.1679635e+00
 -1.1703780e-01
 -1.6160882e+00
 -8.3817661e-01
  2.2338684e-01
  2.8308365e-01
 -3.1615095e-04
 -2.3687042e-02
  4.8151124e-01
  1.8046401e-02
  1.2373954e+00
 -1.9277545e-02
 -1.7923012e+00
 -5.5535370e-01
  1.3604689e-01
  1.1178864e+00
 -7.3627746e-01
  1.7388622e-01
  7.8164069e-03
 -3.4215290e-02
  2.9348785e-01
  2.2770894e+00
 -9.3453735e-02
  9.5303768e-01
  1.8397944e-01
 -1.7757773e-01
  2.5311622e-03
  2.8817449e+00
  4.3205282e-01
  1.0020123e+00
  1.1585814e+00
 -1.5155008e-02
 -8.4016323e-01
  1.2282439e-02
  5.3194952e-01
  1.3907319e-02
 -1.3858067e+00
 -2.3329139e-02
  8.0602407e-01
 -4.2646900e-02
 -1.8301221e+00
  9.2890954e-01
 -1.4438389e-01
  2.8207662e-02
  6.6837925e-01
  1.3301096e+00
  1.4304696e+00
  1.5329477e+00
  1.4957801e+00
  1.8365216e-02
  1.4177007e-02
 -7.4890661e-03
  2.9253867e+00
  3.5046630e-02
  1.2003361e+00
 -9.1710639e-01
  1.2639712e+00
  7.9557407e-01
 -7.8785920e-01
 -1.1258187e+00
 -4.5680188e-02
 -4.7443724e-01
  1.7834785e+00
 -1.7171221e+00
 -2.3992683e-01
 -2.4654973e-02
 -4.2431694e-02
  3.1875070e-02
 -6.7329878e-01
 -9.2986214e-01
 -8.2843482e-02
 -1.0393908e-01
  6.0220861e-01
  4.5636186e-01
 -5.5963707e-01
 -6.2178612e-01
  7.7028446e-02
  4.9911568e-01
  1.6454705e+00
  4.5082417e-01
 -5.2740175e-02
  9.3807794e-02
 -4.1288900e-01
  1.6761899e-01
 -8.3125085e-01
  8.8701469e-01
  8.6397797e-01
  1.2818003e-01
  5.8964550e-01
 -5.6835657e-01
 -2.3356394e-01
 -5.5335447e-02
  2.1044452e+00
  3.9548162e-01
 -1.5673481e+00
  2.7444568e-01
 -4.5870416e-02
  1.5413781e-01
 -7.8650546e-01
  1.6827893e-02
  7.6581848e-01
 -1.7767859e+00
  8.0543584e-01
  2.0560565e+00
  1.0574172e+00
 -1.7201003e-02
  1.8529953e+00
 -1.7618202e-03
 -5.1417980e-02
  1.9107848e-02
 -5.8668465e-03
 -1.9239195e-01
  2.1730009e-01
 -1.2892422e-02
  2.7953036e-02
 -2.6089747e-02
 -6.0770147e-02
 -4.0723750e-01
 -1.4714102e-01
  3.0465471e-02
 -3.3854785e+00
 -3.2534570e-01
  1.4408846e+00
 -5.3932451e-02
  2.1965006e-02
 -4.6289369e-02
 -8.5695660e-01
 -1.0041762e-02
  5.5531490e-01
 -2.1208438e-01
 -3.7354396e-03
 -3.2823537e-02
 -4.8964256e-01
 -5.8952737e-01
  3.0449186e-02
  6.2362462e-02
  1.0222018e+00
 -3.0802913e+00
 -1.5881974e+00
  1.2595059e-01
 -3.4364727e+00
 -3.7952192e-02
 -5.2211685e-03
 -2.4273349e-02
 -1.4933944e-01
 -1.1163368e+00
 -2.2309473e-02
 -4.0672809e-01
 -2.3637905e+00
 -1.1407755e-02
 -5.2633065e-01
 -3.6494944e-02
 -2.5228517e+00
 -1.0782607e-01
 -1.5971759e-01
  4.3040216e-01
 -1.2658237e+00
  3.5647628e-01
 -1.8176939e-01
  7.7481441e-02
 -5.6947345e-01
  7.6164097e-02
 -9.7530439e-02
  1.8754263e-01
  5.4475033e-01
  1.0807474e+00
  3.8618743e-02
 -6.1981899e-01
  1.5270176e+00
  1.0141033e+00
  2.2012715e+00
  1.5516233e+00
 -2.5090170e-01
  8.7925637e-01
 -2.9188177e-02
  9.7882169e-01
  2.0753568e-02
 -4.6238773e-02
 -3.3762968e-01
  3.5537861e-02
  1.3069378e+00
  2.7530776e-02
 -8.4510887e-01
  1.1297024e-01
 -7.9791850e-01
 -6.5465188e-01
 -8.2702972e-02
 -5.2439779e-01
 -2.7368481e+00
  9.7090229e-03
  6.1981510e-02
 -2.6980846e-03
 -6.3421410e-01
 -5.6100678e-01
  1.4436464e-01
 -2.0900827e-02
 -1.8367727e+00
 -1.4050426e+00
 -7.4486423e-01
  7.4839550e-01
 -3.1923368e+00
 -6.1856264e-01
  2.0316527e+00
 -1.9475755e-01
  3.6016423e-02
  2.1963695e-02
 -2.0996892e-01
  8.0360293e-02
 -1.4980818e+00
 -1.6268362e-01
  2.9350419e-02
  1.7484654e-02
  2.8634411e-01
 -2.6370451e-01
  1.6554742e-01
 -2.8575042e-02
 -3.7171271e+00
  8.6349344e-01
 -2.1743038e-01
  1.4245503e-02
  1.9973560e-01
 -6.1838403e-02
  1.3649864e+00
 -7.5306920e-03
  7.2718188e-02
 -2.0920423e-01
 -6.1108392e-02
 -2.8959434e-02
 -2.5913310e+00
 -6.8145621e-01
  1.0988857e-01
 -2.4731545e-02
 -4.0625471e-01
  4.8314437e-01
  1.0531735e+00
 -1.0827142e+00
 -2.9632456e+00
  6.5334731e-01
  5.4681981e-01
 -4.5939118e-01
  3.8001871e-01
  9.0019792e-01
 -8.8778265e-02
 -2.5082436e-01
  3.9338797e-02
  1.7326111e-02
  2.1148419e-01
  1.0702270e-02
  1.6060195e+00
  5.0007373e-01
  6.4017135e-01
 -1.1222471e-01
  5.3339458e+00
  1.5350990e+00
  3.2573935e-01
  1.0865704e+00
 -3.5076675e+00
 -5.6432784e-02
 -3.4946316e-01
 -4.5185149e-02
  2.2924516e+00
  3.2516425e+00
 -8.8259232e-01
  3.0031455e+00
 -1.8606624e-01
  1.7974782e-01
  7.8715092e-01
  9.7124651e-02
 -3.8297510e-01
  1.1799509e-02
  3.4617105e-01
 -3.3861436e-02
 -8.8816918e-02
 -1.6048512e+00
 -2.7879119e-01
 -3.1686213e-02
 -3.5620579e-01
  2.4303288e+00
  4.3687403e-02
  1.1369523e-01
 -1.4940783e+00
  4.2113118e-02
 -5.5744290e-01
 -7.2369528e-01
  5.3408974e-01
 -1.3468084e-02
 -1.0525320e+00
  2.9105771e-01
  1.6643724e-01
 -3.2595370e-03
 -6.3643759e-01
  3.1082122e-02
  5.1816499e-01
 -6.6477889e-01
 -1.2418658e+00
 -1.9358263e+00
 -2.7293804e-01
 -1.2991214e+00
  2.8806090e+00
 -6.9355876e-03
  4.9737954e-01
 -2.4530828e-01
  1.1070030e+00
 -1.6745807e+00
 -1.3651843e+00
  2.4766253e-01
  7.3577863e-01
 -1.0148389e+00
  2.4098933e+00
  7.3735365e-03
  1.5317975e-02
  1.7780876e-01
  2.0294632e-01
 -1.5597651e-02
  1.8443142e+00
  3.7917733e-02
  9.2159286e-02
 -3.4322187e-02
 -1.9128550e+00
  8.8664897e-02
  1.6403177e+00
  4.7825640e-03
  4.8708241e-02
  6.7731510e-03
  3.8373533e-01
 -7.6468512e-02
  8.8252045e-02
  2.2694077e-02
  1.5099771e+00
 -6.1983514e-01
  1.6710276e-02
  1.2856282e+00
  6.4280868e-02
 -3.4114130e-02
 -9.9590719e-03
  5.2308165e-02
 -6.3704543e-02
  1.0977938e-01
 -5.6365587e-02
  3.4510534e-02
 -2.3269583e-02
 -2.5052972e-02
  1.4866558e-01
  7.8161114e-01
 -2.1577251e+00
 -1.0986302e+00
  1.1974083e+00
 -5.5924207e-01
 -3.5894525e+00
 -5.3963579e-02
 -1.9284038e-01
 -4.2302731e-02
 -1.8032187e+00
  7.3027122e-01
  2.8790293e+00
 -5.1082915e-04
  3.3375522e-01
  2.0089420e-02
  3.2505020e-01
  5.4808285e-02
  2.2044985e+00
 -7.1261443e-02
 -1.2127290e+00
  6.5018785e-01
  2.7067461e+00
  4.2134163e-01
 -1.0288988e-01
  5.5788106e-01
 -1.4416143e+00
  9.7350463e-02
  1.1583342e-02
  7.4171883e-01
 -1.9944583e+00
  7.4113891e-02
  5.3338025e-02
 -2.1403021e-01
 -1.3354107e+00
  1.2123722e-02
 -8.0318209e-03
 -4.0261748e-01
  2.5434193e-01
 -5.4435974e-01
  2.5622305e-01
 -2.0338784e-03
  2.0695380e-03
  2.1337112e-02
 -1.9423568e+00
  1.5926568e-01
 -8.8966548e-01
  6.3959986e-02
  1.3762284e-02
  2.0524240e-01
 -1.6297791e+00
 -5.0463074e-01
 -1.1556266e-01
  5.5498285e+00
  4.5013733e-02
 -1.0307403e-01
  1.0692133e-03
  4.6952227e-03
  1.8119717e-01
  1.5791675e-01
 -4.6818694e-01
 -4.9379874e-02
 -1.5992887e+00
 -1.1100238e-01
 -4.3085778e-01
  7.4639773e-01
 -2.2928183e+00
 -8.5481808e-02
 -6.1689717e-01
  1.3579921e-01
  2.2614050e-01
  3.7002359e-02
  9.6100286e-02
  1.9970608e-01
  3.6771002e-01
 -1.0538692e-02
  1.1858463e+00
 -4.2785775e-02
 -6.6963345e-01
 -1.2915441e-01
  2.4615208e-02
 -9.1042928e-02
  1.3765817e+00
 -6.4780289e-01
 -5.6947488e-02
 -2.2657993e+00
  2.5380117e-01
  4.3955296e-02
  1.3034859e-02
 -8.1824191e-02
  1.9637554e+00
  1.6096179e-01
  2.9829058e-01
  8.4286975e-03
  1.5600505e-01
  3.3908106e-02
 -2.9301497e-03
 -9.7715877e-02
  4.1115041e+00
 -5.8307860e-02
  7.4463993e-01
 -1.6487698e-01
  2.0677623e-01
 -4.2391828e-01
 -1.2618377e+00
  8.7892935e-03
  1.3118907e+00
  1.3957575e-01
 -2.0905958e-02
 -8.6469576e-03
  4.8316237e-01
 -1.0363827e-02
 -2.9124904e-02
 -1.0770955e-01
  2.3889105e+00
 -4.7744010e-03
  6.5235788e-01
 -2.9103622e-02
  8.0191380e-01
 -1.9282604e-02
  9.2943126e-01
 -4.9520552e-02
  3.0902955e-01
  6.5244716e-03
  1.4732649e+00
 -1.1869311e-01
  1.0768203e+00
  4.3136564e-01
  5.9246451e-02
  6.7419976e-01
 -4.1449845e-01
 -2.9764813e-01
  1.9379184e+00
 -1.5088810e+00
  3.7780786e-01
 -7.3836178e-02
  8.5787229e-02
 -3.4737563e-01
  1.7803630e+00
  2.2063470e-01
 -2.5600228e-01
 -5.0988175e-02
 -7.9248309e-02
 -9.5948702e-01
  3.2778037e-01
  9.5005348e-02
 -8.1888032e-01
 -1.3474584e-02
  1.2882019e+00
  5.9411798e-02
 -5.8780760e-01
  1.9738239e+00
 -6.5755880e-01
 -1.3887573e-02
 -1.5893362e-01
  4.6444215e-02
 -1.1541938e+00
  3.6916122e-02
  2.3086276e+00
  2.0108113e-02
  7.0792861e-02
 -1.5491445e-01
  2.1748688e+00
  1.3512546e+00
  1.5127312e+00
  9.8314756e-01
  5.1239786e+00
  6.2217057e-02
  4.4980948e-03
 -2.8210106e-01
  2.6125531e+00
  1.3878256e-01
 -1.9744854e-02
 -3.1142211e-02
  4.8708043e+00
 -1.7047299e-02
  9.5241809e-01
 -1.2391561e-02
 -6.4771295e-01
 -3.0931035e-02
 -1.9201332e-01
 -2.3861821e+00
 -1.8840495e-01
  2.2157460e-02
 -1.0741548e-01
  8.3529120e-03
  1.5332791e+00
 -6.4102992e-02
  2.7358962e-02
 -4.3243200e-02
  4.1795039e+00
  3.5110130e-03
 -3.7268195e-03
  2.3627672e-02
 -2.5770545e-01
 -3.4136483e-03
 -5.8007604e-03
 -4.7741779e-03
 -9.0453893e-01
  1.4236975e-02
 -1.7782245e-02
 -2.3225285e-02
 -6.3520774e-02
 -4.0477574e-02
 -2.8643671e-03
 -1.0042113e-02
  3.7101422e-02
 -7.5308792e-02
  1.1000960e-03
 -2.4946066e-02
 -2.7151701e-01
 -1.3946378e+00
 -2.8511284e-02
 -1.6937329e+00
  5.0218165e-01
  4.1037593e-03
 -1.4277972e-02
  3.4228101e-02
  7.2828966e-01
 -3.2471541e-02
  1.4491042e-01
  1.2007908e-01
  1.0797516e+00
 -1.2051803e-03
 -3.5212174e-01
  4.6823155e-02
  9.5340067e-01
  2.8911924e-02
  2.5806830e-03
 -7.6488584e-01
 -3.6753911e-01
  6.7669200e-03
 -5.6605560e-01
  7.1791060e-02
  1.1938843e+00
  1.6765099e-02
  3.8945958e-02
 -2.0842321e-02
  5.1842713e-01
  8.9546591e-01
  1.5603267e+00
  2.0271961e-02
  1.4655794e+00
  2.7872071e-01
 -2.2147717e+00
  4.4573689e-01
 -1.6171806e-01
 -4.8713062e-02
 -1.7338170e-01
 -6.5217908e-03
 -3.6027679e-01
 -9.7011141e-03
 -2.1587573e-02
  3.1362794e-02
  4.0228676e-02
  6.5351889e-02
 -1.5438058e-02
  2.0249811e-01
  1.4658508e+00
 -2.9818350e-01
  7.1160120e-01
  2.2763373e-01
  1.0138770e-01
  3.4257746e-03
  2.2637292e-03
 -4.1965388e-02
  1.0002475e+00
  2.9578308e-02
 -3.2830004e-02
  1.6341219e-02
  2.3138471e+00
  7.7305026e-03
 -7.0043489e-02
  3.7659410e-01
 -1.4955186e+00
 -2.2589129e-01
  4.7258180e-01
 -1.5824276e+00
 -3.3859891e-01
 -3.6448233e-03
 -4.7689609e-02
 -5.4085183e-01
  4.9375913e-01
 -1.9576246e-02
  4.8986997e-02
  6.2791604e-01
  1.5294021e-01
  1.9454882e-02
  3.9519663e-03
 -1.2118747e-02
  1.5134209e+00
  4.0620166e-01
 -3.9564502e-01
  7.4028373e-01
 -6.4688765e-02
  2.8205672e-03
 -3.4982154e-01
 -1.4067498e-01
  2.2012327e+00
  1.7230099e-01
  7.3158741e-02
 -9.6779615e-03
  7.9401815e-01
 -3.4817606e-01
  1.8347915e-02
 -7.9686731e-02
  1.3433787e+00
  7.3095065e-01
 -2.2668066e+00
  2.2658633e-02
 -1.1233121e+00
 -9.5587131e-03
 -2.4670181e-03
 -7.9260282e-03
  9.8363894e-01
 -1.7263904e-02
  7.8654075e-03
  1.3528857e-03
 -4.4936557e+00
 -2.8461274e-02
  7.0228809e-01
  6.3646406e-02
 -3.1626062e+00
  4.1767918e-03
 -1.5463169e+00
  1.8745886e-01
 -8.9694619e-01
  2.5772905e-02
  4.7798130e-01
  3.5274523e-01
  4.8176235e-01
 -9.3576796e-02
 -6.1693704e-01
  5.0912891e-02
  5.9779024e-01
  1.1270039e+00
 -6.9324404e-01
  1.7373539e+00
  5.9204829e-01
 -1.7519243e+00
 -1.9816902e-02
 -8.6792722e-02
 -1.9088846e-01
 -4.4114906e-03
 -2.3313312e-01
 -9.1231711e-02
  7.3223752e-03
 -3.9133850e-02
  1.4896441e-01
  5.4375362e-02
  2.0850821e+00
  2.7518699e-02
 -6.8315342e-03
  6.4856373e-02
 -4.2340387e-02
 -3.4482208e-01
  9.2228639e-01
  3.0174246e-04
  5.8013558e-01
  4.0101446e-02
  7.2479583e-03
 -6.2230974e-02
  4.4760350e-03
  1.8751666e-01
  2.9775444e-02
  8.0251485e-01
 -1.1336962e+00
  3.9620280e-02
  2.3307398e-01
 -2.1668372e+00
  1.5371380e+00
  2.8097132e-01
 -2.1999282e-01
 -2.6039035e+00
  6.2248987e-01
  1.2564436e-01
 -8.4868252e-01
 -5.1672703e-01
 -5.1422054e-01
 -1.4764397e+00
  2.9203621e-01
 -6.6630006e-02
 -1.8638963e-01
 -7.1605223e-01
 -2.0424943e-01
 -4.4259682e-02
  4.2264801e-01
  6.5596062e-01
  4.3127346e+00
  1.9835750e+00
 -3.2430881e-01
  5.2124269e-02
 -2.8279799e-01
  2.0305745e-02
  1.3813804e+00
 -5.8437977e-04
 -1.0325967e-03
  4.0655211e-02
 -2.2238585e-01
 -7.4828370e-03
 -1.4824329e-02
  3.9073053e-01
  2.5093114e+00
  4.5004548e-03
 -1.6446784e-01
 -4.5333240e-02
 -4.1021161e-02
  1.9938580e-03
 -4.5951214e-02
  1.1405413e-02
  1.4788751e-02
  1.5337521e-01
 -3.4358110e-02
  6.2410412e-03
 -1.1283382e-03
 -9.7813800e-02
 -5.9622929e-02
  1.0866768e-02
  1.7729880e-01
 -1.8590298e+00
 -9.5012486e-01
 -1.6740111e-01
 -6.7631537e-01
  7.5193215e-03
  1.2071621e+00
  4.4358119e-02
 -1.9509014e+00
  2.6806362e+00
 -7.7610755e-01
 -3.7355468e-01
  3.3248813e+00
 -2.8663222e-02
 -1.9355888e+00
 -5.3238384e-02
  1.6941071e+00
  5.5598570e-03
  1.3216962e+00
  3.9787519e+00
  6.4316720e-01
  1.8751428e-01
 -2.9491585e-01
 -7.2963331e-03
 -5.9845108e-01
 -2.0024128e-02
  2.3915957e-01
  5.4030158e-02
 -1.0318816e+00
 -1.0241753e-01
 -3.1298053e-01
  1.8467692e-01
 -2.2532187e+00
  1.4502749e-01
  1.8377799e+00
  9.1834325e-01
 -1.8220801e-02
  3.0097345e-01
  1.6697256e-02
  6.0511601e-01
 -1.9114976e+00
  4.4767678e-01
  1.0842352e-02
  5.3312224e-01
 -4.0160176e-01
 -4.0299624e-02
  2.5453780e-02
 -5.8390446e-02
 -8.5515451e-01
  1.0092974e+00
  1.8916852e+00
  5.3624606e-01
  7.8695899e-01
  7.6697178e-02
  4.5513734e-02
  6.4738900e-03
 -1.5417880e-01
  3.7354699e-01
 -4.8197964e-01
  3.8802162e-02
 -3.2604769e-01
 -2.8912108e-02
 -5.9434730e-01
  6.7810737e-02
 -4.2762887e-01
  2.9584355e+00
 -4.0948761e-01
  8.5807675e-03
 -4.5285457e-01
 -3.6688626e-03
  1.0967149e-01
  2.1362526e-02
 -1.4507221e+00
  1.1729013e-02
  1.3408306e-01
 -4.1105349e-02
 -1.9857931e+00
 -1.5202094e-02
 -5.2204144e-01
 -1.0465983e-01
  1.8794966e+00
 -2.2974212e+00
  4.5583110e-02
  2.3360556e-02
 -2.1970022e+00
  1.6823653e-02
  3.0321665e-02
 -3.5738647e-01
 -2.0056767e+00
  2.5238779e-01
  2.6691949e-01
 -1.4278873e-02
 -7.4085571e-02
  2.2019533e-02
 -1.4682226e+00
 -8.9110367e-02
 -1.5858992e-03
 -9.8493594e-01
 -3.9042875e-01
  7.2698981e-01
  5.8527313e-02
 -4.8596654e-03
 -1.0428252e-03
  1.1988888e-03
  3.5045654e-02
  2.2070489e+00
 -3.4995019e-02
 -6.4033337e-02
  1.2657968e+00
 -4.0267225e-02
 -4.6099514e-01
  2.6588982e-02
 -2.2344980e+00
 -1.3998321e-01
  7.5189531e-01
  7.2934914e-01
  1.3460817e+00
 -5.9537095e-01
 -3.5699412e-01
  6.9382966e-01
  9.9295247e-01
  5.0110333e-02
  3.5262823e-01
  1.0549933e-01
 -6.3780904e-02
 -7.5990958e-03
 -5.9173200e-02
 -1.4421660e-02
  1.2471437e+00
 -6.3785052e-01
 -4.7932783e-01
  3.6027208e-01
  5.0011784e-01
 -2.5339106e-02
 -5.5841559e-01
 -4.8159879e-01
 -1.6320479e+00
 -6.1788231e-01
  1.8121349e-02
 -2.1193586e-01
  8.5064268e-01
 -1.5666257e+00
 -2.6465961e-01
 -6.9996946e-02
 -2.7415719e+00
 -1.2322491e+00
  3.8129541e-01
  1.6748294e+00
 -1.0867412e+00
  1.6222098e+00
 -4.6746901e-01
  8.3182830e-01
  1.4840953e+00
 -6.6021144e-02
  1.6270421e+00
  3.8310114e-01
 -2.6532865e+00
  4.2702343e-02
 -2.7852720e-01
  5.4636501e-02
 -6.1648458e-01
  4.3335634e-01
 -1.6790186e+00
  1.0878063e+00
 -7.9488051e-01
  3.3528558e-03
 -7.9193771e-01
 -4.1652295e-01
 -2.0619872e+00
  1.0429928e+00
 -2.5988023e+00
 -1.5369517e-02
 -4.7655144e-01
  8.9610481e-01
  3.0778939e-02
  4.5153640e-02
 -2.3283155e+00
  6.0970675e-02
  8.1970287e-04
 -2.3109280e-01
  3.3364004e-01
  4.0475607e-02
 -1.5564749e-02
 -3.8004316e-02
  3.4089831e-03
 -6.0006436e-02
 -6.7224395e-01
 -1.9154295e-02
 -5.5603310e-03
 -4.4171456e-01
 -4.0454071e-02
 -7.2787851e-03
 -2.1097863e+00
 -1.3511762e-02
 -8.6414665e-02
 -1.3722157e-01
  7.3679010e-03
  2.3941321e-02
  3.3233486e-02
 -3.2258958e-02
 -3.1271556e-01
 -1.3346666e+00
 -1.1765301e-02
  1.0775694e-01
 -6.4479271e-03
  1.5969209e-02
  2.1740755e-01
  7.1860828e-02
  1.2620344e+00
  4.7351843e-01
 -6.6554528e-01
 -1.4241732e+00
 -1.6193306e+00
  1.9092157e-02
  5.9435528e-02
  1.4824597e-03
 -6.4359736e-01
  7.4299800e-01
  2.8852617e-02
 -4.0164078e-03
 -4.0145457e-01
  7.4753547e-03
  8.0611402e-01
 -8.4973983e-03
 -4.9716595e-01
  7.9835284e-01
  4.1966400e+00
 -5.9764075e-01
  3.5081629e-02
 -1.7919900e-02
  3.5565972e-02
 -3.4875435e-01
 -3.0039740e+00
 -5.0807767e-02
  2.7778802e-02
 -7.4218011e-01
 -2.7224331e+00
  6.8664736e-01
  2.1442129e-01
 -2.7633553e-02
 -1.4618850e+00
 -1.0978051e+00
 -7.8553456e-01
 -1.2381413e+00
 -1.0460893e+00
 -7.9102300e-02
 -1.1967546e-01
  7.3565699e-02
 -1.3219145e-01
  1.5843663e-01
  4.5277429e-01
  1.4944158e-02
  3.6694634e-01
 -1.1290839e+00
  2.6092365e-01
  2.2325101e-01
 -2.6982102e+00
 -3.8416484e-01
 -3.0853202e+00
 -2.3162041e+00
 -1.4129413e+00
 -1.2503492e-03
 -3.1204400e+00
 -1.3906817e-01
 -2.1407418e+00
  3.5358411e-01
  6.6070713e-02
  6.6776447e-02
 -1.0811874e+00
 -3.7017057e-03
  6.0756270e-02
  2.5744176e-02
 -4.1850829e-01
  2.0677114e-01
  2.5771663e-01
  2.2716479e+00
 -1.7578048e+00
  7.6465875e-02
 -3.7012047e-03
  8.6095640e-03
  4.3427241e-01
 -8.0434913e-03
 -1.1306255e+00
 -3.6654618e-01
 -4.0774265e-01
 -1.3309764e-02
 -4.7714222e-02
 -4.0922437e-02
 -5.4268408e-01
 -5.6424189e-01
 -1.0394236e+00
  3.1999714e+00
  5.0783682e+00
 -8.9827247e-02
  7.9736412e-03
  7.1178389e-01
 -5.6840193e-01
 -2.6455754e-03
 -7.8647330e-02
 -2.9931277e-01
 -1.6662893e-01
  1.9938707e-02
  1.8162850e-02
  1.7087887e-01
  5.9844798e-01
 -1.4072779e-01
  1.5345012e-01
 -2.9245704e-01
 -1.2428620e+00
 -4.1281600e-02
 -3.8672432e-01
 -9.2538819e-03
 -2.3510417e-01
 -1.6291659e-01
 -3.3472109e-01
 -9.5800370e-01
  6.8998581e-01
 -1.9488486e-02
 -9.8295480e-01
 -1.5323565e-02
 -2.9598400e-01
  1.5041746e-01
  2.4382334e+00
  1.0207856e+00
  8.6512226e-01
  7.5028753e-01
  7.8698426e-01
  3.9316334e-02
 -9.2152411e-01
  9.3919140e-01
 -9.6223056e-03
 -3.4380127e-02
  6.7119193e-01
  1.4492140e+00
 -4.8454688e-03
  1.1495779e-01
  5.0953621e-01
 -9.1715950e-01
  1.9715550e+00
  8.4035850e-01
  5.5657122e-02
 -2.9532653e-01
 -2.6208967e-02
 -1.1668435e+00
  2.3109267e+00
 -9.9790126e-02
  6.9877559e-01
 -5.6380802e-01
  1.0400823e+00
  7.0747435e-02
 -4.3813917e-01
  9.4082928e-04
 -2.8590748e-01
 -6.7049569e-01
 -1.7707542e-02
 -8.9464255e-02
 -1.6237247e+00
  6.8554360e-01
 -1.7034273e-01
  5.1923644e-02
  7.1479833e-01
 -3.2553577e-01
 -3.9202520e-01
 -5.3057688e-01
 -9.0243071e-01
 -5.5414774e-02
  7.5679767e-01
  3.9157835e-03
 -1.1577916e+00
  1.5601960e-01
 -1.5592660e-02
 -1.1424311e+00
  1.8965296e-01
  1.0761876e-01
  9.8292984e-02
 -7.7830106e-03
 -7.3596835e-03
  4.7852656e-01
 -5.2521414e-01
 -6.9795305e-01
  2.2405893e-01
  1.5005134e-01
 -2.1316249e+00
  3.4679141e-02
  2.3380221e-01
  6.8336064e-01
  3.3068094e-01
  1.1212355e+00
 -5.6466952e-02
 -4.8616999e-03
 -4.3719593e-03
 -2.6523644e-02
  2.2048606e-02
 -7.4543431e-02
  2.5248835e-02
 -2.3048028e-02
 -2.2669494e-02
  3.0911630e-01
 -4.8374515e-03
  3.7399381e-01
  2.8200445e-01
  3.2004579e-03
  1.7729691e-01
 -2.3959610e-01
  2.7446331e-02
  4.7424482e-04
  7.4662017e-03
 -4.2508222e-02
  5.6020524e-03
  1.2888196e-01
  1.6680287e-02
  1.4942446e-01
 -7.0137151e-02
  1.5141764e-03
 -1.9836006e-01
  5.4399064e-04
  1.4101752e+00
 -1.8965056e+00
 -1.2278531e+00
  6.4537609e-03
 -6.5412775e-02
 -7.0897207e-02
 -1.6134039e+00
 -2.7808656e-03
  1.1122881e+00
  3.6466768e-01
  1.4355597e-01
  3.2361394e-03
 -6.7301542e-02
  2.3399806e-02
  6.6794582e-02
  1.2576500e-02
 -9.5945418e-01
 -4.6547141e-02
  7.5224084e-01
  8.7252319e-01
 -5.9588671e-01
  3.1393662e-01
 -1.9544376e-01
  2.4647156e-02
 -2.2047760e-02
 -7.2803837e-01
  1.2876779e-01
 -2.0583245e-01
  4.5173582e-01
  8.5288934e-02
 -6.5241703e-03
 -5.6838174e-03
  1.7504234e+00
  1.0783869e+00
 -4.4704047e-01
  1.5625255e-01
 -1.5599190e+00
  1.0357963e-01
 -8.7004192e-02
 -5.4520551e-02
  5.8441716e-01
  4.4399083e-02
 -4.8403063e-01
  1.4798044e-01
 -1.9741297e-01
  3.0417060e-03
 -1.0525493e-02
  4.7106128e-03
  9.7667390e-01
  1.2383842e+00
  2.1187041e+00
 -8.7671243e-03
  6.2068745e-02
 -1.1415630e-02
  2.5689217e-01
 -1.2112544e-01
 -1.2384529e-01
 -1.0332524e+00
 -1.2707540e-02
 -1.9823594e-03
 -1.8319323e+00
 -2.6758718e-03
  1.1593726e-02
  3.8627483e-02
  3.4334204e+00
  6.1711382e-02
  2.2891960e+00
  1.7951612e-01
  3.3458489e-01
  9.2295386e-02
  2.2165440e-02
 -9.2455139e-04
 -2.3801092e-02
 -1.4505528e-02
  7.0242900e-01
  1.0651276e-01
  1.3377902e-01
  4.5884186e-01
 -3.2265210e-01
  1.0931183e-01
  2.3306388e-01
  3.5232145e-01
  8.8389158e-01
  8.6949430e-02
 -4.2564597e-02
  7.1101204e-02
 -2.3660244e-02
  5.9064021e-03
 -6.0496870e-02
 -4.5618918e-03
  1.1052071e-01
 -4.3319091e-01
  8.9534622e-01
  2.3332091e-01
  6.2408686e-01
  3.6577631e-02
 -4.4761160e-01
 -1.8913831e-01
  8.5660350e-03
  2.2513216e+00
 -4.1906118e-01
  7.2321787e-02
  1.3809253e-02
  1.8399828e-03
  2.6586004e-02
  2.8392652e-01
  4.5751193e-01
 -5.2513009e-01
 -6.2544626e-01
 -2.5896795e-02
  1.3531899e-01
  5.4011755e-02
 -4.8361030e+00
 -9.9706531e-01
 -4.2104852e-01
 -1.5301622e+00
 -9.9941069e-01
  4.0732678e-02
 -2.5771153e-01
  2.3570172e-01
  1.6816221e+00
 -6.2985048e-03
 -2.4744400e-01
  4.0644266e-02
 -3.2249837e+00
 -3.5735625e-03
  6.4528316e-02
 -4.3494580e-03
 -1.3990021e+00
 -1.6620042e+00
  3.2918325e-01
 -1.3077915e+00
 -5.5645269e-01
  4.2457078e-02
  6.0278933e-02
 -8.9348531e-01
  1.4009732e+00
 -2.5686592e-02
  3.5233670e-01
 -1.9745548e-01
 -1.2866475e-01
 -1.2288415e-01
  2.6102830e-04
  5.3008318e-02
  4.2055827e-01
  3.6291015e-01
 -1.2208097e-01
  2.8729436e-01
 -6.4993733e-01
  9.9442631e-01
 -2.8117968e-02
 -1.4747714e-02
  2.8853394e-02
 -5.3219533e-01
 -3.0413929e-02
  6.8798698e-02
  6.3072109e-01
  7.8349836e-02
 -9.4192880e-01
 -7.7091932e-01
 -1.7995133e-01
 -1.2459015e+00
 -1.6760006e+00
 -1.3674759e+00
 -1.6130352e+00
 -3.9471972e-01
  7.5571650e-01
 -3.2284170e-02
  2.5384356e-03
 -6.0638182e-02
 -7.8405678e-02
 -3.5924646e-03
  2.3451790e-01
  2.5630794e-02
  1.0260252e+00
 -8.2638925e-03
 -6.0805899e-01
  1.4909182e-01
 -8.5580814e-01
  7.4184826e-04
  8.9389637e-02
 -4.3873642e-02
 -2.0535722e-01
 -5.2953985e-02
 -4.2591851e-02
  2.6994966e-02
 -1.7909239e-01
 -1.0042091e-01
 -2.0824912e+00
  2.5472837e-02
  7.2889756e-03
 -3.4840934e-02
 -7.3436946e-01
  2.2461796e-02
  1.8707820e+00
  8.0831885e-01
  3.5863698e-02
  1.0468952e-02
 -2.2148369e-01
  2.6142346e-02
  1.5477060e-02
 -2.2075368e-02
 -3.1783883e-02
 -1.0226808e-02
  1.1331730e+00
  1.5110198e-02
  1.1155647e-01
 -2.9416788e-02
  3.1349339e+00
 -2.3186741e+00
  2.5545576e+00
  2.4804516e-01
 -1.7078226e+00
 -6.3313665e-03
 -1.7948735e-01
  3.1736039e-02
 -1.1765817e-01
 -4.7442120e-01
 -1.7622113e-01
 -5.4911058e-03
  6.9085717e-01
  1.0126466e-02
  3.7259474e-01
  6.6007301e-03
 -9.1019526e-02
 -3.6133432e+00
  2.6103958e-01
  3.5746800e-04
  5.1400739e-01
  2.5832012e-02
 -3.4091165e+00
 -8.0510259e-01
 -1.0803225e-01
  2.7297370e-02
 -1.2525702e-01
 -1.3865307e-03
 -4.9852037e-01
 -1.7824747e-01
  1.7163584e-01
  9.2322882e-03
  1.4029500e+00
 -1.6862185e+00
  7.6175064e-01
 -1.0264864e+00
 -2.9117579e-02
  1.6413549e-02
 -4.7945820e-02
 -3.3036715e-01
 -6.8141609e-02
 -3.1192482e-01
 -1.3560305e-02
  1.3990852e-01
 -2.5065652e-01
 -9.6643930e-03
  6.2201105e-02
 -9.9762332e-01
 -3.5316190e-01
 -1.0600904e-01
  5.4956498e+00
 -6.5491337e-01
  1.0134722e+00
  2.8467651e-02
 -4.3745011e-01
  5.3858554e-01
 -4.1736579e-03
 -7.5277078e-01
 -3.1086413e-02
 -1.5573595e-02
  9.0151921e-02
  4.9443331e-02
  8.6250596e-02
 -2.9086810e-01
 -1.5879840e+00
  4.7607955e-01
  2.3975086e+00
 -1.1092458e+00
  2.3418572e+00
  2.4833623e-04
  5.4927427e-02
  6.8930656e-02
 -3.7331410e-02
 -2.4503563e-01
 -2.1943809e-01
 -7.0068169e-01
  2.2566104e+00
  3.3839468e-02
  2.9524824e-02
 -2.1157937e-02
 -3.4645722e+00
  1.2381396e+00
  5.4122430e-01
 -9.7566372e-01
 -3.7997743e-01
 -2.8797204e-02
  3.6187440e-01
  8.7066833e-03
 -8.5776162e-01
  2.6755001e-02
 -1.8692067e-02
 -1.1959435e-02
  1.7491106e+00
  2.3597650e-02
  6.1336362e-01
  6.1562574e-01
 -1.2984709e+00
  2.5110146e-01
 -2.6250322e+00
  5.5894578e-01
 -2.0506498e-01
  1.6128281e+00
 -1.8383108e-01
  1.5791626e-01
 -1.7058644e-01
 -6.1060077e-01
  1.0825580e-01
 -2.4638777e-03
  1.3944280e+00
 -1.1005992e-01
  5.5036676e-01
  1.9477835e-01
 -1.4448391e+00
  5.1085224e+00
 -3.0520968e+00
  8.3793439e-02
 -1.3456802e+00
 -3.2079208e-01
 -6.4990395e-01
 -1.4451207e-01
 -3.2513770e-01
 -1.1729407e+00
  1.7935659e-01
 -2.0930232e-01
 -6.2731785e-01
 -5.0615710e-01
  2.2662014e-02
 -1.4715959e+00
  4.3330359e+00
  1.3329457e-02
 -1.9531275e+00
  2.4384640e-02
  2.1331475e+00
  4.0321597e-03
  2.0008985e-02
  5.9460795e-01
 -2.0968215e+00
  1.2557989e-02
  2.0237380e-01
 -5.4678332e-02
  8.4109271e-01
  1.3408801e-01
  3.3814007e-01
 -5.1773351e-01
  9.4197446e-01
  2.1524341e+00
 -6.9307309e-01
  1.9519069e+00
 -3.8492475e+00
 -7.6838309e-01
 -1.0527746e-02
  2.9445243e+00
  9.7130144e-01
  1.8745504e-02
  4.1459349e-01
 -2.1396786e-02
  8.9106840e-01
 -1.2056828e-03
  4.9483049e-01
  5.7934660e-02
  1.5499240e-03
  1.4401253e+00
 -9.4990999e-01
 -3.5340955e+00
  3.3144782e+00
  1.9120736e+00
 -7.5050676e-04
 -2.7034984e+00
  1.8541898e-01
 -1.2216071e-02
  1.8350920e-02
  2.6392863e+00
  1.7372839e-01
  1.8150800e+00
 -3.4051776e-01
 -2.3067510e+00
 -4.0882149e+00
 -9.0682971e-01
 -3.0642400e+00
  8.9315730e-01
 -2.8318083e-01
  2.0573038e-01
  5.8268599e-02
 -2.7976379e+00
  1.1465073e+00
  1.2993557e-02
  1.2307094e-02
 -5.3466603e-02
 -2.9570477e+00
  3.6300137e+00
 -9.8154962e-02
 -9.8625374e-01
  1.1179093e+00
 -1.8196154e+00
 -2.4119270e+00
  2.5511801e+00
 -2.1325517e+00
  7.2430037e-02
 -1.0249985e+00
 -2.4917774e+00
 -9.7011620e-01
  8.0590315e-02
 -3.1260829e-02
  1.4910731e-01
  2.4056294e+00
  3.1642535e-01
 -1.0541508e-01
 -2.3877908e-02
  2.7123635e+00
  1.0915450e+00
  9.3952549e-01
  3.3511505e-01
 -1.7813693e+00
 -9.1566914e-01
  9.3726665e-03
  4.8544307e+00
 -2.1997979e+00
  2.7642667e-02
 -3.2470539e-01
 -4.5189270e-01
 -2.7228611e+00
 -1.5764979e+00
 -1.5682934e-02
 -1.5489867e+00
  1.5009357e+00
 -1.0407083e-01
  1.8201152e+00
 -4.8843038e-01
 -3.9666135e+00
  2.1664008e-01
  9.5512971e-02
  7.0438221e-02
  3.6234770e+00
 -6.6281453e-02
  4.0133142e-01
 -3.4437470e-02
 -2.0460031e+00
  3.2860258e+00
 -2.6456726e-01
 -1.1453857e+00
 -1.2456074e+00
 -1.1720302e-01
  3.2691195e+00
 -3.5151727e+00
  2.9947442e-01
 -6.6288635e-02
 -5.2597934e-01
 -9.1511327e-01
 -2.0641320e+00
  7.1868696e-03
  4.1400839e-02
  3.8293812e-01
  1.6381645e+00
  2.2988963e+00
 -2.6566899e-01
 -3.8509447e-02
 -3.2712767e+00
 -4.4456325e+00
 -2.3248425e+00
 -3.8796833e-01
 -1.4403050e-01
  1.2258311e-02
  1.5711010e-01
 -5.5377378e+00
 -5.3604722e-01
 -2.1374133e-01
 -9.5863380e-03
 -2.9044144e-02
  2.0988595e+00
  4.6051865e+00
 -4.8846954e-01
 -1.7930131e-02
 -2.1956184e+00
  5.3732854e-01
  1.2399501e+00
 -1.2222807e+00
  8.0188513e-01
 -2.7483735e+00
 -4.6716815e-01
 -5.0953536e+00
  2.8554201e+00
 -7.6776028e-02
  1.2123810e-01
 -1.4235035e-01
  5.0719576e+00
  1.8665494e+00
 -5.9149312e-03
 -1.2895589e-01
 -1.4610461e+00
  4.1832170e-01
 -9.1702861e-01
  2.3593469e+00
 -2.4358206e+00
  1.1412718e+00
 -6.7376059e-01
 -5.9090257e-02
 -4.0123501e-01
  6.4909775e-03
 -5.6097555e-01
 -8.3568090e-01
 -1.9130158e+00
  1.1688364e+00
 -5.6706506e-01
 -7.6409900e-01
  1.6138422e+00
  3.2414861e+00
  1.5422179e+00
  2.1766469e+00
 -9.2845285e-01
 -8.6095524e-01
 -1.0868416e+00
  2.1559358e+00
 -9.2742425e-01
 -6.1914992e-01
 -2.0412274e-01
  1.7307593e-02
 -3.1866407e+00
 -3.1983850e+00
 -2.0590068e-01
 -1.4564893e+00
  4.9490130e-01
  7.8064567e-01
 -3.2698604e-01
  3.4854144e-01
  8.5034364e-01
  2.6686938e+00
 -5.3495133e-01
  1.9673733e+00
 -2.4554187e-01
  3.3326194e-01
  3.8950136e-01
  3.8908586e-02
 -1.6056759e+00
 -5.7323365e+00
 -9.2099750e-01
 -1.2780030e+00
  2.1324819e-01
  9.3805891e-01
  1.1663346e+00
 -2.3948722e+00
  1.9573674e+00
 -7.0061100e-01
 -7.8655509e-03
  1.1244038e+00
 -9.3083644e-01
 -1.1000706e+00
  9.0896231e-01
 -3.7628023e-03
  2.4708443e+00
  1.7067494e-02
  3.9514336e-03
  9.5561659e-01
 -1.7496608e+00
  4.8933040e-02
 -1.0695835e+00
 -3.2265718e+00
  8.9207792e-01
  1.3347970e-01
  4.3680519e-01
 -3.6600554e+00
 -7.2306603e-02
  2.9557426e-02
  2.0903639e-02
  1.4127208e-01
  3.9799660e-01
 -1.2054625e+00
 -2.8270757e-01
 -2.6977081e+00
 -1.7247896e+00
 -9.0081429e-01
 -5.2837789e-01
 -1.2030443e-01
 -1.8687685e+00
  1.5594873e+00
  7.7606905e-01
  1.4672846e+00
  9.4801146e-01
 -1.7124047e+00
 -9.0300035e-01
  1.8701848e+00
  2.5190153e+00
  3.2909393e-01
  3.2366931e-02
 -6.9388896e-01
 -3.7583859e+00
 -4.3928032e+00
  1.6838306e+00
 -1.9337864e+00
  1.6190041e-02
 -2.3679419e-01
 -2.4621560e-01
  2.7238870e+00
 -5.1386709e+00
 -2.1562316e-02
 -9.4138850e-03
 -3.2062422e-02
  2.8920538e+00
  1.7552986e+00
  7.7141140e-04
  2.5543547e-01
  4.3513088e+00
  1.8786479e+00
  3.9850238e-01
  7.0695937e-01
 -2.9803106e-01
 -8.4077924e-02
 -5.0824974e-02
 -4.9363464e-02
  4.6892807e-01
  8.9201108e-02
 -1.0382872e+00
  4.8897319e-02
 -1.6687032e+00
  1.2908846e-02
  2.7332301e-03
 -9.3356725e-03
  4.6954031e+00
  2.1652068e-01
  1.9779743e+00
  3.6216099e+00
  1.0071824e-01
 -2.1814406e+00
 -1.3841127e+00
  5.3265589e-01
 -7.9746801e-01
  6.9522046e-02
 -2.5204548e-01
 -3.7776205e-01
 -4.2757878e+00
  1.9089541e+00
  1.7725227e-02
  2.6871264e+00
 -3.1483960e+00
 -3.3948874e-01
 -1.6884658e+00
 -2.7300873e+00
  1.7140384e+00
 -6.8506658e-01
 -3.2163656e-01
  7.7768487e-01
  1.5691971e+00
  1.2402673e-03
 -8.5187632e-01
  5.6229556e-01
  8.9871693e-01
  5.6820983e-01
 -5.3942555e-01
  3.1741951e+00
 -1.8723620e+00
  9.2935014e-01
 -2.1604822e+00
 -4.3132329e+00
  1.1731198e+00
 -5.9425358e-02
  3.2953907e-02
 -1.4505000e+00
  3.7441220e-02
  4.9856108e-01
  1.2974174e+00
 -7.1222462e-02
  8.2385743e-01
 -8.2829309e-01
  1.1371099e-01
  8.9135540e-01
 -2.0023370e-01
  4.6677952e+00
 -8.5260624e-01
  8.2544816e-01
 -1.6898816e+00
 -2.2174087e+00
  1.2314987e+00
 -9.8964828e-01
 -1.5658770e+00
  2.0938012e-01
  8.7736389e-03
 -1.9581319e+00
  4.9473138e+00
 -8.4023811e-02
  5.3796500e-01
 -2.1384525e+00
  2.4099067e-01
  5.7042503e-01
  2.5384457e+00
  2.7752917e+00
 -1.0189462e-01
 -8.7397242e-01
 -2.9233870e-01
 -4.8986003e-03
  1.1985340e-01
 -7.0331913e-01
  2.1721475e+00
  1.3508092e-01
 -7.3077835e-02
  5.7409942e-01
  4.3841758e-01
  5.4088622e-02
 -1.5962055e+00
 -6.0021770e-01
  5.3469533e-01
  4.3897569e-01
  3.8375432e+00
 -3.8194799e-01
 -8.1517678e-03
  2.5156405e+00
 -1.7318072e+00
 -2.0259005e-01
  4.1796425e-01
 -1.5713978e-01
  1.7217114e+00
  6.9954413e-01
  1.3574190e+00
 -7.4815995e-01
 -2.4494779e+00
 -2.3439877e+00
  1.1286250e+00
 -1.0324519e+00
  3.5203590e+00
 -1.3270107e-01
  5.2911196e-02
  8.8631326e-01
 -2.6035643e+00
 -1.0860474e-01
  9.7443587e-01
  3.7574163e-01
 -8.9368331e-01
  5.7347894e-01
  6.2164411e-02
 -7.2641295e-01
  8.2940102e-01
  8.0269140e-01
 -9.2034024e-01
 -9.6315515e-01
 -6.6370529e-01
 -1.0950222e+00
  5.2396679e-01
  1.2083927e+00
 -6.6071802e-01
 -4.2825326e-01
 -6.3643807e-01
 -9.0137863e-01
 -1.1916327e+00
  1.5834538e+00
  1.0597698e-01
 -2.3167121e-01
  8.0488759e-01
  8.8331693e-01
  2.2387874e-01
  8.3845414e-02
 -1.3921477e+00
 -2.2195421e-01
 -1.9736308e-01
 -1.3974776e+00
  1.8835025e-01
 -4.2870280e-01
 -2.1794580e-01
 -9.2123079e-01
 -5.9718078e-01
  4.0252662e+00
 -8.8057788e-03
 -2.0455451e+00
  1.3013173e-02
  9.9003071e-01
 -3.7119475e-01
 -8.7036327e-02
 -2.2697303e+00
 -4.9355057e-01
 -4.0566865e-02
  1.5765066e+00
  7.3322408e-02
 -1.7821871e+00
 -1.5908878e-01
 -5.7194281e-01
  8.3764029e-01
  8.1534803e-02
 -8.0548853e-01
 -1.2108665e+00
 -5.3213048e-01
 -2.1355655e+00
  1.3529079e+00
  2.3803976e+00
  1.9887693e+00
 -9.4363689e-02
 -4.1678499e-02
 -4.4698161e-01
 -1.5272888e+00
 -1.5631891e+00
 -3.7455398e-01
  7.4014604e-01
  1.2971001e+00
  1.6401353e+00
 -1.9649367e-01
  1.0415434e+00
 -1.5280901e+00
 -3.1025910e+00
 -8.7766004e-01
 -4.2138803e-01
 -1.5862053e-02
 -1.1809421e-01
  5.3655901e-03
 -1.0475944e+00
 -2.0364454e+00
 -3.3873416e-02
  8.5962424e-03
 -1.5280604e-02
  3.2113514e+00
  2.2994297e+00
 -7.0034266e-01
 -1.4210781e+00
  2.2444606e+00
  2.8975830e+00
  2.0622604e+00
  3.0200412e+00
 -8.0305094e-01
  9.4492780e-04
 -1.2377969e+00
  6.8521932e-02
  1.3953936e+00
  1.6188844e-01
 -4.2531967e-01
 -3.4630552e-02
 -2.0889640e+00
  1.0372523e+00
 -2.7969435e-02
  7.6095983e-03
  9.7586084e-03
  6.0710019e-01
 -2.4128251e+00
 -4.3257314e-01
 -1.1882060e+00
  4.4836121e+00
 -1.0151061e+00
  3.9848351e+00
  1.7991482e-01
  1.3390914e-01
  2.7659076e-01
  2.9690641e-01
 -6.6584118e-02
 -1.1888423e+00
  1.8909497e+00
 -1.0471159e-01
 -4.8573884e-01
  3.2301645e+00
 -1.4145757e+00
  5.5993545e-01
  2.0252140e+00
 -5.8759677e-01
 -3.1262082e-03
 -1.7232348e+00
 -5.9814936e-01
 -9.4735496e-02
  2.0927277e-01
 -9.9752687e-02
  1.6478899e+00
  8.0531663e-01
 -5.5662358e-01
 -1.4737387e+00
 -2.5497105e+00
  9.8891330e-01
 -1.6219003e+00
 -7.5618583e-01
  2.7125535e+00
  1.7778333e-02
 -5.3205180e-01
  7.3172188e-01
 -3.1704483e+00
  2.8973022e-01
  2.1260326e+00
 -1.4667137e-01
  2.0915561e+00
 -1.5267043e+00
 -4.1921997e-01
 -1.1304989e-01
 -1.3252512e+00
 -5.8730817e-01
 -1.3825378e-01
 -1.1600176e+00
 -5.3986740e-01
 -1.8670121e-01
  4.8951948e-01
 -2.3527875e+00
  6.2988216e-01
  3.6449220e-02
  1.8063974e+00
  7.3991623e-03
 -9.1155553e-01
  1.4912741e+00
 -1.1464543e+00
 -2.7202898e-01
  3.2523293e+00
 -1.5965294e+00
 -1.0773776e+00
 -1.1426306e+00
  4.1655663e-01
 -3.1459517e+00
 -3.5320354e-01
  3.0947453e-01
 -1.9123472e-01
 -1.1006883e+00
  2.2512853e+00
  2.1900702e-01
 -3.7962759e-01
 -8.5816562e-02
 -3.8023826e-01
 -3.6543651e+00
  2.9213073e+00
 -6.5814430e-01
 -2.0521384e-01
 -3.9524746e-01
 -6.7562306e-01
 -8.3627862e-01
 -6.6213496e-02
 -3.4057178e+00
  1.1656915e+00
  3.5835809e-01
  7.8102386e-01
 -2.2635935e-02
 -6.5527231e-01
  2.0444121e+00
 -2.8398624e-01
 -1.1707919e+00
 -2.6680956e+00
 -8.4658074e-01
  2.4469498e-01
 -1.1684991e+00
  1.2393104e+00
  2.3117213e+00
 -3.5503092e-01
 -2.7355628e+00
 -2.4958477e+00
  1.9269827e-03
  8.1375319e-01
 -4.3872263e-02
  2.0744517e+00
  3.0027254e+00
  1.8335013e-03
 -6.4315820e-01
 -2.3000023e+00
 -1.9639322e-01
  6.2988430e-01
 -1.6466506e+00
 -6.2038422e-01
 -1.9159249e+00
  5.1659700e-02
 -1.6097373e+00
 -1.3901737e+00
 -3.0322793e-01
 -2.6231959e-01
  3.4828952e-01
  1.2156688e+00
  2.6654584e+00
  1.4983726e-01
  1.0681585e+00
 -4.2420185e-01
  1.1773012e+00
  2.1035339e-01
 -3.1277728e+00
 -1.4101202e+00
  2.0552342e-01
  2.9571056e-02
 -1.7536883e+00
 -2.0201974e+00
  3.9013892e-01
  1.0889239e+00
 -7.2492182e-02
 -6.2702781e-01
  2.4995916e+00
  3.0809677e-01
 -9.2184544e-02
  2.3716128e-01
  2.1214335e+00
  4.9124431e-02
 -1.8073828e+00
 -1.1437557e+00
 -2.4540029e+00
  8.4188485e-01
 -5.5258703e-01
 -1.3266011e+00
 -3.4079111e-01
  1.2117107e-01
  6.9018960e-01
 -7.0678657e-01
 -3.7857769e+00
  1.1309045e-01
 -2.3564962e-01
  3.1267709e-01
 -5.3217512e-01
  8.2138908e-01
  2.2490457e-02
  1.6633585e-01
 -4.5650893e-01
 -1.0534183e+00
  3.6855295e-01
 -5.0935887e-02
  4.1903865e-01
 -4.5599759e-01
  2.2575078e+00
 -6.8435860e-01
 -3.5789064e-01
 -5.0637618e-02
 -1.3484017e+00
  4.5262628e+00
  3.3621067e-01
 -1.9524355e+00
  2.5505066e+00
  4.2848918e-01
  1.1483794e-01
 -6.3927672e-03
 -3.0847516e+00
 -4.3017430e+00
  1.1964750e-02
  2.9777524e-01
  7.0727873e-01
 -2.1306470e-02
  4.1929668e-01
  5.6547487e-01
  6.4158177e-01
 -1.3846740e+00
 -5.7637447e-01
 -8.3443993e-01
 -1.7136846e+00
 -2.2733395e+00
  2.2750687e-02
 -7.8277670e-02
 -1.1600994e-03
  5.5134171e-01
 -8.5638277e-03
  5.5970002e-02
 -3.3184558e-01
 -1.9192027e+00
 -1.4725481e-01
 -6.0325973e-02
 -4.3713681e-02
 -3.9279883e+00
 -3.0114365e-01
 -2.3315344e+00
 -7.7490097e-01
  2.7129999e-01
 -1.8657222e-01
  4.7303489e-01
 -1.2535640e+00
  5.5368972e+00
  1.2227025e+00
  1.4020736e+00
  1.8888752e-01
  2.8543801e+00
 -1.7310752e+00
  1.1898210e+00
 -4.2387322e-01
  1.6963627e+00
  9.8495919e-01
  2.4790845e+00
 -2.0514262e+00
  1.5485115e+00
  5.6720752e-02
 -1.6129941e-01
  1.2174125e+00
 -2.1817555e+00
  3.4283820e-01
  1.1425720e+00
  1.8053871e-01
  2.6893487e+00
  3.9820969e+00
  1.1364080e-02
 -1.2595828e+00
  4.3886032e+00
  1.4538344e+00
  5.9752250e-01
  8.1454444e-01
 -7.7819943e-01
  1.8713877e-03
 -2.4740291e-01
  3.1402807e+00
 -5.1781483e+00
  8.6778961e-02
 -1.2273966e-01
  1.2733356e-02
  1.7739321e-01
  3.5273411e+00
 -6.9101095e-02
 -3.7813187e-02
 -3.6059146e+00
 -4.7961213e-02
  5.7852858e-01
  6.3673337e-03
 -1.6784457e+00
  1.1956281e-01
  5.1995244e-02
 -4.5227385e+00
 -8.1357890e-01
  9.9666685e-02
  6.5441948e-01
  3.2939526e-01
 -4.4146628e+00
 -1.2929978e+00
 -1.4025978e+00
 -5.6438929e-01
 -2.7779729e+00
  5.9368283e-01
 -9.5957555e-02
 -9.5148748e-01
 -1.3182388e-02
  5.6762167e-04
 -5.3034514e-01
 -1.2340741e+00
  1.8549130e+00
  1.5409670e+00
  9.8308784e-01
  6.5187943e-01
 -8.5524547e-01
 -3.1354821e+00
 -8.8213480e-01
 -1.5469826e+00
  2.1506157e+00
 -5.9236681e-01
 -1.0319369e+00
 -2.7135856e+00
  2.8565955e+00
 -2.2818815e-02
 -1.4194246e-02
  2.9426816e-01
  8.4149021e-01
 -1.6550239e-02
  3.0975728e-03
  2.3410715e-02
  1.3647397e+00
 -1.6594806e+00
 -1.8342206e-01
 -1.4625970e-02
  5.3034723e-01
  1.6925817e+00
 -6.7404640e-01
