nep3 4 B O C H 
cutoff 10 4 73 20
n_max 6 4
basis_size 12 12
l_max 4 2 0
ANN 100 0
 -3.1668513e+00
 -8.1140023e-01
 -1.2149332e+00
 -9.9608499e-01
  1.4683096e+00
  2.9170789e-02
 -1.3115476e+00
  3.1849024e-01
  1.5214381e-01
 -1.8752834e-01
  1.8580655e+00
 -5.8043841e-03
  7.1026526e-02
  1.6004999e-01
  2.0604002e+00
 -2.0891825e-02
  5.7182038e-01
  3.5105962e-03
  2.2261388e+00
  4.8719493e-01
  7.6103574e-01
  5.3032136e-01
  1.4785321e+00
 -8.0376327e-01
  8.4468555e-01
  1.0986921e-01
 -3.2763147e-01
 -3.9245426e-03
 -1.1766520e+00
  8.9161247e-02
 -1.5453893e-01
 -3.5569125e-01
  1.1273375e-02
  1.4446842e-02
  6.3986257e-02
  2.0384545e+00
 -5.8938116e-03
 -1.8214351e-01
 -2.0016480e-02
  4.0394510e-03
 -1.6355222e-02
 -3.6794748e-02
 -1.1382654e-02
  5.7741746e-02
  7.5923065e-03
 -6.2194228e-01
 -9.5366502e-01
 -4.9335614e-02
  3.0861348e-03
 -1.2404083e-02
 -1.2818673e-01
  4.3891124e-02
  3.8470980e-03
 -3.5772642e-01
  6.3538775e-02
  3.1613220e-02
 -6.4913255e-01
  5.0707003e-03
  6.3090228e-02
  5.0347988e-02
 -5.6513030e-02
 -3.2755888e-01
  4.4240091e-02
 -3.4697698e-03
 -1.3339419e-02
 -2.3641495e-02
  9.3334606e-03
 -5.9069935e-03
 -4.8678424e-02
  5.4700254e-03
 -1.9086679e-02
 -3.7628453e-02
 -8.6090452e-04
 -1.9071423e-02
 -3.5915986e-02
 -1.3325617e-02
 -4.4767901e-01
  3.6665816e-03
 -3.7557073e-02
  3.4434486e-02
 -1.6594738e-02
 -1.9584449e-02
 -2.7299948e-02
  6.4397426e-03
  5.9467941e-03
 -9.0922117e-03
 -5.8829957e-03
 -9.0388935e-03
  1.1556353e-02
  3.2732862e-03
  2.2700852e-02
  4.7617280e-03
 -1.5498267e-02
  2.4444385e-02
 -4.4831133e-04
 -3.4082232e-03
 -8.4451413e-01
 -5.7761091e-01
  7.4905610e-01
  1.7514845e+00
 -2.0676009e-01
  1.3873732e+00
 -2.2836235e-01
 -4.3221861e-02
 -2.1348099e-01
  3.7503552e-02
 -2.1749778e+00
  7.5376354e-02
  5.2969140e-01
 -2.1373806e+00
  5.6832123e-01
 -1.2937188e+00
  6.3555226e-02
  5.6120527e-01
 -7.2432548e-01
 -4.6238992e-01
 -1.1738126e+00
  1.2940023e+00
  1.1329060e+00
  4.6815757e-02
  1.3076482e+00
  4.0409544e-01
  2.7661857e-01
  4.6561424e-02
 -2.1491129e+00
  3.4431520e-01
  9.9356718e-02
  8.0556482e-02
 -2.3048725e+00
  5.4839337e-01
 -9.7904432e-01
 -4.0793931e-01
 -1.4432815e-01
  8.2065940e-01
  8.4167928e-01
 -7.0238906e-01
  6.6438736e-03
 -2.1907368e+00
  3.4206572e+00
 -1.0413215e+00
  3.7499893e-02
 -9.0507513e-01
  2.1389561e+00
  2.6300099e-01
 -3.7257308e-01
  8.2060015e-03
 -2.4879536e-02
  1.2207372e-01
  2.9112896e-02
 -3.8868263e-01
 -3.2196608e-01
  4.3029219e-01
 -7.7260447e-01
  8.2127017e-01
  2.8990180e+00
 -9.0699697e-01
 -6.7413501e-02
 -5.9271129e-03
 -6.8358546e-03
  1.6721976e-03
  2.7906120e-02
 -1.3927817e-02
  1.4067286e-02
 -9.8104700e-03
 -2.6044047e-02
  1.3936842e-02
 -9.3701202e-03
  2.7543658e-02
  2.0520394e-03
 -1.7461801e-04
  1.4618770e-02
 -1.4631470e-02
  6.5323651e-02
 -1.6161285e-02
  1.0224232e-02
 -1.4477840e-03
 -6.2967599e-03
 -1.4605448e-02
  1.7121149e-02
  3.4752665e-03
  1.8926227e-02
  1.6703106e-02
 -2.6383230e-02
 -2.8874340e-02
  9.9185042e-02
  5.5432934e-03
  4.3600522e-02
  2.3980648e-04
 -7.0393998e-03
  1.3672980e-03
  3.6530148e-02
  2.5858248e-02
  5.0766725e-02
 -8.0541536e-02
  1.0022184e-01
 -5.6473743e-02
  5.4094340e-03
 -7.9985829e-03
  7.0727672e-03
  1.8310515e-04
  2.0326227e-02
  2.3954475e-02
 -3.0107733e-03
  4.7630843e-02
 -1.3104958e-02
 -1.3582066e-02
 -6.0503115e-03
  4.4855695e-02
  1.1682007e-01
 -2.0068388e-03
 -4.2907905e-02
 -1.4270194e-03
  1.4127819e-03
 -1.5098337e-02
 -3.4576762e-02
 -1.4099939e-01
  1.0263002e-02
  3.1058253e-03
 -1.9739419e-02
 -3.4352183e-02
  1.1277579e-03
  3.7634224e-03
 -4.6833539e-03
  1.0346351e-02
  9.9818170e-01
 -9.8308645e-02
 -4.9609515e-01
  2.6007218e-02
 -8.7179589e-01
  1.9320850e-01
 -2.2993807e-03
 -1.0981970e+00
  1.4454538e-02
  1.3381286e+00
  8.7373060e-01
 -3.6814743e-01
  1.3266540e-01
  1.0682398e+00
 -2.8673133e-01
  5.8215064e-01
  7.9353623e-02
 -2.7331784e-01
 -1.4719830e-01
  4.1276324e-01
  6.8358317e-02
 -1.3953829e+00
  1.1275349e-01
  6.1379671e-01
  6.5348102e-03
  1.4497567e-02
 -1.0864450e-01
 -2.2636740e-02
 -1.4627772e-02
  3.3569804e-03
 -9.7366340e-02
 -2.9329762e-01
  5.1546227e-03
  2.9305061e-02
 -1.6002556e-03
  7.6627661e-03
 -3.3197382e-03
  8.6340634e-03
 -3.6765505e-03
  8.6020445e-03
 -2.2270691e-03
  6.7997980e-03
  8.7474985e-03
 -5.9125940e-03
  1.7437553e-02
 -5.4666832e-02
  2.0507846e-02
  8.4225256e-03
  3.8091056e-02
 -2.0080283e-03
 -4.2613555e-02
  2.0990007e-02
  3.9947263e-05
  1.3413842e-02
 -4.2447694e-02
 -4.5847401e-02
  9.6894270e-03
  5.7334942e-03
  8.9133317e-03
 -1.5348081e-04
  7.5211078e-03
 -1.1696873e-02
  1.6416796e-03
  1.3712930e-02
  1.1018187e+00
  1.4844495e-01
  1.4104426e+00
 -1.7494432e+00
 -4.6244848e-01
 -1.0373422e+00
  1.8419275e-01
  3.8374487e-02
 -2.2720879e-01
  2.8323463e-01
 -6.3913792e-02
 -8.8115990e-01
  5.1367533e-01
 -1.2115414e-01
  1.8564245e+00
  4.7109459e-02
 -1.0301256e+00
 -2.4111380e-01
 -8.2927030e-01
  2.5614411e-01
 -3.8243011e-01
  2.5818176e-03
 -1.3298586e-01
 -1.3578901e-01
 -1.2625077e-01
  1.9181803e-03
  7.2410905e-01
 -7.1803875e-02
 -5.9593904e-01
  5.7987791e-01
 -6.4164363e-02
 -4.4650778e-02
  7.0818601e-04
  5.5179930e-01
 -2.4857727e-01
 -6.2156085e-02
  3.9045289e-01
 -3.3465427e-01
  2.2257878e-02
  6.9240904e-01
  4.1874401e-02
 -4.9792457e-01
 -7.4332647e-02
  3.4614229e-01
 -4.2451970e-02
 -4.3192238e-02
  8.9858979e-01
  8.9785367e-01
 -2.7721557e-01
  1.6266778e-01
  3.0552302e-02
  1.3202158e-02
  1.6504471e-01
  2.5135967e-01
  1.1357696e-01
  1.2672499e-01
 -2.1124499e-01
 -3.3728287e-02
 -3.5464755e-01
 -1.8672602e-01
 -1.3021728e-01
 -5.7910448e-03
 -4.7101781e-01
 -1.4986481e-01
 -4.4452164e-02
  3.9055213e-02
  2.1305743e-03
  7.8287596e-01
  6.1889224e-02
 -2.1409718e-03
  8.2012899e-03
  1.9578189e-01
 -1.3504483e-02
 -5.5682370e-03
 -8.1553292e-03
  4.0536793e-03
 -3.4054045e-02
 -4.9868509e-01
 -3.0672079e-01
  2.2760559e-02
  1.2063874e-03
 -1.1313641e-02
 -1.4035919e-02
  3.2193819e-01
 -2.7489483e-03
 -7.9687399e-01
 -1.5508698e-03
  8.0094291e-03
 -6.8636936e-01
  1.7006824e-02
  2.0242916e-01
  5.9489813e-03
 -2.3098290e-02
 -1.9126642e-02
  5.2095618e-02
 -7.4303426e-02
  5.9371404e-03
  1.8988362e-03
 -2.3116150e-03
  8.1627211e-03
  4.3975227e-03
  3.1392183e-03
  1.8268451e-02
 -2.6715888e-02
 -4.3158163e-03
  3.9761759e-02
 -7.2890759e-02
 -1.2849803e-02
 -4.4553149e-02
 -4.1832621e-03
 -2.2278816e-02
  2.6265776e-02
  1.9933959e-02
  2.7956983e-02
  2.1904210e-02
  7.3941052e-03
 -3.4397495e-01
 -3.8870960e-05
 -2.2279395e-02
  1.6540976e-02
 -3.1803742e-02
  1.5765207e-02
 -1.7455589e-02
 -2.0567793e-02
  4.1761422e-03
 -1.3198980e-02
 -6.6147000e-02
 -1.6873244e-02
 -3.5241686e-02
  2.7947832e-02
  7.6144245e-03
 -8.7178557e-04
  1.4953407e-02
 -5.8595706e-03
 -2.4236865e-02
  1.2514317e-02
 -9.5804930e-03
 -3.7052654e-02
  2.5427253e-03
 -2.5368160e-02
  2.7300697e-03
  6.4611565e-03
 -1.0928630e+00
 -3.4918420e-03
 -7.3253899e-03
  5.1955029e-02
 -4.3224216e-02
  1.3810452e-02
 -3.4564562e-02
  9.9286059e-05
 -1.0786694e-02
 -1.5497930e-01
  3.3671584e-02
 -1.3895813e-02
 -7.6360265e-03
 -5.6469389e-03
 -5.4807211e-03
 -2.2658521e-02
  2.4953308e-02
 -4.5819078e-02
 -3.6124548e-01
  4.1586133e-03
  1.9758503e-01
  1.1257178e-01
 -1.7719073e+00
  1.8732610e+00
  1.9074312e+00
 -9.0487278e-01
 -7.3967373e-01
 -7.2377853e-02
 -3.5811704e-01
  1.1493793e+00
  1.0922314e+00
  1.8890357e-01
 -9.1941822e-01
 -1.5445880e+00
 -1.7290941e-01
 -1.5521611e+00
  8.3285373e-01
  2.1510870e+00
 -1.5846606e+00
 -1.0717144e+00
 -8.1292510e-02
  2.1572401e-01
  3.1730327e-01
 -3.7202373e-01
  3.4513885e-01
 -2.8398545e-02
  1.6559831e+00
  3.9049828e-01
  7.5635743e-01
  5.1576681e-03
  6.6484911e-03
 -1.4020870e-03
  3.3520401e-02
  8.1095338e-02
  1.0808725e-02
 -1.1628687e-02
  1.9388760e-02
 -8.7888830e-04
  1.8157277e-02
  2.7353002e-03
  1.0085530e-02
  7.3229820e-02
  9.5436564e-03
  1.1448513e-02
 -6.1470136e-02
 -1.4949905e-03
  3.4704056e-01
 -7.8325167e-02
 -9.8930888e-02
  6.7556724e-03
  6.2353676e-03
  1.8080677e-01
 -8.4395632e-03
 -8.6516821e-01
  1.7004597e-03
  3.9765327e-03
  3.3301622e-02
 -7.6232597e-02
  8.7433616e-03
  8.6769438e-04
  2.4386866e-02
  2.9767862e-02
 -2.5031262e-03
  3.1709135e-01
  4.4505391e-01
  8.6020929e-01
  5.3884000e-01
 -2.1814992e+00
 -7.1142638e-01
  8.7012511e-01
 -7.1394181e-01
  1.9162369e-01
 -1.5842877e-01
  5.5876928e-03
  2.0534234e+00
  1.7734137e+00
 -4.3123615e-01
  1.6461736e-01
  3.7158784e-01
 -2.7539641e-02
 -8.6268538e-01
  1.4268644e-01
  1.0377892e+00
 -1.6085893e+00
  3.0357704e-01
  9.4806421e-01
  1.0562732e+00
 -1.8466612e-03
  1.3922247e-03
  1.6267195e-02
 -8.1650811e-01
 -2.9798532e-01
  1.0167670e-02
  5.5365236e-03
 -1.9271710e+00
  1.6551141e-01
 -4.9024549e-01
  1.6609073e+00
  1.6129184e-01
 -5.9372151e-01
  7.2659552e-01
  7.3108667e-01
 -1.3205907e-03
 -7.1952808e-01
 -2.4857628e-01
  1.2359926e+00
  2.3533736e-01
  3.2084715e-01
  1.4472984e-01
 -3.1757864e-01
 -2.9245338e-01
  6.7148101e-01
 -3.5091761e-01
  3.2664659e+00
  1.7351454e-01
 -5.4157400e-01
  1.7516295e+00
  1.6338755e+00
  1.2875441e-01
  1.6059160e-02
  1.4065210e+00
  2.0742989e-03
 -5.1872742e-01
 -5.6653303e-01
 -1.7895499e-03
  3.8485152e-01
 -2.7066352e-02
  1.6482748e-01
 -2.1598688e-03
  2.5065772e-02
 -7.0214211e-03
  2.7988872e-02
 -1.8701502e-03
 -1.5222570e-02
  1.0625901e-02
 -4.0802643e-02
 -2.0490121e-02
 -7.0700618e-03
 -7.2533959e-03
  1.5853769e-04
  6.0972725e-03
 -5.3718947e-03
  1.6949925e+00
 -1.5728196e-02
  1.8211356e-01
  1.2757506e-02
  7.9691003e-04
  2.8657338e-02
  5.3133043e-03
  3.8060320e-03
 -4.5492616e-03
 -9.0665491e-03
 -1.9559623e-03
 -9.1914348e-03
 -5.9944419e-03
 -4.9642891e-02
 -1.6550550e-02
 -1.9973188e-03
 -5.9621488e-03
 -1.8838292e-02
 -9.0018142e-04
  4.5409012e-03
 -8.9128166e-03
 -6.1174976e-03
 -1.5744405e-02
  1.8494625e-03
  7.7941669e-03
  2.1286355e-02
  2.7558282e-03
 -2.1556709e-02
  7.8508575e-03
  1.1100153e-02
  7.7728909e-03
 -1.3208683e-02
 -8.5874405e-03
  1.4380793e-02
  1.9746920e-02
 -1.0897283e-01
 -1.7708084e-02
  2.2480853e-03
  4.5425654e-03
  2.0069500e-02
  3.8297594e-02
  4.8721512e-04
  4.1678522e-02
 -1.4037652e-02
 -2.6163826e-04
 -2.0097863e-02
 -3.5034534e-02
 -1.0266649e-02
 -9.3896538e-03
 -2.6585933e-02
  2.5130158e-02
 -6.8980707e-03
 -5.1049519e-02
  8.6088935e-03
 -2.6647717e-02
 -2.5038642e-04
 -4.0912004e-03
  1.7907225e-02
 -8.4249742e-02
  1.0237882e-03
  2.8792964e-03
 -1.1076761e-03
  7.3545411e-02
  1.6402040e-02
 -2.2025104e-03
 -1.6886640e-02
  1.7824134e-02
  5.1089139e-03
  3.9598737e-03
  3.0377753e-02
 -2.8040113e-02
 -2.1564623e-03
  4.4275271e-03
  5.7865474e-02
 -3.9338302e-03
 -6.6903606e-03
 -2.2722157e-02
 -6.2082693e-02
 -1.0011774e-02
 -3.0747012e-03
 -1.5060587e-01
  1.5716204e-01
  1.2614015e-01
 -9.3551975e-01
  1.1348789e+00
 -3.1995006e+00
  2.8420788e-01
 -5.1082168e-02
 -1.7600801e-02
  1.6221254e-01
  2.0310075e+00
 -5.5677354e-02
 -8.4706277e-01
 -6.3888379e-04
  2.4392273e-01
  2.4280331e-01
 -7.7367032e-01
  4.1472636e-02
  1.7402180e+00
  7.6525852e-02
  8.1020647e-01
 -2.2029379e-01
 -7.2880745e-01
  1.2868579e-01
 -2.4164441e-01
  2.8131409e+00
 -5.2213287e-01
  7.9351485e-02
 -2.8158823e-01
 -3.6212301e-01
  1.2518339e-02
  8.6614609e-02
  1.1430744e+00
 -1.4011360e+00
  3.9021429e-01
  1.5290369e-01
  1.4840911e-01
  1.0174584e+00
 -1.7134126e+00
  4.2664281e-01
  2.2225972e-02
 -2.3460442e-02
 -2.4482143e+00
  1.5668319e+00
  2.5594397e+00
  2.0983729e-01
 -2.1193013e-01
 -2.0638332e+00
  1.2793594e-02
 -5.2811027e-01
  1.1762080e+00
 -1.1777759e-01
 -1.3508372e+00
 -7.0752464e-02
 -1.4307890e+00
  2.0153752e-01
  1.7530195e+00
 -2.4323864e+00
  1.7451603e+00
  8.6377436e-01
  1.3068117e+00
  1.4982584e-01
 -6.1101280e-05
  5.3147680e-01
 -4.0229852e-04
  1.8756896e-02
 -2.7394706e-02
  2.0437133e-02
  4.1858457e-02
 -2.0776497e-02
 -1.2910826e-02
  1.1279389e-02
 -4.3641564e-02
  6.1027850e-03
 -3.2100976e-02
  1.8492568e-02
 -7.5838570e-03
  3.7613146e-02
  3.4936226e-03
 -1.9993950e-03
 -3.9282762e-03
  1.8239863e-02
  6.8439113e-04
  5.4746312e-03
  1.1042982e-02
 -1.1160318e-02
  2.4674863e-03
  3.0311344e-03
 -3.0162977e-03
 -4.6366066e-02
  3.7612710e-03
  1.3226367e-03
 -1.0656466e-02
  4.2444911e-02
 -8.5371798e-03
 -2.1200353e-02
 -1.4478480e-02
  7.3005944e-02
 -6.2940136e-02
  1.1736259e-02
  1.2008404e+00
  2.0096321e-01
  7.7975439e-03
 -5.2825455e-02
  2.1751449e-03
  5.2814586e-03
  5.4365624e-04
 -4.8090242e-02
  1.7140314e-02
  1.4093224e-02
 -1.1138484e-02
  7.1565402e-01
 -2.0892078e-03
  3.2971285e-02
  1.0529259e-02
  2.9315254e-02
  4.5149729e-02
 -4.3938011e-02
  1.5274238e-02
  9.6004985e-02
 -3.8066669e-03
 -1.2788620e-02
 -2.2295263e-02
 -4.8784199e-03
 -2.1610107e-02
  1.4943580e-02
 -1.7729269e-02
 -3.5474833e-02
 -1.9296373e+00
 -6.8500149e-01
  1.6073108e+00
 -8.5347947e-03
 -2.3544166e+00
 -7.7005529e-01
 -4.4281344e+00
 -7.9705743e-03
  1.0316900e-01
  3.8302027e-02
 -3.1710900e-03
 -1.1900202e+00
  1.0381088e-02
 -2.4480531e+00
  1.3275639e+00
  1.1502512e+00
 -1.2257705e+00
  4.8461410e-01
 -1.9614032e-01
  3.2033299e-03
  5.9355766e-01
 -2.5122826e+00
  2.5937733e-01
 -1.3007659e+00
  2.5557756e-01
  1.8700823e+00
 -6.4887159e-02
  1.1292520e-02
  6.8505108e-01
  3.5284575e-02
 -6.8549758e-01
 -6.3126832e-02
  2.3044167e-02
  6.3130166e-03
  1.4941495e-02
  1.0718322e-02
 -5.0374873e-02
  1.6923225e-03
  2.9505882e-03
 -1.1294552e-02
  1.7401000e-02
 -3.8197369e-03
 -1.2237959e-02
 -6.9735753e-03
 -7.4032126e-03
  3.7423633e-02
  1.4286364e-02
  2.9590352e-02
 -7.1673952e-03
  5.0374167e-03
 -4.3812789e-02
  6.3330526e-03
  5.7132486e-02
  1.9713592e-02
 -3.7030193e-03
  1.4093131e-02
  1.9472292e-02
 -1.9616657e-04
 -2.5009888e-03
 -1.2598512e-02
  5.1699113e-05
  6.7179568e-02
  8.2695019e-03
 -7.7924170e-02
 -1.2412249e+00
 -9.4143021e-01
  5.7718486e-01
  2.2094491e+00
 -7.1847863e-02
  2.3469987e+00
  3.3078384e+00
 -2.4946365e-01
 -3.7174638e-02
  2.3332831e-02
 -7.5106777e-02
  1.5786705e+00
  8.8419460e-02
  5.6072950e-01
  1.6840359e-02
  8.7757456e-01
  1.3055170e+00
 -1.2058038e-01
 -1.3810242e+00
 -1.9034837e-01
 -2.2884258e-03
 -6.2655318e-01
 -4.8403941e-02
 -4.3731105e-02
 -1.0763937e+00
 -6.7512149e-01
 -2.6707495e-02
 -3.1400472e-01
 -2.3778627e-02
  5.2895263e-02
  1.3329824e-02
 -4.1177785e-01
  1.1531043e-02
 -2.7420148e-01
  1.1173115e-01
  3.3815730e-01
  4.3567786e-01
 -2.5104808e-02
  3.9886944e-03
  3.9689699e-03
 -1.1834663e-02
 -1.4298594e-02
  2.5970521e-05
  3.8039892e-03
  6.9968663e-02
 -4.6389561e-02
 -6.5179770e-03
 -3.7876960e-02
 -1.2077945e-02
 -6.1624125e-02
 -5.1279135e-02
  4.2925500e-03
 -5.6137480e-03
  2.5745599e-02
 -1.3754963e-02
 -1.6447088e-01
  1.8127933e-02
  5.8117218e-02
  1.7964626e-03
 -4.7540744e-03
  1.1686637e-01
  7.6790727e-03
  6.9762859e-04
 -4.1074227e-03
  7.6430999e-02
  1.8565793e-02
  3.8722102e-03
  5.6726027e-02
 -8.5198153e-03
  8.4450906e-03
  2.0063235e-03
 -1.6669035e-03
  1.3881331e-02
 -6.5176850e-03
 -3.4744169e-03
 -1.1514558e-02
  8.7358048e-03
 -1.6227685e-02
  4.1531026e-03
  3.3310693e-02
 -2.9027478e-03
  3.5973482e-02
 -1.4254835e-02
 -1.4122451e-02
 -8.9745084e-03
  1.3489468e-02
  3.9567541e-02
  9.1151744e-03
  8.9442963e-03
 -9.3778465e-03
  5.4406930e-02
  4.9200840e-03
 -4.0592801e-02
  1.3771892e-02
  4.8115510e-02
 -1.7938958e-02
 -9.0000043e-03
  6.4125754e-02
  4.6618643e-01
  3.1097746e-03
  2.3053149e-03
 -4.3705367e-02
 -2.9326484e-02
 -3.3477987e-03
 -5.7162009e-02
  2.4001466e-03
 -3.5335217e-02
 -2.2590945e-02
  3.5836328e-02
  2.0218054e-02
 -8.4069772e-03
 -7.1803743e-01
 -1.3474660e-03
 -6.7825159e-03
 -6.0358256e-02
  5.3172116e-03
 -3.3512533e-02
  7.9019353e-02
  1.7414708e-02
 -7.8942992e-02
 -9.2722904e-03
  2.8148673e-02
  1.0011266e-02
  2.9207714e-02
  1.3447189e-02
  1.5694786e-02
  5.0275367e-02
  3.7577651e-02
 -2.9996641e-02
  4.7077876e-02
 -7.9111578e-03
 -1.6025983e-02
  1.9105231e-02
 -4.1125886e-02
  1.4815902e-02
  3.0528069e-02
 -8.1516961e-03
 -1.9381948e-02
  4.4908956e-02
 -1.5281609e-03
  2.2780776e-02
  3.0657358e-03
  1.2671739e-02
  3.8538449e-02
  2.8902896e-02
  2.7141416e-02
  6.1913324e-03
  2.3992760e-02
 -3.0398645e-02
 -2.7528265e-02
  2.9574420e-02
  8.0336258e-03
  1.4971361e-02
 -1.8202041e-03
 -1.3739498e-02
 -2.1337688e-03
  1.9402890e-02
  5.2133083e-02
  1.7829821e-02
  2.7586706e-03
  1.4781285e-02
  2.1056395e-03
  5.9986021e-03
  1.6382771e-02
 -1.0297948e-02
 -1.0561896e-02
 -5.7865310e-02
  1.4616360e-02
  1.1360631e-02
 -2.9351488e-02
  5.1277941e-03
 -1.5548907e-02
 -1.9481681e-02
 -2.9341444e-01
 -1.4034429e-02
 -3.3014254e-03
  4.1419812e-02
  1.5964000e-02
 -5.2472493e-03
  6.9103809e-03
 -1.8425079e-02
 -5.0997894e-02
  2.2882884e-02
 -2.1097133e-02
 -2.2605147e-02
 -2.2093861e-03
  6.2066562e-02
  2.9501844e-02
 -6.0854910e-04
  5.3475015e-03
 -1.0740053e-02
  1.5705405e-02
  5.2028146e-02
  1.8810317e-02
 -7.0136082e-01
 -9.5505424e-02
 -1.8833755e-02
 -2.0871569e-01
  6.2213033e-01
 -9.4665244e-02
  3.8855968e-03
  1.2018385e-01
  9.1877115e-01
 -5.7059922e-03
  1.1886019e-02
  6.1164534e-01
  1.0472815e-02
  5.3051283e-04
  6.9265503e-01
 -1.7063405e-01
  1.7910832e+00
 -5.9416201e-03
  1.7102605e-01
 -5.5316356e-03
  3.6434770e-01
  3.5815084e-01
  5.6139049e-03
 -1.4121045e-01
  9.9379346e-03
 -2.2085458e-02
 -2.6230019e-02
  5.1236060e-03
 -2.8002184e-02
 -2.4607023e-03
 -9.0983644e-02
 -7.4886405e-03
  1.4624436e-02
 -3.2454945e-02
  4.4125244e-03
 -2.9393610e-02
  7.9607144e-03
  2.7557842e-02
  1.8735778e-02
 -1.2732134e-02
  5.2895229e-02
 -1.0751827e-02
  2.1283044e-03
 -2.9475922e-03
  3.9075393e-02
  1.1558797e-01
  3.1177101e-03
  1.2566677e-03
  4.5477931e-04
  1.1586000e-02
 -6.8614744e-03
 -4.0795282e-03
  5.7707923e-03
  3.6114985e-03
  1.5011067e-02
 -1.3195353e-02
 -2.6168672e-02
  1.5225116e-03
  1.1735544e-02
  1.9470040e-02
 -1.9886877e-02
 -5.1078941e-03
 -1.0747941e+00
 -4.4243971e-01
  1.0584067e-01
  7.2457962e-02
 -3.9034873e-01
 -1.1979780e+00
  3.2829168e-01
  1.7775475e+00
 -2.0796278e+00
  5.8624655e-01
 -1.3329756e-02
  6.2538803e-01
  6.4746714e-01
 -2.7897710e-01
 -7.8414816e-01
 -1.5821799e+00
  1.3911611e+00
 -1.4949352e+00
  1.6879814e+00
 -2.5012836e+00
 -2.5410540e-03
 -1.7719333e+00
  9.7345060e-01
  4.2300931e-01
  8.7561643e-01
  3.5679033e-01
  4.5526397e-01
 -2.9617807e-02
 -1.1129498e-01
  2.6520595e-01
  1.1274275e+00
  1.3900505e+00
 -6.9023144e-01
  1.8358327e-01
  4.3283558e-01
 -5.9448397e-01
  1.0775012e+00
 -1.7806826e+00
 -1.4668666e+00
 -5.4116023e-01
 -1.2824064e+00
 -3.3282733e-01
 -2.6126054e-01
  1.9374773e-01
  2.7736464e+00
 -4.2283821e-01
 -1.2324400e-01
 -2.0613129e+00
  3.7144372e+00
  2.3149562e+00
  2.1935031e+00
 -2.3081381e+00
 -1.9242585e+00
 -1.2930094e+00
 -5.7277119e-01
  1.3622609e+00
  4.0294236e-01
 -3.3414380e-03
 -4.1871214e-01
  1.2131782e-02
  3.0729294e+00
  8.4464288e-01
  8.1675127e-03
  2.1450044e-01
  2.5216740e-02
 -2.1629417e-02
 -1.1083420e-03
  5.4654207e-02
  2.5012897e-02
  1.4185108e-02
  1.7976802e-02
 -9.3125049e-03
 -1.9602133e-03
 -1.1054654e-02
 -4.4421215e-02
 -2.1620022e-02
  1.6879147e-02
 -6.5599014e-03
 -5.6618964e-03
 -2.2200076e-03
  6.6060615e-03
 -4.1233353e-02
  8.6995075e-03
 -1.6395709e-02
 -4.6682730e-03
  1.0374107e-03
 -2.0912126e-02
  3.3073492e-02
  5.7180822e-03
 -1.0773391e-03
  6.3523776e-03
  1.3521727e-02
  3.3610736e-03
  7.4935369e-03
  1.1546803e-02
 -1.6225591e-02
 -3.1095050e-02
 -9.5746195e-01
  1.3699874e+00
 -1.5098295e+00
 -3.0182758e-01
  4.6535647e-01
  1.0761689e+00
  5.8716051e-02
 -7.2566766e-01
 -1.9053558e-02
 -5.9817314e-01
  2.9800558e-01
  1.0036197e-01
 -1.6681966e+00
 -4.2796545e-02
 -5.3359014e-03
 -1.8325871e-02
 -3.2184407e-01
  1.2632315e-01
 -6.9705737e-01
 -1.1431552e-01
 -1.1040401e+00
  2.6982415e-01
 -1.8955718e-01
 -3.0816332e-01
  7.6701514e-02
  2.0846848e-01
  7.0796072e-01
  1.1166019e-01
  1.9859338e-02
 -1.8840154e-01
  2.7752897e-02
 -3.7905935e-03
  4.1002214e-02
  2.4437319e-02
 -1.9715935e-02
 -4.7996216e-03
  1.2009853e-02
 -1.6797028e-02
 -5.6194644e-02
  3.5428796e-03
 -2.8751165e-02
  3.1988069e-02
 -1.2039673e-02
 -2.3745187e-02
  1.6538907e-02
 -5.9588011e-03
 -2.3417367e-02
  5.8736359e-03
 -3.2915767e-02
  3.0571786e-03
 -1.5879359e-02
 -3.7604808e-03
 -7.3568458e-03
 -2.7754884e-03
 -1.7216042e-02
 -2.0968124e-02
 -2.0833421e-02
 -2.8283510e-03
 -2.2072965e-02
 -2.5373187e-03
  3.4682896e-02
  2.0884251e-02
  2.6539441e-02
 -1.3105268e+00
  3.7692316e-02
  3.0050302e-01
  2.0907466e+00
 -1.0696783e+00
 -8.5326368e-01
  1.6947169e+00
 -2.8625288e-04
 -7.2024502e-02
  2.6808840e-01
 -3.8965878e-01
  1.5323989e-01
 -1.4125039e-01
 -2.3545323e-02
  3.2584636e+00
 -1.2340580e+00
 -4.5710826e-01
 -8.6468142e-01
  1.2382346e-01
  8.7181634e-01
 -3.1756267e-02
 -8.4507918e-01
 -1.0359697e+00
 -8.6255038e-01
  2.1867030e+00
 -4.3604091e-02
 -1.2997848e-01
  2.7612564e-01
  7.9040460e-02
 -3.0618351e-02
 -4.2057307e-03
  1.9919345e-02
 -6.6344321e-01
 -6.1087594e-03
 -6.1167729e-01
  1.7734882e-01
 -2.5333345e-03
  1.2445326e-01
 -6.2482470e-01
 -3.9879495e-01
  7.2279835e-01
  5.7794446e-01
  1.0491501e+00
  2.4424281e+00
  6.0939718e-02
 -9.7797140e-03
 -1.7366391e-01
  2.2778826e+00
 -1.3416860e+00
 -8.0319357e-01
 -5.7981998e-01
 -9.8994356e-01
  4.9975133e-01
  7.4691230e-01
  3.2405031e-01
 -5.8674109e-01
 -1.9818920e-01
 -2.3835801e-01
 -6.3154984e-01
 -4.1962150e-01
  5.0912452e-01
  4.8572773e-01
 -1.7804096e-02
 -2.0816702e-01
  3.0448258e-01
  5.5990684e-01
  6.6196537e-01
  2.1739694e-01
 -8.8922763e-01
  1.0109401e+00
  3.1851809e-02
  4.4985843e-01
  5.6468320e-01
  7.3120841e-03
 -1.9913900e+00
  7.3333842e-01
 -3.7154257e-01
  6.4000261e-01
  9.8717523e-01
 -2.9576290e+00
  1.3794603e+00
 -1.5980253e+00
 -1.2285546e-01
  2.0485580e+00
 -1.6773167e+00
  1.8950690e-02
 -1.9183093e+00
  1.9091280e-01
  7.2366513e-02
 -2.1740577e+00
  9.6004230e-01
 -3.3952087e-01
 -1.5368649e+00
  1.4237725e-02
 -1.6553963e+00
 -2.8122850e-02
  6.8926580e-02
  5.0851041e-01
 -7.8412592e-01
 -1.2063524e+00
  1.5071954e+00
 -1.6154619e+00
  4.6035960e-01
 -3.1096488e-01
  1.4302188e+00
 -7.6075685e-01
  8.0950148e-02
 -6.7023993e-03
 -2.4897128e-02
 -1.4778316e+00
  5.0407702e-01
 -1.4662279e+00
 -2.3865888e-01
  1.6654826e+00
 -1.8506864e+00
 -1.6809331e-02
  6.4728148e-02
  5.9434104e-01
  1.8898849e-01
  2.0978399e-01
 -2.0499994e-01
  1.2872829e-01
 -6.9117379e-01
  1.4111219e-01
 -2.8198380e+00
 -1.9845711e-01
 -1.8218602e-01
 -5.2011949e-03
  2.7901463e-03
 -6.1621699e-03
  1.5234111e-02
  1.3435096e-02
 -2.0211593e-04
 -8.9744310e-04
  4.6915922e-01
  2.1870973e-02
  2.6777061e-02
 -3.7645392e-02
  3.6740217e-02
 -5.5868421e-02
 -9.3575064e-03
 -6.5689307e-04
 -6.1966716e-03
  7.5480100e-03
  6.0795606e-03
 -1.4182372e-02
  4.9400460e-03
 -5.4065611e-02
 -1.9518649e-02
  4.8552610e-02
 -5.6792743e-04
  4.4951726e-02
  1.7612951e-02
  4.0256353e-03
  9.0733794e-03
  6.5119015e-03
 -1.5106531e-03
  4.5887805e-03
 -2.7001645e-02
 -4.0384745e-03
  1.5779659e+00
 -1.3159755e+00
  7.0168898e-02
  3.1171447e-01
  3.1031376e-02
  1.1367017e+00
  5.3410444e-02
  3.4084347e-01
 -7.8892656e-02
  3.3482593e-01
 -9.9846169e-02
 -1.1071771e-01
  6.8921916e-02
  1.0996581e+00
 -1.1828203e-01
  3.3180369e-03
  1.8252446e-01
  8.1007019e-02
  2.0060773e+00
  3.1342993e-03
  1.7223315e-02
 -8.1354253e-02
 -4.1943541e-01
 -2.6778704e-01
  4.4284040e-01
 -7.0036441e-02
 -1.4902128e-02
 -2.7001604e-02
  1.1346255e-01
  1.4858412e+00
  2.2286407e-04
 -8.0523193e-03
  3.3503245e-03
 -7.4085943e-02
  2.4176958e-04
 -1.1421050e-01
 -1.6749544e-02
  1.0124084e-03
  1.5844082e-02
  1.5445787e-03
 -3.0891854e-02
 -9.8402863e-03
 -2.8121227e-04
 -5.0772410e-03
  4.8022480e-03
  6.2656146e-01
  9.5532462e-03
  5.0992018e-01
  1.6032711e-02
  1.1591448e-02
  9.8792119e-03
 -4.2462867e-02
  2.5820620e-02
  4.5306500e-02
 -1.7675918e-02
  3.7378993e-02
 -8.3980523e-03
  1.9396657e-02
  2.5231065e-03
 -4.4615395e-02
  1.2398587e-02
  1.6645446e-02
  6.6320184e-03
  6.6696785e-02
  3.7970688e-02
 -3.2669008e-02
 -5.7262396e-03
 -2.2603013e-04
  3.2120891e-02
 -2.0989787e-02
  3.5483665e-03
 -8.9047663e-03
  8.3123893e-03
 -4.0011927e-03
  1.4684238e-03
  5.1799454e-03
  2.2063356e-02
 -3.3223687e-04
  1.7324525e-03
  1.3915930e-02
 -7.3211389e-03
 -8.3324872e-03
 -2.8925969e-03
 -1.2755417e-02
 -6.4198659e-03
 -1.7022610e-03
  1.2461653e-02
 -1.3903453e-02
 -6.8777036e-03
  3.2627061e-02
  2.1354458e-03
  1.7570031e-03
 -3.0975033e-02
  7.5140549e-03
 -2.3210667e-02
 -3.6204925e-03
  2.3619504e-01
  2.5841856e-01
  1.2037297e+00
  1.8855132e-01
 -2.4094747e-01
 -6.4306647e-01
  1.4229338e-01
  4.7667331e-01
  1.0201199e+00
  1.0461897e+00
  1.0545402e-01
  1.0749481e+00
 -1.4667660e-01
  2.2863675e-02
  5.0437558e-01
 -6.6067737e-01
 -1.6169380e-01
  2.5487018e-01
  1.0794452e+00
  1.2005777e+00
 -5.2761301e-02
 -1.0985088e-01
  1.1946009e-01
  5.0084281e-01
 -3.3416204e-02
 -6.5654814e-01
  4.6469381e-01
 -6.5744836e-03
  6.4097792e-01
  1.7488813e-02
  8.7093739e-03
 -1.9421887e-02
  2.2126643e-02
  4.5701556e-02
 -1.5277680e-02
  1.9209614e-02
  7.6162009e-03
 -2.2570379e-02
  7.6969485e-03
  2.4503790e-02
  9.0848990e-03
  2.2391265e-03
  5.3256815e-03
 -6.7739328e-03
  4.3419875e-02
 -1.5762344e-02
 -4.6364471e-02
 -3.5115634e-03
  4.3626577e-03
 -6.9065900e-03
  9.0927975e-03
  2.1510730e-02
 -1.7856323e-03
  2.1675467e-02
 -3.0442528e-02
  5.6793601e-03
 -5.8779041e-03
  1.0858113e-02
  1.0496658e-02
  7.4297111e-03
  7.4813232e-02
 -3.0829916e-02
  3.7954256e-02
 -2.2822827e-02
 -2.2181384e-03
 -2.4590367e-02
  4.5134384e-02
 -1.6370215e-02
 -1.5320918e-02
 -1.1535469e-03
  1.4598105e-02
  1.1933593e-03
 -6.9586858e-03
 -1.1170644e-02
  2.8903195e-01
 -2.1551268e-02
 -2.1724178e-02
  1.2208114e-02
 -9.6896831e-03
 -2.5778266e-02
 -3.6874784e-03
  3.7923556e-02
 -6.8842713e-04
  4.8477445e-02
 -3.1715062e-02
  6.3293404e-04
  1.1737543e-02
 -8.3131110e-03
 -3.5363708e-03
 -1.2394883e-02
  2.4628595e-03
  3.3812691e-03
 -1.0468521e-02
 -2.2456050e-01
  1.1165227e-02
 -1.8875342e-02
 -1.4789791e-01
  6.9794148e-02
 -1.5237592e-01
  5.5077857e-01
 -1.2976520e+00
  1.2405541e+00
 -2.3782532e-01
  8.2240410e-02
 -1.2764952e-01
  2.4098570e-02
  8.7772888e-01
 -3.8358194e-01
 -8.4970349e-01
 -4.1039637e-01
  4.7793719e-01
  1.1794429e+00
 -6.3891685e-01
 -9.1515845e-01
 -7.1039993e-01
  2.3524952e+00
  3.2652232e-01
 -1.7659733e-02
  7.1708494e-01
 -2.3929746e-01
  5.2592862e-01
  1.7279135e+00
  3.0978182e-01
 -1.6789557e+00
 -8.9052749e-01
 -7.6005477e-01
 -1.1135831e-02
  1.1860611e-01
 -5.1138371e-02
 -3.8508978e-02
  1.5845937e-01
  7.8322865e-02
  2.6074583e-02
  6.6310972e-01
 -6.6242099e-02
 -2.7908137e-02
  7.4854973e-03
  7.3057435e-02
 -8.1303306e-03
  2.6820628e-03
  9.8921135e-03
  3.5915464e-02
 -1.9572746e-02
  8.1025943e-02
  5.0988920e-02
 -1.0917106e-02
 -3.3436272e-02
  6.2165535e-03
 -6.6616923e-02
 -1.7918313e-02
  2.3522843e-03
 -6.4599916e-02
  1.2480851e-03
  4.7472697e-03
  2.7667946e-01
  1.9317370e-02
 -5.0850632e-03
 -1.3913185e-02
  2.2676270e-02
  2.1354912e-02
 -8.4827209e-01
 -6.8177545e-01
  1.1275170e+00
  1.0494603e+00
 -2.8023380e-01
 -4.8540860e-01
 -1.8904866e+00
 -2.3647797e-01
 -4.7442919e-01
  2.5967377e-01
 -1.3203920e+00
  9.8118126e-02
 -8.7997168e-01
  2.9572053e+00
  1.4456649e+00
 -5.8807510e-01
 -2.6283428e-01
 -8.4368610e-01
 -2.0159651e-01
  2.1190257e+00
 -8.5255319e-01
 -2.1517064e-01
 -3.8357040e-01
 -2.9587901e-01
  1.1369229e-01
  5.4007629e-03
 -1.1470078e+00
  2.5374058e-01
  6.8982530e-01
 -9.9314623e-02
  4.4139374e-02
  8.6151026e-02
 -2.3467923e-02
 -3.8185325e-02
 -1.4369803e-02
  1.4157658e-02
 -6.0790027e-03
 -1.1079606e+00
 -3.6586657e-02
 -4.5142788e-03
  3.9182384e-03
  5.1433444e-03
  3.6596637e-03
 -3.8061585e-02
 -1.5252077e-02
 -2.5640957e-03
  1.3131862e-02
 -1.5744690e-02
  5.1665371e-03
  2.9543261e-03
  1.5120566e-03
  1.1175743e-02
  7.3223971e-03
  3.9673354e-03
  1.0948922e-02
  1.2059744e-02
 -2.1158073e-02
  9.1763074e-03
 -3.7245542e-02
 -2.3807799e-02
  1.6782747e-04
 -2.3688570e-02
  1.4672417e-02
  3.0795997e-02
 -4.5233750e-01
 -5.8568698e-01
  9.9331319e-01
 -1.8051416e-01
  5.2712303e-01
  1.6896082e-01
 -1.4123345e-02
  5.9593284e-01
  1.6428587e+00
  9.9839771e-01
 -7.0839339e-01
  5.9927422e-01
  9.7643308e-02
  5.8809233e-01
 -2.5752270e-01
  4.2489729e+00
 -1.9422448e+00
 -5.1135576e-01
  1.1130307e+00
 -4.4969922e-01
  1.8064665e+00
  7.2311771e-01
  1.3745894e+00
 -5.8422811e-02
  2.3369844e+00
 -8.2070231e-01
  1.5107220e-01
  5.3584110e-02
 -1.5246392e+00
 -2.2732787e-02
 -5.5153722e-01
  2.0965513e-02
 -3.4005088e-03
  3.2704617e-03
 -2.6389733e-02
 -8.4597897e-03
  1.7681943e-03
  5.7063621e-02
  1.0519267e-02
  1.6097002e-02
  1.9264542e-02
 -2.8788620e-03
 -8.9573994e-02
  2.5203656e-02
 -6.8462430e-03
  1.4466133e-02
 -2.1905417e-02
  2.6757805e-02
 -2.7912774e-03
  1.1464874e-02
  3.8918757e-01
  6.5379543e-03
 -3.4576140e-03
 -4.4932924e-03
 -2.5158969e-03
 -1.1719118e-02
 -1.0068969e-02
  7.6259910e-03
  6.4473595e-03
  3.1082761e-03
 -3.3449635e-02
  8.6845122e-03
 -3.3898246e-02
 -2.4025833e-02
 -4.4869164e-01
 -5.7078522e-01
 -4.9252834e-02
 -6.2374894e-02
 -4.1430807e-01
  4.6740165e-01
  2.8645031e+00
  2.0700727e-01
 -9.5856287e-02
 -3.7551904e-01
  5.0383955e-03
  4.9960902e-01
 -1.4280854e-02
  1.8048508e-03
 -1.1826821e-02
  4.1705880e-02
  4.5245084e-01
  4.4677932e-02
 -9.6815008e-01
  1.6627362e-02
 -4.0915072e-02
  1.1215793e-01
 -1.3114193e-01
 -2.1805379e-01
  1.4974265e-02
  6.2275358e-04
 -1.0301352e+00
 -6.4426451e-03
 -4.9823686e-03
  1.0055988e-02
  7.1867116e-02
 -1.9346112e-02
  4.6406342e-03
  1.4574535e-04
 -4.8924077e-02
 -3.3172857e-02
 -3.3032794e-03
  8.7868296e-02
  2.0685630e-02
  2.1586809e-01
  1.9033518e-02
 -1.5374267e-02
  2.2738496e-02
  8.2320431e-03
  1.8542783e-02
  5.6063760e-02
 -6.4376302e-02
  2.7684405e-02
 -2.4816971e-02
 -2.4801125e-01
  1.1369892e-02
  2.2167027e-02
 -4.7490802e-03
 -1.2808371e-02
 -4.0476896e-02
 -2.0637354e-03
  9.9511500e-03
  1.7342478e-02
  9.9954093e-03
  3.4179069e-02
 -1.9564373e-02
  2.4043301e-02
  6.6380082e-03
  1.7420398e-02
 -1.0163364e+00
 -1.8807077e-01
  9.0302214e-02
  8.2745165e-01
 -6.6175818e-01
  1.6560248e+00
  9.5114775e-02
 -9.3313586e-03
 -5.0937265e-01
  7.7915758e-02
  4.5349959e-01
 -7.6620221e-01
 -9.7824174e-01
  7.3469817e-03
  8.5979140e-01
  1.4525774e+00
 -6.1268139e-01
  5.1579207e-01
  4.9830273e-01
  8.4166265e-01
  2.4942060e+00
 -6.0934609e-01
  1.3574208e-01
 -7.6025999e-01
  1.0847427e+00
  1.4335005e+00
  1.4805476e-01
  2.1287568e-02
  8.7515213e-02
 -5.5048086e-02
  2.9420084e-03
  1.0141253e-01
  1.9243644e-01
 -7.2450727e-02
 -2.1189284e+00
 -1.2119331e+00
  7.0370209e-01
  5.9361905e-01
  3.9213279e-01
  7.0975959e-01
 -2.2726250e+00
  1.2081350e-01
 -1.0175774e-01
  9.0704387e-01
  3.8042781e-01
  4.1519153e-01
  2.7742681e-01
  1.2833297e-01
 -9.4786012e-01
  8.7051547e-01
  1.3978307e+00
 -1.9449208e+00
 -1.8515579e+00
 -4.9897894e-01
 -3.3580217e-01
  9.2166901e-01
 -2.6441631e+00
  5.4444474e-01
  5.8185554e-01
  5.2236229e-01
  3.0637506e-01
 -1.6119449e-01
 -2.2458239e-01
  4.0377519e-01
  7.7927947e-01
 -1.5045900e-02
  3.4236036e-02
  2.9998410e-02
 -1.4831910e-02
 -1.8973064e-01
 -9.7192550e-01
 -7.8489882e-01
 -6.8081263e-03
  8.4274877e-03
  1.5535241e-02
  9.6256174e-03
 -1.5310172e-03
  1.1878979e+00
  8.4357839e-03
 -3.6959086e-02
 -1.7682939e-03
 -3.9167725e-02
  8.0513678e-02
 -2.7634775e-02
 -4.1109066e-02
  1.6613722e+00
 -4.7162836e-03
 -4.3320802e-01
  3.6686879e-01
  2.7725592e-02
  1.5724896e-01
  5.5161353e-02
  5.4916455e-03
 -2.5340086e-02
  1.4643103e-01
  6.9975369e-02
 -1.4799130e-03
 -6.3367127e-03
  3.1662498e-02
  6.4342227e-03
  4.6060268e-02
  1.6302273e-02
 -4.9556293e-02
 -1.0846698e-02
  2.3441063e-02
  5.1172622e-03
 -1.9414449e-02
  2.2955348e-03
 -3.2502199e-03
  2.5777319e-02
 -1.2877835e-02
 -5.6727104e-02
  1.4381328e-03
  1.6206196e-02
  7.8790367e-02
 -5.0748149e-03
 -5.5372238e-02
  2.0159822e-02
  4.3809902e-02
  9.5312921e-03
  5.5185113e-02
  2.3777425e-02
 -1.5179676e-03
 -6.6528944e-03
  2.2983970e-02
 -6.8858854e-02
  5.3136256e-03
 -7.2841090e-03
  5.5396785e-03
 -2.7205970e-02
 -1.1746125e-02
 -6.5217190e-03
  5.3379894e-03
 -3.1476545e-03
  4.6433932e-03
  4.5308962e-02
 -4.6103089e-03
 -9.5266942e-03
  4.1601837e-02
  3.1050553e-03
 -2.3013299e-02
 -4.0820022e-03
 -1.6764034e-02
  3.8879644e-02
 -1.8489189e-02
  2.4449043e-02
 -2.8924733e-02
  3.5339682e-03
  3.3962268e-02
 -4.0436820e-03
  6.0577321e-01
 -4.6120875e-02
  4.0543320e-05
 -7.2625200e-03
 -4.5319282e-02
  2.2950543e-02
 -1.0642375e-02
 -1.4986232e-02
 -1.3222535e-02
  1.1312287e-02
  4.2830722e-04
  5.7187866e-02
  2.1876000e-01
 -1.9686483e-03
  1.0511844e-03
 -8.1865452e-02
 -2.8741954e-02
  2.8237339e-02
 -6.9925942e-02
 -3.1522650e-02
  2.3200275e-02
 -1.4970835e-02
  1.5403056e-02
  5.0339982e-02
 -1.7576542e-02
 -1.6716528e+00
  2.0899922e-01
  7.7394079e-03
 -4.4593146e-01
  4.5679789e-03
 -8.6092977e-03
  1.1575139e-01
 -1.1910834e-02
 -5.0457619e-02
 -2.4626389e-02
 -4.6513472e-03
  4.4605471e-03
  4.4744741e-02
 -2.2620882e-03
  1.5159308e-02
 -2.1484710e-02
  1.6277641e-02
  5.7354361e-02
 -2.0365356e-01
  1.4365644e+00
 -1.3142371e+00
  1.2735689e-01
  1.2128534e-01
 -5.1135373e-01
 -2.9892114e-01
 -7.6333940e-01
  2.2147378e-02
  6.6218233e-01
  9.8488945e-01
  3.7467931e-04
  4.2972985e-01
 -5.9938532e-01
 -1.2658265e+00
 -9.3781841e-01
 -1.2768914e+00
 -2.2948445e-01
 -7.3692214e-01
 -4.7069681e-03
  3.0698577e-01
  1.5616517e-02
 -5.0702995e-01
 -4.2125949e-01
 -4.9400389e-02
 -6.5238619e-01
  1.2206797e-01
  7.3432654e-02
 -5.4932928e-01
  6.8174839e-02
  4.7265153e-02
 -1.1384743e+00
 -3.5550931e-01
  2.7216002e-02
 -2.4972305e-01
 -7.5877428e-01
  1.1167316e-02
  1.7762210e-02
 -5.3737424e-03
  4.6379215e-01
 -3.6943283e-02
  2.2542609e-01
  1.5527199e-01
 -1.3252986e-02
  4.7005162e-02
  3.7262492e-02
  2.3663768e-03
 -8.3949411e-01
  6.7322864e-03
 -2.7218038e-02
 -5.5062216e-02
 -7.2834897e-01
  1.7578214e-01
 -3.0831538e-02
  1.1550226e-01
 -5.9081018e-02
 -7.5344138e-02
 -1.0928169e-02
  2.2710143e-02
  9.5782029e-03
  4.2654738e-02
  6.4851515e-02
  3.4091502e-02
  6.1449867e-01
  9.4468051e-01
  1.9855652e+00
 -2.0120215e-01
  1.7985372e-02
 -1.3889688e+00
 -2.7876601e+00
  7.9774037e-03
 -1.1181819e+00
  3.5529800e-02
  1.0337250e+00
 -3.5502847e-02
  2.3066024e-01
  3.0111575e-02
 -4.8474526e-01
  9.2444010e-02
 -6.9275874e-01
 -6.3938379e-01
 -9.1415919e-02
  4.2601742e-02
  3.6579471e-02
  9.6001548e-01
  1.8611737e-02
  4.2789245e-01
 -8.1245232e-01
  4.6746887e-02
  7.2752804e-02
  2.4363233e-01
 -4.7477978e-01
 -1.0285761e-01
 -6.4330990e-03
  3.4722340e-01
  2.4954865e-02
 -1.1396229e-02
 -2.0610321e-02
 -1.0974801e-01
 -2.4141742e-02
  1.6543879e-03
 -5.5215335e-03
 -1.2155684e-02
  5.2611078e-03
  4.0850472e-02
 -3.1233389e-02
 -6.8722628e-03
 -1.6181590e-02
 -4.8319898e-03
 -3.1286601e-02
  4.2234687e-03
  7.5862445e-03
  1.9225333e-02
 -2.4196925e-02
  4.2306497e-03
 -9.3865460e-03
 -3.3026717e-03
 -4.4891778e-03
 -2.4418930e-02
 -1.4806327e-02
  1.7358053e-02
  6.6181868e-02
  3.6557755e-03
 -7.6236360e-02
 -8.3690919e-03
 -5.4821023e-03
 -6.1288807e-03
 -4.9602114e-02
 -2.8253531e-01
 -4.0937263e-01
  5.9588444e-01
  5.3543139e-01
 -3.0126212e-02
 -6.2833297e-01
  2.3412423e-03
  4.7534339e-02
 -4.1834241e-01
  2.4115193e-01
 -1.0260623e-03
 -1.5789561e-02
 -7.0606217e-02
  5.1575359e-02
 -7.5350648e-01
  7.4111566e-02
 -2.2055507e-01
 -2.6025602e-01
 -4.5325512e-01
 -3.7492940e-03
 -6.3988107e-01
  2.2214077e-02
 -5.0606471e-02
 -3.1002376e-02
 -5.5467136e-02
 -6.0506277e-03
 -8.4539950e-03
  1.2027936e-01
 -2.6844044e-03
  2.0474255e-02
  5.8692835e-02
  1.1487030e-02
  2.3662720e-02
 -1.9255912e-01
 -8.8062204e-02
  2.7988773e-02
 -1.3631728e-02
  7.8080953e-03
 -3.5063230e-02
  6.4169206e-02
  1.1391253e-02
  1.1061982e-02
  2.5592262e-02
  1.8772205e-02
 -2.4374008e-02
  1.3764419e-02
  5.3461902e-02
 -7.7672466e-03
  3.2487337e-03
  2.2080912e-01
 -3.4121823e-02
  5.8654109e-03
 -9.6157916e-02
  5.0799926e-03
  6.6150963e-02
 -1.8786086e-03
 -2.1256737e-03
 -1.4780344e-02
 -2.6152770e-03
 -6.7793176e-02
 -2.9269450e-03
  2.4811733e-03
 -8.1368731e-03
 -7.9778698e-04
 -1.7037984e-03
  2.3854466e-02
  4.2397995e-03
  2.1987483e-03
  5.4026786e-03
 -4.5495224e-03
  8.0820415e-03
 -6.3619249e-02
  3.1330036e-03
  2.7764361e-02
  1.0341855e-02
  1.4404909e-02
  1.0686882e-03
 -1.5846446e-02
  5.4923180e-02
  6.8319676e-04
  1.6015630e-02
 -1.4254631e-02
  1.2396703e-02
 -1.0849272e-03
 -1.2195146e-01
  6.7223832e-02
 -9.8174727e-03
  1.8752110e-03
 -8.0459313e-03
  1.3386396e-02
  2.8813367e-03
  1.8812180e-02
  4.4718500e-02
  8.7791570e-03
  1.1023726e-02
 -3.3785116e-02
 -1.2258831e+00
 -7.6386933e-03
 -1.3164058e-01
 -5.3861480e-02
 -9.9490955e-02
  1.3398524e-02
  2.3367738e-04
 -7.6192711e-03
  1.5288542e-01
  4.0303621e-02
 -3.4045622e-02
 -2.6060442e-02
  8.9997612e-03
 -4.2653023e-03
 -9.0634759e-04
 -2.4932014e-02
 -1.0845535e-02
  6.1964196e-01
 -4.5784596e-02
  4.9742223e-03
 -6.1128628e-02
 -2.9329225e-02
 -3.2120386e-01
  4.7727168e-02
  2.6721401e-02
  3.8235661e-01
 -2.7704637e-03
 -1.2725163e-02
 -3.0671930e-02
 -4.1903239e-02
 -4.7304966e-02
 -1.2181676e-01
 -1.0726761e+00
 -1.1055821e-01
  1.9440551e+00
  2.0667258e-01
 -1.9357138e+00
 -8.1929010e-01
 -5.0505311e-03
  8.5129544e-02
 -5.9689426e-01
 -6.6427879e-02
  5.0101850e-02
 -5.7527656e-03
 -8.7452787e-01
 -1.2804947e+00
 -4.2309290e-01
 -4.4945249e-01
 -9.5188677e-01
  1.4081409e+00
  2.3942706e-01
 -3.0210294e-02
 -1.0779536e+00
 -5.1861688e-02
  4.5043300e-03
 -1.6190869e-01
 -4.1648901e-01
 -5.3946269e-01
 -1.3409167e-02
 -7.2935126e-03
 -3.5907649e-02
 -2.8216436e-03
  6.2388286e-02
  1.5588539e-02
 -6.5482832e-03
 -4.6355329e-03
 -5.8355802e-03
  1.7021589e-02
 -1.8754482e-03
 -3.0318953e-04
 -1.6829922e-03
 -1.0616878e-03
  2.1158507e-02
 -9.2055853e-03
 -1.3994203e-02
 -2.6427088e-02
 -2.4972217e-02
  9.6337851e-03
 -7.2654136e-03
  9.6602468e-03
  6.3626245e-03
  1.3848652e-02
  4.1549873e-02
 -1.9996129e-02
 -3.1357571e-02
 -5.4973974e-03
  1.2475477e-02
  3.9566673e-02
  3.6512315e-03
  1.1385042e-03
 -4.3245968e-03
  7.9009339e-04
  2.7526623e-02
 -3.6274253e-03
 -2.5431344e-03
  8.2537705e-01
 -6.2809527e-01
 -6.8460628e-02
 -9.3719476e-01
  9.4801523e-02
  1.9310903e-02
 -1.7068489e+00
  3.3715852e-02
 -1.4413379e-01
 -5.7303274e-01
  1.9730143e-02
 -5.7402983e-02
  9.2385805e-01
 -2.6187822e-01
 -3.1750225e-02
  4.3229565e-01
  3.9323050e-01
  1.1702938e+00
 -6.4829570e-01
 -8.1995046e-01
  2.3961487e-01
  4.1672346e-01
  5.0007260e-01
 -5.5561350e-03
 -8.5034120e-01
 -1.1072532e-01
  7.9318607e-01
  9.0880077e-03
 -4.6804830e-02
  1.0612896e-01
 -1.5356885e-02
 -1.7101511e-02
  6.8723671e-02
  3.2661653e+00
  2.0230191e+00
 -1.7808200e+00
 -6.9271880e-01
  8.0337185e-01
  8.0812269e-01
 -1.0333738e-02
 -3.2379974e-02
 -1.0535250e+00
 -1.0482499e-03
  4.8493221e-02
 -2.8225379e-02
  3.9465564e-01
  5.3134713e-02
 -1.1837684e-02
  1.2319741e-01
 -3.7213725e-01
  6.4864689e-01
  9.5839687e-02
 -2.1000173e+00
  5.1288500e-02
 -6.3153917e-01
 -1.4055275e+00
  4.4494696e-02
  3.0228847e-01
  1.2604593e+00
  1.2047473e-02
  5.1539665e-01
  2.1569635e-01
  1.3687395e-02
  1.0058330e-02
 -1.4728254e-02
 -3.2882453e-03
 -2.1981116e-04
 -7.2804019e-03
  1.8676162e-02
  1.1118477e-02
  9.8694162e-03
  1.3173980e-02
 -1.2559449e-02
 -4.4600917e-03
 -1.2364550e-02
  1.1976633e-02
 -6.6737095e-03
 -1.9437680e-02
 -1.1710620e-02
 -1.9726194e-02
  3.1853247e-02
 -2.7396768e-02
  3.9257783e-02
  1.7579585e-02
  2.2438385e-02
  2.5753110e-05
  9.5321477e-04
 -3.0595932e-02
  3.9407786e-02
  7.0695449e-03
 -6.7834402e-03
  8.3130812e-03
 -1.2648587e-02
  2.5829449e-02
 -9.8685957e-03
 -2.4384817e-02
 -1.7409509e-02
 -1.9023698e-02
 -6.7297043e-03
 -1.2374647e-02
  9.2105549e-03
 -8.4990961e-03
 -9.8969946e-03
  5.4151725e-02
 -1.1321697e-02
  3.0876622e-02
 -2.6317935e-03
  8.3935010e-04
  2.3861495e-03
 -4.2880122e-03
  5.0564823e-03
 -1.4118769e-03
  9.2275431e-03
 -7.4473828e-02
  2.6197704e-02
 -1.3291635e-02
 -8.5604563e-03
 -2.7316242e-02
 -1.4977262e-04
 -3.6551200e-02
  4.2478796e-03
 -1.8857721e-03
 -1.0603214e-02
 -1.6978662e-02
  5.2244584e-03
  1.1762418e-02
  5.2754204e-03
  8.3305553e-02
  7.9211604e-04
  3.2241545e-03
 -5.9905297e-01
  1.3170375e-02
  1.9119600e-02
 -9.0444619e-03
  9.3389355e-02
  4.0127300e-02
  2.5971187e-02
  1.2325630e-01
 -2.7032797e-03
  6.7939991e-03
  2.3536501e-03
 -2.7076991e-03
  6.4768996e-03
  9.6184472e-03
 -2.2817463e-02
  1.3186972e-01
 -9.5499581e-01
 -2.1402448e-02
  7.1628265e-02
  6.3812643e-02
  4.3758908e-03
 -3.3217836e-03
  4.4560436e-02
  7.6945857e-03
 -1.2412928e-01
 -3.2290168e-02
  1.9110106e-02
  1.2284514e-01
  1.0118204e-02
 -1.1006400e-02
 -1.7435755e+00
  1.0863662e+00
 -6.2852556e-01
 -9.2648125e-01
 -6.4015794e-01
  3.3706866e-04
 -4.3612555e-01
  3.9484334e-01
  4.4966292e-01
 -7.0859337e-01
 -2.2812564e+00
  5.6079757e-01
  7.3629677e-01
  3.4455448e-01
 -4.3417144e-01
 -1.1122092e+00
 -1.9105180e-01
 -4.4919389e-01
  3.7013084e-01
  7.0441544e-01
 -6.4442754e-01
 -1.2739038e-01
 -1.6121019e-01
 -4.5787182e-01
 -6.3001448e-01
 -1.0363805e-01
 -1.1756734e+00
 -2.4670940e-02
 -1.7483449e-01
 -2.5703105e-01
  6.8036205e-01
  2.1370308e-01
  7.2653443e-01
  3.6057833e-01
  1.5583738e-02
  3.1094646e-01
 -7.6883084e-01
  3.3617622e-01
  1.9589249e-02
 -1.3401231e+00
  9.8990703e-01
  1.0049737e-01
  6.9097146e-02
  5.7457119e-01
 -1.4899800e+00
 -7.0307732e-01
  4.0823665e-01
 -4.1065699e-01
 -4.4277117e-02
  1.0463363e+00
  4.8082095e-02
 -4.1751838e-03
 -4.8234841e-01
  8.6014396e-01
 -5.8298059e-02
  1.2325083e+00
 -7.7094465e-01
  1.3275886e+00
 -2.4284942e-02
  5.9533423e-01
  7.2187483e-01
 -2.5428314e-02
  5.0102544e-01
  6.9820857e-01
  7.5377398e-03
 -6.2601127e-02
 -9.2447661e-03
 -2.7373119e-03
 -9.2986794e-03
 -1.4636229e-02
  6.9150538e-04
  4.8317581e-02
  1.5836587e-02
  8.5778348e-03
  2.4610195e-02
 -1.9352423e-03
 -2.0621687e-02
 -9.8794953e-05
 -8.1046354e-03
  3.7742306e-02
  2.6299162e-02
 -5.0215889e-03
  6.1677401e-03
 -2.4081426e-02
  2.1867326e-02
  9.7328648e-03
 -6.7586820e-03
  1.0774753e-02
 -1.0027030e-02
 -8.9262519e-04
 -3.7054043e-02
 -4.8868051e-03
  7.7606947e-03
 -2.7919963e-02
  1.3686872e-02
  5.2995346e-02
 -2.9683618e-03
  8.7594083e-03
 -1.1371675e-02
 -1.1799420e-02
  1.0764071e-02
  6.1813821e-03
  8.3409632e-03
 -1.2775509e-03
 -1.8995020e-03
  4.2019960e-02
 -6.7038820e-03
 -4.2546513e-03
  3.2301436e-03
 -9.7505562e-03
  4.8475236e-02
 -2.3534324e-02
 -1.8114598e-02
 -2.7029701e-02
 -1.6848429e-04
  3.3230577e-03
 -1.2044545e-02
 -7.8400467e-03
 -1.7684184e-02
 -4.4141751e-05
  1.7230844e-02
 -4.5259963e-03
  6.2063579e-02
  5.0010383e-03
 -5.6962078e-03
  1.1754337e-03
  7.7752848e-03
 -1.6274363e-02
 -1.0401548e-02
  4.3516088e-02
  1.9616727e-02
  5.3371525e-01
 -1.1006868e-02
 -5.8406498e-03
 -3.0020017e-02
  2.0548794e-03
 -5.1001478e-03
 -4.0500835e-03
 -7.7081523e-03
  3.7357719e-03
 -1.4648579e-02
 -2.6342155e-02
 -7.2287661e-03
  1.8492024e-02
  8.1346678e-03
  1.2003942e-03
  5.6723218e-02
 -4.0386520e-02
 -4.1008233e-03
  1.7989649e-03
 -3.2860783e-03
  1.7493838e-02
  4.6103328e-02
 -1.5846340e-03
  4.3923249e-03
  1.5398894e-03
 -1.6238634e-02
 -8.5085584e-03
  7.8027034e-03
 -1.3495265e-02
  2.7597226e-02
 -1.4249748e-02
 -7.6833335e-03
  1.9636957e-02
  3.0992792e-03
 -9.7318001e-02
 -2.7633237e-02
  1.1256578e-02
 -4.0279727e-02
 -2.6989255e-02
  1.4278691e-03
  9.5992060e-03
 -2.0322155e-02
 -3.8349479e-02
 -5.9189934e-02
 -2.9257376e-02
 -3.6426757e-02
  3.9809332e-03
 -1.0899610e-02
  3.5394371e-02
 -5.8914958e-03
 -4.8989528e-03
  1.0678966e-02
  6.8612802e-03
  2.5527549e-03
 -3.6122188e-02
  8.7313075e-03
 -4.4385223e-03
 -1.1251569e-02
 -4.2988490e-03
  2.3840775e-03
  4.4891792e-03
 -5.3234434e-01
  1.5771069e-02
 -3.5518798e-01
 -6.1101991e-01
  5.0377005e-01
  2.6355764e-01
 -3.8219509e-01
 -2.2382231e+00
 -1.7485327e-01
 -1.0937104e-01
 -3.2803375e-01
  1.4465071e-01
 -5.7929456e-01
  2.7382923e-02
 -2.7962677e-02
 -7.4235173e-03
  4.1840568e-01
 -1.1626558e+00
  5.4326665e-01
 -1.2018521e+00
 -1.5930760e+00
 -2.1062913e+00
 -7.2356872e-02
  2.0669094e-01
 -1.1780314e+00
 -5.3910315e-01
  4.9619764e-01
 -6.0403246e-01
  5.7303786e-01
  3.9178228e-01
  1.2871598e-02
  6.0895730e-02
 -1.6707984e+00
  2.1472492e+00
 -1.3426807e+00
  6.8544023e-02
 -1.9278474e+00
  1.7839757e-01
  3.8366529e-01
 -8.5169566e-01
 -5.1465597e-02
 -9.8275501e-01
  1.4318630e+00
  1.5661510e+00
 -5.7475525e-01
  8.4809321e-01
 -1.3282336e+00
  3.6744374e-01
 -2.0825274e+00
  1.2774266e-02
 -1.1198584e+00
  1.2679373e+00
 -2.1310424e-02
 -2.2910573e+00
  1.4215709e+00
  6.8756211e-01
  7.9607546e-01
  3.0885220e+00
 -1.4672467e+00
  7.4157503e-04
  2.5371747e+00
 -7.6003242e-03
 -6.5670866e-03
  1.9171287e-04
 -1.8078191e-03
  2.5346108e-02
 -9.4075492e-03
  2.9904732e-02
  2.1964680e-02
 -1.6357731e-02
 -4.3908255e-03
  1.3844005e-04
 -8.8820029e-03
 -1.4274515e-03
 -1.0190570e-02
 -3.6866289e-02
 -2.0915411e-02
 -1.2307828e-03
 -1.7832488e-02
  1.4697392e-02
 -1.3819613e-02
  1.1973247e-02
  2.6976606e-02
 -1.2977268e-02
 -4.8939973e-02
  5.6510740e-03
 -9.4389822e-03
 -2.1727130e-02
  2.7537163e-02
 -1.9716132e-03
  2.7648654e-02
 -1.9856670e-04
  6.4782449e-03
 -2.0451764e-02
 -4.1630822e-03
 -1.3900700e-02
 -9.0333028e-04
 -4.1445085e-01
  5.4484554e-02
  1.6876105e-02
  1.7892260e-02
 -1.1225645e-02
 -8.3518168e-03
 -7.2194226e-03
 -1.4642843e-02
 -2.8070847e-02
  9.5802387e-03
  4.7313875e-01
  1.1954561e-02
 -1.6547760e-02
  4.8996266e-03
 -4.0544018e-02
 -8.5864891e-04
 -8.4538609e-02
 -1.4242548e-01
  5.7038711e-04
 -3.4231093e-02
 -1.2426827e-03
  2.7442213e-02
  3.1681061e-02
 -1.8259307e-03
  1.2658336e-02
  5.2854519e-02
 -6.9628641e-02
  3.2957129e-02
  1.5536482e-02
 -7.7758394e-03
  6.4254389e-03
 -2.0552704e-02
  1.3734916e-02
 -3.0003327e-01
  1.1844654e-02
  6.8352625e-02
 -7.7076820e-03
  8.3839610e-02
 -8.7640040e-02
  5.5370438e-03
 -9.8574848e-04
  3.3940982e-02
 -6.9245301e-02
  1.5689423e-02
 -1.7321711e-02
  2.9063400e-02
  9.4918616e-02
 -1.7581336e-02
 -3.6015313e-02
  6.4809680e-02
  1.6053520e-02
 -2.7304584e-02
 -2.1051234e-03
  5.6131080e-02
  2.7688285e-02
  4.3010809e-03
 -3.2151911e-02
  9.3900465e-04
  5.0671091e-03
 -1.3748302e-02
 -1.3506789e-02
  6.8090637e-03
 -4.2866178e-02
  1.4199556e-02
  1.6484177e-03
  1.5341907e-02
 -1.8904885e-02
 -9.4938036e-03
 -8.5815772e-02
  3.8984180e-03
  1.3663868e-05
  9.5386826e-02
 -1.0812792e-02
  2.0575896e-02
 -1.6095327e-02
 -1.8953949e-02
  1.4504796e-02
  8.6809751e-03
 -2.4969354e-02
 -3.2038516e-03
  1.8416272e-02
  1.9129476e-01
 -4.3316066e-02
  3.9778940e-02
 -7.0539685e-03
 -6.4222217e-03
 -3.0764481e-03
  4.8154374e-04
 -6.6928998e-02
 -1.2658376e-02
  9.3172099e-03
 -1.6376631e-02
  2.2921732e-02
  2.5599757e-03
  1.1585703e-02
 -5.3955275e-01
 -3.1381178e-01
  3.5280997e-01
 -4.8987925e-01
  4.7144655e-02
 -7.3458606e-01
 -1.0594571e+00
 -2.6550989e+00
 -9.6799672e-01
 -2.8334814e-01
  6.7954034e-01
 -3.5010397e-01
  7.4607605e-01
  3.6780849e-01
 -1.4013465e-02
  1.9701349e-03
 -5.2792078e-01
 -2.3035133e-01
 -9.2741382e-01
  5.3789536e-04
 -8.1735186e-02
 -7.0483756e-01
 -3.5137650e-01
 -1.1002117e+00
 -1.6677940e-02
  1.1867727e+00
 -8.9344099e-02
 -8.1664687e-03
 -2.8665366e-02
 -2.1918994e-01
  1.5982552e-01
  2.0184711e-01
  1.9515516e-02
 -2.4610478e-02
 -6.6632286e-02
 -2.2420749e-02
 -1.7635984e-02
 -2.1434015e-04
  1.1441556e-02
  4.4206657e-02
 -3.0251758e-02
  1.1374635e-03
  3.3298716e-02
  4.7696056e-03
  2.6703946e-02
 -7.6255235e-03
 -1.0169406e-02
  3.1479765e-03
  2.5826240e-02
  3.4852773e-02
 -5.0898496e-02
 -4.9996641e-02
  2.0137237e-02
 -6.7066103e-02
 -6.5303430e-02
 -9.7094727e-04
 -1.9009527e-02
  2.9213993e-02
  7.0679355e-03
 -6.3401712e-03
 -2.2298663e-03
  1.5836654e-02
 -1.3618942e-02
 -9.5013337e-04
 -2.2070641e-02
 -1.0164107e+00
 -3.3217261e-03
 -1.5200977e+00
  2.2539560e-02
 -2.9920906e-02
 -1.0768753e-01
  3.2770228e-01
 -2.0902397e-03
  2.9035485e-01
 -6.7684032e-02
  1.1227615e-03
 -9.2455015e-02
 -7.3656619e-02
 -2.6108326e-02
  3.0763621e-02
 -2.4619105e-03
  6.9193888e-01
  4.8351530e-02
  8.7579200e-03
  4.8924681e-02
 -1.9741599e-01
  6.1971050e-02
 -7.3131204e-01
 -1.9604210e-02
  2.1552002e-02
  2.2169697e-01
  2.5799463e-03
 -2.6421452e-01
  1.1124698e-02
 -5.4932141e-04
 -8.2233027e-03
 -8.1314206e-02
 -7.0924666e-03
  1.5072490e-01
 -2.6501815e-03
 -3.4757916e-02
  6.2269494e-03
 -1.9185053e-02
 -2.0121073e-02
 -3.4058873e-02
  1.6437763e-02
  2.0244541e-02
  9.9720573e-03
 -6.4138761e-03
  2.6464205e-02
 -3.1044090e-02
 -2.0394875e-03
  3.5415236e-02
 -1.9798705e-03
 -1.3661233e-02
 -4.7689299e-03
 -4.6185665e-03
  1.1710873e-02
  1.5919344e-02
  1.9702895e-03
 -1.4645623e-02
 -3.4349423e-02
 -5.2216493e-02
  2.2410320e-02
 -1.4011702e-02
 -2.3716595e-03
 -2.3326103e-03
 -6.0905360e-02
 -6.6142988e-01
  3.6156063e+00
  4.3001063e-02
  9.7948110e-01
 -6.7428373e-02
  2.9503839e+00
 -6.7859578e-01
  1.1486779e-01
 -2.0944089e-01
 -1.5911347e+00
 -2.0747264e-01
 -1.0115976e-02
  8.1633455e-01
  2.5839789e+00
 -4.4393942e-01
  1.2319191e+00
  8.4740019e-01
 -4.0082477e-02
  1.1467952e+00
  7.9526920e-03
 -2.4270403e-01
 -3.7547804e-03
  2.1216026e-02
  5.7510751e-01
 -1.3835068e-01
  1.2519081e-01
  1.6422561e-01
 -7.5197130e-02
  1.1956557e+00
  1.7092654e-02
  1.0272740e-01
  2.2866759e-02
 -5.7645738e-01
  3.6410743e-01
 -1.0046929e+00
  4.4790533e-01
 -5.8972931e-01
  2.6509494e-01
 -4.4189580e-02
  5.2689171e-01
  5.9611954e-02
  6.4760476e-01
 -1.1210928e+00
  2.5164774e-01
  1.4281696e-01
 -3.2953370e-01
 -8.0017585e-01
 -8.1154519e-01
  1.2456573e+00
  1.2656173e+00
  1.6714241e-01
 -2.7106481e-03
 -1.3938000e+00
  3.3515995e+00
  6.7320710e-01
 -3.2180521e-01
 -8.6538172e-01
 -5.3526008e-01
 -8.6496674e-02
 -1.2967382e-02
  1.2125386e-02
 -3.7649900e-02
 -1.0483647e-02
  8.5912067e-03
 -9.1669220e-01
 -7.2114617e-01
 -2.6668291e+00
 -2.7382946e+00
  3.3582845e-01
  1.3509732e+00
  5.5176776e-04
 -1.1711936e-01
 -1.4122610e-02
 -2.0743676e-01
 -2.0051724e-01
 -1.4669037e-02
  3.7734453e-03
  1.5607274e+00
 -1.0692506e-01
 -3.5884194e-02
 -1.3174964e-01
 -1.1897434e-01
  1.7089639e+00
 -2.8516054e-01
 -2.6392568e-02
  1.7053762e-01
  3.4838510e-01
  4.7249994e-01
 -1.0779575e-03
 -5.9062326e-01
 -1.0811822e-01
 -6.3251249e-02
 -9.8650204e-03
 -9.8396521e-03
  2.8277917e-02
  1.4194310e-01
 -2.2361061e-04
  2.9941013e-03
 -2.0988233e-02
  6.1609659e-02
 -6.3345530e-03
  1.4487654e-02
  2.3335405e-02
 -7.0695565e-03
  1.0415890e-02
  7.4117512e-02
  2.3481727e-03
  4.0304214e-03
 -5.2321847e-03
 -2.6286092e-02
 -3.0329881e-02
 -3.5704844e-02
  5.6371965e-02
  2.1347322e-02
 -1.3080345e-01
  1.6891707e-02
 -1.3333924e-02
 -1.5294838e-02
  3.5303370e-03
 -1.2373880e-02
 -2.6186012e-02
  1.5769834e-03
  6.4324355e-04
 -2.6420536e-03
  3.6512401e-03
 -2.0055192e-02
 -7.4243411e-02
 -1.3188163e-02
  4.8006624e-02
 -1.7474754e+00
  1.3738559e-03
 -2.4511735e+00
 -2.0919651e-01
  6.7535928e-03
 -4.0934499e-02
  1.1830262e+00
 -1.8930716e-02
  1.9730779e+00
  7.7968931e-01
 -1.8865182e+00
 -1.2670374e-02
  5.9957569e-03
  4.7396195e-01
  9.0443213e-03
  6.7132896e-01
  1.5316980e+00
 -1.1061267e-02
  1.4573973e+00
 -2.6500949e-03
  9.0905774e-01
  1.1927512e+00
  6.4023295e-03
  7.6257037e-03
  3.6561177e+00
 -5.3143017e-02
  8.4544790e-01
 -3.2714838e-01
  6.6966740e-03
 -6.2530157e-03
  3.6611483e-02
  2.0276861e-02
  4.8432091e-01
 -8.8024354e-03
  4.4196169e-03
 -3.9652905e-01
  1.2127280e-02
 -2.0901082e+00
 -8.7477984e-03
 -1.0637339e+00
 -1.6227638e+00
 -2.1926398e+00
  5.3673840e-01
  1.5535681e-02
  3.5631583e+00
 -1.4311837e+00
  2.9031035e-02
  2.0086701e+00
 -9.9945860e-03
 -6.1545749e-03
  3.0445185e-01
 -5.1560503e-01
 -5.9526479e-01
  4.0643509e-03
  1.8313782e+00
 -9.8586483e-03
  9.4856471e-01
  5.5467933e-02
  1.3754117e+00
 -1.2104890e+00
  1.1280326e+00
  2.7410580e-02
  3.1159695e-03
 -2.7301636e-02
  9.4773281e-01
  1.3596645e-01
  2.8952596e+00
 -2.9844854e-02
 -1.6924796e+00
 -4.1202370e-02
  4.6896818e-03
  4.2990839e-01
 -2.0183706e+00
  1.0944658e-02
  1.8754421e-02
  1.9192809e+00
  3.4242610e-05
  7.8742225e-03
 -4.2978340e-01
 -1.5644600e+00
  2.0380998e+00
 -6.1530853e-04
  8.6849220e-03
  7.5248636e-02
  1.7244173e-02
 -1.4697291e+00
  4.3350342e-01
 -1.5193805e-02
  3.3329282e-02
 -1.5544355e-02
  1.7331847e-03
 -6.4892644e-01
 -1.1581003e-03
  9.8444241e-01
  4.7159296e-02
  5.2664506e-01
 -1.0156764e+00
  2.8935919e+00
  4.4287788e-03
  2.7899644e-01
 -1.0793768e-01
  1.4644894e-02
 -7.9828572e-01
  3.6668029e-01
 -5.4128125e-02
 -1.4271937e-01
  5.5387014e-01
  5.3638145e-03
  8.7328589e-01
  8.8621014e-01
  2.8873158e-01
  8.0570914e-02
 -7.1301334e-02
 -5.7590318e-01
 -1.5909116e-01
 -8.0092371e-01
  1.3808246e+00
  1.3601592e-01
 -2.8473653e-02
 -1.0506063e-02
  2.5923568e-01
 -3.9441848e-01
  3.8442492e-02
  3.4108856e-01
  1.4114757e+00
 -6.3141380e-03
 -8.4041744e-01
 -2.0132738e-01
 -1.4442451e-02
 -5.0245464e-01
  9.3742805e-03
 -2.1953421e-02
  2.0023268e-01
  4.3591451e-02
 -7.5518513e-01
 -1.2759249e+00
 -7.5138077e-02
 -1.8687050e+00
  1.5074384e-02
 -2.5442860e-01
  8.5852748e-01
 -3.7648218e+00
  2.1717427e+00
 -1.1023705e-02
 -7.1404678e-01
  4.5171990e-03
 -1.8595411e-02
 -3.4417132e-01
 -9.3274843e-03
 -6.9154706e-03
  1.0005494e+00
 -2.9761073e-01
 -3.3346722e-01
  1.3333988e-02
  5.8807218e-01
  1.2872542e-01
 -5.4287088e-01
 -1.3396817e-05
  3.8975048e-01
 -1.3988644e+00
 -2.8772199e-01
  2.3687400e-02
  1.5272720e-03
 -2.7090064e-01
 -4.4718504e-01
 -3.7334138e-01
 -1.0305839e+00
 -5.4055359e-02
 -6.1093324e-01
  2.1422002e-01
 -5.2952748e-02
  1.5358740e-01
 -1.5797853e-01
 -8.2638368e-02
  2.1124756e-01
 -1.9884279e-01
  1.2941398e-03
 -2.0331133e-02
  1.2025432e-01
 -1.0828469e+00
 -1.7226321e+00
  1.1795964e-02
 -3.0642338e-03
 -3.9689351e-02
 -7.1214316e-03
  1.1022835e+00
  8.1922323e-01
  9.9562043e-03
 -1.2840366e-01
  1.3451704e-01
  6.1085999e-02
 -3.5902363e-01
  6.4901039e-02
  3.9996997e-01
 -5.3582031e-02
 -1.0193437e+00
 -3.5962006e-01
 -2.2450425e-01
 -4.0020566e-02
 -3.5188026e+00
  1.5692046e-01
  1.4787385e-03
 -1.3967023e+00
  1.0200081e+00
 -8.2545757e-04
  1.9056330e+00
  8.9355254e-01
  2.5141046e+00
 -2.4150548e+00
 -8.9611065e-01
  7.7224809e-01
  9.4909674e-01
 -2.7865209e-02
  3.7921704e-03
  2.1285357e+00
 -2.3594204e-01
  1.4823639e-02
 -5.4764608e-03
  2.5163352e+00
  8.8828513e-03
  1.7286495e-03
 -8.2443513e-02
  3.6600266e-02
 -9.8369867e-03
 -2.1676103e-02
  2.2803692e-04
  1.1707274e+00
 -4.9798302e-02
  1.5560951e-03
  1.9322786e-02
  1.0715418e-02
  3.5272017e-02
 -1.7152611e-02
 -1.3772362e-02
  6.0564268e-02
  1.2709969e-02
 -2.6804715e-02
 -3.3892905e-03
  7.6429732e-02
 -1.6608629e-02
  3.6784109e-02
  2.5743494e-02
 -1.1832203e+00
  1.0371246e-01
 -4.1047655e-02
  1.9067664e-02
 -2.1357627e-01
 -1.5907830e-02
  1.3540305e-02
 -5.7888101e-03
 -1.0401884e+00
 -7.7929221e-02
  2.9938961e-03
 -1.1705476e-02
  1.5688872e-01
  1.1361971e-01
 -1.1493124e-01
  1.5917492e-01
 -6.3261920e-01
  4.5536777e-01
  1.0003544e-02
  1.2986708e-02
 -1.2262368e+00
 -5.2518807e-02
 -1.3416300e-02
 -8.2029477e-03
 -2.2604626e-01
  3.6149477e-03
 -4.7035927e-01
  4.5935355e-02
  1.0791038e+00
  1.2468462e-01
 -2.7730212e-01
  1.4912443e+00
  1.9737735e-01
 -1.5862973e-01
  1.7558217e-01
 -3.1767231e-03
  3.3319864e-01
  4.8060426e-03
  5.1541686e-02
 -4.3319128e-02
  1.4484867e+00
  7.8893835e-03
  2.7605900e-01
 -5.3428537e-01
  1.5234162e-01
 -8.4820454e-04
 -5.1200426e-01
  4.3988556e-02
 -1.5202862e+00
  6.6296285e-01
 -1.7262785e-02
 -2.4475919e-02
  1.5893852e-03
 -5.0599545e-02
  3.1195027e-01
 -6.3663252e-02
  3.3930328e+00
 -1.6500966e-03
  3.4941795e-01
 -5.0230216e-02
 -9.1198780e-02
  5.9689707e-01
  3.1723481e-01
  4.9612150e-01
 -1.3576149e+00
  2.1418117e-02
  2.5127735e-02
 -4.2212377e-03
 -1.5402398e-01
 -1.4199190e-01
  4.7442853e-02
  1.8762928e-02
  2.1059179e+00
  9.5013015e-02
  8.0763269e-03
 -2.4920961e-02
  1.6185248e+00
  4.8944876e-03
  6.4737439e-01
 -8.8878475e-02
  2.2841821e+00
  3.7389123e+00
  2.9085364e-02
  7.8546833e-03
 -2.8230914e-01
  1.0431079e-02
  1.7558796e-02
  7.2361045e-02
 -1.6706386e-01
  2.3847764e-02
  6.2778504e-03
  1.1149982e-03
  1.4699038e+00
  4.0070239e-02
 -2.4002948e-01
 -3.1304685e-03
  6.7625624e-01
  4.0802255e-01
 -1.5933270e-02
  9.7202677e-03
  8.4227780e-03
  1.9303656e-01
  1.7642665e-01
  2.8537479e-03
 -9.2741150e-01
 -3.9117329e-02
  4.2056307e-02
  1.1767105e-01
 -3.0935004e+00
 -4.4536826e-01
 -1.2609980e+00
  1.2346548e+00
  2.9040655e-02
 -4.9372959e-01
 -6.3865021e-02
 -1.6796070e+00
  1.7836900e-02
 -4.8856327e-01
  5.5047762e-01
 -9.5155183e-03
  4.3887891e-02
  3.8019425e-01
 -1.1118665e+00
 -1.2093904e+00
 -2.7311203e+00
 -7.6647860e-01
 -4.1785818e-02
 -8.0480665e-02
 -3.1642137e+00
 -5.1184356e-01
  2.2278528e-01
 -2.1175394e-02
 -5.2906287e-01
 -2.1166030e-01
 -3.0902319e-02
 -5.6316382e-01
  9.3696415e-01
 -1.3325588e-02
  1.0379852e-01
 -2.5967383e-01
 -1.2587129e+00
  1.4732055e-01
  1.7775495e+00
 -3.4181175e-01
  3.3746240e-01
 -2.7553603e-01
  1.3626378e-02
  4.4544958e-02
 -1.8548559e-02
  2.9941751e-03
  4.7998521e-01
 -2.3487069e-02
  1.3092691e+00
  1.3031888e-02
  1.2838614e+00
  1.4208709e+00
 -4.2364585e-01
 -1.9082108e-01
  2.5490308e-01
 -7.4617463e-01
  1.7943703e+00
 -9.7698152e-02
  1.6477270e-02
 -3.3455642e-03
 -6.6753486e-03
  3.7781868e-02
 -9.6969712e-01
  1.7434483e+00
 -2.5004907e+00
 -4.3749490e+00
  2.3034801e-01
  9.6635818e-02
 -4.5293158e-01
  5.7461053e-01
  1.9613782e-01
  8.2591879e-01
  6.8791056e-01
  7.4873202e-02
 -1.2945718e-02
  3.8544163e-02
  1.5933059e+00
 -5.6632562e-06
 -1.8282680e-02
 -1.6996052e-02
 -4.8955262e-02
  6.4719893e-02
  7.2829518e-03
 -6.4046396e-04
  8.8158816e-01
  8.7985927e-03
  1.5560736e-02
  5.0105047e-03
 -2.4435470e-01
  4.5421222e-01
  3.3241850e-03
 -3.2009634e-03
  4.8655509e-03
  6.0114812e-02
 -1.2612660e-04
 -1.5758764e-02
  8.6444214e-02
  7.1111647e-03
 -2.6576679e-02
 -1.2992034e-02
 -1.6337594e-02
 -1.8818714e-02
 -7.3965147e-02
 -1.9867038e-03
 -2.8179726e-02
  2.0439334e-03
  3.6347196e-02
 -2.5602710e-03
  1.3377768e-01
 -1.7146723e-02
 -1.3650744e-02
 -8.2544854e-04
  3.3045418e+00
  2.6436061e-01
  2.9566452e-02
 -4.6697287e-03
  1.8771477e+00
  1.4285231e-02
 -9.2274919e-02
 -2.4030302e+00
 -6.9081210e-02
  5.2578181e-02
  5.6291618e-03
  5.4880935e-03
  4.9458718e-01
 -2.5533531e-02
 -1.6319415e-01
 -2.0923084e-02
  5.4874253e-01
  4.7639561e-01
  2.6457232e-01
  1.6744071e-01
  1.5991211e+00
  1.3835939e+00
 -5.2046212e-03
  5.8107376e-03
  2.0785408e-01
  4.1712154e-02
 -1.0185076e-02
 -1.9141085e-02
  4.7165957e-01
 -2.6366406e-03
 -1.6204105e-01
  1.1615167e+00
  1.8258251e-01
  9.1534698e-01
 -3.2426484e-02
  4.2475870e-01
  9.9297790e-03
  4.5864806e-03
 -3.4475382e-02
  1.6556947e-02
 -9.1264778e-01
  1.7590243e-01
  4.8499033e-03
  3.1353634e-02
  9.5237814e-02
 -6.5361829e-03
 -6.6248554e-01
  2.3572120e-01
  4.4810426e-01
 -8.1246207e-03
 -2.6530584e-03
 -8.1827998e-04
 -8.9148255e-03
  4.2242783e-01
  4.4299052e-03
 -8.5848244e-03
 -1.9685671e+00
 -9.6449643e-01
  8.7759690e-03
  1.4720505e-02
 -2.9083903e-04
 -5.7362253e-03
 -2.1028377e-02
 -5.1215824e-02
 -9.9799067e-01
  2.5004194e+00
  2.2637928e-02
  6.9363317e-03
  4.3441553e-02
  1.3433392e-02
  7.0946383e-01
  4.6895381e-02
 -1.7669343e+00
 -1.0114746e+00
  3.8757991e-02
  8.7103797e-03
  5.2818096e-01
 -3.7587661e-02
 -3.7875108e-02
 -7.1214102e-02
  1.7387829e+00
  9.8911397e-02
  2.5710324e-04
 -1.0000280e+00
 -2.8988292e+00
  4.2364702e-02
 -6.0771698e-01
 -1.3985382e-02
  3.5463768e-01
  1.6834082e-01
 -4.7500983e-02
  9.2168525e-03
  4.3231899e-01
 -1.6119320e-02
 -1.3783206e+00
  7.0204265e-02
 -2.2247210e+00
  5.0808072e-01
  2.1380145e-02
  1.1517635e-02
  5.2569371e-01
  2.8066239e-01
 -7.6590288e-01
 -7.4502212e-01
  2.5869069e-01
  2.3215267e-01
  5.4342072e-03
  3.2103963e-03
  7.6016015e-01
  1.7688646e-03
 -4.4574139e-01
 -3.5280280e-03
 -1.2096532e-01
  2.8206736e-01
  1.1024320e-01
  7.9175091e-01
 -1.2964497e+00
 -2.2083391e-03
  6.2914640e-01
  3.5521660e-02
 -1.9927046e-01
  5.2989304e-01
  2.9643014e-02
  8.1066936e-02
  4.7460872e-01
  1.8539274e-01
  1.4185290e-02
  1.3269451e-01
  6.9410568e-01
 -8.4965050e-02
  4.7289068e-01
  7.2250147e-03
  2.8709766e-01
  4.6836395e-02
  7.7839351e-01
  6.6549689e-01
  4.0043907e+00
  1.4700831e+00
 -2.3528002e-02
  2.5520935e-03
  2.4912550e-01
  6.8787867e-03
 -6.3991702e-01
 -4.3324843e-01
  1.9428310e+00
  2.3754502e-02
  1.0414679e-01
  1.2700159e-02
  8.4195888e-01
  5.9084529e-01
 -4.5456454e-01
  5.9396142e-01
  2.4687805e+00
  9.6599495e-01
 -5.2926778e-03
 -1.4487199e-02
  1.4808880e-01
  7.0054363e-03
 -8.8837810e-02
  1.6986059e-02
  9.8181117e-01
  1.6964570e-02
 -2.4147761e-01
 -1.2923664e-01
 -2.2038286e+00
 -6.1693406e-01
 -2.1538999e-02
 -5.6419247e-01
 -3.2449162e+00
  1.7801620e+00
  4.3809202e-01
  3.4205984e-02
 -1.3730174e+00
  1.6963187e-01
 -5.1674251e-02
 -1.3663633e-02
  3.1215465e-02
 -2.7712872e-03
 -5.2264009e-02
 -1.7672790e-03
  7.0653439e-02
 -7.5773150e-02
 -6.0660803e-01
 -1.4004076e-03
  1.9890298e+00
 -1.1041785e+00
 -7.5299684e-03
  4.2776402e-02
  4.5132969e-02
 -3.1329542e-03
  2.1378409e-02
  1.5648132e-02
  9.6392548e-03
 -6.9757258e-03
 -3.0285578e-02
 -6.9098640e-03
  1.5341217e-02
 -5.2912094e-02
  4.8575820e-03
  1.2274391e-01
 -7.5738579e-02
 -1.7057028e-02
  2.9998745e-03
 -3.8987521e-02
 -3.7814539e-02
  6.4985268e-04
 -1.4947494e-02
  1.7316174e-03
  2.2219300e+00
 -2.7126351e-03
 -1.0634712e-02
 -3.0307781e-02
  1.7472651e+00
 -1.6328455e+00
  3.8318703e+00
  1.6497896e+00
  3.6875813e+00
 -1.1722074e-01
 -2.3465546e-02
  3.3691175e-02
 -1.5694737e-02
 -2.5421972e-03
 -2.4327895e-04
 -8.5235663e-02
  9.3263164e-02
  5.1973575e-01
  8.3516296e-03
 -1.7096953e-02
 -9.0026164e-01
 -1.2678844e-01
 -1.3036058e+00
 -1.3001981e+00
  9.9028639e-02
 -1.6752214e+00
 -1.6719589e-02
  8.0182785e-03
  5.2903011e-02
 -9.7449571e-03
  1.0426179e-02
  1.0017122e-01
 -3.4913278e-01
  1.7654431e-01
 -2.3461313e-03
 -2.1416456e-01
  1.4609922e-01
 -2.1111429e-01
 -8.2373792e-01
 -3.5189506e-01
  6.1997575e-01
 -1.5086622e-03
  7.2067335e-02
 -1.7377423e-02
  3.1987759e-03
  1.1053383e-01
 -8.6798444e-02
  3.5194594e-03
  2.1059147e-01
 -8.5984981e-03
 -1.3582741e-02
 -1.1846668e-01
  1.4839270e+00
 -2.7468069e-03
 -2.1043139e+00
 -9.6056335e-02
  3.3382832e-03
  2.1006563e-01
  3.8443137e-02
  5.8103614e-03
  1.1835303e-02
  2.0148939e-02
 -1.6707199e-02
  6.9010854e-01
  1.1410352e+00
 -4.3103632e-02
 -6.4374888e-01
 -2.4076857e-02
  1.7636219e+00
  8.1185341e-02
  1.2029526e+00
  2.3457833e-01
 -2.0873945e+00
  6.1265701e-01
  9.7550824e-03
 -1.4243422e-02
  2.1002663e-03
 -1.8440451e-02
  2.1888331e-02
 -6.4591244e-02
  4.2776859e-01
  3.2106183e-02
 -1.5785679e+00
 -2.2555830e-01
  3.0632007e+00
  1.6241474e-01
  1.2546798e-02
  2.6538688e-01
  1.4253684e+00
 -8.1182799e-05
  3.0242914e-02
  2.0270454e-02
 -1.1641798e-02
 -3.9620176e-02
  1.3444495e-02
  8.8993106e-03
  2.3136793e-01
  2.8091847e-05
  3.9110816e-01
  8.9251176e-03
  1.3460767e+00
 -3.5863066e-01
  1.5574130e+00
  1.8794111e+00
 -1.2531224e+00
  9.5511205e-02
  5.1360265e-03
 -2.9002267e-01
 -3.9247986e-02
  1.7453113e-03
 -1.1201445e-01
 -2.1344092e-02
  8.1540239e-01
  5.3809914e-03
  3.2620154e-02
 -6.1904734e-01
  7.9254013e-01
  3.2700038e-01
 -3.7597392e+00
  2.3461951e-01
  1.1958448e+00
 -1.6088474e+00
 -3.7505466e-02
 -1.0051122e-01
 -1.8239288e-01
  1.2093031e-02
 -2.9356271e-02
  7.5379841e-02
  1.5741868e-01
  2.4907663e-01
  2.5808081e-01
 -9.5737880e-01
 -5.9443340e-03
 -4.4725248e-01
  1.4142533e-01
 -4.3439734e-01
  2.3397613e+00
 -1.3769252e+00
  4.3973248e-02
 -3.2842287e-04
  6.9661369e-03
 -4.5453697e-03
 -2.5139570e-01
 -4.2133527e-03
  6.9252914e-01
  6.9149151e-02
 -1.2429514e-01
 -1.1615886e-02
  1.0406914e+00
 -2.4463054e-02
 -2.0640347e+00
 -2.1641867e-01
  2.3473916e+00
 -6.8498421e-01
 -1.8723771e-02
  9.1524990e-03
 -1.4461751e-01
 -1.6035178e-01
 -2.9129338e-01
 -8.9884274e-02
  3.4975976e-02
 -1.8260182e+00
  1.2601869e-02
 -3.6055050e-03
 -1.0864817e+00
 -1.1134271e-01
 -7.0986398e-03
  8.2908863e-01
  2.5204229e-01
  3.9559260e-01
  2.6352163e-02
 -1.3982108e-02
  2.0458848e+00
  1.8231459e-01
 -9.9647775e-02
 -9.8055287e-04
 -2.4553281e-01
  4.1901644e-02
 -9.6298680e-03
 -2.9072482e-03
  6.9933399e-03
 -9.0312257e-02
 -1.5928875e-01
 -9.7960711e-02
 -1.5248811e+00
  1.9070899e-01
  7.9936546e-04
 -1.6297257e-02
 -3.7520140e-02
 -3.5478842e-02
  6.4627705e-03
  1.8486890e-03
 -1.5808400e-02
 -9.4923437e-02
  2.4560757e-02
  1.3917883e-02
  2.1575579e-02
  1.3867050e-03
 -4.7894921e-02
  2.3606483e-02
 -8.3764464e-01
  2.2192383e-02
 -3.7624851e-02
  4.5035603e-03
  4.8246000e-02
 -1.7440518e-02
 -2.8505620e-02
  5.5661425e-03
 -1.0332304e-02
  2.5089786e+00
 -2.9301675e-02
 -3.8281560e-03
 -5.9207376e-02
 -1.3038512e-02
  9.0454251e-01
  1.3518606e+00
  2.7069011e+00
  1.0763710e+00
  3.9457795e-03
  8.0942651e-03
  8.8017620e-03
  7.6255299e-02
  2.1567941e-02
 -3.2354568e-03
 -2.7689354e+00
 -2.4478815e-02
  6.0196392e-02
  1.3153804e-02
 -2.6553932e-01
 -4.5768708e-02
  2.3027450e-01
  1.7356017e-03
  2.3211582e+00
 -1.6523635e+00
 -1.6127720e-02
 -4.5258282e-03
 -3.2648910e-02
 -1.8299215e-02
 -1.4228220e-01
  2.2462165e+00
 -1.0736833e+00
  5.8496618e-01
  7.1136248e-03
  1.7107153e-01
 -3.8400742e-01
 -1.9872077e-02
 -2.7424440e-02
  1.5580333e+00
 -3.8480039e+00
  2.3286355e+00
  8.0549931e-03
 -1.2120592e-02
 -1.9964473e-01
  1.8807819e-02
 -6.4889741e-01
  7.3830092e-01
  1.1307562e-02
 -1.8891485e-01
 -1.6681044e-04
  1.0502764e-03
  2.5130501e-01
 -6.2120911e-03
 -1.1554264e+00
 -1.1838131e+00
  1.3122475e+00
  5.0328467e-02
  2.0381618e-02
 -7.6581120e-02
 -2.5912561e-02
 -1.5421950e-02
 -3.0192219e-02
 -5.5772625e-02
 -1.7697140e+00
 -2.2918196e-01
  2.8789595e-02
  1.6776465e-03
  8.8934325e-02
  4.6839935e-01
 -6.5122664e-02
 -9.6414769e-01
 -3.4595885e+00
  1.4673723e+00
  7.2407415e-03
 -1.5525307e-04
  1.7836496e-02
 -1.0330370e-01
  1.9074224e-02
 -7.8829058e-02
 -4.6707079e-01
 -1.5461382e-02
  8.9432914e-03
 -1.3280748e-02
  1.7478222e-02
  5.3640024e-04
  4.6227342e-01
  2.9719815e-01
 -3.3516879e+00
 -1.9106536e-01
 -9.0535292e-03
  3.0044483e-02
 -1.3943589e-01
 -1.4632454e-02
 -6.3336933e-01
  3.2190669e-02
  8.7679487e-01
  1.1638730e+00
 -2.2359833e-02
 -1.0979642e+00
  3.0712087e-02
 -2.8295726e-01
  5.2172225e-02
  1.4676784e+00
 -1.5063118e+00
  7.7213156e-01
 -7.3682241e-02
 -2.9442487e-02
 -7.8928399e-01
  5.8566998e-03
 -7.3547655e-01
 -3.9625579e-01
 -1.2803693e+00
 -4.1440666e-01
  8.0852970e-02
  1.9591546e-02
  4.0134676e-03
  6.6070077e-03
 -3.6983263e-02
  4.6082860e-01
 -1.1509751e+00
 -3.0260891e-01
 -1.1471367e-01
  6.2836036e-02
 -1.7718363e-03
 -2.1916324e-02
  2.4048049e-02
  9.4209808e-01
 -1.8270085e+00
  6.9608815e-02
 -5.0836168e-02
  4.8082910e-02
  4.9272907e-01
 -2.8134651e-02
  2.4498379e-02
  1.0791585e+00
 -9.6222258e-01
 -1.4288016e-01
 -1.5794909e-02
 -1.4752307e-02
 -1.0166108e-03
 -4.4586331e-02
 -1.1220134e+00
 -5.8612847e-01
  4.0172365e-01
 -1.9112598e+00
  3.3020082e-01
 -1.3480360e-02
  7.9679948e-01
  7.2422594e-01
  2.0699838e-01
 -9.7963405e-01
  4.8347276e-01
 -1.2385709e-01
 -4.7529652e-03
 -2.2152096e-02
  6.2752184e-03
  1.0802070e-02
  2.4487855e-02
 -1.3341717e+00
  2.0423675e+00
  1.8493090e+00
  8.7894917e-01
 -2.5026375e-01
 -1.0088794e+00
 -2.0951137e-02
  2.6562016e+00
  1.0507927e-02
 -9.4242059e-02
 -7.1430689e-01
  1.5485263e-01
 -6.3426936e-01
 -7.8228807e-01
 -5.5490649e-01
 -5.1102508e-03
 -1.1086784e-02
  4.0040210e-02
 -6.1830353e-02
  9.1153983e-04
 -2.9393531e-02
  8.4639847e-01
  2.0549746e-02
  6.6326308e-01
  7.3127798e-03
  6.4780354e-02
 -2.3550765e-01
  7.4585960e-03
 -8.4957923e-04
 -1.0875732e+00
 -2.6532248e-02
 -8.6125731e-03
  3.0570521e-03
 -2.8499204e-03
  6.4445049e-02
  9.6340692e-03
  1.7482962e-03
 -1.6295278e-02
 -1.3079400e-02
  1.2078941e-02
 -1.8770982e-03
  5.0062448e-01
 -5.1778796e-05
  2.5053788e-02
 -1.6387891e-02
 -1.5051634e-02
 -3.4111503e-03
  3.4333203e-02
  4.4052277e-02
  9.7883247e-02
  2.3288195e+00
 -2.1370035e-02
 -2.7138442e-03
  4.8895845e+00
  4.6982828e-01
  4.7856805e-01
  1.6178883e+00
  1.4299532e+00
  1.2052939e+00
 -1.3127654e-02
 -4.4801176e-02
  8.3319139e-01
  3.8742993e-02
 -2.6716297e-03
  1.9061605e-02
  7.4635963e-03
 -1.5113321e-02
 -1.2226135e+00
 -8.6948477e-02
 -3.2990932e+00
  4.3332875e-01
  3.1191764e-02
 -6.8876392e-01
  8.3275151e-01
 -6.8118125e-01
 -1.8143240e-01
 -3.5466973e-02
 -9.1846937e-01
 -1.5284016e-02
  6.2445033e-02
 -6.4239599e-02
  4.1622221e-02
 -3.7459318e-02
  2.2493865e-02
 -3.2452390e-01
  4.8401017e-02
 -2.8370481e-02
  8.3494014e-01
 -1.1847336e+00
 -2.6547165e+00
 -1.8008657e+00
 -3.6415804e-02
 -1.5565183e-02
 -1.1242155e+00
 -3.3919054e-01
  2.2174591e-01
 -2.7896302e-02
  1.1593696e-01
  1.8624190e-03
  1.3968383e-01
 -1.9386245e-02
 -1.4565680e+00
 -4.3843132e-01
  1.5590566e-03
 -9.0847516e-01
  8.5252124e-01
 -1.0750381e+00
 -2.4799511e-03
 -1.4521907e-01
 -1.0153153e+00
 -2.3314987e-01
 -4.4441819e-03
  4.2424658e-03
  1.8338928e-02
  4.2354260e-03
 -1.6944863e-02
  6.0412958e-03
 -1.1532692e+00
 -4.8978788e-01
  2.3934664e-01
  1.0005419e-01
 -4.7907755e-01
 -7.1517146e-01
 -9.1544038e-04
  6.1523258e-03
 -6.7264926e-01
 -2.8118014e-01
 -1.2447217e-02
  2.7278176e-01
  8.6532198e-02
 -1.6747875e-02
 -3.6441632e-02
  2.3974344e-02
  4.6023872e-01
 -7.7015483e-01
  7.8729725e-01
  6.3652605e-01
  1.2618771e+00
 -1.3994917e+00
 -2.8611375e-03
 -1.9021738e-02
 -9.7923679e-03
  1.9977784e-02
  3.8224619e-03
 -1.3578612e-03
 -2.8339678e-01
 -1.6159600e-01
  1.2473068e-01
  2.4262154e-02
  1.2183579e+00
  8.2847577e-01
  8.8497055e-01
 -3.1791413e-01
  1.8711735e+00
 -2.0968239e-01
  1.1541312e-02
 -6.6409677e-02
 -6.4322126e-01
 -5.6756771e-04
  6.3125819e-01
  2.5052795e-01
 -7.0179772e-01
 -2.3007469e-01
 -1.6012028e+00
 -1.4659051e+00
 -1.4685889e-01
  8.1654198e-02
 -3.5255465e-01
 -8.6858714e-01
 -1.3059872e+00
  9.9989569e-01
 -2.5779007e-03
 -4.7192901e-01
 -4.1950223e-01
 -1.1903122e-01
 -4.2592660e-02
 -8.8368791e-01
 -6.4313698e-01
 -6.8233490e-02
 -3.6185959e-01
 -4.1024502e-02
 -4.0143001e-01
 -9.4547129e-01
 -1.9591063e+00
  4.3540388e-01
  2.2124330e-02
  1.0625569e+00
 -2.0094745e-02
  6.8356917e-04
 -5.5629057e-01
 -3.2683671e-02
  1.8534148e-01
  1.9091821e-01
  6.3170746e-02
 -8.3664989e-01
 -3.0800939e-01
  4.0695918e-01
  5.1049852e-01
 -3.5315339e-02
 -1.6720743e+00
  2.7195832e-01
  1.5815983e-02
  1.6670674e+00
 -2.5529953e-02
  3.6879107e-02
 -5.4204661e-01
  1.4715074e-02
 -4.1924381e-01
  4.1176200e-01
  1.2872993e+00
 -1.0290214e+00
 -6.7303372e-03
  8.2683422e-02
  1.1386374e+00
 -2.3953313e-02
 -1.2486893e+00
  3.1480675e+00
  2.5024118e+00
 -3.6105067e-01
  1.7656935e-02
 -6.9543957e-03
  1.3066210e+00
 -2.1828933e-02
 -5.1463026e-01
 -2.5354240e-02
 -7.6365317e-03
  3.7331596e-01
  2.8780753e-02
 -1.7095609e-02
  1.4881213e-02
  3.8568132e-02
 -1.5170020e-01
  2.6680080e-02
 -4.1880345e+00
  1.7091452e-01
 -4.9561947e-03
  4.5451596e-03
  3.6697665e-01
  1.5768092e-02
  3.9444980e-03
  1.8120835e-02
  2.9903585e-01
  3.7677708e-04
  7.5766160e-03
 -8.2181897e-03
 -2.3303652e-02
  7.3454226e-05
  5.5721886e-02
 -1.8710740e-02
  1.2799541e-02
  5.0181013e-02
  9.6765943e-03
 -6.8934108e-03
  1.6842026e-02
  7.7378969e-03
 -8.5784443e-02
  1.2876173e-02
 -1.4356338e+00
  3.6964989e+00
  1.6470337e-01
 -2.8456964e-02
  1.0366032e+00
  9.5905930e-02
  8.5652120e-02
  4.2168941e-02
 -1.6396247e+00
 -9.4190437e-01
  3.8406610e-02
  1.2780642e-02
  1.6286886e-01
  1.7061591e-01
 -8.8587748e-03
 -1.0248758e-01
 -6.5434748e-01
  3.0969626e-01
 -4.7568861e-02
 -6.8187709e-03
  7.1024030e-02
 -4.3415196e-02
 -8.2995765e-02
  1.7718581e-02
  3.8544744e-01
 -8.9789946e-03
  2.4640171e-02
  1.1110215e-02
  1.3156600e+00
  5.4670800e-03
 -3.9535058e-01
  1.2409998e-01
 -2.7860699e-02
  3.5302804e+00
 -1.2915961e-01
  1.0063987e-02
  2.5755827e+00
  1.5213624e-02
  1.2725028e-01
  1.0775293e-02
 -1.0147789e+00
  2.6549149e+00
  6.2613734e-03
  6.2318359e-02
  2.3077977e-01
  1.4646228e-02
 -8.9702159e-01
  9.2180187e-01
 -3.4981754e+00
  6.5053529e-01
 -1.6574690e-03
  1.2298955e-01
  2.9725802e-01
  1.1247234e-02
  5.1335716e-01
  1.5194355e-02
  2.4105325e+00
 -1.2050508e+00
  3.4004755e-02
  4.0850744e-02
  6.6019577e-01
  8.5180970e-03
 -1.8180393e-02
 -2.9676465e-02
  2.4566700e+00
  3.6182463e-01
  3.5515450e-02
  1.0927585e-02
 -1.6314803e-02
  8.6962022e-03
 -3.6143804e-01
  7.9926878e-02
  1.8612330e+00
 -8.7078333e-01
  3.2927122e-02
  2.9373141e-02
  2.8534323e-01
  2.8438798e-01
  2.6718056e-01
 -1.8411347e-01
 -1.7345109e+00
  1.2700270e-02
  7.7835947e-01
  6.3130654e-02
 -1.4206019e-01
 -1.0614825e+00
 -2.8292820e-01
 -6.4759821e-01
 -5.2443440e-03
 -2.5949218e+00
 -5.0589006e-02
 -6.6166103e-02
  7.1127336e-03
  2.6246908e-01
 -5.2936959e-01
  1.5707955e-02
  1.0542940e+00
  1.7415245e-01
 -1.3529805e-02
 -2.1773534e-01
  5.8288528e-03
 -1.8807612e-01
  1.1687703e+00
  8.6201310e-02
  1.1564317e+00
  7.2731031e-03
  4.3349545e-02
  9.3998248e-03
  8.8495272e-01
 -6.6462606e-03
 -1.4552712e+00
 -2.1428690e+00
  1.6371510e+00
  5.4871130e-01
 -3.4121182e-02
  2.1916896e-02
  1.2923499e+00
 -6.0203471e-03
  1.1819566e+00
 -2.9007245e-03
  2.2982776e-01
  1.0894468e-01
 -9.4567850e-04
  9.8819872e-03
  1.5898181e+00
 -3.8820960e-02
  1.6705571e-02
  1.0335858e+00
 -2.7462634e-01
  4.7457140e-02
 -1.9711614e-01
  6.0936946e-01
  6.0828072e-01
 -8.1155285e-02
  2.2844009e-01
 -4.4228193e-01
 -5.0802603e-02
  3.0913131e-02
  2.1582125e-02
  9.9966358e-03
  4.1781420e-01
  2.9192470e-02
 -7.8492582e-02
 -4.8200231e-02
 -1.0876206e+00
  9.9311000e-01
  1.3412919e-02
  2.7301720e-01
  9.1146421e-01
  3.7253844e-03
  4.0522969e-01
  1.2983583e+00
 -7.1579075e-01
  1.6250515e-01
 -2.9215799e-03
 -7.5958155e-02
  3.4037314e-02
  1.1777359e-01
  1.2640923e-01
  3.1500455e-02
  8.9918095e-01
  3.8630760e-01
  5.3532671e-02
  3.9738119e-03
  1.4152327e+00
  8.1902003e-01
 -7.3063242e-01
  4.2201062e-03
 -1.7605996e+00
 -6.7230117e-01
  2.8354943e-02
  2.1713755e-01
  2.1839625e-01
  6.8768901e-01
  1.0204273e-01
  1.9746812e-04
  2.0960195e-01
 -1.8512702e-02
  2.4179081e-02
 -2.8605901e-02
 -3.3012130e+00
 -1.1472100e-02
 -3.2496027e-04
  6.3903076e-03
  1.0721060e+00
 -7.2717736e-04
  4.6170298e-02
  2.2448406e-02
  3.7922698e-01
  5.4215539e-02
  9.1677383e-03
  4.1282721e-02
  2.6481589e-02
 -2.0250466e-03
 -7.1467608e-03
  1.3359599e-02
 -1.0981622e-01
  6.5252874e-03
 -1.1432028e-01
  2.3029206e-02
 -9.6849672e-02
  2.1838443e-02
  1.8612901e-02
 -1.8780487e-02
  4.3636537e-03
  1.1091913e-02
  3.5097614e-02
  1.8576674e-02
 -5.6830674e-01
 -9.3010646e-01
 -2.2343066e-02
 -3.2613071e-04
 -4.3092880e+00
 -6.2552762e-01
 -1.6759706e-01
 -8.7871063e-01
  9.5013493e-01
 -2.5737396e-01
  1.0512517e-01
  4.6486336e-01
 -2.9105471e-02
 -1.2170536e-02
  1.0648689e-01
  1.9201592e-02
 -1.9245231e+00
  4.7813818e-01
 -4.6160012e-02
  4.6918690e-03
  1.1021351e+00
 -2.0178531e-01
 -1.0936148e-01
 -1.3496613e-02
 -9.9671936e-01
  4.8406038e-01
  1.0054976e-01
  4.3810703e-02
 -4.2242599e-03
  4.3945417e-02
  1.2182581e-01
 -1.5498734e-01
  3.7342227e-01
  3.0121164e-02
 -1.2593254e-02
  4.1515630e-02
 -2.8697772e+00
 -2.9893236e-02
  2.1206981e-02
  6.0486034e-03
 -8.9322317e-01
  7.1601361e-02
  3.1095890e-02
  2.0178948e-02
  2.0320231e-01
  4.5190752e-01
  6.7537576e-03
 -8.6224554e-03
  9.8750687e-01
  1.9045539e-01
 -1.4001960e-02
  8.6834533e-03
 -3.3239213e-01
 -9.5444363e-01
 -5.2677381e-01
 -4.5478721e-03
 -1.3404629e+00
  8.4566605e-01
 -9.7698877e-03
  3.1349886e-02
  4.3247649e-01
  2.9645404e-03
  3.8925614e-02
  1.2739024e-02
  1.4591306e-02
  5.4298091e-01
  3.6205664e-01
 -1.5429631e-02
 -3.4474307e-01
 -4.2255916e-02
 -1.7938857e+00
  1.3118363e-02
  2.8041282e-01
  1.5902200e+00
  2.8092476e-02
  7.8589516e-03
  1.0224652e-01
  1.1057077e-01
  1.8708517e-01
  3.5253182e-01
 -1.4609681e+00
  2.2752495e-03
 -1.2710484e+00
  5.3106964e-02
 -2.5237972e-02
 -1.1556572e+00
 -1.0142167e-02
 -7.3331791e-01
 -2.5624725e-01
 -1.1816916e+00
  4.9980510e-02
  7.0571035e-02
 -1.2244884e-02
  1.1244583e-02
  6.7529917e-02
  1.4416697e-03
  4.5593336e-01
  7.7736080e-02
  1.1951363e-02
 -6.2452849e-02
 -9.5900315e-01
 -8.0380666e-01
  7.5010911e-02
 -2.5378636e-01
  1.3723152e+00
 -6.3669898e-02
 -1.5846672e-02
  3.7709594e-02
 -2.0904276e-01
  5.6660515e-01
  4.4949621e-02
 -2.7390815e-02
  9.2229891e-01
  1.5623076e+00
 -2.3542064e-01
  5.8948472e-02
 -4.2721558e-01
 -5.1694151e-02
  2.8004901e+00
  3.2579830e-01
  1.6721919e+00
  1.3998270e+00
 -3.7153356e-02
  5.1873224e-03
  4.1657987e-01
  6.2333858e-01
  9.9584702e-03
 -2.1449152e-02
 -6.7305863e-03
  2.3608981e-02
 -1.2418818e+00
  2.3398264e-01
 -4.9694389e-01
 -4.5227837e-02
 -2.3513038e-02
  9.9917096e-01
  2.5277581e+00
  2.1759383e-01
  2.5462154e-01
  5.0613746e-02
  4.3607605e-01
 -9.7364485e-03
  4.4689724e-01
  3.5544631e-01
  4.7196028e-01
 -5.1099095e-03
 -2.8964464e-04
  7.3880743e-04
 -4.2408285e-01
 -8.1218022e-01
  5.4006815e-01
  2.1929692e-03
  3.8584503e-03
  1.7970003e+00
  2.8448200e-01
 -2.6078945e-02
 -1.5268786e-01
 -4.4579138e-03
  7.7088571e-01
 -1.3808614e-01
  1.8147194e-01
  1.9702622e-01
 -1.2920316e+00
  1.2663977e+00
 -8.3840626e-01
  4.6323919e-01
 -7.7191931e-01
 -7.0340949e-01
  2.6167257e+00
  1.5165190e+00
 -5.8707005e-01
  2.8631946e-01
 -5.9416121e-01
 -7.3849775e-02
  2.0629831e-03
 -3.8610585e-02
  1.4373203e-01
  8.7845005e-02
 -7.1405940e-02
  2.5019493e-02
 -1.1866508e+00
 -1.2896735e-03
 -6.7621395e-03
 -1.6492615e-02
  1.1162671e+00
 -9.6772021e-01
  8.9815278e-03
  8.3389709e-04
  1.4397466e-02
  1.3030034e-05
  6.5667354e-02
 -6.2243562e-02
 -3.6727822e-01
  8.9262061e-02
 -1.1358237e-02
 -3.0855343e-03
 -2.7460283e-01
  1.2803699e-01
  1.8924712e+00
  3.3617072e-02
 -1.5503420e-01
 -2.5638950e-01
 -1.1487436e-02
  3.2862654e-01
 -6.6168559e-01
 -1.1194603e-01
  1.2530395e+00
  1.1956939e+00
  3.9291072e-01
 -2.6341172e-02
  3.3747237e+00
  1.0961838e+00
  2.5887833e+00
 -1.6421860e-02
 -2.5496545e-01
 -8.4182575e-02
 -1.7922924e+00
 -1.4474865e+00
 -2.2887176e-01
  9.8827936e-02
 -8.4230721e-02
 -6.0366392e-01
  1.9375892e-02
 -1.3975835e-01
  3.6921401e-02
  1.1448546e-01
 -1.3260250e+00
  4.1813767e-01
 -6.9506156e-01
  1.8898033e-02
  4.8650542e-01
 -3.7957931e-01
  1.1677593e+00
 -5.1994491e-01
 -2.1747598e-02
 -1.4638124e-02
  1.4567968e+00
  8.8020608e-02
  2.5783947e-01
 -2.9711845e+00
 -1.2337379e-02
  2.1967852e-02
 -3.4252696e+00
 -4.0430066e-01
 -5.6356293e-01
  3.3461779e-01
  2.5783741e-01
  2.0535931e-02
  5.4315543e+00
 -2.2363460e+00
 -3.1278580e-01
  4.3341923e-01
 -1.3586169e+00
 -3.3241066e-01
  7.7962637e-01
  1.2763486e+00
  6.1441880e-01
  6.4062215e-02
  9.5747614e-01
  2.4791975e+00
  6.4350688e-01
  3.8345612e-03
 -5.6399614e-01
  9.3931109e-01
 -2.6481574e+00
 -1.6700581e+00
  2.6530337e-02
  1.2355671e-03
 -7.7357513e-01
 -1.2000342e-01
  3.5832230e-02
  4.0058953e-01
 -5.2882630e-01
  1.1453758e-01
 -1.5729758e+00
 -3.3777881e-02
  1.9230397e-03
  3.1389889e-01
  4.2857075e-01
 -1.2481733e-01
  2.2837983e-01
 -1.0951509e+00
 -2.4217552e-02
  1.3546614e-01
 -2.0182058e-02
  5.3945947e-02
  1.5658106e-01
 -6.9492620e-01
  4.2440876e-01
  1.0986768e-01
 -1.1978602e+00
 -6.6786930e-02
 -2.8902125e+00
  1.7498210e-02
  1.8243065e-01
 -2.1485016e-01
 -1.2068059e+00
  8.5448927e-01
 -5.3242952e-01
  1.9326569e-01
  4.4224549e-02
 -4.7503099e-01
  1.4241804e-01
 -1.2691291e-02
  1.6206372e+00
  2.9137281e-03
 -6.0574108e-01
  1.2828015e+00
 -2.4502244e+00
 -2.5446489e-03
 -3.5594717e-01
  5.8643453e-02
 -4.8214251e-01
  1.8462657e+00
  1.2279833e-02
  1.0521395e-02
  1.8989005e+00
 -5.2168471e-01
  3.8806596e-01
  1.1985373e-01
 -3.0355576e-01
  2.8985053e-01
 -1.6903649e-01
 -8.8146344e-02
 -9.1349971e-01
 -3.2526892e-02
  5.0763589e-01
  1.1608664e-01
 -1.2559905e+00
  9.9235851e-01
 -8.7667173e-03
 -1.2719914e-02
 -1.0901438e+00
 -1.5295240e-02
  7.8818634e-02
 -6.2399828e-01
  1.2483814e-03
  7.7839158e-03
  9.7962892e-01
  9.3470002e-03
 -9.2647389e-02
  9.6531240e-03
  1.0808923e+00
 -3.7475380e-01
 -1.1401631e-01
  3.1723171e-01
 -1.4061861e-01
  3.7413858e-02
 -2.0871947e+00
 -5.0929570e-01
  4.0752858e-01
 -3.9853239e-01
  3.1065132e-02
 -2.8191010e-02
  8.2040989e-01
  1.0945184e-01
 -1.3338536e-02
  5.7122678e-02
  1.5939061e-01
  1.6633160e-02
  5.1135123e-01
  2.2570470e-01
 -2.3389446e-02
  2.7397674e-01
  5.0176167e-01
 -5.1403590e-02
 -1.7973380e-01
  2.8323948e+00
  3.6848679e-01
  5.3030201e-03
  9.8512188e-02
 -6.9251895e-01
  5.7671708e-01
  6.0400353e-03
  1.3426396e+00
  3.6856408e+00
  2.9634452e-01
 -1.9557518e+00
 -2.0388427e-01
 -5.5984117e-02
  5.9276391e-03
 -2.7682155e-02
 -2.2164954e-02
  7.9175971e-02
  1.0039287e+00
  2.7845245e-02
  7.3663253e-01
 -9.2995260e-03
  3.6326478e+00
 -1.0110850e-02
  1.3266217e+00
  2.2335186e+00
  3.6651409e+00
  1.3182856e+00
  3.7285234e-04
  9.7065736e-03
 -7.9017782e-01
  1.7684762e-03
  8.5728467e-03
 -7.3979020e-01
 -1.4342459e+00
  3.2928255e-01
  6.4694011e-03
 -5.9076542e-01
 -3.0868411e+00
  1.2148330e-02
 -2.4498525e-01
 -4.0461969e+00
 -5.0707641e+00
 -1.4211695e+00
  1.3530408e-01
  9.3742330e-03
  9.4096921e-03
 -5.7616487e-02
 -2.5531051e-01
 -4.0272275e-01
  3.9816290e-01
 -1.6392048e-01
  9.3061924e-02
 -1.8248361e-01
  3.2027488e+00
 -2.5629506e-02
  2.6080136e+00
  3.6116114e-01
  1.7308886e+00
  7.4819303e-01
 -9.5209457e-02
 -1.2293670e-02
 -2.6913793e+00
  1.6500393e-02
  5.1435757e-02
  2.7457199e+00
  3.3658955e+00
  3.7329946e-02
  9.0928227e-02
  1.0962724e-03
  3.7743175e+00
  1.3077503e-01
  2.8062112e+00
  3.2009554e+00
  1.3997867e+00
  3.8468113e+00
  6.3124113e-02
 -1.9525513e-02
 -3.4505028e-01
  6.7987302e-03
  4.1245134e-03
 -1.2942482e+00
 -6.2003112e-01
 -4.6137640e-01
  1.3107648e+00
 -2.5431259e+00
  1.0737920e+00
 -1.8424402e-01
 -1.4908123e+00
 -3.2768140e+00
 -7.9598862e-01
  6.1950189e-01
 -5.4493733e-02
 -3.3386655e-02
 -7.0820844e-01
 -3.0549979e-02
 -6.6035792e-02
  1.2874503e+00
  1.2989047e+00
 -2.3117015e-01
 -1.3116340e-01
 -8.4263223e-01
 -1.3638300e+00
  4.0042189e-01
 -1.3238052e+00
 -2.7137282e+00
  7.3493436e-02
 -9.4489932e-01
 -1.5710160e-02
 -6.8429373e-02
 -5.8463734e-02
 -1.4231745e-02
 -2.2075032e-01
  1.2302809e+00
  1.8394210e+00
  4.2338228e-01
  1.5055692e-01
 -4.2379899e-03
  1.3582443e-01
 -5.6660000e-02
 -9.2083049e-01
  8.1226194e-01
  1.7531403e+00
 -5.9199828e-01
 -1.3503057e-01
  2.3276987e-02
  1.3606458e-02
  2.4729544e-02
  1.6982913e-01
  1.9858341e+00
  3.0818588e-01
 -2.3721981e-01
  1.3852257e-01
 -1.2005294e-01
 -7.5769061e-01
 -5.5443037e-02
 -2.3867550e+00
  2.2835920e+00
  3.6526746e-01
  1.1258246e+00
 -5.1409625e-02
 -3.9432491e-03
 -1.1480391e-02
 -1.1861187e-01
 -7.3018909e-01
 -7.5578821e-01
 -5.8494323e-01
  3.4372456e-02
  7.0383018e-01
 -1.8008101e+00
  1.4034098e+00
 -2.4193337e-02
 -1.4244357e+00
 -6.9706011e-01
 -2.7549133e-01
  6.7366946e-01
  1.9337159e-01
 -7.4953124e-02
  2.2925138e-01
  2.5936784e-02
 -2.0618863e-01
  1.4109744e-01
 -1.7946921e-01
  2.0374022e-01
  1.2473520e+00
 -1.4627001e-01
  1.6290505e+00
 -6.1285388e-01
  8.9380473e-01
 -6.7580831e-01
  1.5382652e+00
 -9.1428985e-04
 -9.9401104e-01
 -1.6113936e-03
 -2.6220713e+00
  4.7898263e-01
 -5.9723639e-01
  1.4550269e-01
 -1.1072619e+00
  2.2862226e-01
  8.0473053e-01
  1.0315825e+00
  8.2362783e-01
 -7.9982311e-01
  8.4957999e-01
 -1.3430179e+00
  9.2335862e-01
  1.2697774e-01
  3.8435750e-02
 -2.2420076e-01
  6.9339544e-04
 -9.0033904e-02
 -2.1602929e-01
  1.0179643e-01
 -4.4799584e-01
 -6.1487824e-02
  1.2022923e+00
  1.1168078e+00
 -4.0188992e-01
 -4.1145527e-01
 -2.5001893e-02
 -3.4104481e-01
  9.5890564e-01
 -1.4487094e-01
 -3.0679620e-04
 -5.7497453e-02
  1.0935994e+00
 -4.3442491e-03
 -9.2755717e-01
 -7.0982287e-03
  1.5676236e+00
 -3.1958488e-01
  6.7172652e-01
 -8.4741801e-01
 -1.1248713e+00
 -1.2482800e-01
  1.4708029e+00
 -5.0532198e-01
 -1.0221606e+00
  6.6668504e-01
  2.7988425e-01
  1.8714301e-01
  7.2360843e-01
  1.7455539e-01
 -1.0252672e-01
 -1.0095574e-02
  1.6034024e-03
 -2.7104374e-03
  3.4110941e-02
 -1.0030335e-01
 -1.4249263e+00
  1.4878190e-02
 -1.4805910e-01
 -6.5051860e-01
  7.6107192e-01
 -2.6021755e+00
  2.2758243e-03
 -2.2654189e-02
 -2.4567474e-01
  7.3408503e-03
 -3.9086953e-02
 -3.0400082e-02
 -7.5793311e-02
 -1.4213398e-02
 -5.0264788e-03
 -2.7633464e-02
  9.7332525e-01
 -8.4264539e-02
  1.5439796e+00
 -6.6515172e-01
  1.5837686e+00
 -2.2997034e+00
  1.4165835e-02
  7.5500838e-02
 -6.5878272e-02
  5.0852761e-02
 -2.6476319e+00
  9.5711201e-02
 -9.9251252e-01
  3.4953873e-03
 -3.0431354e-01
  1.1768583e+00
  9.0928143e-01
  3.6424408e-03
 -1.2882485e+00
  1.6712749e+00
  5.0475297e+00
  3.3218122e-01
  2.0539922e-01
  6.1470787e-03
  1.3364378e+00
  2.1133095e-01
 -4.4157948e-02
 -1.0106963e+00
  1.0927411e+00
 -1.9270027e-02
  1.5088686e+00
 -1.6091470e-02
 -1.0662233e+00
 -3.1980034e-02
  1.3533342e+00
  2.9517052e+00
 -7.5705093e-03
  1.4592163e-01
 -1.6025482e-02
  6.7062518e-03
  1.4666922e+00
 -2.5668584e-02
 -6.4774267e-02
 -1.9908880e-01
 -1.6437011e-03
 -1.7390494e-01
  3.2092789e-01
 -9.9113379e-03
 -5.6604934e-01
 -2.9991999e-01
  1.0776703e+00
 -2.7759130e+00
  1.5876564e+00
 -8.6352551e-01
  1.3701573e-01
  2.1824740e-01
 -9.1409886e-01
  1.4448777e-01
 -1.8001362e+00
  1.0693779e+00
 -1.6564237e+00
  1.7046601e-02
 -7.7885240e-01
 -1.0046688e-01
  2.6212265e+00
  9.6268833e-02
 -2.9828945e-01
  3.8699380e-01
  5.7424992e-01
 -2.1120632e+00
  4.4265181e-02
 -1.7284503e-02
 -1.6992528e+00
  1.7342113e-01
 -6.2558004e-03
 -5.6549232e-02
  1.2506955e+00
 -4.9738967e-01
  1.4816129e+00
 -5.0119507e-01
  1.9406607e+00
 -1.3185135e-01
  9.1296846e-01
 -8.7405562e-01
  6.4198905e-01
 -1.2204433e-01
 -8.4437821e-03
  5.4991521e-02
  1.5406266e+00
  1.9753655e-02
 -2.9868034e-01
 -8.6604083e-01
 -6.7012072e-02
  6.7647469e-01
 -1.0149353e+00
 -3.6256230e-03
 -1.4223971e+00
 -5.3414231e-04
  2.6930320e-01
  9.1381866e-01
 -4.7349140e-02
  3.2109889e-01
  4.2445391e-01
  7.4249424e-02
  4.0160856e-01
  3.2125656e-02
 -1.0756330e+00
  6.7779440e-01
 -1.4345919e+00
 -1.4433634e-03
 -2.8826419e-01
 -1.2603014e+00
 -7.9950798e-01
 -9.0447534e-03
  8.5325938e-01
 -2.8287444e-01
 -2.1103974e-01
  2.8524230e+00
 -1.4981783e-03
  3.0237444e-02
 -1.2495402e+00
  3.0697972e-02
 -3.5714099e-01
 -8.9979112e-02
  8.2800407e-03
 -1.6682951e-01
 -1.7824957e+00
 -7.9857177e-01
  6.2965728e-02
 -3.5225692e-01
 -1.8551778e-02
  5.8096015e-01
  8.2037643e-02
  2.3432262e+00
  4.7359508e-02
  6.8229710e-04
  2.3256907e-01
  2.8917410e-03
 -6.6844955e-02
  1.1498576e+00
 -1.0892633e+00
  1.1719964e-02
 -1.2178886e+00
 -2.0721550e+00
  1.6466315e-01
  2.8696571e-02
 -2.5321001e-01
 -4.3110195e-01
  3.0408275e-01
  1.8695563e+00
  4.2900556e-01
  2.7855979e-02
 -9.0694547e-01
  2.2035676e-01
 -3.8087431e-03
  1.2264016e+00
 -9.1712892e-01
  3.3220168e-02
  8.0846339e-02
 -2.1905585e-01
  9.5846377e-02
 -2.3644730e-01
 -6.8845600e-01
  1.4429234e+00
  3.1800130e-01
  3.5526520e-01
  1.2447166e-02
  2.5285038e-01
 -1.4245456e-01
  3.9168078e-02
 -4.1632038e-01
  2.2376950e+00
  8.9100891e-01
 -9.0019219e-02
  5.5198538e-01
  8.9251101e-01
 -2.1151693e-01
  5.4079986e-01
  8.1507348e-02
  1.9254496e+00
 -1.1581800e+00
  3.4054878e+00
  4.6999839e-01
  8.9932114e-02
 -1.5412939e+00
  5.4365251e-02
 -3.1435329e-02
 -1.3091770e+00
 -2.8561583e-01
  3.0567735e-02
  6.6601390e-01
  7.1522254e-01
  7.1643245e-01
 -2.3085263e-02
  1.5772582e+00
  2.0138152e+00
 -1.6414571e+00
  5.3733578e+00
  7.2619570e-03
  3.2880284e-02
  8.0182332e-01
  2.8276017e-02
  4.1608226e-01
  2.6459826e-02
  2.8424530e+00
 -2.3480995e-01
 -1.6004570e-02
  7.7046782e-01
  1.9778299e+00
  2.3556830e-02
 -1.5118160e+00
 -6.2072544e+00
  3.5144334e+00
 -5.0502580e-01
  2.3289476e-01
  5.5932943e-02
 -3.2675292e+00
 -1.7959543e-02
 -5.4681100e-02
  2.3435502e-01
  3.5409186e-02
 -8.2842872e-02
 -1.7603971e+00
  2.3101232e+00
  2.0416836e-01
 -1.0225381e-02
 -8.2292080e-01
 -7.4840319e-01
  1.6827506e+00
 -3.7872853e+00
  4.2765278e-01
  7.7087246e-02
 -2.0862522e+00
  1.2834900e-02
 -9.3688965e-02
 -2.4832122e+00
 -4.1592464e+00
 -7.0191741e-02
  9.8591411e-01
  3.7175641e+00
 -2.5116777e+00
 -2.0111771e-03
  1.7789941e-01
  5.2784294e-01
 -6.3528121e-01
  6.4970113e-02
 -6.7114579e-03
  1.8944553e-04
  1.0902892e+00
 -2.7169645e-02
 -1.1409898e+00
 -3.3888307e+00
 -9.5960581e-01
 -7.1543109e-01
 -3.1361797e-01
  7.8971364e-02
 -4.8269863e+00
  2.3828579e-01
  4.6028233e-01
  2.2345493e+00
 -2.6173790e+00
  7.2656298e-01
  1.1228765e+00
  4.9133378e-01
  2.0049191e-01
  2.0185974e-01
  6.9571793e-01
 -1.4957097e+00
  7.0695752e-01
 -1.9712810e-01
  3.4374411e+00
  2.2918293e+00
 -2.2484674e+00
 -3.5036373e-01
  1.3397804e+00
 -4.8458400e-01
 -8.4821260e-01
  3.0397816e+00
 -2.8206540e-02
  7.6503359e-02
 -7.6943040e-01
  3.1556558e-02
 -6.5854889e-01
  2.3994750e-01
  1.5539209e+00
  4.1493826e-02
 -1.7272450e+00
  9.9700499e-01
  1.2450954e+00
  6.2159508e-01
 -1.2320560e-01
 -2.2271498e-01
  1.0929492e+00
  8.2639509e-01
  2.1379681e-01
  1.6406475e-02
 -8.7346798e-01
 -7.0599937e-03
  3.1046739e-01
  5.2696729e-01
 -1.8502734e+00
 -7.3659384e-01
 -1.5665339e+00
  6.3662225e-01
  3.4168277e+00
 -1.4322194e-01
 -1.8719923e-01
 -3.7469357e-01
  1.8799368e+00
 -7.2567290e-01
  7.7122748e-02
  9.0263255e-02
 -6.1844879e-01
  4.9794710e-01
 -1.7993141e+00
 -4.1347084e+00
 -3.2915905e+00
 -4.3177986e-01
  9.9890053e-01
 -6.7552531e-01
 -2.0833360e-01
  2.5248185e-01
 -8.3716178e-01
  2.3187056e+00
 -1.8307785e+00
 -2.4838345e+00
  2.7156262e-02
 -1.2317181e-02
 -5.7705593e-01
 -8.5176446e-02
 -1.2062677e-01
 -1.4236695e+00
 -2.7505260e+00
  8.0374551e-01
  2.3455889e+00
  3.5638615e-01
 -1.1513382e+00
  2.4175767e-02
  1.0890229e+00
  1.6174415e+00
 -1.9293863e+00
 -1.7034148e+00
  4.6837848e-01
  2.2382240e-01
 -3.7386638e-01
  5.4682381e-02
 -1.0311429e-02
 -2.1929853e+00
  3.1947580e-01
  7.4199826e-01
  1.9333279e+00
 -4.0892443e-01
 -8.8344252e-01
  4.1859326e-01
  1.9058590e-01
  4.6530205e-01
 -1.1616709e+00
 -7.7394998e-01
  2.8128248e-01
  1.1435460e-03
  4.3818902e-02
  5.4984380e-02
  3.7986690e-01
  8.4026134e-01
  4.7610199e-01
  5.5082992e-02
  1.7320360e+00
  1.8482086e-01
 -2.1092726e-01
  2.8693166e-01
  6.8386805e-01
 -8.4203428e-01
 -3.9704117e-01
 -1.8802074e-01
  7.5085565e-02
  4.5448971e-01
 -5.3374493e-03
 -2.1648902e-02
 -1.1061510e+00
  2.6066887e+00
  7.6075636e-02
 -1.6278155e-02
 -9.9518991e-01
  7.9200166e-01
 -2.1945400e+00
  8.1784558e-01
  2.1118522e-01
 -1.1025666e+00
  9.5602608e-01
  3.4919292e-01
  7.1651113e-01
  1.2358851e+00
 -1.2519906e+00
  3.9124180e-02
  1.0002365e-02
  3.1339188e+00
 -4.7429297e-02
 -1.5670801e-02
 -1.3681465e-01
 -1.0603169e-02
 -1.6910745e+00
  9.5312364e-02
 -1.8454366e-04
 -9.0925358e-02
  8.5296065e-01
 -1.3437521e+00
 -1.4490677e-02
 -3.4269013e-02
 -5.0635588e-01
  5.9309810e-02
  2.7616981e-02
  6.5893731e-03
  4.1509593e-01
 -3.0694506e-01
  2.6579231e-01
  1.8271124e-02
  4.6293199e-01
 -2.5264909e-03
  5.0536901e-01
  5.2924740e-01
 -3.5722977e-01
  1.2133880e+00
  1.5824723e-01
  1.4087813e-01
 -9.1316360e-01
 -3.9374575e-02
  3.7317082e-01
  1.2999989e+00
 -1.3935278e-01
 -1.2473167e-02
 -1.4086622e+00
  4.4445804e-01
 -2.4403425e-01
  2.5662008e-01
 -1.4557883e-01
 -4.6673426e-01
 -6.0639751e-01
  9.7346234e-01
  3.4758201e-01
  5.5675215e-01
 -1.5458692e+00
  6.8021029e-02
 -9.1076896e-02
 -1.0740824e+00
  2.6686983e+00
 -1.3420774e-01
 -1.4759023e-01
  6.8650380e-02
 -1.7063814e+00
 -2.9314947e-04
 -1.9209616e-01
  4.7741675e-01
  2.4337351e+00
  1.9775051e-01
 -7.1729091e-03
  4.7643937e-02
 -9.7659397e-01
 -2.3751147e-03
  7.4961179e-01
  2.1913767e+00
 -1.4796621e+00
 -9.9578798e-03
 -2.4477680e+00
  6.1699969e-01
 -3.8963695e+00
  6.0332870e-01
  3.4097207e-01
  3.2700427e+00
 -7.8454340e-01
  6.5489626e-01
  3.7135842e-01
  3.4654257e-01
 -2.2573538e-01
  1.5483053e-01
  3.0889016e-01
 -1.4144455e+00
  1.0028079e+00
 -7.8921495e-03
  1.2470526e+00
  8.5888386e-01
  2.5673950e+00
  4.9366885e-01
 -2.8124683e+00
 -7.0074552e-01
 -1.5331424e+00
 -6.7092054e-02
  7.7037014e-02
  3.4065824e-02
 -1.5108801e-01
 -1.0077098e-01
 -3.2169941e-01
 -2.1170300e-01
 -2.5185072e-01
 -4.0607959e-01
 -1.0144473e+00
 -7.4825031e-03
  2.3272505e+00
  5.8140438e-02
  1.6468151e+00
 -1.6186019e+00
  4.0406412e-01
 -1.4656471e+00
 -3.4814631e-03
  5.5116951e-01
 -9.8176485e-01
  1.5474322e-02
  1.4324130e+00
  1.0707155e+00
  3.2468924e-01
  4.0889677e-02
 -1.7014636e+00
  6.2029034e-01
  1.3440878e+00
  3.4593716e-01
  1.6908174e+00
  1.7484198e+00
  2.3253645e-01
 -6.5402091e-01
  4.7567153e-01
  1.1939085e-01
  7.8657478e-01
  2.5882682e-02
  4.8709455e-01
  1.7876235e-01
  5.1169002e-01
 -2.6949003e-01
 -8.6866587e-02
  7.3292769e-02
  1.2577933e+00
  4.3337777e-01
  1.9232103e+00
 -9.2177354e-02
  6.0259849e-01
  1.1210471e-02
  1.1448368e-02
  1.7306958e-01
 -7.2996902e-01
 -1.2022666e-01
  1.4839157e-02
 -8.5238421e-01
  4.0063980e-01
  5.2347060e-02
 -2.2931659e+00
 -1.5133183e-01
  1.6778398e+00
  3.2132009e-01
 -2.8495358e-02
 -9.2197776e-01
  1.0832058e-02
  5.1711649e-01
  1.9321731e-01
  5.1412129e-01
 -6.0600728e-01
  7.0810765e-02
  1.4321210e-02
  1.7073609e-01
  2.4204165e-02
 -3.9244521e-01
 -1.9426467e-02
  1.0018690e+00
  9.2018610e-01
  1.5549824e-02
 -6.1849797e-01
 -1.3188297e-01
  7.4795300e-01
  1.1850848e+00
  2.6745992e-02
  5.6083180e-02
 -1.5306973e-01
  1.9575800e-01
  1.3433276e-01
  3.7348413e-01
  1.3376936e-01
  2.7107099e-02
 -1.3784012e+00
 -1.1720760e-02
 -1.8444767e-03
  1.3755372e-01
 -1.7393613e+00
 -5.9767449e-01
  9.7496122e-01
  5.3880006e-01
  1.9584469e-02
  8.5946107e-01
 -7.4727900e-02
 -5.3122006e-02
  1.3785893e-02
  1.3785893e-02
  1.3785893e-02
  1.3785893e-02
  1.3785893e-02
  1.3785893e-02
  1.3785893e-02
  1.7057080e-02
  1.7057080e-02
  1.7057080e-02
  1.7057080e-02
  1.7057080e-02
  8.1920763e-03
  8.1920763e-03
  8.1920763e-03
  8.1920763e-03
  8.1920763e-03
  8.1493007e-03
  8.1493007e-03
  8.1493007e-03
  8.1493007e-03
  8.1493007e-03
  6.3442835e-03
  6.3442835e-03
  6.3442835e-03
  6.3442835e-03
  6.3442835e-03
  2.1527242e-03
  2.1527242e-03
  2.1527242e-03
  2.1527242e-03
  2.1527242e-03
