nep3 4 C B H O 
cutoff 8 4 47 20
n_max 8 4
basis_size 12 12
l_max 4 2 0
ANN 100 0
  2.9987611e-03
 -2.7291127e-04
 -5.9713775e-01
 -1.4581703e-01
 -2.1632539e-02
 -1.7194645e-01
 -1.4704572e+00
  2.5413519e-01
 -5.5249721e-01
 -3.8759220e-01
  6.0979235e-01
 -6.7603490e-03
  8.9818768e-02
 -6.8660766e-02
  5.4365527e-03
 -1.4568742e-01
 -5.0320633e-02
  2.3725994e-01
 -3.1504996e-02
  2.3377845e-02
  3.1065105e-02
  3.3951274e-01
  9.0595381e-03
 -1.7273529e-01
  6.3865848e-02
 -1.0694245e-01
  4.4520441e-03
  1.1421055e-01
 -8.5424623e-03
 -1.8777005e-02
 -1.8125709e-02
  3.2196476e-03
 -4.1362359e-03
  1.5935577e-02
  1.1367428e-02
 -3.9222088e-02
 -2.3895627e-02
 -3.4772683e-02
 -4.5386713e-02
  4.3609850e-03
  1.3415121e-01
  2.8794548e-02
 -1.0362286e-01
 -6.6140993e-03
 -6.0368674e-03
 -9.4696460e-04
 -2.7698003e-02
 -1.4280383e-01
 -3.8868193e-02
 -2.1007948e-02
 -4.6810373e-03
 -1.2709045e-02
 -1.5997577e-01
 -1.0851448e-01
  6.6513203e-02
  6.3170921e-03
 -4.7435794e-02
  1.7461285e-03
 -2.3907352e-02
 -1.0024158e-01
 -7.6464705e-02
  4.2566989e-02
  1.0201986e-02
 -1.9326111e-02
  1.0338626e-01
 -1.6139697e-03
 -1.6586205e-01
 -4.0706568e-03
  9.8015713e-03
  1.7264675e-03
 -6.1246040e-03
  3.2734182e-03
 -9.3305055e-03
  2.4806662e-04
 -3.8593600e-04
 -7.6127537e-03
 -3.7387736e-02
  5.2272077e-03
 -4.6794806e-03
 -1.0815678e-02
  4.8712362e-03
 -1.1645779e-03
 -2.0575102e-03
 -2.7565716e-02
 -3.6294991e-04
 -2.0567982e-02
  6.0897600e-03
 -4.7524450e-03
  1.8484985e-02
  9.9711958e-03
  1.0212262e-02
 -2.0330208e-03
 -1.5013759e-02
 -3.7242215e-02
  2.9476534e-03
 -4.3352444e-02
 -5.8521684e-03
 -9.9194944e-03
  5.3432734e-05
  4.7336356e-03
  2.8993944e-02
 -1.6712099e-02
 -5.2002143e-02
  1.7212830e-02
 -5.5824451e-02
  9.5071429e-03
 -9.4172619e-02
  1.2788679e-03
  7.5925517e-01
  4.6517605e-01
 -4.7037956e-01
 -1.9385591e-02
 -1.9054065e-02
  3.1651918e-02
 -2.1961436e-01
  4.6898264e-02
  5.9801765e-02
  2.5460130e-02
 -1.2282142e-03
  2.9681804e-02
  2.7156693e-03
 -9.6540743e-01
 -4.4336047e-02
  7.4084772e-04
 -5.9277590e-02
 -2.0958712e-02
  1.0315049e-02
 -8.0676014e-03
 -2.4163963e-03
  7.9441361e-02
  1.7217899e-02
  1.2391967e-01
 -1.6273886e-02
 -5.5443826e-03
 -1.1021168e-02
  7.2076201e-04
  2.2310240e-03
  2.4321205e-03
  4.3221661e-03
  8.4140562e-03
  2.8925936e-03
  9.3731564e-03
 -9.1951923e-04
 -1.1444619e-03
 -3.1786102e-03
  1.3580434e-03
  1.0126571e-02
 -1.3812684e-02
  4.6471525e-02
 -6.0982276e-03
 -8.0424948e-03
  2.3028685e-03
 -3.8142244e-03
 -4.7405515e-02
  1.4471490e-03
  2.6931196e-02
  2.4764178e-02
  2.3019042e-02
  2.6212959e-02
  1.7448612e-02
  9.3221618e-03
  5.3613614e-03
  2.0816106e-02
  3.1320909e-03
 -7.9042288e-03
 -2.6489828e-02
 -6.5084142e-03
  4.1495867e-02
 -1.2690828e-02
 -1.5350184e-02
 -9.8053832e-03
 -7.2030106e-04
 -3.5895219e-03
 -1.1038248e-02
  1.0396146e-03
 -4.9804416e-02
 -4.7634404e-02
  3.1102424e-02
 -2.3719817e-02
  3.3757505e-03
  7.9745557e-03
  1.4319494e-02
  9.2851110e-03
  1.0439725e-02
 -1.4565915e-03
  3.4687039e-03
  1.1459807e-02
 -8.3096856e-03
 -1.4019474e-02
  8.4640838e-02
  1.7800062e-03
 -1.4254285e-02
  4.7389012e-02
 -1.3164173e-02
  2.5559114e-03
 -1.2983746e-02
 -2.7931880e-02
 -2.1790594e-02
  7.4192006e-03
 -7.5104058e-04
  1.2100014e-02
  1.8661875e-02
 -3.9757104e-03
 -6.0906336e-03
  2.1578936e-02
 -1.4945279e-02
 -3.9653871e-03
 -4.6121925e-03
 -1.3413463e-02
  1.1694627e-02
 -2.2304201e-02
  2.2120806e-03
  1.7597031e-02
  1.9923103e-01
 -2.4889262e-02
  7.0397938e-03
  1.3708443e-02
 -5.8365497e-04
 -1.6067148e-03
 -1.1529549e-02
 -9.3844291e-03
 -1.8718639e-02
 -9.9747051e-03
  1.6199028e-02
  5.0841887e-03
 -3.6777906e-02
 -3.5910401e-02
  4.8459284e-03
  5.5235364e-03
  1.5929539e-04
  1.5312602e-02
  1.0288782e-02
  1.2161406e-02
 -1.2730107e-02
 -1.0749266e-02
  1.6568851e-02
 -1.5380411e-02
 -9.1766324e-03
 -1.2979515e-02
 -2.4912818e-03
  1.6109799e-01
 -1.1721844e-03
  1.2570443e-02
 -5.9296042e-03
 -3.8422719e-02
  1.0342349e-02
 -9.9592321e-03
  1.8221240e-02
  4.0352505e-02
 -1.1013371e-02
 -2.8779855e-02
  6.0373428e-04
  8.3537906e-04
  1.7497928e-03
  3.4390282e-02
 -1.0950710e-02
  1.8434402e-03
 -1.4752449e-02
 -2.7217370e-02
 -1.1764933e-02
 -1.1611351e-02
  2.4046607e-02
  9.5946342e-03
  2.7378583e-02
  3.7923817e-02
 -4.3759206e-03
 -3.7715580e-02
 -1.8877298e-02
 -3.5556001e-03
  1.1907159e-02
 -2.0470036e-02
 -4.4881959e-02
  1.1482202e+00
  7.9268575e-01
  2.8304362e-01
 -3.8367289e-01
 -1.5204089e+00
 -4.7526926e-01
  6.9181097e-01
  1.3404934e-03
  1.2963605e+00
 -8.7187308e-01
  1.3305397e+00
 -1.1108435e+00
 -1.1338485e+00
  2.4523361e-01
  1.3416390e+00
 -3.1593423e-02
  1.4371139e+00
 -1.4735608e+00
 -2.6397688e+00
  9.5064998e-01
  6.1482470e-02
 -1.1219540e+00
  4.5061085e-01
 -1.7302078e+00
 -5.4930527e-02
 -6.2615253e-02
  8.6509567e-01
  1.6076735e+00
 -5.6181008e-01
  5.8766168e-01
  2.3894730e+00
 -6.4586438e-02
 -3.1069462e+00
  5.5002391e-01
 -3.5203107e-02
  3.4628361e-03
 -1.4558528e-01
 -7.0045022e-03
 -4.9452577e-02
  4.6473354e-02
  1.8584467e-02
  1.5156365e-02
 -8.7374330e-02
 -7.8957230e-02
 -1.3836385e-03
 -6.3450411e-03
  2.0883242e-02
 -1.2064650e-02
 -1.1237257e-02
  1.1099721e-02
 -9.1970759e-03
  1.4715582e-03
 -2.9278332e-01
 -2.5573393e-02
  1.7393988e-03
  2.0589245e-02
 -1.3874118e-03
 -1.9665830e-02
 -1.3854525e-02
  3.8914499e-05
 -1.0673973e-02
  2.4666896e-03
 -2.2375438e-01
 -8.4741928e-02
  2.7687564e-03
 -3.9342648e-04
 -9.7030841e-02
 -1.9129971e-02
 -2.1452844e+00
  6.7706561e-01
  2.5758402e+00
 -4.2143983e-01
 -2.0341493e-02
 -6.2622583e-01
  4.0040535e-01
  2.4058561e+00
 -5.8582747e-01
 -1.3890545e-03
 -1.9750407e-01
  2.6331475e-01
 -5.0296310e-02
  5.8462787e-01
  1.5514851e+00
 -1.6604103e+00
 -5.1033148e-03
  3.9143491e-01
  1.7625305e-01
  1.8290825e+00
 -4.3168867e-01
  2.5534478e-01
 -9.1450560e-01
 -2.8166229e-02
  2.4322309e+00
 -2.3604202e+00
  5.8672351e-01
 -1.1809357e+00
  1.6665834e-01
  2.2857612e-02
 -8.1930101e-01
  1.1682436e-01
  1.0100278e-01
 -9.8463249e-01
 -2.0045117e-02
  1.9621511e-05
 -2.6292158e-02
  2.8174624e-03
 -3.6913410e-02
  1.6756853e-02
  3.8200757e-03
 -1.3989227e-02
  1.3288309e-01
 -3.7924852e-03
  3.5886501e-03
  6.7842804e-02
 -1.2890928e-02
 -1.8112225e-02
 -1.2236800e-02
 -1.9824734e-02
  5.0685469e-02
 -3.6203139e-02
  2.2702947e-02
  1.1762411e-01
 -1.7025758e-02
  1.5126626e-02
 -7.8437682e-03
 -8.5946005e-03
  2.1663401e-02
 -1.9337043e-02
 -8.7791812e-03
 -3.2942731e-02
  1.5972773e-02
 -3.4420531e-02
 -1.9422230e-01
  2.0212950e-02
  6.2815766e-03
  5.0032032e-03
  4.5589530e-03
  3.5109330e-02
  1.5552735e-02
 -1.6252201e-02
 -1.2948351e-02
  2.6174200e-01
 -6.2863249e-03
 -6.3896114e-03
  1.9234702e-02
 -1.5434622e-03
  7.2830082e-03
  8.2413107e-03
 -1.3867579e-02
 -5.2673854e-03
  5.2310145e-03
  8.5136499e-03
 -3.6687322e-02
  1.1270272e-03
  3.1151285e-02
 -2.2277957e-01
 -7.0123649e-03
 -2.7129453e-01
  1.1043497e-02
 -5.8601253e-02
 -2.5186703e-02
  1.7436363e-02
 -3.3337553e-03
 -4.7385432e-03
 -1.2854700e-02
  1.3498580e-02
  8.3739487e-03
  1.3758842e-02
  5.6031201e-04
 -4.1379980e-03
 -1.8972894e-02
 -3.0042343e-03
  2.9684059e-02
 -5.0867017e-02
  1.8651059e-01
 -1.2642435e-02
  7.3858537e-02
  1.0137273e-01
 -7.8292917e-03
 -3.4706201e-02
 -7.6633408e-03
 -7.7843410e-03
  6.5345854e-02
 -4.5874774e-02
  2.1949891e-02
  3.3066322e-03
 -8.1996709e-02
 -3.5517106e-03
 -7.2053641e-02
 -2.1439696e-02
  1.2482237e-03
  1.8073805e-01
 -4.4588435e-02
  6.0695689e-02
  3.6701273e-02
 -5.1346030e-02
 -1.0431518e-02
 -1.0162214e-02
 -2.0028511e-02
 -2.6130222e-03
 -5.8776056e-03
  3.4002960e-02
 -1.4147724e-03
  1.9515805e-02
  5.7636496e-02
 -2.5638975e-02
 -2.4055356e-02
 -3.0052117e-03
 -1.1111241e-02
 -4.2843994e-02
  7.7070533e-03
  8.2964696e-02
 -1.8326974e-02
 -7.0608594e-02
  7.3291409e-01
 -1.1391935e-02
  7.5786752e-03
 -2.2266041e-02
 -1.8863024e-02
  1.9246791e-02
  1.0099862e-03
  1.2733805e-02
 -3.8953294e-04
 -1.7288670e-01
 -1.0182007e-02
 -1.1932714e-02
 -1.7711225e-03
  1.0575905e-02
 -2.0128936e-02
  1.5306807e-02
  2.1764769e-03
  1.0906217e-01
 -4.1180491e-03
  6.3504903e-03
 -6.4934947e-02
  2.9453387e-02
 -1.5277815e-01
  1.3524436e-02
 -1.9698938e+00
  1.9781848e-02
 -1.4795850e-01
  2.7218884e-01
  4.1195038e-03
  2.8950617e-01
 -3.2744110e-01
  8.5220989e-03
  1.5938703e+00
  6.1834557e-03
 -2.6347935e-01
  4.9314834e-02
 -2.9631126e-01
  3.6987618e-02
  1.0869151e-02
 -3.8631175e-02
  8.2182270e-03
 -1.8657247e-02
  2.7879607e-04
  4.3660891e-01
  1.7612673e-02
 -7.1423858e-01
 -3.3715151e-03
  2.2418230e+00
 -9.6722564e-04
 -5.7248119e-03
  5.8161188e-03
 -1.8053304e-02
  4.6254616e-02
 -1.3366412e-01
 -1.2621882e-02
  1.2143172e-02
  3.0592144e-02
  2.2314111e-02
 -1.0384398e-01
  3.0832239e-03
 -1.5051266e-02
  7.4849233e-02
 -1.2883138e-03
 -1.4223858e-02
 -5.6507856e-02
  3.1104770e-01
  8.7184653e-02
  3.2705046e-02
 -6.4183101e-02
  4.0180642e-02
 -1.8370172e-02
  6.4619064e-02
 -1.3645780e-02
  6.2781878e-02
 -1.3018798e-02
 -1.3148986e-02
  1.7873870e-03
  3.8480870e-02
 -9.1260090e-02
  3.7910605e-03
 -1.0329348e-03
  7.3146328e-02
  3.2565210e-02
 -1.2066859e-02
  4.2706407e-03
 -2.5103649e-02
  8.7725408e-03
  3.8844105e-03
 -2.3300527e-02
  2.0530179e-02
  2.8799007e-02
 -1.7452735e-02
  6.5808691e-02
  2.5150748e-02
 -5.5116553e-02
 -7.8468776e-01
 -8.2091736e-03
  1.0768789e-02
 -1.3638479e-01
  4.0338803e-03
 -2.1854590e-03
  1.1058940e-02
 -1.1188899e-03
  5.4941964e-03
  1.5896383e-03
  1.0814934e-02
 -8.0966549e-03
 -3.3202213e-03
 -8.2776723e-03
  3.6781887e-04
 -1.0885588e-02
  4.9120737e-03
  5.1612013e-05
  1.7733987e-02
  1.8351758e-02
  6.5824385e-03
 -3.9178684e-02
  1.0343201e-02
 -3.5678002e-04
 -1.4291147e-02
 -3.1556275e-03
 -5.5118781e-02
 -1.1029923e-03
  3.0021803e-02
 -3.7614178e-02
  2.2375025e-02
  8.1167036e-01
 -1.1038335e-02
 -1.6463505e-01
  3.5125688e-02
 -9.2373174e-01
  9.3973093e-02
  2.6759198e-01
  2.5772797e-03
  6.7286253e-01
 -3.5585701e-02
  4.1704919e-02
  1.5347039e-02
 -3.8294163e-02
  7.2907053e-02
 -9.5312828e-03
 -7.3274048e-03
 -6.5770984e-02
 -7.8256745e-03
  4.7159463e-02
  7.8775667e-02
 -8.7697916e-03
 -4.2783343e-03
  1.6938720e-02
  5.2053731e-02
  1.2663265e-01
 -1.9008392e-02
 -7.9627091e-01
 -4.4382731e-03
 -7.4501038e-02
  1.0737760e-03
 -3.3748709e-02
  4.5051221e-02
 -1.8415650e-03
 -3.4654472e-02
  1.0373220e+00
  5.0303839e-02
  7.3955154e-01
  1.6586740e+00
  5.1825259e-02
 -7.5242084e-01
  3.3094716e-01
  8.8054025e-01
  2.9761631e+00
  1.0225967e-01
 -1.2696812e+00
  5.9997046e-01
  9.6797931e-01
  1.9806428e+00
  1.9864972e-01
 -3.1758878e-01
  4.8321614e-01
 -1.4017212e+00
 -9.0247852e-01
 -1.1141120e+00
  4.6471250e-01
 -1.2175435e+00
 -4.4165915e-01
 -1.9458930e+00
 -5.9436023e-01
 -6.8189561e-01
 -6.4021099e-01
  8.3286047e-02
  3.6731103e-01
  8.5340941e-01
 -8.4853107e-03
 -3.3301234e-02
  6.3375033e-02
 -5.0209713e-01
 -1.3951330e-01
  2.0521972e-01
  4.7610383e+00
  8.5050359e-02
  1.6257152e-02
 -7.5830460e-02
  1.7757347e-02
  8.9421831e-02
 -1.6448038e-02
 -4.8999920e-02
 -1.4443836e-01
 -5.1472310e-02
  4.3624483e-02
  1.9568652e-02
 -2.2022772e-01
  3.3926591e-03
  4.5571521e-02
 -8.2484253e-02
 -3.1116831e-01
 -1.6302972e-01
  9.3004137e-02
 -1.1687305e-02
 -1.0362916e-01
 -1.8871941e-02
  2.4538980e-01
  1.6319500e-01
 -3.2161180e-02
  1.5875084e-02
  6.1949678e-03
  3.4254816e-01
  2.0585796e-02
 -2.1657621e-02
  1.0640610e-01
 -1.2238348e-04
  1.3655740e+00
  4.0164363e-01
  1.0218302e+00
 -1.2558488e+00
 -2.3311466e-02
  7.1211034e-01
 -1.1187173e+00
  6.5422505e-01
 -3.8740918e-01
 -4.7022167e-01
  2.8531495e-01
 -1.1229111e+00
 -1.6908766e-01
 -1.6106645e+00
  1.8710996e+00
  3.9534426e-01
 -8.5374665e-01
 -1.1606934e+00
 -1.9436920e+00
  2.4607842e+00
  1.3327618e+00
 -1.1593331e+00
 -1.5882193e+00
 -2.5926118e+00
  9.9995464e-01
 -4.0845999e-01
 -1.4552563e+00
  1.4455836e-01
 -7.7813515e-03
 -3.1340476e-03
  4.8677608e-01
  6.6082495e-01
 -3.5303912e-01
  1.7851895e-02
 -1.4285491e-02
  4.7644863e-01
 -4.8724655e-02
  6.5498250e-03
 -4.1786242e-02
  2.5483408e+00
  2.5798621e-02
  3.2261305e-02
 -2.4367568e-01
 -2.0666331e-01
  4.9485886e-03
  1.2414924e-02
  1.9598706e-02
 -1.1899169e-02
  2.5944111e+00
  4.3144301e-03
  5.5911656e-02
  4.4386283e-02
 -9.4278809e-03
 -1.3387059e+00
 -1.1886773e+00
 -1.9181600e-01
 -2.2494771e-02
  4.5779500e-02
  2.4894534e-02
 -3.2966107e-02
 -5.7713769e-05
 -6.0233250e-03
 -2.5220679e-02
  1.3737982e-02
 -1.2174349e-01
  1.2832360e-03
 -3.9059225e-02
 -1.6288828e-02
  2.1599741e-01
  1.4812179e-01
 -2.7508575e-01
 -2.5129682e-01
 -6.6658539e-01
  5.6065553e-01
 -9.0009093e-01
  3.5181332e-01
 -5.6769520e-02
  3.6675051e-01
  7.6502383e-02
 -8.6526448e-01
 -6.8487324e-02
 -4.7556910e-01
  2.2533110e-01
  1.3228868e+00
  2.5486231e-03
  1.2061125e-04
  1.0218797e-01
 -3.1557941e-01
  2.2924451e-02
 -3.0850491e-01
 -2.9734422e-02
  1.0664046e+00
 -1.8771479e-01
  2.3261859e-01
 -1.2285161e-01
 -1.1049256e+00
  5.5532210e-02
  1.8435298e-02
  9.2693299e-02
 -1.7305590e-02
 -1.0228192e+00
  2.5125830e-02
 -3.2743496e-01
 -6.3658915e-02
 -7.9549905e-03
  3.7495907e-02
 -1.7271681e+00
  8.8998920e-01
  1.0289359e+00
  2.8502464e+00
  6.4570695e-01
 -3.3014747e-03
  8.3109647e-02
  4.0566824e-02
 -2.5972092e-01
  1.3925054e+00
  8.6905628e-01
 -9.2140608e-02
  1.6253630e-02
 -5.6603080e-01
  8.1842947e-01
 -4.9548978e-03
 -2.2378089e-01
 -7.7478945e-02
 -5.6543136e-03
  3.9115369e-01
 -3.8744127e-03
 -1.3296170e+00
 -2.4151470e-01
 -8.8896841e-02
 -5.6821026e-02
 -6.9426918e-01
 -7.8079835e-02
 -3.4252936e-01
  5.9988701e-01
 -2.9704282e-01
  2.3440091e-01
 -3.2285103e-03
  2.1707822e-01
  1.6888688e+00
  1.1937948e+00
  1.7795957e+00
 -1.0288541e+00
  5.9112240e-02
 -7.6111400e-01
  1.6519905e+00
  2.0638382e+00
  8.8068795e-01
  2.5041935e-01
  5.2186859e-01
  1.2245363e+00
 -1.7132231e+00
  3.0902483e+00
 -7.3898487e-02
 -1.3469046e-01
 -1.3521945e+00
 -5.6466067e-01
  9.0913600e-01
 -1.6905174e+00
  1.0299063e+00
 -7.1757656e-01
 -9.0410697e-01
  7.1102720e-01
 -1.6146950e+00
  9.8326635e-01
 -1.6016455e-01
  1.4188188e-01
  1.7925626e-01
  1.1928342e-01
  1.3322301e-02
  7.8592554e-02
 -6.4959121e-03
  6.0203224e-01
 -1.8451788e-01
 -4.9273907e-03
 -8.4492102e-02
  5.4495219e-02
  9.2337132e-02
 -7.7798009e-01
 -3.5336643e-01
  4.1174784e-02
  6.8978248e-03
 -4.3409667e-03
  1.4013688e-01
 -2.4230348e-01
 -1.4279708e-03
 -3.5785660e-02
 -1.9781595e-02
 -1.7470561e-02
  4.5918363e-01
 -3.0548442e-03
 -1.0538174e-02
 -4.5256838e-02
  2.1895947e-02
  3.6127064e-03
 -3.5266874e-03
 -1.5348963e-02
 -6.5891305e-03
  1.9883463e-02
  2.1058051e-02
  1.6747437e-02
  8.5316162e-04
 -3.2220405e-02
  3.7793864e-03
 -1.8663007e-01
 -2.5134140e-01
  1.0649781e+00
  1.4052616e+00
 -1.8545419e+00
  2.0308032e+00
 -6.3742971e-01
  9.6181589e-01
 -1.2569959e+00
  1.8124589e+00
 -1.3013260e+00
  7.5798482e-01
  9.7101253e-01
  7.0030791e-01
  2.1018629e+00
  1.9850209e-02
 -3.6868018e-01
  6.2288117e-01
  3.2158365e+00
 -1.0492327e+00
  8.3664548e-01
  1.5345753e+00
 -1.5950796e-01
 -2.6488656e-01
 -1.6155303e+00
  3.9520970e-01
  1.2058140e+00
  5.3209585e-01
 -2.6505321e-01
 -1.9654855e+00
 -2.0531686e-02
  9.2461929e-02
  2.5667709e-01
  2.3183562e-02
  9.8561049e-01
 -3.0561534e-01
  1.9234751e+00
 -2.0955966e-01
 -2.1279712e+00
  4.3146315e-01
  2.4312720e+00
 -5.7993251e-01
 -2.2702229e+00
 -1.3660641e+00
 -4.1243353e-01
  1.1248496e+00
 -6.4709887e-02
  9.7278839e-01
 -3.6391035e-02
  4.0841520e-01
  2.6691777e-01
  3.4337401e-01
  4.1181657e-01
  1.4380909e+00
  4.2627535e+00
 -3.1490974e-02
  7.7952363e-02
  4.3976444e-01
  2.0500679e-01
  1.0842463e+00
  1.2334998e+00
 -3.3706439e-01
  7.7013308e-01
  2.8154683e+00
 -2.0136014e-02
 -3.5196471e-03
 -1.9864494e-01
 -3.2577172e-02
 -2.1703983e-02
 -6.4733434e-03
 -1.2376856e-02
  2.0010719e-02
  8.9531198e-02
 -7.2988451e-02
 -1.5090790e-04
  1.2251020e-02
 -1.5000475e-03
  4.6486471e-02
  3.3972230e-02
 -2.1175779e-03
  3.5217474e-04
 -3.2588404e-03
 -5.6646693e-02
  4.4135740e-03
  1.0406791e-01
 -3.6961008e-02
 -3.0795487e-02
 -1.7035775e-02
  1.1335630e-02
 -2.2378273e-02
 -2.0844717e-02
 -5.7814587e-03
  9.3106832e-03
 -1.9857942e-01
 -2.2979781e-02
  7.1926378e-03
 -9.6667586e-03
  7.9145329e-03
 -7.8811366e-03
 -6.2213191e-03
  4.2031729e-03
  1.8865997e-02
 -2.1272595e+00
  5.2608129e-02
 -4.0439099e-01
  5.8864576e-01
 -9.2035411e-03
  1.0258652e-01
 -5.7919699e-01
  1.9922602e-01
  7.5800753e-01
 -4.2840388e-02
 -3.4795597e-02
  3.1204200e-01
 -4.4523448e-02
  2.5715306e-02
 -7.2408165e-03
 -4.0789861e-02
  5.3926885e-02
  4.9819920e-02
  3.5103805e-02
  9.1028953e-01
 -3.3440087e-02
 -7.0585676e-02
 -3.2833576e-02
 -7.3551781e-02
 -2.9146475e-01
  1.2102798e-02
  2.4483307e-01
 -1.8587330e-01
  6.7960411e-02
 -1.1323016e-02
 -2.8637026e-02
  1.4047424e-02
  1.7992292e-02
 -2.1720920e-02
  3.7210297e-02
 -2.1864004e-01
  6.6332422e-02
  7.3022962e-02
  1.0684261e+00
 -1.7882699e-02
 -3.3859810e-01
  1.7033916e-02
 -3.0692515e-01
  2.1581540e-02
  3.9669448e-03
  1.7692190e-02
 -1.2937010e-02
  8.7951310e-02
 -2.3392235e-01
  7.4701190e-02
  1.1948871e-02
 -2.1259460e-01
  5.5915678e-01
 -1.6419197e-02
 -3.7917614e-01
  2.3938161e-01
  8.0211004e-03
 -1.9415212e-03
 -2.8929636e-01
 -6.3921274e-03
 -3.4221289e-01
 -5.5357963e-02
 -6.8790652e-03
 -1.8961728e-02
 -1.0349789e-01
 -4.3759020e-03
  2.1099527e-01
 -1.5684146e-03
 -1.8426100e+00
  9.9139567e-03
 -3.2364893e+00
  2.7091128e-01
  3.9812875e+00
 -2.0387421e+00
 -1.9346576e+00
  9.4319507e-02
  2.0553594e+00
  3.3106264e-01
 -2.0934699e+00
  6.5219003e-01
  8.6334562e-01
 -5.1366467e-02
  3.6568577e+00
 -2.2294476e+00
  9.0813160e-01
 -1.1632795e+00
 -2.5712280e-04
  1.9430537e+00
 -3.0746009e+00
  8.0474055e-01
  2.7451888e-02
 -7.5787894e-02
  1.0632724e+00
 -1.2500430e+00
  5.4117274e-01
  1.1046018e-01
 -5.7229948e-01
  2.8423798e-01
 -5.3525817e-02
 -1.3011012e-02
 -2.4643868e-02
  6.9781885e-02
 -3.4731266e-01
  1.7951090e+00
  1.3788377e+00
 -7.4876887e-01
 -5.4228911e-03
  1.1798291e+00
 -9.1302657e-01
  1.5706910e-01
  5.3565294e-01
  2.4274094e-01
  2.7417333e-04
 -2.5630900e-01
 -2.9973768e-02
  9.2053702e-03
 -7.3708278e-01
  9.3769193e-01
  1.0408805e-01
  1.4784441e+00
  3.8487402e-01
 -1.5245142e+00
  6.4109617e-01
 -9.3863332e-01
  3.7417971e-02
  2.2487302e+00
 -2.5645475e+00
  1.2279416e+00
  4.6931468e-02
  1.4232686e-01
 -1.1050013e+00
  1.1937723e+00
 -6.8625752e-03
  2.9785734e-02
  1.4274738e-02
  3.6430783e-03
 -1.8861324e-01
  7.4134166e-03
 -4.8904117e-02
 -1.4668819e-01
 -4.4458327e-01
  4.9687997e-02
 -8.0964059e-02
  1.8249974e-02
  3.3456156e-01
  6.2313002e-02
  1.4443041e+00
 -1.7006211e-01
 -3.4639111e-01
 -2.3181699e-01
  3.2673726e+00
  1.1818005e-01
  2.5092855e-01
 -2.8845218e-01
 -8.8564777e-01
  5.5580205e-01
 -6.4682794e-01
 -1.6875203e-04
  7.1228194e-01
 -1.6586252e+00
  3.8925707e-01
 -6.3154972e-01
 -1.4468945e+00
  7.4843243e-02
 -7.0742553e-01
  1.3772328e+00
  7.6417297e-01
 -1.6189353e-03
  1.2464342e-02
 -1.0797123e-01
 -1.5084661e-02
 -5.7376388e-02
 -1.6359104e-02
  1.4829678e-02
  3.4524284e-03
 -1.6774490e+00
  7.5438940e-03
 -5.1369339e-02
  8.1557751e-01
 -6.8922122e-03
 -3.7394024e-02
 -2.6304342e-02
 -5.4352926e-03
 -4.6704351e-03
 -3.7379068e-01
 -3.3956373e-03
 -3.8223773e-02
 -4.4007689e-02
  6.1505451e-03
 -6.1273408e-01
  1.7388402e-02
  3.1694412e-02
 -2.0835090e-02
 -2.5587209e-02
  6.9484514e-01
 -3.3097710e-02
 -6.2135804e-02
  3.5261423e-03
 -3.9141223e-02
 -7.8347896e-04
  1.4372207e-02
 -1.4199150e-02
 -1.0638742e-02
  5.0009391e-03
  1.4020969e+00
 -1.6571847e-03
  2.2181267e-01
 -1.2350131e-01
 -6.0101794e-03
 -1.4106712e-01
 -1.9285613e-01
 -6.5097795e-03
  9.3202680e-01
  1.6500567e-01
 -1.4058946e-01
 -1.4228829e+00
  5.5775424e-03
 -5.4861166e-02
  4.7637768e-02
 -1.7691826e-02
 -1.8783312e-02
  4.2426474e-03
 -1.7921813e-02
 -1.8616084e-02
  1.2630432e-02
  6.7410365e-02
 -1.9440012e-01
 -4.3234937e-02
  1.2890623e+00
  6.7545801e-02
  3.4281358e-02
 -4.5049123e-02
  3.7047206e-03
  2.5174463e-02
  3.7317565e-01
 -1.0262290e-02
  7.9491595e-03
  4.3526315e-03
  1.7364275e-02
 -1.0289863e-02
 -8.0355247e-03
 -1.8361600e-02
  8.0783805e-03
  9.9441577e-03
 -3.3445864e-05
  1.7825468e-04
  3.3262268e-02
 -3.0152028e-02
 -1.1138934e-01
 -9.5298560e-03
 -2.4140272e-02
  7.1027063e-02
  5.1814207e-04
 -4.3265969e-02
  6.5401843e-04
  9.6238097e-03
  1.2776199e-02
  5.6091733e-02
 -9.1854148e-03
 -4.1850094e-02
  4.6244655e-03
  2.0304181e-02
  3.3941977e-02
  5.6693215e-02
  3.0412743e-02
  3.8409960e-03
  1.7702499e-04
 -1.1526003e-02
  5.4684587e-02
  1.1935460e-03
 -5.3626643e-03
 -7.5530754e-03
 -1.4677933e+00
  1.6705549e+00
  7.4835397e-02
  3.2049567e-01
  1.0561968e+00
  4.7557801e-01
 -3.9554808e-02
  3.7822494e-01
 -2.0865576e+00
  6.0385042e-01
 -2.7038899e-01
 -3.4380925e-01
 -3.1566036e-01
  3.5324209e+00
 -1.1627924e-01
  1.2373172e-01
 -2.8927317e-01
 -3.2710344e-01
 -7.8567719e-01
  1.4562570e+00
  3.9340568e-01
  2.0977531e-01
  6.3274570e-02
  3.4506562e-01
  9.8168582e-02
 -7.2724789e-01
  1.1683201e+00
  1.2542003e+00
  3.2932520e-01
  4.4210043e-04
  1.6744421e-01
  5.4952637e-03
 -7.2793961e-03
  1.6648479e-02
 -1.9668868e-04
  4.2138323e-02
  2.3375540e-03
 -2.0224904e-03
 -4.3162357e-04
  4.9429839e-03
  1.8409384e-02
 -5.2799303e-03
  1.9361635e-03
  7.4104123e-02
  1.4430783e-02
 -1.5513037e-02
 -2.1423933e-03
 -1.2318195e-03
 -7.9423612e-01
 -1.7450510e-02
  5.7754354e-03
  4.2960257e-03
  1.7948385e-02
 -1.9806935e-02
  1.3414839e-03
 -2.0938130e-02
  3.8230389e-02
 -3.3721908e-03
  3.6951192e-02
  8.8944688e-02
  3.3976259e-03
  7.1147368e-03
  1.7705329e-03
  5.5140391e-04
  2.7201228e-02
 -7.4460497e-04
 -9.8624788e-03
  1.0373108e-02
 -1.3952130e-02
 -5.1547788e-02
 -1.1137736e+00
 -2.0724642e-01
 -6.3835460e-01
  6.8663999e-02
 -4.2894695e-02
 -5.1912344e-01
  2.8824815e-01
 -3.5320899e-01
  6.0829919e-02
  6.6040885e-01
  3.0537599e-01
 -3.9435521e-02
  1.5025235e-02
  1.6357103e-02
  2.1565251e-02
  7.9694092e-02
  2.2443888e-01
  2.7923080e-01
 -5.5336095e-02
  4.5149821e-01
  1.7428217e-02
  2.4341682e-02
 -1.5307814e+00
  3.2365896e-02
  2.0252675e-02
  7.7542677e-03
 -1.7170355e-02
 -3.0630687e-02
  4.0404820e-03
 -1.3272956e-02
 -7.6955422e-03
 -2.2288013e-02
  4.7142450e-02
 -4.7144173e-03
 -6.4178742e-03
 -1.1446556e-01
  2.7346859e-02
 -3.4597234e-03
  1.2390994e-02
 -2.1616830e-03
 -6.7458041e-03
 -9.0057217e-03
  1.4414776e-03
  6.3330799e-02
  5.5070012e-03
  1.7436199e-03
 -2.4026060e-02
  2.1082887e-02
 -1.4600222e-03
  1.6855867e-01
  5.9322505e-03
  3.0878518e-02
  7.3642582e-03
  1.0792539e-03
  1.3948726e-02
  2.5491382e-03
 -1.9769369e-02
 -3.0109165e-03
  3.3559404e-02
  2.1734525e-02
 -5.0088431e-04
  9.8187653e-03
 -4.3331414e-02
  3.0383791e-03
  1.1562475e-02
 -9.7256014e-03
 -2.7535567e+00
  7.8399032e-01
  7.4822950e-01
  2.9072070e-02
 -7.7958214e-01
 -3.9814878e+00
  4.0088981e-01
  2.1430297e-01
  7.9237610e-01
  4.3490282e-03
  1.9172530e-01
  8.7641931e-01
  3.8913080e-01
 -1.7799674e+00
 -2.5932419e-01
  1.4217927e-01
 -2.0330325e-02
  5.9888523e-02
  4.9596596e-01
 -1.7994692e+00
 -5.8689266e-01
 -3.0251175e-01
  6.6853642e-01
  1.3712355e+00
  1.0307771e+00
  9.7233109e-02
  7.1787417e-02
  6.5444484e-02
  2.8399768e-01
 -5.1172554e-01
 -2.6791913e-03
  2.4233926e-02
 -2.6059957e-02
  1.3659556e+00
 -1.2303283e-02
 -6.5122014e-03
  2.2824572e-02
  3.3271809e-03
  1.5171858e-02
 -1.0669416e-01
 -1.2599965e-02
 -2.5799393e-04
  1.0883551e-02
 -1.3831532e-02
 -9.1917356e-03
  9.0155583e-03
 -2.1921447e-03
 -7.5112376e-04
 -1.0968107e-03
  4.7305096e-03
  2.2662615e-02
  2.9131139e-03
  3.8292471e-03
  1.0372726e-01
  6.0780015e-04
 -7.6945922e-03
  2.6701394e-02
  6.3023386e-03
  1.8949459e-03
 -1.1104324e-02
 -4.8216586e-03
  8.4601687e-03
 -7.0249471e-03
  1.4950734e-03
 -1.1933215e-02
 -4.3620928e-03
  5.6608138e-03
  4.0555757e-02
  1.4107573e-02
  8.0925989e-01
 -5.2813813e-03
 -1.1544602e+00
  2.5240317e-01
 -7.8896886e-01
  2.8644618e-01
 -2.6839139e-02
 -5.0245941e-01
  3.2056279e-02
 -2.0818394e-02
  4.0333453e-03
  6.0947341e-01
 -1.2329707e-02
  1.7142619e-01
  6.3526846e-02
  1.1042065e-02
  2.8669382e-02
  4.9746656e-01
  9.0081447e-01
 -1.3960350e+00
  3.9376858e-01
 -8.0538131e-02
  2.6435554e-01
 -3.6322704e-01
 -1.1086022e-02
  4.1860333e-04
  3.0972141e-01
 -1.0061631e-02
  9.5330775e-03
 -2.3806852e-01
  8.2155792e-03
  7.5347736e-03
 -2.0743651e-02
  1.0720538e+00
 -4.3027157e-01
  1.1164439e-02
  5.4081017e-01
  1.3021126e+00
 -1.5722489e-01
 -2.3269361e-01
  6.0732257e-01
 -7.5804973e-01
 -9.8103130e-01
 -3.0843312e-01
  1.4908257e+00
  9.9091893e-01
  2.0435529e-02
 -1.3422850e+00
  2.7625256e+00
  5.4068434e-01
 -8.9733019e-02
  8.5647248e-02
  3.6609668e-01
 -2.5564516e-01
 -6.5816933e-01
 -7.5155991e-01
  1.1931250e-03
  1.7601895e+00
  3.8634944e-01
  1.5160642e+00
  3.1603846e-01
  3.9391744e-01
  6.8866476e-02
 -3.2053623e-02
  6.4971698e-03
  3.5652417e-01
 -2.6628787e-02
  9.7304457e-01
  1.4638616e-01
 -8.5551804e-03
 -1.1950766e-01
 -5.5023298e-02
  9.2817616e-01
  4.9182862e-01
 -5.3025898e-02
  9.1678166e-01
  3.9210713e-01
 -3.4448221e-01
 -3.9280275e-01
 -4.6835789e-01
 -4.7269445e-02
 -4.4964418e-01
  9.4986588e-02
 -2.6316621e+00
 -1.6270547e-01
 -2.2056417e-01
  1.2549050e+00
 -2.4097152e-01
 -8.3369678e-01
 -3.5757702e-03
  3.0646758e-02
  7.6674201e-02
 -6.4217967e-01
 -1.3621733e+00
  5.0949198e-01
  2.0461810e-01
 -2.4408543e+00
  6.9252181e-01
  2.8436861e-03
 -2.3768902e-02
  2.2752283e-03
  1.6615995e+00
  2.5068269e+00
 -2.3611243e-01
  4.7616053e-01
  2.4814513e-01
 -2.1360168e-02
  6.7578351e-01
  6.9825459e-01
 -2.3098375e-01
 -8.0248249e-01
 -1.1913274e-01
 -2.3989581e-01
 -1.8298028e-01
 -2.0280166e+00
  2.2076187e+00
  1.0307209e+00
 -6.6599035e-01
 -3.1739700e+00
 -1.6123956e+00
 -5.8787835e-01
  3.0705447e+00
 -2.2628927e-01
 -4.7123420e-01
 -6.4607984e-01
 -1.5038093e+00
 -3.2329124e-01
  5.5656396e-02
  1.3373774e-01
 -5.8478737e-01
 -1.6192486e+00
  1.5399642e-03
  3.4075287e-01
 -6.0841000e-01
  1.5661275e+00
  6.7899292e-03
 -2.0153202e-02
  8.1104852e-02
  1.6040074e-02
 -3.0382650e-02
 -4.3597396e-02
 -4.0819678e-03
 -1.2642644e-02
  7.1476690e-02
  1.9185776e-02
 -6.6458597e-04
 -6.0553267e-03
 -5.8053635e-02
  1.3824056e-01
  3.0363671e-02
  1.3902619e-02
  1.4357390e-02
 -7.8200595e-03
  2.5011098e-02
  8.4026977e-02
  5.2972240e-03
 -1.1160094e-01
 -1.6448457e-02
 -3.5327475e-04
  5.7322305e-02
  2.2485306e-02
  1.0520096e-02
  8.9824557e-02
  8.5641490e-04
  7.6918676e-03
 -2.9198080e-01
  9.7792642e-03
  6.0800668e-02
 -6.3635786e-03
 -1.1070961e-02
  2.5300181e-02
  1.0138279e+00
 -2.7773455e-01
 -1.8888711e+00
 -2.5823614e-01
 -1.6769147e-02
 -5.7149893e-01
  1.7110473e-01
  1.7657049e-02
  4.2488307e-02
 -7.1870826e-02
 -6.3834684e-03
 -1.2459177e-02
  2.7983436e-01
  5.0900858e-02
  6.5793417e-02
 -3.1802398e-01
  6.6509023e-02
  1.1824868e+00
  3.5649575e-02
 -5.0823367e-01
  4.1025385e-02
 -4.6867491e-03
 -4.7496124e-04
  4.3429196e-01
  1.7806873e-02
 -6.2582761e-01
  2.3881032e-03
 -3.9236322e-02
  4.6327705e-03
 -6.0514745e-04
 -6.6083097e-03
  3.5176791e-02
  4.6188977e-01
  9.7052646e-01
  8.2223870e-02
  2.5640953e+00
 -6.4202219e-01
 -1.4415866e+00
 -5.0691080e-01
 -6.7411840e-01
  9.1596621e-01
 -1.5390332e+00
 -1.7799913e+00
 -4.1360301e-01
  1.6599920e-01
 -4.6841395e-01
 -2.9764992e-01
  4.0337220e-02
  5.3823084e-01
 -1.2961997e+00
 -1.3547202e+00
 -4.8136577e-02
 -1.5155390e-01
  2.6812842e-01
 -3.5386183e-03
  3.2411483e-01
  7.6820523e-01
 -1.1282798e+00
  1.0293384e+00
  2.5151595e-01
 -3.0618119e-03
 -5.7641852e-01
  8.2438254e-01
  8.6746043e-01
  9.7876623e-02
  1.0132109e-01
 -7.0749831e-01
  9.5488742e-02
  5.3804111e-01
  8.2582891e-01
  5.2202445e-01
  8.5637301e-01
 -1.0409017e+00
  6.8156463e-01
 -5.5440634e-01
  1.8175408e+00
 -1.1341356e+00
  5.9129280e-01
  1.5448254e+00
 -4.4521749e-01
  2.2446696e-01
  1.1360011e+00
  6.9152963e-01
  8.6065521e-03
 -4.7847686e+00
  7.7920520e-01
  7.5902402e-01
 -7.2500420e-01
 -3.5420103e+00
 -2.1040642e+00
  3.0778155e-01
 -2.7433184e-01
 -1.2399423e+00
 -1.7585105e+00
 -8.5866243e-01
  1.0127012e+00
  1.2236484e+00
 -4.7127400e-02
 -1.2166607e-01
  2.2704164e-03
  1.4857936e-01
  8.3707023e-01
  5.1428825e-01
 -2.1508616e-01
 -9.3241721e-02
 -3.6999044e+00
  1.7956848e+00
 -6.8073070e-01
 -3.2241708e-01
  5.4943424e-01
 -1.4562902e+00
  2.0925250e-02
  3.9185035e-01
  6.7450607e-01
 -5.9527016e-01
  7.4400318e-01
 -1.2674542e-01
 -4.2823115e-01
  1.1057746e-01
 -1.4334444e+00
  6.8674946e-01
 -1.9724661e-01
 -2.6876334e-02
  5.9921783e-01
  5.0424075e-01
  7.9414326e-01
 -5.8860440e-02
  1.3853207e-03
 -5.9230644e-02
 -1.7068743e+00
 -9.6701771e-02
  4.0135404e-01
 -1.0610901e-02
 -2.6148450e-01
 -1.2632589e-02
  9.7013526e-03
  6.0297903e-02
  1.0028716e-02
 -1.2775641e-03
 -2.4571901e-02
  4.6527576e-01
  1.2542238e-02
 -3.8177571e-01
  1.0420290e+00
  6.5856450e-04
  3.7555400e-02
  5.5807247e-03
 -1.4346989e-03
 -4.0477108e-02
  2.5343528e-02
  4.6035193e-02
 -1.6153312e-03
  2.7047301e-02
  5.1801000e-02
 -3.2019336e-02
 -1.4863620e-02
 -1.0659189e-03
  6.7546894e-03
  6.4129613e-02
 -1.0745700e-01
  3.1263050e-02
  3.1891022e-02
 -1.1346271e-02
 -6.4023407e-03
 -1.2704774e-02
  1.3594128e-02
  1.2820190e-01
  2.1087052e-03
 -3.3036827e-03
 -2.3166578e-02
  5.3725378e-03
  7.5323716e-02
  1.4314106e-02
 -2.0303113e-02
 -3.3447258e-02
 -6.3483296e-03
 -6.8393134e-02
 -6.1025755e-03
 -4.8691954e-04
  3.3874945e-03
 -3.5497388e-03
 -8.1464155e-03
  4.8312256e-03
  3.5222475e-03
 -6.6819459e-02
 -3.4075725e-04
  8.9853145e-03
 -5.3632546e-02
  1.9512746e-02
 -1.1905760e-03
 -2.1667328e-02
  4.7700820e-03
  7.4518146e-04
 -3.9051052e-02
 -1.7247671e-02
  4.8376042e-02
  2.1007024e-02
  1.0587197e-03
  2.0838216e-02
 -1.1249898e-02
  5.3383857e-03
 -4.4997416e-02
  7.2180917e-03
 -2.2331984e-03
 -1.7475246e-02
 -1.7463231e-04
  4.5943083e-03
  1.3512124e-02
 -1.8165318e-03
  3.8474204e-03
  2.0648283e-03
  6.9048572e-03
 -1.7817572e-02
 -2.0432061e-02
 -4.0332573e-03
 -1.4207495e-03
  1.3106565e-02
 -3.9339066e-02
 -3.9253784e-03
  7.8279577e-02
  1.8754357e-01
 -2.3458415e-01
 -3.1227814e-03
  2.8878344e-02
 -2.8201340e-02
 -8.8877110e-03
  9.5266366e-04
 -8.1768418e-03
 -4.9131270e-03
  3.8420998e-02
 -6.4829458e-03
  2.6291022e-02
 -9.6200379e-03
  1.4886677e-02
 -8.7209055e-03
 -9.8628458e-03
 -4.1501898e-01
 -1.5429685e-01
 -3.9864781e-01
  9.9971879e-04
 -8.0850792e-01
 -1.4301003e+00
 -4.5946240e-01
 -1.1500453e+00
 -1.5931602e+00
 -6.5423109e-02
 -3.0566415e-02
 -2.2058287e-01
 -1.9401290e-01
 -2.0919852e-01
  1.2526422e+00
 -4.2302486e-01
 -1.9619213e-03
  7.9205573e-01
  4.2605776e-04
  9.9241108e-01
 -2.6937695e+00
  1.0229124e+00
  4.1518393e-01
  5.2085644e-01
  1.2960554e+00
  1.9997052e+00
 -8.8177377e-01
  1.1953819e+00
  1.9452491e-04
 -9.7014131e-03
  2.7834814e-02
  4.5382169e-01
 -5.1764846e-02
 -3.2144091e-01
 -1.6567849e-02
 -9.6008498e-03
  2.0709764e-03
 -5.2257955e-01
  2.2322888e-02
 -4.5737706e-02
  2.1455843e-02
  1.8891145e-02
  1.0061106e-03
 -2.3724250e-03
 -4.4172246e-02
 -8.8346266e-04
  2.8902091e-02
  4.9367594e-03
  3.9993111e-02
  1.2806664e-02
  4.4403946e-01
  6.6278235e-04
  4.0533599e-03
  1.1480041e-02
  1.9218573e-01
  5.3405724e-03
 -7.6439306e-02
 -2.1714803e-02
  9.1367261e-03
 -1.4055514e-02
 -7.5870536e-02
  9.3841106e-03
 -1.1155996e-02
 -3.8472492e-02
 -1.2958958e-02
 -3.2104902e-02
 -3.5255462e-02
  2.9626507e-03
  1.0318066e-03
  1.9500807e-02
 -9.6073542e-03
 -5.1096636e-03
 -8.3021112e-03
  1.8634506e-02
 -5.0124247e-02
 -6.1941729e-03
  1.0741523e-02
 -6.4996659e-04
  2.1118391e-02
 -1.9323386e-02
 -8.7651815e-03
  3.2618131e-02
  3.8046523e-03
  1.0747740e-03
 -1.3890610e-02
  3.8497159e-03
 -4.2424402e-03
 -2.3227140e-02
  1.2936104e-04
 -2.3216320e-02
  1.0249254e-02
 -1.0012463e-02
 -6.9333902e-03
 -4.0769283e-02
 -1.3354843e-02
 -3.7743829e-03
  2.4279631e-03
  2.2520178e-03
 -2.4101264e-03
  1.7810453e-02
  9.8913498e-03
  2.0387879e-02
 -1.7183136e-02
  5.1841505e-02
 -3.8233704e-03
 -3.8712032e-02
 -1.2488688e-03
  4.6120547e-02
 -1.1044248e-03
 -1.4071403e-02
  4.6385038e-03
  1.0074407e-02
  1.7232286e-02
  1.9371150e-02
 -1.8071486e-03
  1.4958093e-02
  5.5062700e-02
  9.6363463e-03
  1.9849511e-02
  3.6684263e-03
 -2.2531198e-02
  2.1475428e-04
  1.2057381e-02
 -4.0637269e-03
  2.2799310e-03
 -3.4685039e-03
  1.2978855e-02
  1.0745125e-03
 -2.2635581e-02
 -3.8211897e-02
 -1.4002384e-03
  2.8871497e-02
 -2.7136749e-04
  5.9016966e-03
 -4.3395627e-03
 -1.0097665e-02
 -3.1133661e+00
  4.2769480e-01
  8.7615252e-01
 -4.0021029e+00
  1.4708003e-01
 -2.4898169e+00
  3.5190139e+00
  1.7690873e-01
  7.4238133e-01
 -2.8907053e-02
 -5.7022887e-01
  1.0621694e-01
  9.1555025e-03
  8.1791157e-01
  6.1981910e-01
 -1.5643619e-03
  7.1082599e-02
  3.3189702e-01
  1.0869574e-01
  1.9315282e+00
 -1.2999628e+00
  4.3952111e-02
  4.7373933e-01
  9.5458192e-01
 -2.2896070e-02
 -1.0839081e+00
 -2.4893567e-01
  9.3726975e-01
 -7.2851613e-02
  7.1286649e-02
  7.5568398e-03
  1.6350819e-02
  1.1084343e-02
  2.1854108e-02
  9.1918021e-02
 -3.3650286e-02
  1.9085214e-01
 -2.3040284e-01
  1.4175536e-01
 -2.2974938e-02
 -5.1788982e-02
 -1.2460312e-01
 -4.6953324e-02
 -5.7470505e-03
  1.8846933e-03
 -7.7400180e-03
  2.3898492e-03
  1.8118872e-05
  2.0435557e-03
  3.6951646e-02
 -8.9236628e-03
 -6.1201621e-03
 -8.7954588e-02
 -4.6730772e-02
  2.0490712e-02
 -1.8204566e-02
 -2.2523615e-01
  2.1689098e-02
  1.4068924e-01
 -2.7003177e-02
 -8.4729893e-03
 -2.1286689e-02
  9.0824766e-03
  1.8074840e-03
  8.6701419e-03
 -1.0398255e-02
 -5.4890804e-02
  4.5155860e-03
 -1.1378719e-02
  4.6915589e-03
  5.4804347e-03
  2.8065870e-02
  2.3335032e-02
  3.7790861e-02
  9.0060569e-03
  5.3421422e-03
 -1.1199727e-02
 -2.8476201e-02
  4.1861553e-03
 -6.7860037e-03
 -2.0299075e-02
 -9.3720704e-03
  2.1586081e-02
  5.5525801e-03
 -7.5520651e-04
 -1.9908816e-04
  9.2054280e-03
 -3.8256028e-03
 -4.5884576e-02
 -4.9961573e-03
  2.7577803e-02
 -1.3438052e-02
  3.4344729e-02
  1.7601707e-03
 -3.6981337e-02
  5.8695789e-02
  7.5524356e-03
 -1.1085830e-02
 -1.8871246e-02
 -1.0734255e-02
 -3.0076217e-03
 -3.8745159e-03
  2.1568278e-02
 -2.6046390e-02
  3.0345015e-02
  4.5669604e-02
  1.6046202e-02
  1.0322801e-02
 -5.6119193e-03
 -9.8781856e-03
  5.9283771e-02
 -1.2677055e-02
  4.9350284e-02
 -4.2386867e-02
 -1.7530540e-02
  2.1103946e-02
 -4.7545615e-04
 -8.6367903e-03
 -2.8075602e-02
  4.1429158e-02
 -1.9822633e-02
  2.2978149e-01
 -1.9255702e-03
 -9.4441939e-03
  5.9163168e-02
  2.5220555e-03
 -7.6771744e-02
  2.1657092e-03
  8.8998303e-03
 -1.4354199e-02
  1.5551118e-02
 -3.0033566e-02
 -2.7864815e-03
  1.3535842e-02
 -7.0547424e-03
 -3.7908510e-03
 -1.0468691e-03
 -9.9546341e-03
  1.6990918e-01
  6.6132151e-02
 -1.8197791e-01
  4.2470015e-04
 -8.7679230e-04
  1.3789504e-02
  1.9354735e-03
 -3.9498884e-02
  2.0712605e-02
  1.6792221e-02
  8.0076205e-03
 -6.6876621e-03
  5.8763544e-04
 -1.8947996e-02
  1.6109796e-02
 -8.2925074e-03
  1.1734525e-02
  4.6332866e-02
 -3.7397007e-03
 -1.0260679e-03
  1.9789131e-02
 -7.7964915e-03
 -7.8145713e-03
 -1.4031189e-02
  1.3834316e-02
 -1.1521464e-02
  1.2148177e-02
  1.1087804e-01
  2.8566259e-03
  8.1783207e-03
  3.6925808e-02
 -2.5153277e-02
 -9.5595056e-01
 -9.7010076e-01
 -1.8856801e-01
 -6.2984480e-03
 -1.0879202e-02
  2.8498378e+00
 -1.9670850e+00
 -1.5367942e+00
  9.1151565e-01
 -6.7799169e-01
  9.9108219e-03
 -7.9740845e-02
 -5.8101574e-03
 -1.0008968e-02
 -5.0449288e-01
 -7.6310402e-03
  2.8180432e-01
  8.2606725e-02
  1.7346324e+00
 -9.6293229e-01
  9.8856710e-02
  1.1902258e+00
  8.6787725e-03
  5.6009805e-01
 -5.4215662e-02
 -1.2409914e-03
  2.4366543e-01
  5.9695947e-03
  6.3982856e-01
  2.3096465e-01
 -3.6196369e-01
  6.9245370e-04
  2.8707447e-02
  3.2926821e-03
 -2.6886249e-02
 -2.8357523e-02
  6.1501111e-03
 -9.4886478e-03
 -1.3655530e-02
  1.2664886e-01
 -1.9967200e-02
  4.6997797e-03
  2.0144221e-01
 -5.3019460e-02
  2.5175009e-02
 -1.7989848e-02
  9.7517613e-03
  2.2600494e-02
 -2.9869281e-02
 -2.4608173e-03
 -2.2110909e-02
 -1.0563562e-02
 -1.0906670e-02
  6.3952175e-03
 -8.6282380e-04
  5.6881983e-02
  2.5735499e-02
  7.8522116e-03
  1.4317210e-02
  1.7036557e+00
 -4.7327997e-04
  8.7227416e-04
  1.7744979e-02
  2.9311024e-02
  1.0178263e-02
 -9.3494412e-03
 -3.1449847e-02
  1.6645996e-03
 -3.4872126e-02
 -6.1121550e-03
  9.2924172e-03
 -7.6228976e-02
 -1.2831149e-01
  8.4721664e-04
  2.4084207e-02
 -4.3685813e-02
  6.8200791e-01
 -1.0449670e-03
  1.2992613e-02
 -8.2660438e-03
 -6.7009721e-03
 -1.8298017e-02
 -2.3658695e-02
 -9.1389241e-03
  2.8717497e-02
 -1.7789749e-02
 -1.3411401e-02
  2.6633308e+00
 -2.2184025e-03
  2.8486598e-02
  1.7318955e-02
 -3.3684527e-03
  1.2060259e-02
  1.6961901e-02
 -1.9161809e-02
  1.1483463e-02
 -5.3031752e-03
 -1.6388086e-03
  2.5746494e-03
 -1.2476393e-02
 -7.4643022e-03
  2.3837252e-02
 -8.7111312e-01
 -1.7870321e+00
  9.1935647e-01
 -3.4138811e-01
 -2.6917863e-01
  1.1555396e+00
  4.2116109e-01
 -6.5245527e-01
 -1.0784967e+00
  1.3003812e-02
 -2.7112645e-01
 -1.5614010e+00
 -1.4517117e+00
 -2.4678440e+00
  3.2067880e-01
 -1.1220620e+00
  3.0545503e-01
 -6.9517292e-02
 -3.2237244e+00
  2.0420170e-01
 -6.4834273e-01
 -8.6680466e-01
  1.4329703e-02
 -9.6594453e-01
 -5.1162964e-01
 -3.2492554e-01
 -3.8030916e-01
  1.0837022e-01
 -1.0690440e+00
  3.0818281e-01
 -3.4367356e-03
 -4.3643117e-03
  1.8567817e-02
 -1.6886884e-01
 -2.4014574e-01
  1.1018126e-02
 -1.6115973e-02
  1.1165980e-02
 -6.2470501e-03
  1.9571207e-02
  6.2169805e-03
  4.3832329e-01
 -6.1693892e-02
  7.1311067e-03
  1.5133392e-03
  5.4307189e-03
 -1.6363868e-02
 -1.6825465e-02
  1.7022628e-02
 -8.2085999e-03
 -2.6435021e-04
  7.8000412e-03
 -1.2372723e-03
 -7.1835555e-02
 -7.4258922e-03
 -6.7291789e-02
  1.9505703e-03
  5.2038376e-04
 -4.7477213e-01
 -1.8408281e-01
 -8.7118726e-03
 -1.1941306e-02
 -1.4955210e-03
 -1.9045358e-03
  9.5419399e-03
  1.8832458e-02
 -9.6669495e-03
  3.2338975e-03
 -1.1102204e-02
  5.0436324e-03
  1.6477753e-03
  2.8936792e-02
 -5.6166062e-03
  7.0260935e-03
  2.0165027e-03
  4.2648688e-03
  2.2664681e-02
 -1.2333890e-02
 -3.0443825e-02
 -2.9904745e-03
 -2.5238618e-03
 -1.2878414e-02
  1.4408206e-02
  1.8925166e-03
 -2.8633643e-03
  1.4187407e-02
  8.8582363e-04
  2.6807494e-02
 -1.8005994e-03
 -2.5209081e-03
 -6.6763149e-03
 -1.5881099e-02
  2.9177405e-03
  7.0126550e-03
 -8.7510131e-02
  1.7175168e-02
 -1.1924715e-02
 -2.7153693e-02
  2.9969681e-02
 -1.5108679e-02
  8.2111564e-03
 -6.7900233e-03
  2.4325212e-02
 -1.3319683e-01
 -3.4196999e-02
  2.3246283e-02
  1.8935444e-02
 -1.0755283e-02
  7.6484063e-04
  4.8405183e-03
  1.9771827e-03
  3.6499418e-02
  6.3918114e-02
 -2.8902818e-02
  9.2643481e-03
 -8.6874291e-02
 -3.8618406e-03
  6.2681721e-03
 -2.8452123e-02
  4.8744697e-02
 -2.1780294e-01
 -2.4976423e-02
 -2.2512472e-04
  1.1107514e-02
 -2.5529247e-02
 -2.7607393e-03
  3.4026589e-02
 -2.8625221e-03
 -5.7816072e-03
 -2.1969009e-02
  1.7965982e-03
  9.9190604e-03
  5.1892705e-02
 -1.0433659e-02
  2.3513967e-02
  1.3990989e-02
  5.7951566e-02
  5.3010677e-04
  1.3500228e-02
  2.5485989e-01
 -4.2665284e-04
 -8.4083723e-03
 -1.7155593e-02
 -1.0693477e-03
 -2.3770297e-03
  6.0221247e-02
  3.8500465e-02
  3.2508934e-03
  2.1752853e-02
  3.8278535e-02
  1.2376599e-02
 -1.6378239e-01
  1.2757506e-03
 -5.4826075e-03
  2.9778393e-02
  1.4259239e-03
  3.8891185e-02
 -2.4501454e-02
 -2.8586261e-02
  4.6532687e-02
  1.5379170e-02
 -3.9024290e-02
  2.1605922e-02
  3.3456702e-02
  9.8918518e-03
  1.4553973e-02
 -2.9432278e-02
  8.4771827e-02
  4.0488308e-03
 -1.7974775e-03
  5.2766865e-01
 -3.4592324e-01
 -9.4924629e-01
  6.4525632e-03
  3.8613605e-01
 -1.9641566e+00
 -6.2386262e-01
  6.9609755e-01
  1.7684863e+00
  1.7273471e+00
 -1.4848036e-01
 -1.1879244e+00
  4.6774227e-02
  2.1881673e+00
  1.8656631e+00
  5.9164637e-01
  1.3163829e+00
  5.5962616e-01
  2.3780606e+00
 -8.1306940e-01
 -9.8289303e-02
  1.8818390e+00
 -1.6744314e+00
  9.1919714e-01
 -1.4195295e-01
 -3.5117690e-03
 -7.8883111e-01
 -8.4349650e-01
  1.8061671e+00
 -1.8671715e+00
 -1.9680274e+00
 -5.3538615e-01
  3.8214764e-04
 -3.6958329e-02
 -1.3893058e-03
 -4.9400977e-03
  1.1964969e-02
 -2.9244851e-02
  2.7959360e-02
 -3.9221193e-03
 -2.2368202e-02
 -8.8145016e-03
  6.1803567e-03
  2.2979626e-02
 -6.5575312e-03
 -1.0507332e-02
  3.2095395e-02
  1.7021371e-02
  6.9855731e-03
  2.9623408e-02
  3.5724875e-02
 -1.6585374e-02
 -5.8533356e-04
 -4.0191674e-04
  2.5751488e-02
 -5.5748667e-04
  8.7665670e-02
  2.2614742e-02
 -2.7772399e-02
 -2.9545175e-03
 -3.7103903e-04
 -1.8202964e-02
 -1.6263733e-02
  1.0807402e-02
 -9.5177311e-03
 -3.1526163e-02
 -3.0953093e-02
 -3.3717469e-04
 -7.2354084e-01
 -2.3044647e-01
 -2.0283508e-01
 -7.6414275e-01
 -1.0406270e-01
 -3.0540124e-01
 -2.1306689e-01
  1.3017757e+00
 -3.4576306e-01
 -2.9858584e+00
 -1.5219389e+00
 -5.5028070e-02
 -1.3099048e+00
 -2.2302344e+00
  6.7463118e-01
  1.5396206e+00
  3.0372211e-01
 -1.3056395e+00
  2.2271812e-01
 -1.2461472e-01
  4.6588731e-01
 -1.4823191e+00
  6.4631504e-01
  8.6080217e-01
  1.3769326e-01
  9.6265778e-02
  1.0333643e+00
 -4.2144442e-01
 -8.7168169e-01
 -3.9094168e-01
  4.2137301e-01
 -1.6150331e-02
 -4.5724478e-02
  8.7378263e-02
  3.9486755e-02
  2.3417433e-03
 -6.5778726e-01
 -6.4389870e-02
  3.6045019e-02
  2.2880876e-02
 -1.9743111e-02
 -8.0500931e-01
  4.6918955e-01
  4.9275924e-03
  5.8183027e-03
  3.8922175e-03
 -1.9044178e-02
  3.4828223e-02
  5.8107268e-02
  5.2624244e-02
  1.9823544e-02
 -5.4656219e-02
 -8.5206460e-03
 -4.8859200e-01
  3.9988318e-03
 -6.5764976e-03
  1.8516092e-02
 -5.7972932e-01
 -1.1711698e-01
  3.1643745e-03
  1.1545775e-03
 -6.5812352e-03
 -8.7024644e-03
  2.4869621e-03
 -2.4821771e-02
  2.4960909e-02
 -5.7219248e-04
  1.0098883e-02
  1.3773382e+00
 -8.9368546e-01
  1.2035645e+00
  6.1769044e-01
  3.0310830e-01
 -1.0139505e-01
 -1.6932957e+00
  7.1698558e-01
  2.4024336e+00
  6.2715292e-01
 -1.3957461e+00
  4.7485378e-01
 -9.3816064e-02
 -4.0923449e-01
  9.6245027e-01
 -1.1827445e+00
  5.1479727e-01
 -7.3613282e-03
 -5.8903033e-01
 -3.1946696e-02
 -1.4111755e+00
  1.3224473e+00
 -5.4899019e-01
 -7.6098788e-01
  2.3101485e-01
 -2.6979324e-01
 -1.3917314e+00
  6.0641386e-02
  5.7066694e-02
  3.0903763e-01
 -6.0079092e-01
  2.3056805e-02
 -4.0820681e-02
  8.3234087e-02
 -5.1258928e-01
 -6.9702947e-01
  1.6621957e+00
  7.6337206e-01
 -2.1446912e-01
  8.1352174e-01
 -6.4636761e-01
  1.9744702e-01
  9.4222736e-01
 -2.3105552e+00
  3.8563001e-01
 -3.0036741e-01
 -8.9978355e-01
  2.7831289e-01
  7.8111708e-01
 -8.9691168e-01
  5.4552042e-01
  1.0396432e+00
 -4.9489683e-01
  2.8417224e-01
  1.0742947e+00
 -4.5304500e-02
 -2.9896602e-01
 -2.4550445e-01
  1.2089651e+00
  4.3642223e-01
 -3.5093859e-01
 -5.7749242e-01
  2.9713121e-01
  1.0397254e+00
  4.2347447e-03
 -8.6598635e-02
  5.4681554e-02
 -5.8406144e-01
 -1.8933762e+00
  3.2170218e-01
  2.7817756e-01
  5.1728010e-01
  2.6568704e+00
  9.5334661e-01
 -2.6176641e-02
 -1.0122603e+00
 -1.9386156e-01
 -3.0312419e+00
 -1.2404155e+00
  3.0039284e-01
 -9.6957676e-02
 -9.0752649e-01
 -4.5602491e-01
  2.3219664e+00
 -1.3365195e+00
  6.9891930e-01
 -1.8661308e+00
  3.1123981e+00
 -2.4980538e+00
  1.6833923e+00
  6.0941987e-03
 -6.2176031e-01
  2.8731380e+00
 -9.0119012e-02
 -1.7590979e-01
  1.3508983e-01
 -4.0493280e-01
 -8.0659115e-01
  1.6649896e-03
  4.4220891e-03
 -3.1127968e-01
 -5.2751875e-03
  2.6291240e-02
  4.5675032e-02
  7.1395552e-01
 -3.7731671e-01
 -5.9394366e-03
  3.7138525e-02
  9.7843697e-03
  1.6048679e-02
  4.3699462e-02
 -3.6304283e-03
  3.1456158e-01
 -2.2599010e-02
 -2.7923834e-02
 -4.5011211e-02
  2.4894100e-01
  1.1458435e-02
 -5.9492053e-03
  3.8503270e-04
  1.2094429e-03
 -5.9491567e-02
  1.2691631e-02
 -2.9412398e-02
 -1.0266749e-02
 -8.5135233e-03
  6.2029725e-03
 -3.2816369e-02
 -1.4681865e-02
  2.8348984e-02
  4.5103487e-05
  2.9740059e-03
  1.3830207e-02
  6.0053235e-03
 -2.2747058e-02
  5.6997091e-02
  1.4001963e-03
  2.2918582e-02
  2.0673353e-02
 -7.3982337e-03
  9.0479985e-02
  1.9864423e-02
  3.2253703e-03
 -1.7071297e-04
 -2.3801420e-02
  3.5519707e-03
 -1.9927325e-03
 -6.6210832e-03
 -1.7368989e-03
 -1.0796048e-02
 -2.5520096e-02
  7.7003976e-03
 -7.6582836e-04
 -1.4557444e-02
 -1.8943855e-04
  7.6494226e-03
 -8.8183228e-03
 -1.1998472e-02
 -1.2238539e-03
  1.8398196e-02
  3.0090692e-03
 -1.0628810e-02
 -2.8437747e-02
 -7.5928769e-03
 -5.6411172e-03
 -1.2296268e-02
 -1.7909721e-02
 -4.8903194e-03
 -1.6468050e-02
  6.2038493e-03
 -1.4743471e-01
  2.9316514e-03
 -5.8955450e-02
 -1.0034084e-02
  3.2363359e-03
  6.9258118e-01
  6.0440965e-02
 -2.7758548e-01
 -5.6907243e-01
  5.1009375e-01
  1.0153475e-01
 -1.4522915e-04
  3.4371342e-03
 -3.7717440e-03
  5.3658235e-01
 -4.1614956e-01
 -5.9347165e-01
 -5.1306248e-02
 -3.3877071e-02
 -4.2352602e-02
 -7.3973010e-03
  4.1574341e-01
 -5.0487661e-01
  1.6084416e-03
 -4.4909793e-01
  1.1192799e-02
  9.9639542e-02
 -2.5891805e-01
  5.0110906e-01
 -1.4686358e-02
  9.9195512e-03
  5.4109003e-03
 -2.0284183e-01
 -2.3971070e-03
  1.8585542e-02
 -1.6828770e-02
  9.6627185e-03
 -3.5615237e-03
 -2.4554254e-02
 -4.3203519e-03
 -4.8352634e-03
  1.4361432e-02
 -2.8922625e-02
  4.8398461e-02
 -1.2845879e-02
 -5.3194463e-03
  8.0613475e-03
  4.7763344e-02
 -8.8969529e-01
  1.4819953e-02
 -8.7038679e-05
 -2.0994870e-02
 -2.0784723e-02
  6.4344043e-03
 -1.1031421e-02
  8.4043415e-03
  6.1833628e-02
  1.1780882e-02
  4.6516075e-03
 -7.4378210e-03
 -2.1499132e-03
  3.3310808e-02
 -6.5945354e-03
  8.5764965e-05
 -6.8440102e-03
  4.9148023e-02
  6.9839028e-03
  1.0789412e-02
  1.5430126e-02
  3.4784345e-04
  7.6355180e-03
 -1.2402563e-02
 -4.6239957e-02
 -1.1508954e-01
  1.7494639e-02
 -1.4049082e-02
  3.6431808e-02
  7.6693948e-03
  8.0747224e-02
 -4.7068689e-02
  9.1093332e-03
 -5.0891913e-03
  3.5146486e-03
 -4.9964460e-03
  4.7540106e-02
 -7.8046080e-03
  6.7360955e-03
  1.5532037e-02
  1.6064695e-04
  1.2648089e-03
 -1.4239780e-02
  9.8915724e-03
 -5.8121900e-03
 -4.7728783e-03
 -1.1764906e-02
 -7.9521639e-03
 -1.6639668e-02
 -1.6841339e-02
  3.1090230e-02
  7.9914862e-03
 -3.5393856e-02
  2.8809295e-03
  1.5479302e-01
  1.0944001e-02
  5.6049237e-03
 -2.0043540e-01
 -7.5789180e-04
 -4.8345607e-03
  2.2772662e-04
 -3.9628344e-03
 -8.2652802e-03
 -3.7422215e-03
 -1.6647608e-03
 -1.9251833e-02
 -5.4264703e-05
  7.5385056e-02
 -1.7939691e-02
  2.3438464e-05
 -2.2772750e-02
 -6.1508603e-02
  6.9768131e-03
 -4.8632585e-03
 -8.8853287e-03
 -2.4671503e-03
  9.3033183e-03
  4.3407016e-02
  1.6958645e-03
 -8.2503799e-03
 -1.0539767e-03
 -7.2023133e-03
  1.7456833e-02
  7.2716572e-04
  1.8063491e-03
 -4.4025425e-03
 -4.9303956e-03
  1.9581039e-02
  1.0718470e+00
  5.0717390e-01
  1.3423716e+00
  1.2441241e+00
 -1.2745866e+00
  1.0670639e+00
 -4.2488593e-01
 -4.3330606e-02
 -3.4956808e+00
 -4.8011127e-01
  1.1793115e+00
 -1.4830835e-02
 -1.2221327e+00
  9.2472506e-01
 -8.6664611e-01
 -6.3107210e-01
 -5.2745372e-01
 -8.2877092e-02
  7.1074814e-01
  1.6614543e-01
  6.9144881e-01
  7.8623104e-01
 -1.6371713e+00
  4.1750688e-02
  2.4596383e-01
  9.8982680e-01
 -1.0546511e-01
 -1.7133347e+00
 -1.3754748e+00
  3.5898528e-01
  6.4166933e-03
  3.1024635e-02
 -6.2803463e-03
  3.2252178e-02
  2.2617904e-02
 -2.2689388e-03
 -2.0685345e-02
  1.8257566e-02
 -2.2367476e-02
  8.2400180e-03
 -5.5694766e-02
  7.9155406e-03
  2.1585692e-02
 -6.4131231e-03
  1.7476873e-03
  1.3304157e-02
 -4.6545663e-03
  9.7154491e-02
  6.1078737e-03
 -1.0617428e-02
 -2.7113871e-03
 -6.7925444e-03
  1.7963227e-02
  5.8137033e-02
  2.1185091e-02
  5.6375549e-03
  1.8293472e-02
  6.8705648e-02
  4.9536858e-02
  1.2242885e-02
  5.9379231e-02
 -2.9587500e-02
 -1.1681600e-02
  7.4150912e-02
 -1.2479674e-02
 -2.6596013e-02
  4.4587426e-02
 -9.0297619e-03
 -2.0589843e+00
  2.0779657e+00
  1.4360535e+00
 -8.3362538e-01
 -1.5579349e+00
 -3.1872165e+00
  1.0196537e+00
  6.1427099e-01
 -5.9318060e-01
 -3.4975437e-03
  2.3473129e-01
  6.1025756e-04
  2.8922740e-01
  8.9243954e-01
 -1.5148758e+00
 -2.9051337e-02
 -5.5711949e-01
 -1.2242497e+00
 -2.7383596e-01
 -3.6190748e+00
  1.0472545e-01
 -1.1636630e-02
 -4.6149203e-01
  1.4438230e-01
 -2.0004172e+00
 -8.8687271e-02
 -2.0378058e-01
 -7.2281593e-01
  7.0880342e-01
  3.1584732e-02
  2.7542360e-02
 -8.2893573e-02
  4.2462189e-02
 -4.8976547e-01
 -5.5247611e-01
  1.3915514e+00
  1.0979910e+00
 -2.0680428e+00
 -7.4132371e-01
  1.5009845e+00
  7.4512310e-02
 -8.4410805e-01
  2.4590512e-01
  4.3835882e-02
 -1.6645049e+00
 -5.4184284e-02
 -8.0713296e-01
 -3.3135224e-02
 -2.5886521e+00
 -3.0417712e+00
 -1.3617779e+00
 -2.2913372e-02
 -1.6805856e+00
  8.4163857e-01
  1.0751278e+00
  4.2236343e-01
  9.3912023e-01
 -9.1207880e-01
  1.3944712e+00
  6.6599238e-01
  8.0409333e-02
  9.2102788e-02
 -4.6713656e-01
  3.7789933e-02
  6.3827163e-01
 -2.8244350e-02
 -8.9881167e-02
  3.9340407e-03
  2.5703723e-03
 -8.0800283e-01
  7.5729392e-03
 -1.6718502e-01
  3.1325407e-02
  1.4576247e-01
  2.5237876e-01
  8.1337762e-01
  1.1989120e+00
  1.2540264e+00
 -1.1694758e-01
 -3.2841632e-01
 -1.9382589e-01
  8.7723836e-02
  9.0995319e-02
  4.0164933e-01
  3.2011192e-02
 -1.6383833e-01
  2.8510863e-02
 -1.8869172e+00
  1.1360434e-01
  1.7186135e-02
  2.1335019e-01
 -1.0763220e-01
  5.3196292e-02
  4.3099368e-01
  1.6899012e-01
 -4.6221875e-02
 -2.0694107e-01
 -1.6089763e-02
  9.5202047e-03
 -1.7241353e-02
  9.4064111e-01
 -3.2414200e-03
 -2.8414709e-02
 -1.4056735e+00
  5.5105847e-01
 -2.0257781e-01
 -1.8429097e+00
  1.2239072e-01
  8.7408435e-01
 -5.6305420e-01
 -4.9819070e-01
  2.2424701e-01
 -2.4777355e+00
  2.2825040e-01
  1.1280942e+00
  9.3658127e-02
  1.8196490e-02
  3.3245957e-01
  9.3835282e-01
 -3.8563702e-01
  5.2829212e-01
 -4.3050230e-01
  4.3993063e-02
  1.1980116e+00
 -2.7468494e-01
  1.8388033e+00
 -2.1447085e-01
 -1.7366272e+00
  3.2008246e-01
  2.6726544e-01
 -1.9593988e-01
  5.5906754e-02
 -4.6611130e-02
 -4.3038335e-01
  4.3556499e-03
  1.2275664e-02
 -1.3497423e-02
 -3.7164153e-03
 -8.3258012e-03
  1.3242334e-02
 -9.5924158e-03
 -6.6651748e-03
 -4.5174003e-02
 -6.7460682e-04
  1.7058261e-02
 -1.1483449e-02
 -4.5030255e-02
 -2.8115850e-02
 -3.7270978e-02
  1.8046575e-02
  1.1123708e-02
 -3.8874184e-03
 -1.0257264e-03
  3.0222107e-02
  3.9046325e-02
 -2.4903475e-03
 -1.1487010e+00
  1.7653403e-03
 -1.9200327e-02
  1.6372336e-02
  2.0097816e-02
  7.9121515e-03
 -3.6794104e-02
  1.3780768e-02
 -1.0877378e-02
 -1.1419873e-02
 -5.7710321e-03
 -2.0849558e-02
  7.1602121e-02
 -7.6446086e-03
  7.5832321e-03
  1.6874524e-02
 -1.3877209e-03
 -5.0473507e-02
  2.9954065e-02
  3.7384856e-02
  5.3933844e-02
 -7.8812838e-03
 -2.5309823e-02
 -4.0399164e-02
 -2.7750121e-02
  1.1893957e-02
  3.6861889e-02
 -1.2593970e-01
  1.4679506e-03
 -4.0852983e-02
 -1.4475617e-03
  7.7827908e-03
 -1.6226530e-02
  2.3899262e-03
  4.6735726e-02
 -2.2969577e-02
 -3.9485410e-02
  3.8469541e-03
 -3.2863576e-02
 -9.9172167e-02
 -8.2958173e-03
  4.5798015e-02
 -3.4364713e-03
  2.3137381e-02
  8.4543014e-03
 -1.9062633e-03
 -1.6756529e-01
 -2.3712099e-02
 -1.6599832e-02
  1.0589097e-01
  2.8469047e-02
 -3.4600829e-03
 -1.2217209e-01
  6.0719955e-03
 -1.1124909e-01
 -2.6841005e-02
  3.4718785e-02
 -6.8960870e-03
  9.3543367e-04
  5.5159896e-04
 -3.3833429e-03
  9.5633650e-03
  4.4644136e-02
  3.0440044e-02
  1.5466751e-02
  2.4097007e-02
  6.3368477e-02
  1.4880320e-01
 -1.6175861e-02
  1.6300230e-03
 -1.9160300e-02
  2.8643901e-02
  5.8864046e-02
 -3.3180036e-03
 -2.4495676e-02
 -7.5294059e-03
  1.1463620e-02
 -8.5619721e-04
 -1.9105403e-01
  5.4607656e-02
  6.3390464e-01
  1.4282813e-03
 -1.6361345e-02
  1.4705277e-03
 -2.0651525e-02
  9.2326698e-04
 -1.2422486e-02
 -1.2455249e-02
  1.5020900e-02
  2.1354847e-02
  8.5217897e-03
 -2.3663982e-03
 -2.9272377e-02
 -4.4184785e-02
  4.2321482e-03
 -1.2143505e-02
 -1.1724349e-03
  4.6759299e-03
 -1.1006429e-02
  1.6550446e-02
 -8.6351894e-03
 -6.0485690e-03
 -4.5795781e-03
 -3.2814285e-03
 -3.2814588e-02
 -4.0223617e-03
  1.1835842e-02
  3.0234862e-02
 -6.8715480e-03
 -1.3733417e-02
  5.5353042e-02
 -3.3875279e-02
 -1.0265446e-01
  5.0792824e-03
  4.9751806e-03
  1.8777007e-02
  1.5664551e-01
 -2.9418048e-01
 -2.5494578e-01
 -2.2114316e-01
 -1.4149970e-02
 -5.6561249e-01
  5.4417845e-02
 -2.2069537e-03
 -1.2229105e+00
 -2.7351040e-01
  1.6396041e-03
 -2.4157830e-02
  8.9456616e-03
  6.2456992e-02
  2.4402993e-02
 -1.6428056e-01
 -2.2196751e-02
 -1.8752834e-02
 -3.1293987e-03
 -6.3479654e-03
  2.6933289e-01
 -2.6870193e-03
 -1.9621472e-01
  2.2557849e-01
 -1.9996408e-02
 -1.4435063e-01
 -1.9036911e-01
  7.4173823e-02
  9.1566759e-01
  2.8269881e-02
 -3.7625272e-02
 -5.8385562e-02
 -2.3427890e-01
  4.3972679e-05
 -5.9325683e-01
  1.2587904e+00
  6.5676880e-01
  4.7142345e-01
  5.2619938e-02
  2.0411875e+00
 -6.8467021e-02
 -9.6068323e-02
  7.0620185e-01
  8.9789081e-01
  9.7490185e-01
  1.4893064e-01
  1.6732626e-01
  3.3080599e+00
 -2.9617524e+00
 -9.0981019e-01
  6.4595126e-02
  7.1088022e-01
  1.6103293e+00
  6.9216734e-01
 -4.6228954e-01
  9.0237729e-02
  2.1200700e-01
  6.0011822e-01
  1.5504991e+00
  3.6864546e-01
  2.2100995e-01
 -4.3256870e-01
 -1.2209415e-01
  2.9659169e-02
 -5.3239416e-02
  1.6202955e-01
  6.6427380e-02
  2.0637435e-01
  1.1703167e-03
  1.3264453e-02
 -3.7698623e-02
 -8.9766234e-03
 -2.1764312e-02
 -1.7223224e-02
 -2.4289900e-02
  3.5417944e-02
 -8.8070773e-02
  1.3071463e-02
  2.9083453e-03
 -1.8628828e-02
  2.1088224e-02
  8.5715968e-03
  2.8596458e-04
  4.0355171e-03
  3.7004305e-03
  1.9109318e-02
 -3.1238472e-02
 -2.1457858e-02
  4.9782839e-02
 -1.4058841e-02
 -5.4108235e-03
  1.1215873e-02
  1.8008148e-02
  3.5377771e-03
 -9.8475188e-02
  1.4171257e-02
 -5.4792631e-02
 -5.5143854e-04
 -1.5813229e-04
  1.0842677e-02
  7.3739281e-03
 -1.0672095e-02
 -8.2735300e-01
  9.1640872e-01
  3.5865507e-01
 -1.1159573e+00
  2.4480338e+00
 -1.0032903e+00
  2.5882822e-01
 -1.0888836e+00
 -1.7802335e+00
 -1.5873852e+00
  1.3322186e-01
 -7.5095128e-03
 -1.1137396e-01
  2.9806858e-02
 -1.0061309e+00
 -4.3424428e-01
  4.7486816e-02
 -1.1229426e+00
  7.7294566e-02
 -6.2552050e-02
  4.4612160e-01
 -3.6602619e-01
 -2.4953744e+00
  7.2682941e-01
 -2.2824726e-03
  9.5367365e-02
 -1.3051995e-02
 -1.0238066e+00
  6.3910514e-01
  4.7921697e-03
  4.3148261e-02
  3.2980546e-02
 -7.2333594e-03
  3.9101128e-02
 -5.7153243e-01
  1.0910183e-03
  8.5923832e-04
  5.1391637e-01
  3.1287737e-02
  1.6515903e-02
 -4.1707046e-03
 -1.3855149e-02
  4.2486897e-01
 -2.0012299e-02
 -2.2603507e+00
 -2.2871014e-02
 -1.3470913e+00
  2.1183206e-02
 -3.8506728e-02
  4.6761598e-02
  7.4540526e-03
  4.7382038e-02
  5.6010830e-01
 -7.7366006e-01
  8.3531821e-01
 -1.6213788e+00
 -2.4178586e+00
  1.0354543e+00
  2.9037976e+00
 -4.2475715e-01
  1.4293365e-01
 -1.3788053e-01
  8.6886911e-03
 -2.0382725e-02
  4.7037342e-01
 -7.3396295e-01
  3.0116842e+00
 -2.2337246e+00
 -7.3605627e-01
 -1.3200085e+00
 -1.7467789e-01
 -1.4642068e-02
 -5.2860424e-02
  4.6029221e-02
  7.7534652e-01
  1.1935356e-03
  1.7081188e+00
  2.8786819e-02
  1.7399248e+00
 -1.9166428e-01
 -1.4755867e+00
 -1.3659782e+00
  1.6021309e-02
 -3.2519302e-01
  1.6308276e-01
 -3.9199454e-01
  1.4037682e+00
  1.2657810e+00
  5.1937588e-02
  7.1571162e-03
 -1.2693362e-01
 -1.1108440e-02
  4.9957251e-03
 -9.8442417e-01
 -5.2158213e-01
  4.8439655e-02
  9.5279166e-04
 -4.8374394e-01
 -3.2614965e-02
  1.2731371e+00
  2.0372273e-01
 -2.1070812e-02
 -2.6669886e+00
 -6.5444685e-03
 -1.5250528e-02
 -1.5763581e-02
  4.8386537e-02
  1.1076291e+00
  1.6547783e-01
  1.9635470e+00
  3.9438445e-02
 -5.0596702e-01
  4.4199738e-01
  3.2357791e-01
  1.2860651e-01
 -6.4752586e-03
  1.5075980e+00
  2.2361218e-03
  2.2765657e-02
 -1.9601382e-02
 -1.4153316e+00
 -1.4371077e-02
  4.7200346e-01
  3.2512210e-02
  1.6381687e-02
  2.1593578e+00
 -1.4422303e-01
  2.0695960e-02
  1.1071683e-01
  4.3927081e-02
  1.2906311e-01
 -1.2121508e+00
  1.0079227e-02
 -6.3395780e-01
 -3.0563170e-01
 -2.9735687e-01
 -3.4921587e-02
 -1.3278998e-01
  5.3663153e-02
  6.3059606e-02
  1.7429335e-02
 -2.0168261e-03
 -8.7927914e-01
 -2.0584357e-01
 -1.6588088e+00
  1.0933670e-01
  1.5671252e-01
 -2.2470494e-01
 -1.2395360e-01
  2.1844946e-01
  1.9032475e-01
 -6.3435540e-02
  2.8271973e-01
 -1.8996104e+00
  4.1021845e-01
 -3.6481361e+00
  2.0265193e-01
 -8.3811527e-01
  1.1999604e+00
  6.6185099e-01
 -1.1956967e-01
  5.5319208e-01
 -1.1179979e+00
  1.5147715e-02
  2.9494977e-01
  2.9676184e-01
  6.2728959e-01
  2.9246521e-01
 -1.0440425e+00
 -1.2217858e-01
 -1.6324413e-01
 -4.8085097e-03
  8.3220190e-01
  2.8140955e-02
  2.7343768e-01
  1.7800093e-02
 -9.7951186e-01
  1.5034522e-01
  3.3476320e-01
  6.8207616e-01
 -8.3380038e-01
 -1.2161938e+00
  3.9805320e-01
  1.7980228e-01
 -1.8225424e+00
 -6.4583725e-01
  3.9367977e-01
  3.3924279e-01
 -7.1847431e-02
 -1.3427988e-01
 -7.4147952e-01
 -1.3027352e-01
  4.3003533e-02
 -1.9961730e-02
  7.1165037e-01
 -2.2223714e-01
 -1.3305839e-02
  9.0062529e-02
  8.3715908e-02
  1.2586411e+00
 -9.8207533e-02
 -1.5565403e-03
 -1.5079192e+00
 -8.1487328e-02
  1.0781568e-01
 -1.3939556e-01
  8.6227238e-02
  7.4776489e-01
 -1.7845826e-02
 -8.4811544e-01
  1.2889470e-01
  8.5717231e-01
  1.0191971e+00
 -2.7817824e-01
 -1.3294427e-01
 -2.4733009e-02
 -9.1061527e-01
  1.7441386e-02
 -2.4540927e-02
 -1.0464674e-01
 -1.2732015e+00
  1.3118181e-01
  5.7556355e-01
 -3.4662217e-01
  6.7082739e-01
  8.9388549e-01
  2.5122736e-02
 -2.6089096e-01
  3.6429006e-01
 -2.6959581e-02
 -3.2672781e-01
  5.2995950e-01
 -1.5807163e-02
 -4.0702298e-01
 -4.7856307e+00
 -3.5682936e+00
 -1.5521225e+00
  1.3312610e+00
 -3.7460360e-01
 -4.8450878e-01
  2.6807866e+00
 -1.7368618e-02
 -2.3367454e-01
 -3.2259116e-03
 -6.2551403e-01
 -3.7135825e-01
 -1.0924304e-01
  2.7011943e+00
  1.8584869e+00
  7.1261888e-03
 -3.5950264e-03
  1.4587945e+00
 -8.3476681e-01
 -1.2881902e+00
 -2.0484015e-01
 -1.7876638e-02
 -1.2573060e-01
  1.1755855e-02
  4.6962261e-02
 -3.2363992e-04
  2.8238019e-02
  5.9071737e-03
 -2.2014372e-02
 -3.7008908e-03
 -7.6896138e-02
  1.5636688e-03
 -1.1259601e-02
 -3.5902727e-01
  3.2602948e-01
  3.5623890e-01
  4.5386411e-02
 -3.6678001e-02
 -9.9892113e-03
 -2.3809206e-01
 -1.1572031e-02
 -4.5130301e-02
 -7.3597399e-03
 -4.0128189e-03
 -6.2867992e-02
 -9.0911342e-03
 -1.3101625e-01
  7.5783324e-03
 -2.7093869e-03
  1.3121694e+00
  1.2259669e+00
  2.1730471e+00
 -1.2772720e-01
  6.6787004e-01
 -4.1219257e-03
 -4.4497651e-01
 -1.6274393e-01
 -9.2303634e-01
 -8.5303366e-02
 -2.1238361e-01
 -9.9406485e-03
  3.0923295e-01
 -8.4824832e-03
 -1.5715293e+00
  6.0703945e-03
 -4.5796692e-01
 -4.4683579e-01
  6.3555741e-01
 -5.0083339e-02
  2.5778580e-01
 -9.7073382e-01
  7.2105967e-02
 -3.9144683e-01
 -1.0153158e-03
 -3.4967177e-02
 -2.1122957e-03
 -4.2028078e-01
  1.0914115e+00
 -5.3744111e-04
 -1.8653844e-02
  3.5706451e-03
  2.9926043e+00
 -1.1010277e-01
 -5.2704805e-01
 -2.0143346e-01
 -7.4750382e-01
 -7.5048798e-01
 -7.8955200e-03
  3.9357349e-02
  1.3950926e+00
 -2.3052173e-03
 -1.7928834e-01
 -1.3970588e-02
  1.0866456e-01
 -4.7325957e-01
 -5.8671094e-02
  1.4122330e-01
  3.0730979e+00
 -1.3275028e+00
 -5.1678681e-01
 -5.0456446e-01
 -4.2576790e-01
 -2.8028622e-02
 -1.9625837e-01
  2.0890860e-02
 -2.1389341e-01
  2.4994010e-02
 -1.3995050e-01
  8.0731008e-03
  2.7368208e-02
 -1.1569829e-01
  4.9886450e-02
 -6.1281170e-03
  5.2711529e-01
  8.1720811e-01
 -9.8192155e-01
  6.0335505e-01
 -7.2364155e-03
  1.2430415e-01
 -1.8410046e-02
  1.9530432e-02
 -4.4041929e-01
 -1.4052450e-02
  5.6751417e-03
 -2.7385567e-04
 -9.5526040e-01
 -4.3225798e-01
  8.6460039e-02
 -5.7893318e-01
  1.9397732e+00
  6.5325123e-01
  9.9521643e-01
  1.6439009e+00
 -1.0577128e+00
 -2.7666256e-01
 -3.4550345e-03
 -4.4928655e-01
  2.5381398e-01
 -2.8866479e-01
 -6.4389759e-01
 -3.6406543e-02
 -1.0893550e+00
 -7.5846813e-03
 -2.0701325e-01
  2.2643672e-02
  3.7769916e+00
 -3.5113692e-01
  1.4062092e+00
 -4.2139348e-01
 -6.0401243e-01
 -4.0908059e-01
 -4.1377135e-02
 -4.8274592e-01
 -1.2141104e-02
 -5.9691193e-03
 -3.0054104e-01
 -5.3832129e-02
  1.4545882e+00
  9.0688251e-02
  5.0583906e-03
  7.7813953e-01
 -3.5008929e+00
 -3.2313460e-01
 -1.0829113e+00
 -3.9487907e-01
  1.4693360e+00
 -8.7665683e-03
 -6.7583635e-02
  1.1437427e-01
 -2.0151112e+00
 -1.0551281e-01
 -3.9911604e-01
  1.7068278e-02
  2.1631958e+00
 -1.4592836e+00
  1.5187864e-01
 -6.0644340e-02
 -1.0421705e+00
  1.6875593e-02
  1.2108574e-01
 -8.3988756e-01
  5.6728967e-02
  4.6936586e-02
 -3.7096533e-01
  1.0183569e-02
 -1.7142002e-01
 -2.2039269e-01
 -5.5319507e-02
  1.6900117e-02
 -1.0311054e+00
 -3.6725968e-01
  2.6470524e-01
 -9.1272944e-01
 -1.5819643e+00
  1.6438357e+00
 -1.3563875e+00
  6.5229875e-01
 -1.7140228e+00
 -1.4735201e-01
 -5.3789742e-02
  8.1197888e-01
 -1.2219205e+00
 -5.4653943e-01
 -5.9704083e-01
 -6.3688987e-01
 -9.0931541e-01
  4.1137621e-02
  1.9993950e-01
  1.1059184e-01
  7.6514411e-01
 -1.5121261e+00
 -9.0978640e-01
  1.3922869e-02
 -2.3122843e-01
 -2.4472163e+00
 -2.7141166e+00
  1.1432557e-01
  1.0000411e+00
  5.4542191e-02
  5.4279715e-02
 -5.9791666e-01
 -1.3397346e+00
 -2.4553325e-02
  5.1166588e-01
 -1.9371996e-02
 -2.2120109e-01
 -6.2170607e-01
  1.0213977e+00
 -8.1080210e-01
 -2.4192531e-01
 -7.9406485e-02
  1.8735959e-01
  1.9749491e-03
  6.2767975e-02
  5.1412705e-02
  2.2085555e-01
  4.5796108e-02
 -6.4465576e-01
 -8.1512937e-03
 -1.3038089e-02
  3.7979856e-02
 -2.1383844e-01
  7.3355591e-01
  3.0333048e-03
  1.0351638e+00
 -3.8024966e-02
 -1.4308418e-02
 -2.2375406e-01
  2.8852992e-02
 -3.5235412e-02
 -2.8269004e-02
 -1.0757484e-01
  1.1914682e-03
 -1.0455087e-02
 -5.9777286e-02
  1.5269309e-02
 -4.9044020e-02
 -2.6978248e-01
 -1.2220851e+00
  1.1917627e+00
  2.3025684e+00
 -1.4713888e-01
  7.2581391e-03
 -3.2202089e-01
 -1.0382567e-02
  3.0013257e-01
 -6.9245431e-03
  3.7275279e-01
  2.8264299e-01
  6.1618380e-02
 -3.0612160e-02
 -1.3432985e-02
 -6.0278445e-02
  4.2217487e-01
 -1.7026100e+00
  1.0520836e-01
 -9.8138344e-01
 -2.3839178e+00
 -2.5291849e-02
  5.2728760e-01
 -1.5382367e-01
  7.1133655e-01
  7.3140547e-02
  1.0515962e+00
  4.5891209e-03
 -8.3354259e-01
 -2.2374649e-02
  2.6743112e-02
 -4.2522129e-02
 -2.1203456e+00
 -6.2871283e-01
  4.0602356e-01
 -4.5523485e-03
  9.9703535e-02
 -1.1862319e+00
  2.4525553e-01
  3.6976859e-01
  1.9384369e-01
 -5.1993341e-03
  4.0395888e-03
  1.7800136e-02
 -2.2502372e+00
  6.0339410e-02
  1.6016718e-02
 -1.0254189e-02
 -2.0988956e-02
  9.7334445e-01
 -5.1745750e-02
 -4.3200427e-01
  6.6343345e-02
 -1.7598312e-01
  6.8350933e-03
  1.0354720e+00
  6.7025487e-04
  3.5899997e-02
  1.5346712e-01
  1.4147439e-02
 -2.2364643e+00
 -2.0297861e-01
  1.0905458e-02
 -3.7029786e-03
  1.8099402e+00
  4.2736983e-01
 -1.2385055e-01
  1.7688934e-02
  6.7941225e-01
  2.0465344e-01
 -2.5663963e-02
 -1.1418018e-02
  3.1489149e-02
  3.6051702e-02
  6.2382864e-03
  5.3016063e-02
 -5.8204883e-01
 -1.3830739e-01
  3.6518861e-02
 -3.1652819e-02
 -8.6841804e-01
 -4.7476637e-01
 -4.2376578e-01
  1.2026720e+00
 -2.9634470e-01
 -1.5117131e+00
  2.6366255e-01
 -9.8398817e-01
 -3.0327003e+00
  4.0526036e-02
  3.5052921e-03
  1.5124577e-01
 -5.0271934e-01
 -3.5876997e-02
  9.6090175e-02
 -1.3020846e-01
 -2.0568106e+00
 -1.1186866e+00
 -1.2195232e+00
 -3.9434507e-03
 -1.0609992e-02
 -1.1282488e+00
  3.7742428e-02
 -4.4033849e-01
 -4.1255229e-03
  1.3484384e-02
  7.3168844e-02
 -1.0796047e-01
 -3.8799012e-01
  2.2688808e-03
  1.5311497e-02
 -2.8984291e-02
  2.1420868e-01
  2.5576657e-01
  7.8030720e-02
 -7.6070869e-01
  1.0810480e-01
 -6.8487191e-01
  4.3391187e-02
  1.0232793e-01
  4.5448232e-02
  7.7783235e-04
 -7.7997006e-02
  2.7960655e-01
 -1.5366356e+00
 -3.4834772e-02
  1.0992558e-01
  8.3822988e-02
  1.3717377e+00
 -5.3048830e-02
 -3.5095376e-01
  2.0282564e+00
  1.1476823e-02
  1.2519909e-01
  2.2337499e-01
  1.4501587e+00
  1.2423527e+00
 -2.1568051e-02
  4.0771596e-02
  1.4401057e-01
  1.8781218e-01
 -7.8627235e-01
  3.0864695e-02
  2.7976180e-03
 -5.8868223e-01
 -5.6807297e-01
  1.8294834e-01
  9.4726098e-01
  1.0286152e+00
 -2.2243349e-02
  5.8918376e-02
  1.2338147e+00
 -2.5483487e-02
 -2.4487422e-01
 -9.2775663e-03
 -8.0763623e-02
  2.9559073e+00
  2.2034732e-01
  1.2597676e-03
 -1.8752211e-01
  1.8733738e-01
 -1.0022225e-02
 -2.0324780e-01
 -1.9654220e+00
  8.9061701e-01
  5.6112278e-01
  3.1753483e+00
  6.4704970e-02
  3.6532062e-01
  2.7701138e-03
  1.5023435e-02
 -3.5647746e-02
 -1.6234118e+00
  3.8794792e-01
  4.5504114e-01
 -3.8673682e-03
  1.1224728e+00
 -4.2218443e-02
 -1.7780749e+00
 -1.0945834e+00
 -5.3318501e-02
  6.5359427e-03
 -2.4292853e-02
 -4.6754521e-03
 -1.9852078e-02
 -2.9275700e-01
 -1.3157384e-02
 -4.2632078e-03
 -1.8739251e+00
 -3.8693747e-03
  6.6743284e-02
 -1.3138230e-02
  4.4164401e-01
  8.5247159e-02
  3.0715950e-02
  1.0169771e-01
 -1.0791700e-01
 -9.3481381e-04
  1.6741641e-02
 -1.0307149e-02
  5.3268210e-03
  2.1657368e-02
  3.6676843e-02
  1.0804818e-02
 -7.6180557e-05
  3.5221275e-02
 -9.4103115e-03
 -6.2647112e-02
 -2.7807615e+00
  5.7590282e-01
  1.3294430e-01
 -1.7951176e-01
 -5.9482014e-01
  9.5121861e-03
 -3.6048088e-02
  5.8186892e-02
  1.4645929e-02
 -5.4613419e-02
  8.1410166e-03
 -2.5555622e-02
 -1.8152421e+00
  1.2458566e-02
  4.1500032e-01
 -1.8776450e-02
 -1.1747099e+00
 -1.5098503e-01
  6.3126117e-01
 -1.2862430e+00
 -5.5696936e-03
  3.7775975e-02
 -4.6949819e-02
 -8.0932910e-03
 -3.5830230e-02
 -7.0651369e-03
 -6.3171331e-03
  4.4293576e-03
 -7.7739513e-01
  2.0080924e-03
  2.8317499e-01
  1.4142964e-04
 -2.8356138e-01
 -1.1293082e-02
  3.7531257e-01
 -7.3217607e-01
 -2.9818627e-01
  1.6520830e-02
 -1.9837915e+00
 -4.1629352e-02
 -2.3492031e-01
 -1.3303390e-03
  4.8560657e-02
  6.1221635e-03
  2.0003042e-01
  1.7529751e-01
  1.9386601e-01
 -2.8938117e-02
 -2.2753773e+00
 -4.1833431e-02
  3.9419642e-01
 -3.7082589e-01
  6.0247642e-01
  1.2840977e-01
 -2.2763889e-02
  2.9856592e-02
  1.9623424e-01
 -1.3752644e-03
  8.2110446e-03
  4.5002479e-02
  1.3300699e-02
  5.8101809e-01
 -1.2898737e-02
  2.5380066e-02
  8.9079267e-01
  5.8907992e-01
  2.1040416e+00
  3.9327073e-01
 -4.7698535e-02
  2.6546344e-03
 -4.5517001e-02
  6.6439621e-02
  1.4858178e+00
 -5.4822441e-02
 -2.3714881e-02
 -2.9414212e-02
  2.0042251e-01
  7.4435216e-01
 -1.5236024e-02
  4.5787428e-02
  7.1875650e-01
 -1.4217609e+00
 -8.2847995e-01
  2.3094267e-01
 -1.2137677e-01
  1.5178952e-01
  1.3504994e-01
 -1.2245524e-03
 -4.4196647e-02
  8.5610934e-02
  2.2330786e-01
 -2.7008638e-02
 -1.8712692e+00
 -2.4904904e-03
  6.1696720e-01
  7.1252376e-02
 -1.7994406e+00
 -3.8889144e-03
  6.3307065e-01
 -1.0126559e+00
 -1.6624702e+00
  1.0414287e-01
 -9.0638526e-02
  6.2030125e-03
 -1.0651079e+00
 -1.9229172e-01
 -6.3961423e-03
  1.7260659e-02
 -6.7334294e-01
 -3.0712865e-02
  3.2964263e-02
 -3.4635693e-01
 -1.3387730e+00
 -3.0061597e-01
 -2.1844893e+00
 -2.7230773e+00
 -1.2077502e+00
  3.0471232e-02
  2.0319685e-01
 -5.8969832e-03
  3.7694705e-01
 -1.4553454e-02
 -8.2225487e-02
  8.0449700e-02
  2.7158980e+00
  9.7820807e-01
 -5.1645923e-02
  5.7753369e-02
  1.8056809e+00
 -1.2236979e+00
 -3.8383776e-01
 -2.3597331e+00
 -1.5760768e-02
 -1.0156074e-02
 -1.8933583e-02
  3.1721711e-02
  3.6554536e-01
  7.0676319e-02
  1.4715897e-02
 -1.6036261e-02
  1.5042153e-01
  2.1626823e+00
 -2.3084867e-01
  2.3120706e-01
  1.5348833e+00
  1.6995016e+00
 -2.9170302e-01
 -1.0155232e+00
 -3.1446662e-02
 -8.8792387e-03
  6.6661134e-02
  7.8642786e-02
 -9.9736327e-01
 -7.6287952e-03
 -1.8402283e-01
 -1.1269514e-01
  1.5760988e+00
  5.4472399e-01
  1.3975658e-01
 -7.6298513e-02
  7.7904975e-03
  9.3876638e-02
 -1.6183593e+00
 -7.8889370e-01
  2.0735266e+00
 -1.9091319e-02
  3.2088324e-01
 -1.6478845e-01
 -1.0684320e-01
  4.0419843e-02
  2.5960401e-02
  6.8481662e-03
 -5.8112167e-02
  3.8171088e-04
 -9.5976824e-01
  4.0005397e-02
 -1.6623178e-02
  1.0025441e-01
 -9.4065827e-01
  3.7603006e-02
 -8.6421072e-02
 -2.3826202e-02
  1.0488491e-01
  5.8826902e-03
 -9.1580451e-03
 -8.4850360e-03
 -3.5149253e-03
 -6.0875374e-03
 -1.3921831e+00
 -1.5813062e-01
  1.0752107e-02
 -1.8573401e-02
 -4.8455376e-02
 -4.2006306e-02
  3.6916528e-02
  3.7719786e-02
  4.7203759e-03
 -4.7411881e-02
  2.1539770e-02
 -5.8857441e-02
  6.1950572e-02
  4.4654902e-02
  3.3321582e-02
  7.2259256e-03
 -1.1169671e-02
  1.2425595e-02
  2.4613910e-03
  6.3748672e-03
  2.5015821e+00
  3.8037103e-01
 -6.6865492e-01
 -2.0099919e+00
 -8.4834518e-03
 -3.0947088e-03
  4.1905912e-03
 -8.7493118e-03
 -9.3914372e-01
  4.5630145e-01
  6.2584448e-01
 -9.2316754e-02
  3.2799286e-01
 -1.9774411e-03
  2.7433410e+00
 -2.6543494e-06
 -1.0129162e+00
  4.3595427e-01
 -6.4058983e-01
 -3.4645149e-01
  1.5485039e+00
  7.4587137e-02
  1.2070847e-02
 -3.0121718e-02
 -6.3916671e-01
 -2.0399708e-02
  3.4256708e-03
  2.0819584e-02
 -1.6038877e-01
 -2.4820599e-03
 -1.6504818e+00
 -3.9359111e-02
 -4.4511437e-02
  6.9684023e-01
 -2.8169155e-01
 -1.8568359e-02
 -4.5976073e-01
 -9.3403824e-02
  8.6256592e-03
 -7.7925511e-03
 -4.5226660e-02
  1.2244510e-02
  2.7165791e-01
  9.3608245e-02
  4.3372647e-03
 -3.5706052e-01
  7.8564793e-02
  8.3047934e-03
 -8.1337780e-01
  5.1481873e-01
  1.5736547e+00
 -4.7857962e-03
 -1.5446550e-01
 -3.6597963e-02
 -7.6409779e-02
  2.0878898e-02
  3.5938632e-01
  1.2253533e-01
 -2.9410722e-04
 -2.2909274e-02
 -1.8927151e+00
 -7.7342037e-03
  1.0646009e-01
 -1.2958444e-02
  2.1841335e+00
  5.9347278e-01
 -1.6974028e-02
  4.8213359e-03
 -1.2279103e+00
  2.2779439e-01
 -2.3925636e-02
 -2.5254950e-01
 -1.8991742e-01
  2.6286754e-03
  4.3977925e-01
 -8.1997760e-02
 -1.2612924e-02
 -2.2788259e-01
 -1.6534090e-01
  3.1027989e-02
  1.4987724e+00
 -6.4736331e-01
  1.1204838e+00
 -1.1134627e+00
 -2.4391232e-01
 -3.3913165e-02
  7.3604793e-03
  3.0059695e-02
 -7.8826129e-01
  2.4667913e-02
  3.9211971e-01
  3.8901297e-03
 -6.9599175e-01
 -7.1032397e-03
  4.0519211e-01
  1.2250521e-02
  7.8654218e-01
  5.0575439e-02
 -9.3745589e-01
 -3.0069590e+00
 -1.7209546e-01
 -5.7785079e-02
 -3.2373659e-02
 -2.0467810e-02
  3.4837946e-01
  2.3282567e-02
 -2.5247082e-02
  2.2762218e-02
 -4.4617206e-03
 -9.8205460e-03
  7.2703613e-03
  5.9175736e-01
 -8.4765977e-01
  1.2931249e-01
  2.0227289e+00
  2.2815941e-02
  2.9780354e-02
  7.1078786e-03
 -8.7060772e-02
 -2.0969555e-02
 -1.4501589e-02
  6.9818255e-03
 -1.4546906e-02
 -5.2695149e-01
 -1.2021861e+00
  2.2544187e-02
  1.3658169e-01
 -3.0091222e-04
 -3.3071396e+00
 -9.6709657e-01
  6.9575608e-01
 -3.3120032e-02
  2.9369263e-02
  9.6643344e-02
 -1.3910665e-01
 -9.4933826e-03
 -5.5029565e-01
  4.3928284e-02
  8.6938344e-02
 -8.1418110e-03
 -1.4034182e+00
 -1.4999451e-01
 -2.8742613e-02
 -1.1168142e-03
 -3.3487232e+00
  1.0001321e+00
  1.2312604e+00
  7.0412880e-01
  8.2784491e-03
 -9.7936697e-02
 -4.0733781e-01
  3.5390526e-02
  1.8598641e-01
  6.1039621e-01
  1.7208789e-02
  3.0340962e-02
  2.6918359e+00
 -9.3900019e-01
  6.9141912e-01
  1.5049246e-01
 -6.7472589e-01
 -3.0733368e+00
  3.7803677e-01
  6.4781837e-02
 -2.1309338e+00
 -2.4676265e-01
 -1.5539155e+00
 -4.7212112e-01
 -5.6158081e-02
  1.4941777e-01
  1.0903431e-01
  1.4694618e-02
  5.8766848e-01
 -2.0714139e-04
 -1.9247496e-01
 -7.1933992e-02
  3.0603075e+00
 -2.2553425e-01
  6.3938810e-03
  8.1059223e-01
 -9.2842573e-01
 -7.9102784e-02
 -4.6666518e-02
 -1.3977081e-01
  1.1731369e-01
  1.6939072e-02
  3.1406634e-02
  8.6658411e-02
  5.2093477e-03
 -1.0126999e-01
 -2.1391088e-02
  2.8736068e-02
  8.8276845e-01
 -1.0252233e+00
 -4.6835437e-02
 -5.8968300e-01
 -9.4990700e-02
  2.6910631e-02
 -8.3590923e-03
 -9.6010733e-03
 -7.7401020e-02
 -5.4202765e-02
  4.1892767e-02
  1.7000051e-02
 -4.9871647e-01
 -5.0226238e-04
  3.5168275e-03
  3.0240420e-02
  2.5724766e+00
  1.0387006e+00
 -1.1260905e+00
  2.0173882e-01
  2.4558015e+00
 -7.7041090e-02
 -2.5758272e-01
 -3.6453996e-02
  2.8884348e-01
 -6.2256306e-03
  3.3287700e-02
  2.3120535e-03
 -2.4868684e+00
 -2.2737149e-02
  1.4268185e-02
 -1.7986989e-01
 -1.5970029e-01
  5.8118373e-01
 -3.4521902e+00
  9.7660220e-01
 -1.9262089e-01
 -2.7660772e-01
 -6.3658962e-03
 -3.0494279e-01
  7.0353717e-01
  2.8495675e-01
  5.0657019e-03
  2.0388083e-01
 -2.3252068e-01
 -1.2925158e-02
 -9.8036658e-03
 -3.8922171e-03
 -9.0936112e-01
 -7.2881150e-01
  3.2377717e+00
 -5.6044400e-01
 -1.1199657e+00
 -1.0186079e-01
 -2.7194165e-02
 -2.0287706e-02
 -2.7299127e-02
  3.3182390e-03
 -7.3548019e-01
  7.7930674e-02
 -1.1475566e-01
 -7.5475216e-02
 -9.0282783e-02
  8.6432612e-03
 -2.8746474e+00
 -1.9659361e+00
  1.7985321e+00
  2.2468891e-03
 -6.0315394e-01
 -4.2366210e-02
  9.5471328e-01
 -1.3303511e-02
  1.8237498e-01
 -9.5220588e-02
  2.7614625e-02
 -2.3986889e-01
 -1.0817278e-01
 -4.5555934e-02
  3.8803168e-02
 -4.5821637e-02
 -3.4115829e+00
 -1.9441472e+00
  2.7886567e+00
 -3.4676645e+00
  9.9068433e-01
 -4.9536780e-02
 -2.5607190e-01
 -4.6225991e-03
  3.2481784e-01
  9.3260489e-02
 -4.0117004e-03
 -7.6396507e-03
 -4.2877175e-02
 -5.3640958e-02
 -1.2628870e-01
  7.7998051e-03
  3.7627673e+00
 -1.8756512e+00
  1.6306782e+00
 -8.3600724e-01
 -5.5500609e-01
 -1.0705702e-01
  1.0360930e-02
  3.7177872e-02
  4.8991710e-02
  7.4192446e-01
 -6.9271170e-02
  1.6162030e-01
  3.9081480e-02
 -3.0286593e-02
 -5.1187330e-01
  1.0539719e-02
  1.3577634e+00
  2.5882033e-01
  5.1881778e-01
  7.1496314e-01
 -2.3886213e+00
 -7.3547699e-03
  3.7237072e-01
 -1.2981504e-02
 -1.4793487e+00
 -3.4687945e-01
  1.5315598e-02
  1.6558595e-01
  8.1907980e-02
 -1.0462741e-02
  4.4085048e-02
  1.2802089e-02
 -1.3753860e+00
 -4.2968053e-01
  9.3201965e-02
  1.5048355e+00
 -2.1661937e+00
 -1.5297375e-02
 -8.2856226e-01
 -1.3519802e+00
 -3.5514373e-01
 -8.8320230e-04
  1.6304065e-02
 -7.3906101e-02
 -4.0615299e-01
 -1.0753380e-02
 -2.1159362e-02
  2.1973049e-02
 -1.2518132e+00
  3.7417945e-01
  8.9431810e-01
  1.6487665e+00
 -3.6701661e-02
 -4.3349255e-02
 -1.5353253e-02
 -1.5883796e-01
  3.5408559e-01
  3.3358055e-01
  3.0230284e-01
 -1.6512607e-01
 -6.6312522e-01
 -1.4232669e+00
 -5.0297886e-01
 -5.0744295e-02
 -1.2644677e+00
  1.0813830e+00
  7.8041887e-01
  3.1259160e+00
  1.1113144e+00
 -9.1440365e-02
  4.3556984e-03
 -2.7291855e-02
 -1.2854878e+00
  1.0261503e-02
  4.7486439e-02
  4.2804712e-01
 -1.1944144e+00
 -4.0550437e-02
 -4.5797876e-01
 -3.4277514e-04
 -2.3828454e+00
  1.4256492e-01
  2.6340184e+00
 -2.1845002e+00
  1.3001237e-02
 -4.8780516e-02
  5.2368027e-01
 -1.0752405e+00
  1.0063735e+00
  2.8762789e-02
  4.3246201e-01
  2.4316037e-01
 -6.7440107e-02
  1.2849832e+00
  1.7186430e+00
 -1.1101483e-03
  1.9860227e+00
  3.2424295e-01
 -4.8228049e-01
 -1.0974077e-01
  3.6382335e-01
 -1.4584453e-01
 -3.5041115e-01
  1.7912018e+00
  7.5685567e-01
  3.5654139e-02
  1.5458517e-02
  3.9260980e-02
 -2.3678726e-02
  7.3050908e-03
 -2.2345311e-03
  1.1728819e-02
 -9.4476730e-01
 -1.3803963e-02
 -3.4374349e-02
 -2.2422865e-03
  7.6691037e-01
  7.2916634e-02
 -5.7973701e-01
  9.4112083e-03
  5.3727008e-02
  1.6836222e-02
  1.7139587e-03
 -1.4823205e-02
  4.7175568e-02
  1.6037710e-02
  5.1962908e-02
  1.8306627e-03
  3.1810248e+00
  2.7105384e-02
 -2.8850561e-01
 -1.9103936e+00
 -1.5959935e+00
  1.3838809e-03
 -1.3647956e+00
 -1.7612413e-02
  1.4416035e+00
 -6.3518912e-04
  3.8790917e-01
  3.1187353e-01
  1.3287483e-01
  1.8061571e+00
  9.2333102e-01
  5.4436125e-02
  1.8813559e+00
  8.5297547e-02
  6.5937024e-01
 -3.7265366e-01
  5.6268767e-02
 -8.0829823e-01
 -8.0766994e-01
  6.4081453e-02
  6.3891925e-02
  1.6333596e-01
  3.5241172e-03
  2.0207983e-01
  5.7557660e-01
  1.2068293e+00
 -9.9501992e-03
  3.8845114e-02
 -1.1732872e+00
  5.2373278e-01
  1.7269996e-01
 -2.7478797e-02
  3.7370000e+00
  8.3687073e-01
 -9.3951263e-02
 -5.6328285e-01
  5.3792417e-01
 -4.1458295e-03
  1.1742206e-01
  2.8270043e-02
 -1.7729903e-02
 -2.7793832e-02
 -2.8810620e-01
  3.3832226e-02
  2.2377236e+00
  1.4207994e+00
  4.4541806e-01
 -7.6048407e-03
  5.3180212e-01
  3.5626307e-01
  4.3859094e-02
 -2.4406958e+00
  3.9222404e-01
 -2.0738497e-02
  7.4609526e-02
 -1.0710019e-02
  1.2814258e+00
 -4.7813583e-02
  3.2411018e-01
 -5.2662194e-03
  1.3321561e+00
  6.2948614e-02
 -2.1797996e+00
 -8.9295685e-01
 -2.4602330e-01
 -7.1005321e-01
 -2.1973385e-01
 -2.3514980e-02
  7.5762920e-02
 -3.6175944e-02
 -3.6336004e-03
  1.4465137e-02
  3.7127921e-01
 -3.2000691e-02
  2.1311554e-01
  3.3227015e-02
  4.7816753e-01
 -1.5186595e+00
 -2.0893750e+00
 -1.5914973e+00
 -4.7757390e-01
 -2.3752046e-01
 -1.5838776e+00
  5.8621686e-02
  1.6928023e-01
  5.2245712e-01
  1.9881681e-01
  7.8531228e-02
  2.0735332e-01
  3.3572680e-01
 -7.8183800e-02
  1.0690916e-01
  9.0803698e-02
  2.7069989e-01
 -5.3623861e-01
 -1.1202134e+00
  4.2604223e-01
  7.3901564e-01
 -1.4267925e+00
  1.0556108e-02
  1.5939919e+00
  4.2208263e-01
  1.8224588e-01
 -1.2832801e-02
 -8.4474981e-03
  1.0106940e+00
 -3.4072855e-01
  1.1825060e-01
  1.4846092e-01
  6.4917457e-01
 -1.9459081e+00
 -1.4066423e-01
 -5.7595829e-03
  1.1087128e+00
 -7.4253333e-01
 -3.7742519e-01
  1.2053245e+00
 -1.9345252e-01
 -3.3120330e-02
  2.2836557e-02
 -1.3846043e+00
  3.0625358e-01
  1.3422014e-01
  7.0660659e-03
 -2.9376719e+00
 -4.1331092e-01
 -5.0458569e-02
 -9.0862685e-01
 -1.6292118e+00
 -3.0002239e-01
  1.6928925e-01
 -5.2484757e-01
 -5.3013630e-02
  3.4731179e-02
  4.3593220e-02
  5.7217656e-03
  2.1601968e+00
 -3.2973014e-02
  3.4524587e-01
  5.2971095e-01
 -3.1526055e+00
  1.6249065e+00
 -1.0538820e+00
 -2.0446518e-02
  2.0480649e-01
 -5.4676038e-01
 -5.7692140e-01
  7.5226408e-01
  3.2750160e-01
  6.1657347e-02
  4.1965887e-01
  2.6745322e-01
  4.0463409e-03
 -8.1000769e-01
 -1.2628458e+00
  1.2383168e-01
 -3.7348124e-01
 -4.4217672e+00
 -1.3043901e+00
  2.6200316e+00
  4.7238227e-02
 -2.3350878e-01
 -1.9706136e-01
 -8.3983839e-02
  2.5786374e+00
 -1.8450575e-01
 -1.0951167e-02
 -7.0699513e-02
  1.6399903e+00
  7.9451883e-03
 -2.0755686e-01
 -5.2794997e-02
  1.3959787e+00
 -4.4892311e-02
 -1.2774976e+00
 -2.7328031e-02
  1.7982319e-02
 -7.0211440e-03
 -1.5596417e-03
  1.3250443e-03
  2.6877078e-01
  3.1420826e-03
 -1.2320582e-02
 -3.0987490e-02
  1.8080562e-02
  3.5708379e-02
 -8.2291971e-04
 -3.6836065e-02
  1.0187401e+00
  1.0999434e-01
  4.4229068e-02
  7.8513843e-01
 -1.8414218e-03
 -6.4219711e-03
  3.1669543e-03
  2.5135037e-02
  2.6478468e-02
 -4.1794907e-03
 -3.3810087e-02
  3.6969863e-02
  4.8253793e-01
 -8.2466187e-04
  9.0500293e-03
  3.0092523e-04
 -1.1776675e-01
  4.5757911e-01
  2.6747196e+00
  4.2053666e+00
  8.9130020e-03
 -5.5830455e-03
 -1.2752508e-02
  4.3180399e-04
  1.2226628e+00
 -3.3073604e-02
 -6.2271118e-02
 -2.2854028e-02
  1.7868994e-01
  1.6247937e-02
 -1.1049573e+00
 -1.3990640e-02
 -3.2590106e+00
 -9.8490530e-01
 -1.0184395e-03
 -4.0210992e-01
  8.9758164e-01
 -1.5876895e-01
 -8.9510530e-03
  1.4773729e-02
  1.4339336e-02
 -9.6087225e-02
 -1.0254993e-02
 -2.1989867e-01
 -2.0488305e+00
 -1.9761954e-02
 -1.7612088e-01
 -2.9690366e-04
  1.3465022e+00
  2.1587621e-01
  3.5452086e-01
  1.5470773e-01
  1.9685730e-01
 -2.4978600e-01
  9.8223910e-03
  1.5241483e-02
  2.0978348e-02
 -1.3301725e-02
  8.5408859e-02
 -1.6797000e-01
  6.6466630e-01
 -2.7875176e-03
 -6.7505434e-02
 -4.1496668e-02
  1.6556112e+00
 -2.2930938e-01
  2.3237802e-01
  8.1628877e-01
 -4.3807146e-01
  3.5201756e-03
 -2.9793090e-01
  1.3451394e-02
  6.4117241e-01
  5.4882023e-02
  5.2032042e-01
  1.7892716e-02
  1.2134182e-01
 -1.0822613e-02
  6.5249280e-04
  2.3314829e-01
 -3.6873586e-02
 -4.7966167e-02
 -1.8985170e+00
 -2.6237361e+00
 -1.7474985e-04
 -8.8944752e-03
 -5.0031375e-03
 -3.0239357e-03
 -1.9836335e-02
 -4.1576070e-01
 -9.7548105e-02
  8.4830150e-02
  1.4745110e+00
 -6.7064334e-03
 -2.8355627e-03
 -2.4061115e-02
 -1.8565894e+00
  3.6475599e-01
 -3.6169025e-01
 -6.6940653e-01
 -1.3243713e-02
 -1.7391942e-01
 -6.4720823e-03
 -1.4615814e-01
  3.0729193e-02
 -7.3391572e-02
 -2.7119087e-03
 -5.5441082e-01
 -1.1816278e-01
 -1.8809689e-02
  4.7274332e-02
 -6.5478627e-03
 -1.7143443e+00
 -2.5477123e-01
 -5.3433681e-01
  7.9110247e-01
  9.3487191e-01
 -2.5687313e-01
 -8.3680693e-03
 -1.2191251e-02
  7.3452449e-01
  2.2710398e-02
  4.7480450e-03
 -5.5884372e-04
  2.0408697e+00
 -1.6743172e-03
 -5.8625497e-02
 -8.2560086e-01
  4.8915963e+00
 -1.8277262e-01
  3.5497764e-01
 -2.2685151e+00
 -3.9961557e-03
  1.8074496e-02
 -2.8668506e-02
  1.1044600e-01
  7.6332366e-01
 -6.0414050e-02
  2.0943668e-02
  5.5704851e-02
  1.7558911e+00
 -4.3508399e-01
 -6.4089519e-01
 -1.7326610e-02
  5.5959827e-01
  7.0019716e-01
  9.1055018e-01
 -1.1251028e+00
  5.9857166e-01
  9.8749384e-02
 -2.3260513e-02
  1.6699484e-02
  9.9428570e-01
 -1.1346842e-01
  1.5176182e-03
  4.7326539e-02
  4.8180997e-01
 -7.4004591e-02
  3.8263020e-03
 -2.8245192e-02
  4.0116752e-03
  8.1149656e-01
  4.2723739e-01
  2.8823940e-03
  6.9060934e-01
 -2.3495014e-01
 -1.3145859e-02
 -2.9404148e-01
 -4.7119293e-01
  2.0549227e-02
 -1.0732836e-01
 -8.3132124e-01
  1.6166180e+00
 -6.9465404e-03
 -8.0919303e-02
 -6.2548566e-01
 -3.0096373e-01
 -4.9388114e-02
  1.7958723e+00
 -6.2775768e-02
  3.7398262e+00
 -7.1372084e-02
 -2.0212442e-01
 -2.9850645e-02
  2.1874185e+00
 -7.9167891e-01
 -2.6071560e-02
 -1.5652248e-01
 -3.1678474e+00
  7.2727138e-03
  9.5198971e-01
 -5.4060336e-02
  9.7486395e-01
  1.4668947e-01
  3.5985734e-04
  5.9890528e-03
  1.0053191e-01
 -5.7861146e-02
  9.1506261e-03
 -5.9633325e-03
  5.2754842e-03
 -1.2243710e-01
 -1.3807786e-02
 -3.6890138e-02
 -1.5632180e-05
  1.1556992e-02
  1.0687093e-01
 -3.1927228e-02
  5.1217724e-04
 -1.7821574e-01
 -2.0317167e-01
 -9.7540480e-01
  1.4366620e-03
 -1.0461528e-02
  1.3760612e-02
  1.8790551e-02
  3.0079114e-04
 -1.3753472e-02
  3.4717534e-02
 -1.8300483e-02
  2.3299448e-02
  5.5269571e-03
  1.9025894e-02
  2.1560011e-02
  3.3160958e+00
 -2.5089908e-01
  3.1575635e-01
 -1.9577052e-02
  5.3398544e-04
 -1.3394775e-02
 -2.1121328e-01
  1.0997957e-01
  1.8332489e-02
 -9.0882975e-01
  3.1525683e-02
 -3.3729248e-02
  9.6968955e-01
  8.9462819e-03
  7.1371846e-02
  2.6997011e-03
  5.1318888e-02
  2.2349614e-03
  3.7734994e-01
  1.4719401e-01
  3.1446401e-02
 -3.7525313e-03
 -3.5491025e-01
 -5.4161635e-04
 -1.2519788e+00
 -1.7812167e-01
 -4.1691351e-01
 -4.8464172e-02
  2.1830780e-02
 -6.2947923e-01
  9.4908990e-02
  4.6575656e-03
  1.2612835e-02
 -2.8663035e-03
 -1.2898716e-02
 -1.2215988e-02
  2.0518120e-01
 -2.2644154e-03
  1.6201101e-02
 -1.8047294e-01
 -3.6363374e-02
  2.0214194e-03
  2.5363034e-02
 -4.0802443e-01
 -4.9939263e-01
 -6.7994364e-02
  3.4447819e-02
 -1.8028323e-01
 -1.8059087e+00
  6.6029862e-02
 -5.1781040e-02
 -5.0867319e-01
  8.6217806e-02
  2.6728159e-02
 -2.1203822e-02
  4.3635136e-01
  1.5289819e-01
 -1.1727034e-01
 -1.2683612e-01
  2.0833723e-03
  1.7408284e+00
  2.6706731e-01
  3.0169929e-03
 -1.5976278e-02
 -2.2583656e+00
 -3.1792390e-01
 -1.2599325e+00
  2.5053954e-02
  5.0182872e-02
 -4.1418597e-02
  5.4219294e-02
 -1.0379628e-02
  1.4639707e-01
 -1.6637212e-01
 -1.9436985e-01
  1.0739090e-01
  2.2964552e-01
  8.0497310e-02
  5.7915766e-03
 -6.7454994e-02
 -4.7188249e-01
  1.6669762e-01
 -7.6974797e-01
 -3.2636911e-01
 -4.0072352e-03
 -6.5842634e-01
 -2.3878974e-01
  3.6245126e-02
 -2.7006871e-01
 -1.6726302e-02
  2.3641983e-01
 -8.8225186e-01
  1.2564000e+00
 -1.6934954e-01
  5.0726742e-02
 -2.2135000e-01
  1.4161108e-01
  9.3309820e-01
 -1.3007649e+00
 -9.3378030e-02
 -1.4451385e-01
 -4.7092278e-02
 -4.9104549e-02
 -1.0086396e-01
  9.5224005e-01
 -8.6505488e-03
 -1.7115606e-02
 -1.1142774e-01
 -1.5504043e-01
 -3.5355064e-01
  9.6011156e-01
 -1.1504551e-01
  7.0407593e-01
 -5.1439065e-01
  5.8886957e-01
  5.1778436e-01
  1.7393227e+00
  4.7993965e-02
 -7.3997034e-03
 -1.8970640e-01
  5.6523561e-01
 -1.0786142e+00
 -2.7126107e-01
  1.4242217e-01
 -3.8736150e-01
  2.2123558e-02
 -2.5592703e-01
 -6.1026635e-04
  2.2287633e+00
 -4.3283682e-03
  5.0001615e-01
  9.1862166e-03
  2.1848053e-02
 -3.5551935e-02
 -2.7771823e-02
 -8.1984091e-01
  2.4182131e+00
  1.3321592e-02
  2.6820973e-01
 -1.5653223e-02
  5.6695323e-02
  1.6505632e+00
  3.1596294e-01
  1.2152252e-03
  1.3439941e+00
  1.4723804e+00
  1.9635712e-01
  3.8553145e-02
  2.6003605e-01
 -6.3969505e-01
 -5.8089606e-02
  5.9335017e-01
  2.1849090e-02
 -2.3401380e-04
 -1.4781848e-01
 -3.5090441e-01
 -7.7150180e-03
  1.0310293e+00
 -1.3059564e+00
 -6.2011182e-01
 -4.1846102e-01
 -1.9259776e+00
 -5.9339386e-01
  8.6560565e-01
 -1.7948935e+00
 -2.5267545e-02
 -7.4260229e-01
 -5.5282348e-01
 -1.7964008e+00
 -2.7603668e-01
 -4.4350246e-01
 -1.1988742e+00
 -3.5610483e+00
  1.1453760e-02
 -2.0920360e-01
  2.2745181e-03
 -8.9369637e-01
 -6.6077127e-03
  8.3423847e-01
  2.2632854e+00
 -6.1034851e-02
 -2.0823363e-02
 -1.9389147e-01
 -2.6133364e-02
 -7.1859464e-02
 -1.1620277e-01
 -9.5234297e-02
 -5.8955465e-02
  1.4826797e-01
 -4.8101526e-02
  1.4877090e-02
 -1.9393053e-02
  2.5080178e+00
 -3.5295528e-01
 -6.8032101e-02
 -9.4102657e-01
 -2.0815406e-02
 -1.1612448e-01
 -1.6854900e-03
  1.2726162e-02
  3.6991566e-02
 -3.0345860e-04
  2.1863159e-02
 -5.2210025e-02
 -8.4033054e-01
  2.0935060e-02
 -1.1262119e-02
  5.3938333e-04
 -9.1282147e-01
  1.4344584e+00
 -8.0463707e-01
 -9.7577852e-01
 -2.9596031e+00
 -2.2911726e-02
 -3.4238580e-01
 -1.7885163e-02
 -2.4344446e-01
 -2.2257829e-02
  2.8519749e-03
 -5.6751400e-01
  8.3825904e-01
 -8.6460393e-03
 -4.8491273e-02
 -6.6972390e-02
  5.3593332e-01
  9.6519160e-01
  2.5322172e-01
  3.0913453e+00
 -4.4709858e-01
 -2.0036060e-02
 -3.8169753e-02
  7.2833449e-03
 -7.9822105e-01
 -4.5195305e-01
 -5.1794064e-01
  1.4728119e-02
 -2.6482050e+00
 -1.0053084e-01
 -7.5783111e-02
  2.3755739e-03
 -4.9245313e-02
 -1.3353405e-02
 -1.8161756e+00
  1.4792447e+00
 -3.4143260e-01
 -5.6114405e-02
  5.5150227e-03
 -5.0739893e-03
 -9.5006444e-02
  6.7184228e-03
 -2.9871602e+00
 -2.4509129e-01
 -1.9102295e-01
 -8.6199030e-02
  1.6842043e-02
 -4.4175098e-03
 -2.3283856e+00
 -6.9958174e-01
  3.7645224e-02
 -2.4786167e-01
 -4.6111465e-01
 -3.1707421e-02
 -2.5051984e-01
 -9.9135928e-02
 -4.6686422e-02
  1.4787732e-02
 -4.9904212e-01
 -2.6158197e-02
 -6.5928982e-03
 -1.4909983e-02
 -2.0871961e-01
 -4.2951219e-03
  1.1290612e+00
  3.3051261e-01
 -4.9421433e-01
 -5.2696137e+00
 -1.9875546e-01
  1.5535317e-01
 -1.9228011e-01
  3.8984062e-03
 -6.3455945e-01
 -1.5957491e-01
 -1.0018336e-01
  1.4073868e-02
 -2.5682759e+00
  7.8749834e-03
 -4.5986056e-01
 -3.1211582e-01
 -1.0711741e+00
  5.5362076e-01
 -2.2669978e-01
  4.2493677e-01
 -9.7065628e-01
 -4.7742035e-02
  1.2375126e-02
 -2.5782073e-03
 -6.8570298e-01
 -3.6963823e-01
 -4.2589977e-02
 -5.3970522e-01
 -4.7718775e-02
 -1.4587015e-02
  3.0899942e-03
 -2.0914253e-02
  1.9218328e+00
 -1.1812913e+00
  2.1656425e+00
  1.4128848e+00
 -1.8402560e-01
 -4.3936339e-01
 -5.4201789e-02
  6.5460107e-03
 -1.6842380e-01
 -4.2302195e-02
 -2.5521141e-01
 -6.2736996e-02
  9.3201983e-01
 -5.2026942e-02
  2.0213579e-03
 -7.4212672e-03
  9.0405810e-01
  4.2013600e-01
 -4.2074233e-01
 -5.1648396e-01
 -3.1233482e-02
 -7.3744352e-03
 -4.8235439e-02
 -6.8455771e-02
 -1.3357412e+00
 -1.9746165e-01
  2.2746101e-02
 -1.0434732e-01
  1.9775586e-01
 -3.5476512e-03
  4.3090181e-03
 -6.0301863e-02
 -1.8716685e+00
  5.3592110e-03
  1.1168171e+00
 -4.3845546e-01
 -5.3139901e-01
  1.9578768e-02
 -1.8880852e-01
 -8.1289309e-01
 -1.0268134e+00
 -5.6219721e-01
 -5.0656682e-01
 -6.8131395e-02
 -2.2839043e+00
  3.0604103e-03
 -2.8220284e-01
 -1.0350442e-02
 -1.3968168e+00
 -3.9923107e-03
 -7.9157400e-01
 -1.5647143e+00
 -4.4859552e-01
 -3.0492678e-02
 -2.6654270e-01
  5.2810055e-03
 -6.1818057e-01
 -1.8679902e-02
 -3.3824724e-01
 -6.9349658e-01
 -2.0819777e-01
 -1.2269564e-01
  6.3320383e-02
  1.5553334e-02
  1.5022141e+00
  7.1471161e-01
  1.1588687e+00
  2.6767421e+00
 -1.1215297e+00
  2.5345561e-01
 -1.7284832e+00
 -2.6231024e+00
 -2.3665037e+00
 -1.1602529e+00
 -2.1390011e+00
 -5.6055918e-02
  9.6818358e-01
 -2.3239470e+00
 -2.3449853e-02
 -7.1851712e-01
 -5.9790682e-02
  5.4989725e-01
 -1.7418126e+00
  2.9751253e-01
  2.7007172e-01
  2.1135852e-01
  3.1847660e-03
  1.3796760e-04
  2.2805047e+00
 -4.6150003e-02
 -2.3594247e-03
  3.6544129e-02
  5.1810946e+00
  2.2531281e+00
  1.1868024e-02
  4.0214106e-02
 -2.1417634e+00
 -2.0300937e-01
 -2.1396971e+00
 -6.4435811e+00
  1.2036546e+00
  4.6892767e+00
  6.0983994e-03
  5.5015255e-03
 -6.0505038e-01
 -1.1572509e-01
 -3.0164650e-02
 -3.1256936e-02
  1.9246748e-01
 -2.1936797e-02
  5.9462082e-01
  3.0721119e-02
  1.2596925e+00
  1.7489654e+00
 -6.3881594e-01
  8.5745919e-01
 -7.8541827e-01
 -8.2998949e-01
 -5.6203797e-02
 -1.3121996e+00
  7.3197681e-01
 -2.4088638e-01
  4.6849373e-01
 -8.3126105e-02
 -2.0659196e+00
  1.1093554e-01
  1.4946427e+00
  1.2161429e+00
  2.1319959e+00
  1.3033324e-01
  2.8748879e+00
  3.0443933e+00
 -1.8067466e+00
  5.3398795e-03
 -1.7259941e-02
 -2.7541482e+00
  5.6968365e+00
 -4.8839264e-02
  1.9644521e-01
 -2.0935116e-03
 -1.3818310e+00
 -8.2570857e-01
  7.3565445e-03
 -6.6927848e-03
 -2.5883055e+00
 -3.1015086e+00
 -7.8054810e-01
 -8.4433967e-01
 -2.4342008e-02
 -6.0725242e-01
  1.4111879e-01
  3.9199343e+00
 -2.7553195e-01
 -3.1517455e-01
 -4.5952585e-01
  2.9462622e-02
 -1.8278930e-01
  2.4384720e+00
 -5.7421392e-01
 -4.7511477e-03
  1.0515021e+00
  9.7678190e-01
 -1.3098717e+00
 -7.1994960e-01
 -2.5119212e-01
  1.5778015e+00
 -2.4164857e-01
 -1.6962116e+00
 -7.2455630e-02
 -5.7335529e-03
 -6.9244683e-04
 -8.7638255e-03
  4.5844260e-01
 -3.5705447e-01
 -1.0090588e+00
 -5.5634153e-01
  1.9087197e+00
  1.2264836e+00
 -1.1092277e+00
  7.4928957e-01
 -1.1229243e+00
  1.9063753e-03
 -9.2462460e-03
 -2.0670364e+00
 -1.9294702e-01
 -1.4775739e-02
  6.6901054e-03
 -4.6860673e-02
  1.6568532e+00
  6.4224499e-01
  3.3007082e-02
  2.8321516e-02
  1.4362034e+00
 -3.3049515e-01
  9.2714500e-01
  4.2408851e-01
  1.2751628e-01
 -6.6705507e-01
  1.5280088e+00
 -8.6810440e-01
  3.0175238e+00
 -4.4984949e-01
 -2.9362738e-01
  3.3183047e-03
  2.5969307e+00
  2.2564709e+00
  3.9611477e-01
 -1.3829408e+00
 -5.1620070e-02
 -5.4695207e-01
  5.8946997e-01
 -1.7939348e+00
 -1.0179950e+00
  1.2561069e-01
 -7.5893235e-01
  7.6816589e-01
  1.0395073e+00
 -1.5987436e-01
  2.1023735e-02
 -7.3418461e-02
  1.2725579e+00
  1.8942363e+00
  1.2326510e+00
 -1.3816252e+00
  5.0851876e-01
  1.2231055e+00
  1.0977069e+00
 -7.9324293e-01
 -1.2999880e+00
 -5.5012536e-01
 -6.5622747e-01
 -2.5113600e-01
  1.0150808e+00
 -2.4158014e-02
  2.1963909e-01
 -2.1229343e-02
  8.5697871e-01
  5.8950115e-02
  3.1732623e-02
 -2.1616364e-01
 -2.6499930e-01
  1.3133632e+00
  6.3491088e-01
 -1.5126933e+00
 -1.7328818e-01
 -9.2645931e-01
  9.7517163e-01
  1.1676598e+00
  3.5311207e-01
 -1.6719279e-01
  4.1040215e-01
 -5.3124398e-02
 -4.9787503e-01
  1.1591650e+00
 -9.9940592e-01
  5.9049112e-01
  3.9311174e-02
  1.6390507e-03
  4.2847693e-01
 -3.7817505e-01
  1.5426990e-01
 -8.5025203e-01
  1.5550098e+00
 -1.1802975e+00
  4.1132870e-01
 -7.5462446e-02
  1.4025488e-01
 -3.7493002e-02
  1.0827307e-01
 -7.0901275e-02
 -8.6756986e-01
 -4.0227026e-03
 -2.8157065e+00
 -9.7437167e-01
 -2.1719772e-01
 -7.8872889e-02
  1.7210699e+00
 -7.7131025e-02
 -3.6829871e-01
  8.8876939e-01
 -6.2867129e-01
  1.3799152e-01
  1.0900878e-01
 -1.0329809e-01
 -1.1321069e+00
 -7.9767555e-01
 -2.1154442e-01
 -2.6024017e+00
 -3.1699212e+00
 -1.0551509e+00
 -4.7067518e+00
 -1.7206149e+00
  3.7908134e-01
 -6.9482578e-03
 -1.5230686e-02
  4.1364834e-01
  4.0411394e-02
 -4.4052834e-03
  3.5917284e-03
 -4.7841866e-04
  2.7269781e-01
  3.2069311e-01
  1.1204607e-02
 -1.1549027e-01
  7.3200984e+00
  1.9638866e+00
  1.0315909e+00
  3.4239442e+00
 -7.5138795e-01
 -2.3356531e-02
 -6.6169582e-02
 -8.7521523e-02
 -8.6704689e-01
  4.1479178e-02
  2.3500407e-03
 -1.6923599e-02
 -1.9096497e-01
 -2.4933903e-02
  1.8031377e-02
 -1.8184653e-01
  1.0382683e+00
  1.3401578e-01
  6.2001783e-01
 -3.0484669e-02
  3.9337343e-01
 -1.0664804e-01
 -3.5051443e-02
 -4.2293113e-01
 -1.7169390e+00
  3.2110818e-02
  1.2400874e-01
  4.1206490e-02
 -3.4380925e-01
 -4.0533915e+00
 -1.2628567e-01
 -2.5742128e+00
 -3.2947276e+00
 -2.7527645e-01
  1.3852468e+00
 -7.5484496e-01
  2.7916527e+00
  1.5798805e-02
 -2.1436235e-03
  2.2444742e+00
  4.0830936e-02
  1.8583780e-02
  1.9363305e-02
  1.6774654e-02
  3.7468210e-02
  3.0777094e-01
  7.1761340e-02
 -8.2760490e-02
 -1.6542979e-01
  2.2151057e-01
  9.8758548e-01
  2.0152135e+00
 -5.1438078e-02
 -6.5346068e-01
 -2.4733905e-01
  5.7812870e-01
 -1.1315047e+00
  6.2129144e-02
 -7.1023302e-03
 -1.4631423e-01
  2.9740312e+00
  2.6865106e+00
  2.1004393e-03
 -4.1662639e-01
  1.1028481e+00
  5.3710099e-02
  2.2660034e+00
  1.2251059e+00
 -2.0269957e+00
  2.3142979e-02
 -2.5590643e-02
 -2.8240800e-02
 -9.0286130e-01
 -3.7685328e-03
 -2.1033177e-02
 -3.5621403e-03
 -1.6982695e+00
 -2.0267732e+00
 -2.6754081e-01
 -1.2103580e+00
 -2.3318138e+00
 -1.0036234e+00
  4.9974936e-01
 -2.9872563e+00
  4.1359937e-01
 -2.1471284e-01
 -1.0585342e-01
  3.9243843e-02
 -1.3311164e-02
  3.9809505e-03
  2.0797439e-02
 -1.9614984e-01
 -7.9281318e-01
 -3.2900164e-01
 -1.6690027e-02
 -1.1124970e-01
  2.4316337e+00
 -8.0168605e-02
 -6.2985486e-01
 -1.4307284e+00
  1.0815321e-01
 -2.1261832e-01
 -3.3399007e-01
  7.0208496e-01
 -1.3763434e+00
  1.1697575e-01
  2.9383931e-02
 -5.7600725e-02
  7.5607550e-01
  3.5053462e-01
 -1.3056004e-01
 -5.5994344e-01
  1.3987252e+00
 -1.8399607e-01
 -6.0920936e-01
 -2.5498077e-01
  2.1399977e-02
  2.8620066e-02
 -4.3156236e-02
  2.9057529e-02
  4.4617956e-03
 -5.2419990e-02
  2.0487983e-02
 -5.5999409e-02
  1.7000649e-02
 -1.5038837e+00
 -1.8792374e-02
 -2.3363888e+00
  1.6682476e+00
  2.2131673e-01
 -4.5595586e-01
  7.6164573e-01
 -9.0662813e-01
 -7.3786706e-01
 -8.2150981e-02
 -3.7837258e-01
 -9.4982690e-01
  4.9570426e-02
  3.6208034e-02
 -9.5095195e-02
 -9.0463156e-01
 -9.9344295e-01
 -8.5909277e-02
 -9.7458816e-01
  1.1014261e+00
  9.2919804e-02
 -8.5109806e-01
  3.2690957e-01
 -1.4467070e+00
  4.7334600e-02
 -5.0297063e-02
  7.2018830e-03
 -1.5103172e+00
  2.0111725e-02
 -1.1448213e-03
  8.2767028e-03
  5.4213005e-01
 -6.4130378e-01
  2.7392220e-01
 -1.8775357e-01
  1.1072142e+00
  4.4697469e-01
 -1.5166771e-01
  9.1475028e-01
  6.3114303e-01
 -3.2138083e-02
 -1.3166365e-01
 -1.4582556e-01
  4.1914368e-01
  4.5206114e-03
  7.8479731e-03
 -1.2100308e-01
  1.9953163e-01
 -1.3721747e+00
 -1.0100573e-01
  3.7069342e-01
 -8.7317145e-01
  1.1699588e+00
  2.2552140e+00
 -4.8373076e-01
  1.2719035e+00
  1.0670378e+00
  2.1572879e-02
 -1.3530279e+00
 -4.0108752e+00
 -7.5666952e-01
 -6.3142911e-02
  8.2312417e-01
  8.8913381e-01
  1.2907823e+00
 -1.3200784e-01
 -1.8615676e+00
 -3.1848080e+00
 -7.4243322e-03
  2.5293200e+00
 -1.3042343e-01
  7.3463954e-02
 -5.7941396e-03
 -4.1305488e-03
 -9.0088747e-02
 -8.2888579e-01
  6.7154360e-03
  1.2974371e-02
  6.2826119e-02
 -1.2477497e+00
 -4.6831930e-01
 -2.6785832e-02
 -9.2741989e-02
 -7.4233778e-02
  1.5858629e+00
 -3.9015186e-01
  9.3927860e-01
 -3.6039180e-01
  2.5998965e-01
  3.7932135e-02
  6.4057508e-03
 -7.3208973e-02
  1.0304781e-02
 -3.1692910e-01
  1.9747023e-01
  2.3707879e+00
  4.5407075e-01
 -1.6669750e-02
  2.8705695e-01
  4.0417480e+00
 -2.8064907e-01
  2.5655515e-02
 -1.9675101e+00
  2.0157187e-01
  2.5271773e+00
  3.1350675e-01
  7.5152349e-03
 -1.4829239e-03
 -4.6537647e-01
 -1.5746111e-02
  3.6113518e-01
  4.6085052e+00
 -1.4868183e+00
 -1.9204243e-01
 -3.6381841e-02
 -1.4047154e+00
  2.6007538e+00
  2.5618282e-01
 -2.1631914e-01
  8.5931212e-02
  4.3488003e-02
  4.6946281e-03
  1.0065957e+00
 -9.9678807e-02
  2.3287356e-02
  3.1192726e-01
  4.3420043e-02
 -6.5646994e-01
 -2.6633224e-01
  8.7789064e-03
 -2.3581007e+00
 -2.4055748e+00
  4.9480000e-01
  2.9293270e+00
 -8.1525517e-01
 -2.1774953e-03
  7.7123737e-01
  3.9136085e-01
  7.7436486e-04
  1.8263999e-01
 -7.8407925e-01
 -1.0242327e+00
  2.3885031e-01
 -2.4685009e+00
  5.7191825e+00
 -5.1710552e-01
 -1.4276327e-01
 -1.0508472e+00
 -4.2760360e-01
  1.1625491e+00
  2.0599246e+00
  2.7310867e-02
  2.3425670e+00
 -9.9455696e-03
 -1.9683329e-02
 -1.1166082e-01
 -2.5533261e-02
 -6.0621694e-02
  5.4839313e-02
  3.5521884e-02
  1.0980364e+00
 -5.9739325e-02
 -7.7446799e+00
  2.7048934e+00
 -7.5495893e-01
  1.1118804e+00
  2.0517678e+00
 -1.0907639e-01
  9.0576464e-01
 -5.3548515e-02
 -1.3966825e+00
  9.3098003e-01
 -7.6949545e-03
 -3.0610058e-02
  7.1473699e-03
  1.0241985e-01
  6.3049638e-01
  1.2943401e-02
 -5.6005138e-01
  8.2785672e-01
  1.3581755e+00
 -1.8720332e+00
  1.8694738e+00
 -9.4357264e-01
  9.3373684e-03
  6.5117683e-03
 -1.0080910e-01
 -3.1240025e-01
 -1.4434667e+00
 -1.7768417e-01
  7.0672661e-02
  9.7436643e-01
 -3.7857339e+00
  3.5863381e-03
  6.4381707e-01
  1.6078191e+00
  6.6747719e-01
 -1.8811245e+00
  1.8162271e-02
  2.9135266e-01
  1.1209924e+00
 -2.1113999e-01
 -7.7195001e-01
  2.2539573e+00
  3.9328035e-02
 -6.9800623e-02
  3.7062392e-01
 -2.3818786e+00
 -2.1054425e+00
 -9.9919952e-02
 -1.2738067e+00
  2.8028437e-01
  1.0376215e+00
 -2.0123062e+00
 -1.3545088e+00
  5.3720069e-01
  1.8574655e+00
  1.9408965e-01
  6.1329043e-01
 -5.2410495e-01
 -3.4982416e-01
  3.3228597e-01
 -1.3247693e-02
 -3.5453269e+00
 -1.7628939e+00
 -6.9423211e-03
 -1.4179631e+00
  6.4848286e-01
 -8.0696529e-01
 -8.1501268e-02
 -1.3440936e+00
  7.6934046e-01
  1.1719868e-01
  1.5164816e-02
 -3.8053254e-03
  4.3469802e-01
 -4.0377918e-01
 -1.9609524e-01
  2.9762067e-02
 -2.6549211e+00
 -1.3366066e-01
  2.3153955e-03
  6.5619701e-01
 -1.9697709e-02
 -3.6364886e-01
 -1.0065449e-01
 -3.1902957e-01
 -6.6124811e-03
 -1.1124232e+00
 -3.3798853e-03
 -1.6820586e-01
 -5.9903920e-01
  6.6891290e-02
 -1.0107560e-01
  9.9547245e-02
  9.2662996e-01
  4.9759224e-01
 -2.0664307e-01
  1.6917218e+00
 -2.6428955e+00
 -2.6369410e+00
 -1.4512924e+00
  2.8783584e-01
  2.7542760e+00
 -2.9809612e-01
 -2.8095168e-01
 -1.3249322e+00
  3.0465693e+00
 -6.0050946e-01
 -2.6982796e-01
 -1.1801192e-01
 -1.1947143e+00
  1.0742371e+00
 -1.1633082e-01
 -5.6266648e-01
 -2.1239140e+00
  1.0243181e-02
 -7.8079182e-01
  1.0064808e+00
 -2.6969884e-02
  2.1941492e-02
  3.3430941e-02
  1.7077282e-02
  2.5509117e+00
 -1.9820973e-02
 -7.4163959e-03
 -3.7751503e-02
  1.2205253e+00
  7.6199919e-01
 -7.3352421e-05
 -6.5265540e-03
  7.5354390e+00
  3.4212766e+00
  1.7448413e+00
  2.9025865e+00
 -1.9931723e-03
 -1.4762768e-01
 -2.7048445e-01
  4.0607017e-02
 -2.6059078e-02
 -6.5276094e-02
 -7.7915937e-02
  7.2943838e-04
  2.1770793e-01
  1.7633136e-01
 -2.8220214e-02
  2.6986580e-02
  6.6330183e-01
  1.4320146e-01
  3.1477511e-01
  5.4015412e+00
  7.4419606e-01
 -6.6111201e-01
  1.1191129e-02
 -2.5455308e-01
  3.6485851e+00
 -2.3952043e-01
 -4.0117756e-01
 -5.8876134e-02
 -3.0511401e+00
  1.2191950e+00
  1.1180563e-02
 -1.1089589e-01
  2.9439992e-01
  6.2945294e-01
  1.4496218e+00
 -2.5078146e+00
 -1.6833736e+00
  9.1340626e-03
 -4.2706411e-02
 -6.9256020e-01
  5.2281636e-01
  5.3994209e-02
  7.5673997e-02
  1.9042494e-02
 -1.5036557e+00
 -1.3270437e+00
  6.9491905e-03
 -1.6497483e-02
  3.2367201e+00
 -6.0017461e-01
 -4.9454388e-01
 -1.5064435e+00
  2.3467201e-03
 -3.1460252e-02
 -8.1374191e-02
  4.0430212e-01
 -3.7882869e+00
 -4.2292008e-01
 -4.1662773e-01
  1.7383115e-01
 -2.8039756e+00
  1.5341236e-03
 -8.8403011e-03
  3.3255842e-01
  2.0643064e-01
 -2.8980072e+00
  4.3893322e-01
  4.3989587e-01
  1.3140792e-01
 -4.6294212e-01
  2.8563482e-03
  9.0690784e-02
  1.5722546e-01
 -3.3244435e-02
 -1.1528689e-01
 -9.4807804e-02
 -1.4883564e+00
  9.5917571e-01
 -1.3819170e-02
 -9.9913234e-01
  7.4692839e-01
  4.2722586e-01
 -5.6249875e-01
  2.4137375e+00
  9.9943656e-01
 -2.2223752e-02
 -8.9787859e-01
  2.6062427e+00
  1.1468643e+00
  3.1160017e-02
 -2.1489363e-02
 -2.3971930e-02
 -1.2075959e+00
  4.7554010e-01
 -1.4036145e-02
 -7.2110839e-02
 -1.4947166e+00
  1.0538996e-03
  8.8585280e-02
  4.0480971e-01
 -1.8500636e+00
  1.3081338e-02
  2.4378587e-02
  2.1026647e-02
 -6.2095535e-01
 -3.9267662e-01
 -1.8980969e-01
  2.1035077e-05
  2.6067123e+00
 -2.1227968e+00
  1.8130894e-03
  1.6100789e+00
  4.3015698e-01
 -1.4388347e+00
  1.0820177e+00
