nep3 4 C B H O 
cutoff 10 4 73 20
n_max 6 4
basis_size 12 12
l_max 4 2 0
ANN 100 0
 -2.0515214e-01
  2.3879113e+00
 -7.6191199e-01
 -1.6380315e+00
  7.9344884e-02
 -8.8530546e-01
  5.3112316e-01
  5.1678336e-01
  3.5636752e+00
 -3.7774476e-01
  9.5019323e-01
  4.5315272e-01
  7.7199656e-01
  6.4506102e-01
 -8.2536858e-01
  3.6541486e-01
  3.4853297e-01
  2.9138631e-01
 -1.3456490e+00
 -1.5382534e-01
 -2.0895079e-01
 -1.3208976e+00
  4.5733076e-01
  8.3941877e-02
 -1.2845454e-01
 -1.6555175e+00
 -2.1822577e-02
  1.2791056e-02
  1.3812027e+00
 -3.9583325e-02
  7.5168572e-03
 -1.6921687e-01
  3.0838415e-01
 -2.4103400e-01
  3.4336105e-02
  5.6705330e-02
  7.9353726e-01
  1.1621331e-01
 -1.1621035e+00
  1.1879578e-01
 -2.6292554e-01
  3.7305340e-02
  1.6489710e+00
 -3.1508684e-02
 -6.2793113e-02
 -3.4062752e-01
 -9.2227364e-01
 -9.6390508e-02
  8.6977440e-01
  4.3832837e-03
  2.8681150e-01
  1.6669245e-01
 -4.3009442e-01
 -1.1145154e+00
  1.8535614e-02
 -2.2532180e-01
  1.6824540e-01
 -7.5152472e-02
  1.5031992e-01
 -6.3286596e-03
 -5.4189619e-02
 -8.3539039e-01
 -2.0151947e+00
 -4.6063386e-02
 -1.3456291e+00
  8.1795317e-01
 -6.5611804e-01
 -8.0782231e-03
 -1.0933574e+00
 -1.9014761e+00
 -6.9649994e-01
  1.2532257e+00
 -1.1562268e+00
 -3.0965239e-01
 -1.2301470e-01
  1.3793111e+00
  1.4363166e+00
 -3.6684310e-01
 -3.7516054e-02
 -9.5999610e-01
 -1.4084192e-02
  2.0257742e+00
 -8.1887323e-01
 -2.9100144e-02
 -1.6512979e+00
 -4.8147939e-02
 -8.3767450e-01
 -1.2721711e+00
  1.8034098e+00
 -6.6166013e-01
  1.4550513e+00
 -5.0056390e-02
 -1.3420454e+00
  2.1802584e-02
  9.8400462e-01
  9.0973377e-02
  2.7741103e-02
  3.2390218e-02
 -2.0842249e-02
  5.2195843e-02
  1.2261056e-01
 -1.3033905e-03
  3.3463415e-02
  4.2518921e-02
 -7.2936594e-02
  1.6780935e-02
  4.7375537e-03
  3.1514831e-02
  1.2833531e-01
  4.3428380e-02
 -3.7061963e-03
  3.4803007e-02
  8.7199230e-03
  2.4164572e-02
  2.3122571e-02
  2.2548273e-02
  4.1560954e-03
 -1.3113007e-02
  1.2514556e-02
  3.1891346e-02
 -3.0319295e-03
 -3.9603026e-03
 -2.7755608e-03
 -3.1420446e-03
  2.0656453e-02
 -5.5255536e-02
 -3.2716870e-02
 -6.7821406e-03
  7.9284878e-03
  1.7269310e-02
  7.9134395e-03
  3.2541919e-01
  6.3964263e-02
 -1.8455386e-01
  5.7772625e-02
  3.5828263e-03
 -3.8614020e-01
  6.5193381e-03
 -4.5402177e-02
  3.2955788e-02
  7.8523524e-02
  6.5053701e-03
  2.9778615e-02
  3.8612078e-04
  8.1285544e-02
  9.0277709e-02
  2.7991777e-02
 -2.1622308e-01
 -5.6645904e-02
 -5.5596665e-02
  2.0712277e-02
  3.6245473e-03
  1.9187570e-02
 -4.8801512e-01
  1.2177956e-01
 -1.5128233e-02
 -2.5910862e-02
 -2.5209539e-02
 -5.8359470e-02
 -1.4809002e-01
 -1.8986917e+00
  2.4122953e+00
 -3.3279270e-01
  7.6835018e-01
 -8.4084898e-01
 -3.9376429e-01
  1.3304799e+00
 -1.0177191e+00
  7.6175749e-01
  4.8572055e-01
 -1.4206405e+00
  1.2738551e-03
 -1.7308360e-02
  3.9321128e-03
 -4.1450509e-01
 -4.4679192e-01
 -7.0972413e-02
  2.1941512e+00
  5.1721238e-02
 -2.1934129e-02
  3.0148871e-02
 -2.6291457e-01
  1.0447818e+00
 -7.3091760e-03
 -1.1608330e+00
  4.4073027e-02
  8.3832450e-02
 -1.8178599e-02
  1.1728984e+00
  9.8696455e-02
 -4.3957284e-01
  6.5032383e-03
  8.6973943e-03
  4.4317961e-02
 -7.0960194e-02
  8.0906981e-01
  1.6014872e-02
  1.9187514e-02
  1.0030688e-02
 -2.6553031e-02
  8.5778862e-02
 -6.6368267e-02
 -5.4378662e-02
  1.6359899e-02
  1.1578294e-02
 -5.6306116e-02
 -5.1957909e-02
 -1.2741998e-03
 -3.5952717e-02
 -2.6217599e-03
  4.5217699e-03
 -2.3609225e-02
 -3.9514033e-03
  2.4891896e-02
 -2.5883611e-02
 -6.2596973e-04
 -8.2529252e-03
 -1.4364243e-02
  4.8015684e-02
  4.3830626e-02
  6.7433342e-02
 -6.5132352e-03
 -1.3307195e-02
 -2.2455531e-03
 -2.0451286e+00
 -5.3911650e-01
  1.5365847e+00
 -1.2367703e+00
 -1.1893748e+00
 -1.3120940e+00
 -8.1944412e-01
  2.0613550e-01
  1.6153231e+00
 -6.5732263e-02
 -1.0163773e+00
 -2.9335427e+00
  3.0638084e-02
  1.2313392e-01
 -4.5194510e-01
 -3.8630512e-01
 -3.2332666e+00
  1.6019175e+00
 -1.6126285e+00
 -1.1175544e+00
  4.4744092e-01
 -2.4018683e+00
 -1.4512171e-01
 -5.7694250e-01
 -1.9277819e+00
 -6.1320264e-02
 -1.7758455e+00
 -3.0254198e-02
  3.4763042e-02
  4.5903493e-02
  1.6766769e+00
  1.0957928e+00
 -6.1295801e-03
 -1.9307887e-02
  7.0552733e-03
 -1.6157638e-02
  9.9194411e-04
 -6.7296284e-03
  1.5642673e-02
  1.0965690e-02
 -2.2455824e-03
  2.7333338e-02
 -5.9839297e-02
 -5.7008773e-02
 -5.6167562e-03
 -4.4163335e-02
 -1.2552929e-01
  3.9802521e-02
  5.8995839e-02
  2.2871878e-02
 -1.3830422e-03
 -1.8419107e-02
  1.1651712e-01
  5.3016260e-02
  4.6852720e-04
  8.3322881e-04
 -8.7236650e-02
 -4.6994984e-02
  1.8334544e-01
  2.5818571e-02
 -2.1915017e-03
  3.8472919e-03
 -3.2869980e-02
  8.4314523e-03
 -9.9896677e-03
 -6.9811670e-03
  5.9168044e-02
  4.3698151e-02
 -6.7857689e-01
  1.3420545e-02
 -4.3284636e-02
  1.2501363e-02
 -2.0570340e-02
 -2.9737219e-02
  1.4685258e-02
  1.8663241e-02
 -5.2895367e-02
 -8.3903288e-03
 -4.7499117e-02
 -1.1166753e-02
  4.4832574e-03
  7.8446763e-03
  1.7095799e-02
  8.6087584e-03
  2.4710685e-02
  4.9037460e-02
 -1.5260041e-02
 -2.1898178e-02
 -5.0376307e-02
  2.7886014e-02
  4.2375222e-02
 -1.9217631e-02
 -5.2814603e-02
 -1.4579520e-02
  1.0297520e-02
 -2.3215074e-02
  6.5534547e-02
 -3.6530715e-01
 -6.5596588e-02
 -4.4208682e-01
  3.6377171e-01
 -4.1591543e-01
 -6.6040292e-02
 -8.0135322e-01
  5.7547767e-02
 -1.0858992e-02
  4.2191879e-03
  1.0192133e-01
 -3.6661133e-01
 -1.3060286e-02
 -1.7775204e-02
  3.1713635e-01
 -9.0701565e-02
 -2.3013392e-01
  1.7115483e-02
  5.8647954e-01
 -5.9642154e-01
 -1.7078871e-02
 -1.1032200e-02
 -2.5591615e-01
  6.9926180e-02
 -2.4768392e-02
 -8.3009467e-02
 -4.3081079e-02
 -8.5333008e-03
 -1.4952890e-02
  3.4992110e-02
  9.6237645e-02
  9.8733938e-01
 -6.7153841e-01
  1.2925887e+00
 -3.5088319e-01
 -1.7342234e-01
  1.1236145e+00
  3.2746869e-01
  1.7686072e-01
 -1.5687418e-01
 -7.2940981e-01
  5.9950536e-01
  1.0493628e+00
  2.7232964e+00
 -9.2159271e-02
 -3.7663251e-02
 -2.8636271e-01
  9.5335388e-01
  1.8653023e+00
  1.8656393e+00
  4.1333395e-01
 -8.9942390e-01
  5.4523569e-01
  6.1706245e-01
  1.2771434e+00
  9.1555372e-02
 -1.9321050e-01
  2.5194445e-01
  2.3263691e-02
  1.2785770e-01
  3.1914845e-02
 -3.8427922e-01
 -3.2199645e-01
 -6.6137475e-01
 -8.2602221e-01
  4.6543136e-01
 -7.1785167e-02
  5.0953287e-01
 -9.6649218e-01
 -1.1394335e-02
  1.0363828e-01
 -1.1541779e+00
 -4.4333637e-02
  1.4092462e-01
  3.2820863e-01
  7.5255191e-01
  7.9647899e-01
 -9.4759531e-02
  1.1455756e+00
  6.4138031e-01
 -7.8002900e-01
  1.9189079e-01
  1.3944325e+00
  6.5331709e-01
  2.2288166e-01
  2.5232610e-01
  2.9006237e-01
  2.0901430e-01
 -1.3259561e+00
  7.7160764e-01
 -3.3628155e-02
  3.0285367e-01
  6.1234242e-01
 -7.6910681e-01
 -2.8968512e-03
  7.5255092e-03
  2.3149168e-02
  2.3434576e-02
 -8.6901877e-03
 -1.1316545e-02
 -7.8187548e-03
 -1.0507655e-02
  1.3895699e-02
 -5.8613591e-02
  3.5677189e-03
 -1.6378419e-04
 -3.6703516e-03
 -1.9661086e-02
  1.5349939e-02
 -1.2015270e-03
  9.5966114e-03
 -5.6114285e-03
 -2.1905578e-03
  6.1400522e-02
  9.8809503e-02
 -3.9240224e-03
 -2.2586633e-02
  7.7405712e-03
 -5.5542603e-02
  7.8342743e-03
  5.0686162e-02
  6.7035384e-02
  1.3467936e-02
  7.0227198e-02
 -1.0993086e-02
  6.6944081e-03
  7.1077561e-03
 -8.8889308e-02
  1.3856356e+00
  7.7325785e-01
  1.1993705e-01
  1.0576436e-01
  1.4774845e+00
  1.8080995e+00
  4.0126902e-01
  6.7555505e-01
  8.5708517e-01
 -6.3893127e-01
  6.6368342e-03
  1.2440906e+00
  4.0667692e-01
  1.7456673e+00
 -9.3016851e-01
  7.0342764e-02
  5.0704366e-01
  1.6925530e-01
  8.5298800e-01
 -3.3842227e-01
  1.8277583e-01
  5.1500809e-01
  7.5508100e-01
  2.1890636e-01
 -3.7633389e-02
 -3.8694066e-01
  7.0171668e-03
 -2.1895991e-01
  3.3844233e-02
  1.9921316e+00
 -9.4261821e-03
 -2.3519790e+00
 -2.9864662e+00
 -2.3850374e+00
  1.3736035e+00
  9.6547520e-01
 -1.3165969e+00
  5.2482362e+00
  5.5355304e-01
 -6.2709257e-02
  3.2680100e-03
  8.5820401e-01
 -1.9453242e-01
 -2.2854060e-01
 -2.5969160e-01
 -2.3459984e-01
  7.1362978e-01
 -8.2737899e-01
 -3.6933902e-01
  2.5293690e-01
  5.3513944e-01
 -1.6172636e+00
  1.1051425e+00
  6.8356186e-01
 -4.0286202e-02
 -1.8591683e-02
 -1.3889836e-01
 -1.2693745e+00
  9.4743667e-04
  2.1461475e-01
 -1.9441986e-02
  1.0016859e+00
  2.6188923e-02
 -1.0212062e-01
 -1.8273647e-03
 -5.0286978e-02
  1.5886000e-01
 -1.8792196e-01
 -3.7882766e-01
  4.0532061e-01
  8.8342547e-01
  1.2744465e+00
  4.3356765e-02
  9.0540713e-01
  7.0429313e-01
 -1.7612001e-02
 -1.9653950e-02
 -1.0081829e+00
  7.6898557e-01
 -2.5324870e-02
 -6.8975441e-02
 -1.1234100e-03
  2.6918426e-01
 -6.5739602e-02
  4.0751231e-01
  1.1130830e+00
  2.6823777e-01
  2.3619966e-01
 -2.7973765e-01
  2.2207107e-01
  5.1747463e-03
  3.0764432e-03
 -7.7453740e-02
 -1.6201648e-01
  2.7174789e-02
 -8.2127741e-03
  2.3330483e-01
 -9.7258238e-04
  1.0706374e-04
 -9.5536243e-03
  1.9420430e-02
  2.3349950e-02
 -2.9845821e-02
  1.0449586e-02
 -6.2836176e-03
  2.2021898e-03
  1.6250730e-02
 -2.0016986e-03
 -1.6742370e-01
  8.7823942e-02
 -6.9023535e-02
  8.6715352e-04
 -1.5707664e-02
  1.3401403e-02
  2.3366548e-02
 -8.2125654e-03
 -2.5872692e-02
 -2.4827796e-03
 -4.9785212e-02
  7.4624106e-02
 -4.8262659e-02
  4.8197734e-01
 -2.6235878e-03
 -6.1753248e-03
 -1.0911502e-02
  4.6078127e-02
  5.1557305e-03
 -2.5900531e+00
  3.7593770e-01
  1.7813878e-01
 -1.0091741e-01
 -1.5285202e+00
  2.1642436e-01
  2.5841108e-01
  4.8832291e-01
  1.0791488e-01
  1.0764680e-01
  1.0473971e-01
 -1.7180260e-01
 -4.2702594e-01
 -7.9004782e-01
 -1.1231129e+00
 -1.3894681e+00
 -7.1775836e-01
 -1.4229622e+00
  1.4061631e-01
 -6.6502494e-01
  6.4802378e-01
  3.3252317e-01
 -2.1517599e+00
 -1.1254406e-01
 -1.0631633e+00
  5.5023211e-01
 -3.5628290e+00
 -1.2025359e-02
  2.1265934e-01
 -6.2822876e-03
  2.5424951e-01
  1.4306243e-01
 -1.0809393e+00
  2.6527840e-01
 -6.5631509e-01
 -1.5060382e-01
 -6.3525378e-03
 -3.0642629e-01
 -2.3580495e-01
 -1.0163213e-01
  1.8764831e-01
  6.7081903e-03
 -8.4653482e-02
 -3.7567995e-02
 -8.6924888e-02
  6.0334127e-02
  3.3860669e-02
  1.0429019e-02
  1.9181553e-02
  8.1032091e-01
  4.4467789e-01
  4.1136459e-02
  4.5227343e-01
  3.8994730e-01
  1.7421920e-02
  6.2931722e-01
  3.4010977e-02
 -6.8183266e-02
  7.0428415e-03
 -5.6620236e-03
 -1.0068995e-01
 -1.2042216e-02
 -2.4455877e-01
  9.6116686e-04
 -7.7751333e-01
  7.4261218e-02
  3.2133352e-02
 -9.8833852e-03
  1.4625295e-02
  4.8468310e-02
 -3.0933427e-02
  7.7874154e-02
  2.5302555e-02
  4.2574029e-02
 -1.3374463e-02
  1.2435693e-02
 -2.3473138e-02
 -1.2988751e-02
 -1.5537956e-02
 -2.1533195e-02
  1.4277006e-02
 -2.2379158e-03
  2.4458323e-02
 -5.7213873e-02
 -9.1041382e-03
 -4.3651104e-02
  9.9681597e-03
 -2.3256591e-02
 -6.1957534e-02
 -2.4902448e-01
 -3.4163121e-02
 -3.1832287e-03
  4.3387385e-03
  4.0107677e-03
 -1.1328091e-01
 -7.9350378e-03
  1.5786162e-01
  7.6323855e-01
  3.4148470e-03
  7.4308282e-01
  1.0870731e+00
 -2.6198864e-01
  1.4588136e-02
 -5.6878896e-04
  2.9371431e-01
  1.7061010e-03
  1.1593986e-01
 -6.5020956e-03
  8.3078459e-02
 -8.6000018e-02
  1.2305373e-01
 -1.0243791e-01
  3.3256974e-02
  4.7147447e-01
 -3.9602511e-02
 -1.5193797e-02
  1.0378554e+00
 -8.1626343e-04
  5.0680858e-01
 -1.3745531e-01
  9.8915538e-03
 -2.0991263e-03
  3.8304992e-02
  8.4921550e-03
 -9.2475489e-02
 -6.3814074e-03
 -5.4269921e-02
  1.9026402e-02
  3.3423368e-02
  3.1600304e-02
  4.2523488e-02
  1.3450906e+00
  8.0526536e-03
 -7.7557124e-02
 -3.8159098e-02
  1.4218753e-02
  1.5735190e-04
  4.0330570e-02
 -2.2175243e-02
 -3.3170603e-02
 -4.1272058e-03
 -3.8970818e-03
  1.6798189e-02
  2.7506866e-02
  2.2927839e-03
  2.9131681e-02
  7.9662949e-02
  2.5562545e-02
 -1.0052798e-02
 -6.5238535e-04
 -5.6833547e-02
 -8.0137448e-03
  7.0736073e-02
 -3.9138984e-02
 -3.3043392e-02
 -2.3839135e-02
  2.4344634e-02
  1.1067418e-04
  3.1369686e-02
 -1.6417760e-02
 -1.1905210e+00
  5.9495640e-01
 -3.0279472e-01
  1.6524658e+00
  8.1295782e-01
 -7.9805100e-01
 -2.8770056e+00
  8.1023395e-01
  1.2209630e-01
  8.0351710e-01
 -3.8684264e-01
 -1.3312583e+00
  4.1968912e-01
  1.1925476e+00
  1.2284940e-01
  2.5369465e-01
 -4.5540929e-01
 -6.8603352e-02
  1.2286233e+00
 -1.6907355e-01
 -1.1497509e+00
 -4.5406511e-01
  6.2479258e-02
  1.2440072e-02
 -2.4108139e-01
  2.2481072e-01
  5.0589490e-01
  2.2036394e-01
  3.4743586e-01
  1.1964349e-01
 -3.9466109e-02
  9.8881587e-02
  9.5910883e-01
  1.5586972e-01
 -5.2776009e-02
  2.2709832e-01
 -9.9582016e-01
  1.4093494e-01
  1.3125511e-01
  8.0482922e-03
 -9.9435128e-02
 -7.9826847e-02
  5.0957179e-01
 -2.0189218e-01
  3.0432551e-03
 -5.3197962e-01
 -6.6593416e-02
 -7.5904101e-01
  1.9562125e-02
 -3.4941066e-02
 -6.3362122e-02
 -1.2340761e+00
  4.0503690e-01
  1.7338346e-01
  6.1098945e-01
 -5.0744796e-01
 -2.0403467e-01
 -6.0106587e-01
 -7.9924211e-02
 -1.8348550e-02
  4.6988044e-02
  1.2009268e-03
 -8.3883055e-02
  4.2322390e-03
  8.1268691e-02
 -1.7480243e-02
 -3.7911359e-02
  8.3824471e-02
 -2.2199670e-02
 -5.6515341e-03
 -1.0121211e-02
  1.3380187e-02
 -6.2688760e-02
 -1.3561327e-02
 -3.8930683e-03
  3.9591542e-03
 -5.1033884e-02
 -2.5195038e-02
 -2.5543649e-02
  3.0096207e-02
  1.4369057e-02
  8.7996218e-03
  1.2267956e-02
  1.2634381e-02
 -1.1983280e-02
 -3.2557361e-02
 -2.0198148e-02
  1.1531524e-02
 -1.2552240e-02
  1.9712999e-02
 -2.5963720e-02
  1.2461946e-03
  1.3262913e-02
  4.0137492e-02
  2.4364071e-02
  3.0307973e-02
  1.1254866e+00
  1.5244733e-01
 -1.1071613e+00
  1.0601938e+00
  1.0396093e+00
 -2.2175443e+00
  8.4702784e-01
  2.3422759e-02
 -3.7852496e-01
  5.2243096e-01
  2.0892765e-02
  5.1623844e-02
  3.8980003e-02
 -9.7646162e-02
  9.4597951e-02
 -1.9063311e-02
  6.3326903e-02
 -1.7889531e-02
  2.8922310e-01
  3.1102091e-02
  1.1822658e-03
 -4.2556131e-01
 -2.7237726e-02
  1.2351962e-02
  1.4311967e+00
  3.3803019e-01
 -1.5426542e-01
  1.4983013e-02
 -3.7880856e-01
 -2.8056782e-02
  1.3185242e-01
  1.3450612e-01
  2.5753301e-02
  4.5807660e-02
  3.5648189e-02
 -1.8495914e-02
 -1.6939031e-01
 -8.8036902e-02
  1.9115476e-02
 -1.2708816e-03
 -9.9425027e-03
 -4.2793594e-02
  4.5995438e-03
  2.6825378e-02
  3.6035728e-02
  1.3487870e-01
 -1.4430096e-02
  1.7906006e-02
  1.0289737e-02
  1.8030217e-02
 -1.5358365e-02
  1.0919305e-02
  7.4727908e-02
  1.0027176e-01
 -3.4646827e-03
 -2.0094110e-02
  1.2102277e-01
  2.0523092e-01
  5.4770922e-03
  6.7555844e-03
  8.3219701e-01
  2.3087546e-02
  5.0871596e-02
  2.2845503e-03
  2.8339811e-02
 -3.3647190e-03
  5.7884529e-03
 -9.4602853e-03
  1.9459026e-02
 -4.1833119e-03
  1.4424266e-02
 -1.3223890e-02
 -6.3615907e-03
  1.0776609e-02
 -5.2221608e-03
 -5.5950802e-02
 -9.8825758e-04
 -2.1546582e-02
  2.0168638e-01
  1.5266489e-02
 -2.4673266e-02
 -7.7739712e-03
 -6.9530979e-02
 -2.0209877e-03
 -9.3563072e-02
 -1.0179612e-02
  8.7148240e-03
 -5.5984445e-02
 -2.2573532e-03
 -5.4027364e-03
 -1.2019578e-02
 -5.5516679e-03
 -7.5701671e-04
  2.3077030e-02
  1.5390333e-02
 -1.3076345e-02
 -1.0485759e-02
 -4.8815166e-03
  6.1307564e-02
  2.8467353e-02
 -2.2522328e-02
 -5.7339203e-02
  1.0284241e-01
  4.0926725e-02
  2.5784115e-03
 -7.7177901e-03
 -1.0174102e-02
 -3.0821515e-03
 -1.5485340e-02
  1.1589878e-02
  7.0938957e-03
  9.6577846e-02
  8.2984511e-03
  2.0176971e-03
  5.6140230e-04
  7.1203947e-01
  1.0181665e-03
 -4.3464135e-02
  8.9929797e-02
  1.5541908e-02
  9.4257644e-05
 -2.8341673e-03
  1.1063919e-01
  4.7395183e-03
 -2.4180520e-02
  2.0996226e-02
  3.7865900e-02
  8.8387944e-02
 -3.0304702e-02
  4.0518129e-01
 -2.1333523e-02
 -9.9826343e-02
 -1.4501653e-03
 -1.8596755e-02
 -3.5352590e-03
  1.1380971e-03
  1.4851491e-02
  2.2621083e-03
  2.3163552e-03
  5.6392685e-02
  6.7191408e-04
  4.8436482e-02
  2.1889530e-02
  4.1055493e-02
 -7.8071067e-03
  9.7633481e-02
 -4.8659943e-02
  5.1546739e-03
 -1.4891553e-01
  1.0074623e-01
  4.1218560e-02
 -3.1596377e-02
  6.1327007e-02
  2.3585681e-03
 -3.2050784e-03
 -3.1062761e-02
  2.9598258e-02
 -4.6141762e-03
  4.4957262e-02
  6.5685054e-03
 -2.7139098e-03
 -1.0012707e-02
 -4.3394063e-02
  2.1410955e-03
  3.5787753e-03
  4.8104427e-03
 -1.4415523e-02
 -8.5438259e-02
 -8.7972924e-02
 -2.4554904e-03
 -1.6746374e-02
  1.1002204e-02
  2.2508344e-02
  2.1328688e-02
  2.0648264e-03
 -1.9834753e-02
 -7.1558990e-02
  2.9845356e-03
 -3.6720678e-03
  1.7239235e-02
  1.1680396e-02
  1.4589570e-03
  2.5903410e-03
  2.1817084e-02
  1.3425112e-02
 -5.4428023e-03
  2.1313019e-02
  7.8269197e-03
 -1.0673888e-01
 -2.1519309e-02
  1.1160427e-02
  1.4143273e-02
 -4.3297787e-03
 -9.0069352e-03
 -2.7723828e-02
  2.8566649e-02
  3.9946415e-02
  9.9750757e-03
  8.4572351e-03
 -1.9926669e-02
 -4.6221949e-02
 -2.4938872e-02
  9.2171226e-03
  2.3439648e-02
 -2.3461858e-02
 -6.6304617e-03
  7.9492331e-03
 -2.0090640e-03
 -4.2271174e-02
 -1.3343396e-02
 -3.9580014e-02
  4.5059722e-02
  2.5864948e-02
 -4.8041184e-02
  8.2842745e-03
  5.1151428e-02
  9.4824136e-06
 -5.8154859e-02
 -2.6297111e-02
 -2.1625577e-02
 -3.7253674e-02
 -3.4427161e-03
  1.5402980e-02
  1.5616730e-02
 -4.5160177e-01
 -6.8071109e-01
  3.5857907e-04
  3.6465877e-01
 -2.0562663e+00
 -3.1726849e-01
  1.4047990e+00
 -5.0883102e-01
 -6.2069905e-01
  3.2359770e-01
  6.9913602e-01
  1.1888281e-01
 -1.2317255e-01
 -3.1708977e-01
 -6.5656036e-02
 -2.4913697e+00
 -6.5206051e-01
 -2.8478783e-01
  3.9568722e-01
  6.6090620e-01
 -1.4252083e-01
 -4.2321053e-01
  2.9509218e-02
 -4.7486785e-01
  8.7460913e-03
  1.4127959e+00
  1.2492392e-01
 -2.5362964e-03
  7.7994764e-02
 -1.1956519e-02
 -2.2233617e+00
 -7.9688001e-03
 -5.0492957e-03
  1.8976014e-02
  4.2218756e-02
  1.4072408e-02
  6.4454572e-03
  3.9271548e-02
  2.4621487e-02
  1.2408382e-02
 -2.7252117e-03
 -1.4796306e-02
 -5.0559351e-03
  5.2481309e-02
  1.5592083e-02
  1.7242214e-02
 -1.4878892e-02
 -6.5007391e-03
  1.3181689e-02
 -3.1310960e-04
  6.0593951e-03
  1.6655147e-02
  1.2228055e-02
  3.6967583e-02
  1.8615808e-02
 -5.7376153e-03
  3.9926884e-03
  4.3711446e-02
 -9.9666305e-02
  2.7283283e-02
  1.3187918e-03
 -8.3214290e-02
  1.2722878e-01
  8.6814523e-02
  1.4086699e-02
  5.5532552e-02
  2.3287799e-02
 -3.1136174e-02
 -2.8540879e-02
 -7.8656495e-02
 -1.4190814e-02
  2.5034531e-03
 -4.1386145e-03
 -7.3644575e-03
  1.9627865e-02
 -5.2899901e-02
 -3.1441931e-02
  3.2055784e-02
 -3.0762097e-04
 -3.2377783e-02
  1.5331749e-02
 -4.4512987e-02
 -7.7799498e-03
  3.0800305e-02
 -7.7461720e-02
  1.3466066e-01
  7.2580297e-03
  1.6172180e-02
  4.2764544e-03
 -1.0957914e-02
 -3.2256570e-02
  1.3923584e-03
 -1.3349528e-03
  5.9473753e-02
  4.0309489e-02
 -1.1283977e-02
  2.4609605e-02
 -5.9118584e-02
 -7.8013758e-03
 -2.3792887e-01
 -2.1802819e-01
  1.5220435e-01
  2.2159861e-01
 -1.0565298e+00
  8.1717330e-01
  1.7787885e-02
  1.0228270e-01
 -2.4696085e-01
 -4.4079876e-01
 -1.0512529e-01
 -1.7098404e-01
  5.7420737e-01
 -1.6325529e-01
 -2.7417412e-01
 -4.0224768e-02
  1.6877304e-01
  8.8192332e-01
 -4.0609476e-01
 -7.2174138e-01
  1.7189076e-03
  7.0067253e-03
  7.3012429e-01
 -1.1000426e-01
 -1.1064985e-01
  3.3437848e-02
 -6.2568607e-03
  7.8308657e-02
  4.5629997e-02
 -7.4704610e-02
 -3.3147715e-02
  7.8231685e-02
 -3.3776374e-03
  3.1093856e-02
  2.7677897e-02
 -8.0807330e-03
 -2.9503038e-02
  1.2852497e-03
  4.5799550e-02
  2.2761964e-03
  9.2519047e-03
  1.8945783e-02
 -3.5400125e-03
  1.0834776e-02
  6.9012335e-03
 -5.7943825e-02
  1.9661931e-02
  3.1806964e-02
 -4.1441344e-02
  5.3820183e-04
 -3.2943531e-03
  3.2317065e-02
  1.4575949e-03
  3.6005091e-02
 -5.6256889e-04
  4.0493906e-03
 -1.8245043e-02
 -8.7910276e-03
  6.2099904e-02
  1.1597419e-02
  4.9266826e-02
 -1.1186198e-02
 -6.8506282e-03
  4.3967728e-02
 -6.1226455e-03
 -1.2607945e-02
 -4.8118597e-03
 -1.5365295e-02
 -7.3879980e-02
  5.2384948e-03
  5.9022388e-04
 -2.7750141e-03
 -6.7450993e-02
  8.5322037e-03
 -6.1555686e-03
 -3.2782871e-02
  5.1790822e-02
  1.0516288e-02
  6.3733733e-03
  6.6056955e-03
 -1.1323157e-03
  1.0028203e-02
  2.2362598e-05
  2.0121418e-02
  6.7169778e-03
  5.9797984e-02
  2.3412101e-03
 -2.2650359e-02
  1.9706305e-02
 -1.2060711e-02
 -3.4535479e-02
  1.9900443e-02
 -1.2196803e-02
  2.8155036e-02
 -5.5419281e-02
  5.1167924e-03
 -3.1388786e-01
 -3.2106891e-02
  9.5577044e-03
 -5.5798877e-02
  5.7556614e-02
 -1.8244455e-02
 -2.3975002e-03
  9.7279670e-03
  8.1960531e-03
 -8.8284656e-02
 -5.3084187e-02
  4.3371864e-02
  1.2928476e-02
 -7.6688207e-03
  7.7016972e-02
  4.7871582e-02
  6.7740139e-03
 -1.1355929e-02
  2.1121684e-01
  4.4478541e-03
  5.3358849e-02
 -1.8724055e-03
 -3.6808052e-03
 -5.3755470e-02
 -1.1163454e-02
  1.6889011e-03
  8.3264280e-03
  7.2833970e-03
  2.6174227e-03
 -1.9150826e-01
 -4.3899450e-01
 -5.0151616e-01
  6.4518851e-01
 -6.4377379e-01
 -2.9330546e-01
 -1.2057102e-01
  2.2028670e+00
 -7.1195829e-01
  1.1638355e+00
  4.1571593e-01
 -2.4903023e-01
  1.6683428e+00
  2.1209338e+00
  1.4769961e+00
 -8.4625345e-01
 -1.9426903e-02
  4.0285909e-01
 -8.4360652e-02
  4.9621999e-01
 -8.4013033e-01
  5.7859367e-01
  9.5353460e-01
 -7.6706851e-01
  1.0199920e+00
  5.6701744e-01
  1.2177494e-02
  5.9547611e-03
 -2.8625819e-01
  2.6473451e-01
  3.7226582e-01
 -4.7434438e-03
  3.4634940e-02
  2.2128320e-03
 -1.3302069e-02
  8.3550915e-02
 -2.2536792e-02
  4.8882138e-02
 -6.0134683e-02
 -1.2543963e-02
  1.3645494e-02
  4.1552451e-02
  3.5446554e-01
 -1.1527027e-02
 -5.0171815e-02
 -3.1984515e-02
  2.6116485e-02
  5.2292626e-02
 -3.2578502e-02
 -3.1569418e-02
 -2.5844438e-02
  2.4456866e-02
 -5.4895491e-03
  2.4761287e-03
  7.9374788e-03
 -3.7037119e-02
 -8.2994483e-02
 -1.7120147e-02
 -6.9269985e-03
  8.2661211e-03
 -8.7163681e-03
 -6.2641263e-02
  3.4607720e-02
 -1.6370421e-02
 -5.5031357e-03
 -1.5703030e-02
  5.0068140e-02
 -2.6908731e-03
  4.8521082e-03
  4.8423510e-02
  4.6036262e-02
 -3.5518908e-03
 -9.5247962e-02
  8.1763900e-04
  5.3055681e-02
 -1.6734667e-02
 -8.0527342e-04
  3.9189376e-02
  4.3317708e-03
  4.0779922e-02
  5.0536199e-03
  4.1714795e-03
 -1.2227236e-02
 -4.5617327e-01
 -1.4375852e-02
  7.4556768e-02
 -2.5291324e-02
 -1.1725490e-02
 -7.3702629e-03
  2.4408648e-02
  2.0846657e-02
  1.3411214e-02
  4.6684546e-03
 -7.0375085e-02
 -2.1970081e-03
 -3.6842164e-02
 -1.4493577e-02
 -1.0504146e+00
  1.5220232e-01
  2.8855395e-01
  7.4666746e-02
 -2.1244504e-02
  5.4210564e-03
 -1.1154704e-02
 -4.0324479e-02
 -3.9701290e-02
  1.5373091e-01
 -1.2993546e-01
 -2.7617379e-03
  3.2091960e-02
 -5.4417789e-02
 -4.2180270e-02
  7.7148527e-04
  1.9999324e-01
  2.1012329e-02
  8.2309037e-02
 -5.6741918e-03
 -4.1877504e-02
  7.6074181e-03
 -2.2853510e-02
 -2.1177176e-02
  2.8381025e-02
  4.1196555e-02
 -1.1203025e-02
  5.1343240e-02
 -3.0170860e-02
  2.0517092e-03
 -2.2008704e-02
 -6.8472642e-01
  5.2309048e-01
  1.1444321e+00
 -9.0288854e-01
 -3.4867749e-01
  4.5606560e-01
 -1.9424975e-02
 -1.3640126e+00
  7.3940516e-01
  1.9085285e-01
 -3.2470934e+00
 -3.3882931e-02
  3.1187376e-02
 -7.3647422e-01
  2.3303999e-01
  6.6927809e-01
 -1.0671325e+00
 -2.0825551e+00
 -5.6693599e-02
  2.9179971e+00
  1.2248280e+00
 -9.4391890e-02
 -1.7721661e+00
 -2.9734346e-01
  1.2810556e+00
 -2.6693009e-02
 -1.0243528e-01
  5.4539133e-02
 -8.6196139e-02
 -6.4145429e-03
  1.0899574e+00
  2.0010810e-01
 -9.8064166e-01
 -1.0996310e+00
  5.2688837e-01
 -2.5545129e-01
 -9.6114743e-01
 -1.3446718e+00
  8.3973575e-01
  1.5887560e-02
 -1.3657020e+00
  4.5600802e-02
 -9.7100072e-02
 -1.3918482e-02
 -3.1950634e-02
  1.4647315e+00
  8.6742353e-01
  1.4080153e+00
 -4.4710588e-02
  1.8687952e-01
  3.4941450e-02
  4.5824984e-01
  8.4383571e-01
 -4.1500553e-01
 -4.8348603e-01
  1.3992741e+00
 -1.7044906e-02
  1.6460977e+00
 -3.7356859e-01
  3.2215338e-02
 -3.3363840e-01
 -1.3760213e-02
  7.6195019e-01
  7.8111049e-03
 -1.6863693e-02
 -5.7344250e-03
  1.0598266e-02
 -2.2312831e-02
  1.1631968e-02
  4.4991489e-02
 -2.4634618e-02
  3.9196275e-03
  3.7358649e-02
 -9.8894790e-02
 -1.9089330e-02
  3.6719185e-03
  3.6849208e-02
 -7.8007816e-03
  2.8698986e-02
  1.9526696e-03
  6.1352678e-02
  1.6409773e-02
  1.2031633e-01
 -7.2792202e-02
  1.3383359e-02
 -2.0857751e-02
  5.2608349e-03
  3.9848550e-03
  2.6244262e-02
  3.7015241e-03
  6.6073015e-02
 -3.9737724e-02
  5.6012779e-02
  5.4828529e-03
  7.3852611e-04
  1.6002554e-03
 -5.4420806e-03
 -3.5298321e-02
  5.1781639e-02
 -9.3983531e-02
 -1.6375568e-02
  7.3034272e-02
  8.6845281e-03
 -3.8554024e-02
  2.9127288e-03
  6.4735621e-02
  3.5576420e-03
  3.0611251e-02
  1.7220631e-02
 -6.3293390e-03
 -3.9777707e-02
 -6.1538398e-02
 -9.8772563e-02
 -1.9151840e-02
  1.1674381e-02
  2.9420549e-02
  8.2914490e-04
  1.5031352e-02
  2.8398722e-02
  6.1181444e-04
  1.6143179e-02
 -2.5200862e-01
 -3.1328462e-02
  8.8227459e-04
  8.0660932e-02
  3.4757912e-02
 -9.9023953e-03
 -3.2259814e-02
 -2.1422943e-02
 -1.3901263e-03
  6.5738373e-02
  9.4122477e-03
  3.2117277e-02
  5.3636026e-01
 -5.9245620e-03
  7.1444386e-03
 -4.0630600e-03
 -1.1528652e-02
 -3.4451752e-03
  1.6989917e-02
 -1.3460772e-01
 -1.0239696e-02
  2.6827881e-02
  1.0781267e-02
  6.4577232e-03
  3.1165747e-02
  5.6306450e-03
  3.7737004e-02
  3.8089498e-03
  2.9674070e-03
 -1.3373645e-02
  1.0204041e-02
 -5.9565350e-02
 -1.9938552e-03
 -8.6924940e-02
 -8.1964107e-03
  1.6603798e-02
 -4.1486062e-03
  2.5490372e-02
 -7.0423767e-02
 -5.4261778e-02
  3.1037480e-03
 -2.8143199e-02
 -4.9300721e-01
 -6.4561200e-01
 -5.1393122e-03
  4.2008911e-03
  2.4627268e-02
 -8.2231462e-02
 -9.5888823e-03
  2.6789399e-02
  4.1396067e-02
 -4.6031117e-02
  9.8578809e-03
 -4.7417113e-04
 -2.2180036e-01
 -1.9764487e-02
 -3.5634570e-02
  2.2070006e-02
  1.0225215e-02
 -1.7874216e-01
 -3.9522748e-02
  2.5072705e-02
 -1.9662561e-02
  8.0264077e-02
 -3.6251184e-02
 -8.8482760e-03
 -1.4233405e-02
 -5.3700856e-03
 -1.5228587e-02
  8.8368440e-03
 -3.4522344e-03
 -5.9199042e-04
  3.7507232e-02
 -5.7518624e-02
 -9.3002923e-02
  3.9812423e-02
  7.1505405e-02
  2.2484386e-02
 -3.5888668e-02
  1.6970983e-02
 -7.8989696e-03
  1.2365784e-02
 -2.8513905e-03
 -1.6371416e-03
  1.0945713e-02
 -8.1103221e-03
  5.4881644e-02
 -7.7673599e-02
 -1.0698720e-01
  1.5225220e-02
  2.9689848e-02
  2.1423211e-02
 -2.6992790e-03
 -4.0906155e-03
 -2.1888847e-02
  4.1802092e-03
  5.3463546e-03
 -9.6811280e-03
 -7.9719260e-02
  3.1665214e-03
 -4.6903789e-02
  2.5150830e-02
 -1.0707382e-02
 -2.8291458e-02
  7.3626444e-02
 -3.1365339e-02
 -1.9739686e-02
  4.4077601e-02
 -2.5707048e-03
 -7.5603812e-04
  3.3026006e-02
 -4.9955444e-03
  6.7582261e-03
  1.4228500e-02
 -5.4264059e-03
  9.4833510e-04
  5.9978206e-02
  3.8587190e-02
 -3.3173077e-02
  3.7838630e-02
 -7.0375926e-03
 -9.2105884e-03
  1.1495752e-02
  4.2425696e-02
  2.9215785e-02
 -3.9784620e-03
 -1.4044563e-02
 -2.3520295e-02
  8.3863374e-04
 -1.9319866e-02
 -3.1078305e-02
  2.4239004e-02
 -7.4750790e-03
 -3.7240449e-02
 -5.2655693e-03
  2.7765355e-01
 -1.4983739e+00
  3.3508444e-01
 -1.6558683e+00
 -3.0597448e-01
  5.2998149e-01
 -1.1244658e-01
 -8.1045794e-01
  1.8494195e-01
 -1.5924159e-02
  2.1677804e-01
  2.7543537e-02
 -1.0386161e-01
  8.6659318e-01
 -2.2529653e-01
 -1.9682729e-01
 -8.4495187e-01
  6.0931438e-01
  8.4902507e-01
  2.2200102e-01
 -1.3434806e+00
 -2.2958381e+00
 -7.0540130e-02
  1.2751433e+00
  1.2301577e+00
  1.1281261e+00
 -8.2831055e-01
 -3.4241858e-01
  7.7929117e-02
 -4.4823345e-02
  3.3318844e-01
  2.5274649e-01
 -5.3925741e-02
  1.1716637e-02
 -3.6522991e-03
  1.5540990e-02
  2.5885068e-02
  3.4857693e-03
  3.1908643e-02
 -7.1000289e-03
  8.8955127e-03
  3.5995174e-02
 -1.5319515e-02
  4.1882459e-02
  4.0099681e-03
 -1.6298935e-02
  5.3673256e-03
  2.8103050e-02
 -3.3082433e-02
  6.5137157e-03
 -1.0781662e-02
  2.0151254e-02
 -4.8318449e-03
 -1.6796440e-02
  2.1511206e-02
 -7.2305776e-02
  3.4282769e-03
  3.5086267e-02
 -1.7919041e-02
 -5.6362316e-02
  8.6373056e-04
  1.9744486e-02
  8.6574955e-03
  2.3573216e-02
 -1.5761807e-03
  6.3718259e-03
  6.8437628e-02
  1.1911625e-02
  1.1137360e-01
 -2.7287796e-02
  6.1560728e-02
 -1.0021119e-02
 -8.0085061e-02
  8.7567031e-02
 -1.9490885e-02
  4.0160377e-02
  3.9541991e-03
 -7.1881950e-02
 -5.7095992e-03
 -1.3519571e-02
 -2.7777767e-03
 -2.2405032e-02
  4.0888552e-02
 -2.5777295e-02
  1.1864305e-02
 -2.8503876e-02
 -6.6566914e-03
  1.1724708e-02
 -1.0498108e-02
 -5.1131295e-03
  4.8512435e-03
 -1.6910713e-02
 -7.7075339e-03
  4.3373931e-02
 -7.7331826e-02
 -2.2642206e-02
  1.2391754e+00
 -4.3005133e-01
 -1.1972556e+00
 -2.3231120e+00
 -8.2946831e-01
  2.1582177e+00
  1.2043320e+00
  2.0013983e+00
 -3.1745291e-01
 -2.1117386e-01
 -2.3171082e+00
 -8.4725875e-01
  1.4651474e+00
 -9.7886659e-02
 -7.9162113e-02
  3.3780545e-01
  2.0262304e-01
 -1.9189725e+00
  1.0678165e+00
  2.9376313e-01
 -2.0865092e+00
 -5.4089069e-01
  1.5680034e-01
  8.1060278e-01
  8.5409874e-01
  9.3749124e-01
  2.9554084e-01
  8.2014939e-03
 -5.3124987e-02
 -1.4817704e-01
 -1.1837286e+00
 -2.2061342e-02
  5.2788056e-02
  4.1266415e-02
 -1.0221414e-01
 -7.6333112e-01
  3.3658249e-03
 -1.0916673e-02
  3.4908380e-02
 -6.2239474e-01
  4.2488539e-01
  1.2155712e-02
 -5.7593860e-02
  1.2353236e-02
 -9.3283519e-02
 -6.5404559e-03
 -1.1024919e-02
  1.9145289e-03
 -2.5850156e-01
  1.1930339e-02
 -1.9007313e-01
  5.2964427e-02
  9.4276004e-02
 -3.9546876e-04
 -1.7803423e-01
  1.7512536e-02
  6.1186153e-02
  2.6308265e-01
 -6.1026523e-03
  1.1825684e-02
  2.9289290e-02
  2.7983340e-02
  4.1986234e-02
  9.9041551e-02
 -6.5296941e-02
 -2.7463332e-02
  6.2628156e-03
  5.2244681e-01
  1.9208135e-02
  5.0680269e-02
  1.8558612e-02
  5.3898306e-03
  5.9577962e-03
  3.4209844e-03
 -6.0822204e-04
 -1.6114158e-03
  8.3856648e-03
 -1.6988443e-02
  3.6976170e-03
  6.4773150e-03
  1.1061141e-02
  1.4222625e-02
  7.5353608e-02
  9.3136501e-04
  2.6190137e-02
  2.4681187e-03
 -1.9082785e-02
  2.8198799e-03
 -2.7141705e-02
  1.3460183e-03
 -5.1718983e-03
 -3.1490315e-02
  1.3513173e-02
  1.1624546e-02
  2.1680340e-02
 -6.8345614e-02
  7.0873551e-02
 -2.4632408e-04
 -7.8542429e-01
  2.2391696e-03
 -2.7112079e-01
 -5.9607960e-02
 -3.5640937e-03
 -3.2091420e-02
  2.1062426e-01
 -9.6175209e-02
  3.1859126e-02
  8.9697319e-04
 -6.2733404e-02
  2.1658354e-01
 -2.9836224e-02
  3.6432787e-03
 -1.0702110e-01
 -2.6253490e-02
 -1.0420537e-02
  1.5598997e-02
  7.7162169e-02
 -6.5531038e-02
 -3.0916449e-02
 -2.4446003e-02
 -8.9379046e-03
 -2.7187021e-02
  3.9457357e-03
  4.1004021e-02
  1.9984838e-02
 -9.6591718e-02
  1.5129460e-01
 -1.7458359e-02
 -1.7712221e-02
 -3.8675811e-02
 -3.7851062e-02
  1.2710981e-02
  2.5600618e-02
  1.3493852e-02
  4.1652087e-02
  3.0336648e-03
  8.0353711e-03
 -1.0328982e-02
 -4.0236700e-02
  5.4264594e-02
 -9.1983899e-03
 -7.7684387e-03
 -1.5959969e-02
  3.2880241e-03
 -2.0116248e+00
 -1.0306247e-01
 -2.5245294e-02
  5.8891950e-03
  1.6479671e-02
 -4.2942837e-03
  8.2281567e-03
  2.2343447e-02
 -4.1334189e-02
  1.5626924e-02
 -1.1863788e-03
 -1.9460157e-02
  2.9583456e-02
 -5.9560601e-02
  6.9368677e-03
  5.1857308e-03
 -6.9509186e-02
 -6.1862046e-01
  1.7414218e+00
  1.0345241e+00
  1.1073277e+00
  1.5074574e+00
  1.9284960e+00
 -5.2717093e-02
 -5.0689697e-01
 -1.5933365e-01
  2.7751189e-01
 -3.6084285e-01
 -1.2101698e+00
  5.5524655e-02
  9.8183256e-01
 -7.2696835e-01
 -1.3527536e-01
 -1.1365937e+00
  9.4325089e-01
 -1.0957313e+00
 -1.9618875e-01
 -1.1813231e+00
  1.6221662e-01
  8.3432335e-01
  3.9110031e-02
  9.4546322e-03
  1.4547756e-01
 -1.3284273e-02
 -5.6854252e-02
 -2.2154456e-02
 -6.7046511e-01
 -2.7508616e-02
 -1.4632165e-01
  7.4793220e-01
 -4.9743321e-02
 -1.1733741e+00
  3.2737420e+00
  2.9237169e-01
 -6.1229813e-01
 -6.5322672e-03
  1.1674477e+00
  1.2298133e-01
 -1.0915173e+00
  5.3645289e-03
 -1.4538034e-02
 -1.3961478e-02
  2.5132271e-02
  2.5290749e+00
 -2.1458006e-01
 -2.8404821e-02
 -1.8977220e-01
  9.7947723e-01
  1.0679461e+00
  4.3464094e-01
 -4.2810318e-01
 -3.5174888e-01
 -2.4880162e-02
  6.9390565e-01
  5.1899150e-02
  5.9774261e-02
 -9.4360268e-01
  6.9495961e-03
  1.3745681e+00
 -4.8810754e-02
 -6.4925492e-02
 -2.4971996e-01
  1.7282896e-01
 -9.8757140e-02
  3.8651127e-02
 -4.6207726e-02
  3.5110522e-02
  9.1936082e-01
  9.5823342e-03
  1.5840819e-01
 -1.1332746e-02
 -2.5798423e-02
  1.4860648e-01
 -4.2488310e-02
  2.0407765e-01
  1.4491521e-01
 -4.9693745e-02
  1.6676989e-01
  2.3509054e-01
  2.8554983e-03
  1.0360678e-01
 -5.5509156e-01
 -4.4121334e-04
  1.3448004e-01
 -1.4143441e-02
  7.4020511e-01
 -7.4649695e-03
 -4.7413252e-02
  3.4050260e-02
 -1.0000645e-02
  4.0132869e-03
 -3.7890777e-02
 -5.1928479e-02
  1.3874985e-02
 -7.7156774e-03
 -3.6681693e-02
 -1.2276513e-02
  1.7615191e-03
 -8.6422013e-03
  3.9869167e-02
 -7.0127435e-03
  1.2522601e-02
  3.7213426e-02
  9.0634981e-03
 -2.0611938e-02
 -2.0758469e-02
  1.3906919e-02
  3.6538735e-02
  2.3325582e-03
 -1.9871132e-02
 -4.4350576e-02
  5.0023168e-02
  1.0176840e-02
 -3.0523799e-02
 -1.4726809e-02
 -2.0433780e-02
 -3.5803534e-02
  2.9925720e-03
 -6.3853264e-02
 -4.1236732e-02
  4.6789604e-03
  3.4946944e-03
  4.1649668e-03
  4.5169927e-03
 -3.6166341e-03
  8.8871634e-03
 -3.3850241e-03
  3.6560011e-01
  1.0981545e-01
 -1.3705383e-02
 -6.9725760e-03
  4.0081654e-02
  3.9822754e-02
 -1.7812083e-02
 -3.1695735e-02
 -5.4255895e-02
 -2.0166705e-03
  1.4564578e-02
 -5.1820059e-03
  9.3846605e-04
  1.0997318e-01
  1.0824568e-02
  2.1596175e-02
 -4.2447917e-02
 -1.1121408e-03
  1.1164071e-02
  1.7867308e-02
  2.5298132e-02
  1.3510106e-02
  2.6543634e-02
 -1.6396557e-03
 -3.7911434e-02
 -1.6037512e-01
  4.4103888e-01
 -2.3979997e-02
 -2.8856802e-03
 -7.0557183e-01
  2.6763024e+00
 -9.1985899e-01
 -2.5923188e+00
 -1.4582226e-01
  2.9599719e+00
 -1.1040703e+00
 -1.4921877e-01
 -2.6961973e+00
  1.3060529e+00
  5.5341518e-01
  1.1163635e-01
 -1.5510742e-01
 -1.3150766e-01
 -1.8607378e+00
 -3.5202393e-01
 -7.0742542e-01
 -7.3044077e-03
  1.0008141e-01
 -1.3148190e+00
  1.5857825e-02
  1.4886916e+00
  1.2800876e-02
  9.7497034e-01
  3.1670365e-01
  1.3385853e+00
  4.2392549e-01
 -3.2605082e-02
  7.7751184e-01
 -5.3166807e-02
  9.2600888e-01
  2.7015727e-02
  2.2533599e-02
  7.4396990e-02
 -4.6244857e-01
  5.0527012e-01
 -5.5918479e-01
  1.8009798e-01
  6.9583324e-03
 -2.0346520e-02
  2.3249108e-01
 -7.9651282e-04
  1.6509082e-02
 -1.2409219e-02
 -1.2758434e-01
 -4.0748741e-02
  1.2771883e-03
 -2.4764879e-02
 -2.1308427e-01
 -1.4529866e-02
 -1.5896786e-02
  2.3118890e-04
  1.8040229e-01
  7.3361391e-01
  1.0052422e-01
 -6.4554729e-02
  6.9509326e-03
 -7.1826085e-02
 -1.3379741e-02
  5.6490181e-03
  1.2575323e-02
  6.4497046e-02
  3.5807122e-02
  2.0649685e-02
  8.5780507e-01
  4.0877807e-01
 -1.2270039e+00
 -4.8950431e-01
 -9.9066786e-02
  5.3723633e-01
 -8.9688431e-03
  6.0662419e-01
  2.2569782e-01
 -4.7889593e-01
 -9.6293759e-01
 -1.0006730e-01
  2.7298814e-01
  9.7958440e-01
  3.3149979e-01
 -4.3322766e-01
  1.4818910e-01
 -6.9120902e-01
  1.2797422e+00
  3.0805010e-01
 -1.3496872e+00
  4.4010407e-01
 -1.6018939e+00
  6.7665726e-01
  4.0736365e-01
  3.0717024e-01
 -2.3076301e-02
  3.1218758e-01
 -5.4509137e-03
 -7.2374481e-01
 -3.3179930e-01
  1.0085033e+00
 -6.2626526e-02
  9.9605151e-02
  2.2464465e-02
  3.0797955e-01
 -1.2957757e-02
  8.0242977e-03
  2.0871066e-02
  5.9623893e-02
 -1.5350592e-03
  1.0883812e-02
  1.6727732e-02
 -2.3482507e-02
 -4.1179447e-03
 -4.2455964e-02
  2.5103254e-02
  6.3896301e-04
 -2.4631893e-02
 -6.1481171e-03
 -2.5708836e-03
 -1.5769382e-01
  3.7785619e-01
  1.2992337e-02
 -1.7710021e-02
 -1.7512977e-02
 -6.7444751e-03
  1.5124166e-02
 -1.6909447e-02
 -2.5281126e-02
  1.2643785e-02
 -1.4161533e-02
 -1.8205275e-01
 -1.9966175e-01
 -5.5377209e-01
 -1.5639935e+00
 -8.6880696e-01
  5.1178598e-01
  1.8707998e+00
  5.0685942e-01
 -4.2218709e-01
  1.0604836e-02
 -2.9077330e-01
 -3.4616839e-02
  7.4579990e-01
  1.2815492e-01
  9.3140692e-01
 -2.5668678e-01
  1.6509439e-01
 -2.1820939e+00
  2.6634667e+00
  3.6860257e-01
  7.6760691e-01
  5.0475574e-01
  3.5614690e-01
 -1.0098186e+00
 -5.3997332e-01
  3.7244741e-02
  4.0118894e-01
  2.5275454e-01
 -4.5311826e-01
 -8.0537330e-04
 -2.9544234e-01
  6.6317101e-03
 -6.4353240e-01
 -2.8942880e-01
  6.0338661e-02
  1.0058684e-02
 -1.9097359e-01
  3.3972591e-02
 -9.2933476e-02
 -1.9097280e-02
  7.1251234e-03
 -2.0765957e-01
  7.9989113e-02
  1.1954547e-02
  6.9021839e-03
 -1.3399551e-02
 -2.1751565e-01
  1.4691323e-02
 -1.7324962e-02
  1.1733650e-02
 -1.3700520e-01
 -7.1155585e-02
  2.1673845e-02
 -3.0128259e-04
  5.1534262e-02
  7.5426117e-02
 -9.7835526e-02
 -5.1746149e-02
  1.5630279e-02
 -5.3236238e-03
 -7.3710404e-02
  1.6842475e-02
  9.5226273e-02
  1.9869816e-02
  5.4560518e-03
  2.5661814e-01
  2.9537863e-01
 -4.5231634e-01
  1.3225425e+00
  6.6725514e-03
  5.2427995e-01
  3.1188670e-01
 -1.4619759e+00
 -1.1723838e+00
  1.2739195e+00
  3.7743983e-01
 -1.0121908e+00
 -4.6215054e-02
 -7.0763126e-02
  4.6581092e-01
 -6.4250916e-02
 -2.9513864e-02
 -1.0490875e+00
 -1.7405979e-02
  6.8709588e-01
 -1.0839738e+00
  8.1372827e-02
  9.7143844e-02
 -1.6718149e-01
  1.7724581e+00
 -3.0440366e-01
 -2.0872007e-01
 -2.2169654e-01
 -8.4744757e-03
 -4.7777095e-01
 -1.9367649e-03
  2.7249518e-01
  2.1544303e-01
  2.1031223e-01
 -6.9708264e-01
 -1.1956880e+00
  1.7453927e+00
  1.6397175e+00
  1.9908279e+00
  1.5309118e+00
 -1.4233268e+00
 -1.7345108e+00
 -1.7932448e+00
  4.2578388e-02
  4.4328231e-02
 -2.4222900e-01
 -2.3665438e+00
 -3.3379591e-01
 -4.7863594e-01
  1.5130512e-01
 -1.1751919e+00
  1.5824942e-01
  4.7329319e-01
  5.3509974e-01
 -9.6485066e-01
 -4.7642943e-01
 -1.4901081e+00
  1.7484736e-01
  6.3707495e-01
 -4.8592657e-01
  4.2644914e-02
 -5.0757686e-03
 -1.4463639e-02
 -1.4440651e-01
  6.4017743e-02
 -1.7352790e+00
  7.0626044e-01
  6.4827733e-02
  3.9906305e-01
 -4.3872079e-01
 -5.0896746e-01
 -3.2182831e-02
 -1.9577959e+00
 -1.3413870e+00
  1.2524962e+00
  2.8672493e+00
  1.1403785e-01
  1.3750662e+00
  2.4597402e-01
  1.5462472e+00
 -1.6775633e+00
  1.2079781e+00
  1.0639389e+00
  4.1988778e-01
  4.1301307e-01
  4.2541632e-01
 -6.3226521e-01
  1.5976868e+00
 -1.9934034e-01
  3.8739689e-02
  4.4445983e-01
  3.0950608e-02
 -1.0163018e-01
  4.1138232e-01
  6.8511814e-01
  1.6845090e+00
 -9.6487993e-01
  1.8790278e+00
  1.5952513e-01
 -2.6464159e-02
 -3.1597599e-01
 -1.3991627e+00
 -7.4702382e-01
 -1.1257670e+00
 -4.1206959e-01
 -6.0432303e-01
 -3.0964643e-01
 -4.8462465e-02
 -3.3089397e-03
 -6.8211928e-02
  7.6160663e-01
 -8.3018845e-01
  5.4264855e-01
  5.6435312e-03
 -3.2537547e-01
 -7.6026839e-01
 -2.9845580e-01
  6.7051232e-01
 -3.2165182e-01
 -1.9333421e-01
  2.7001694e-01
 -4.2184286e-02
  8.7205574e-02
  4.8024040e-03
 -5.4918169e-03
  8.6375368e-01
 -4.9947258e-03
 -1.8282802e-01
  1.0765281e-01
  5.6757212e-01
  4.8581505e-01
  1.2639852e-01
  7.6092046e-01
  1.4986681e-04
  4.9213413e-03
 -1.6250924e+00
 -7.4264975e-03
 -4.9345080e-02
 -3.6600851e-03
  8.1470668e-01
  7.4215047e-02
 -1.3282099e-01
  5.4257476e-01
  1.6029067e-02
  2.7304862e-02
  8.5540004e-03
 -3.9796016e-01
  4.2893320e-02
  7.7049869e-01
  3.9915523e-01
  1.7771221e+00
 -3.6972433e-01
  1.5261512e-01
 -1.0766631e+00
  1.5669669e+00
  1.3959394e-01
  3.4477562e-02
  1.3144842e-01
  1.7164031e-04
 -2.1429412e-02
  5.0239468e-01
  2.9299057e-01
  7.5121856e-01
  2.2752193e-01
  7.3887068e-01
  1.8979589e+00
  1.4075693e+00
 -8.8160180e-02
  5.9161466e-01
 -1.7058131e-01
  6.0576919e-02
  7.7646279e-01
  1.8257804e+00
  2.0170846e+00
 -9.7316194e-01
  1.6502572e-03
 -3.2234073e-01
  1.1050001e+00
  3.4941757e+00
  8.2859516e-01
  4.0405374e-02
 -7.7700788e-01
 -7.4721968e-01
  7.0903635e-01
  3.1515448e+00
 -7.9191166e-01
  1.5067692e-01
  8.4265548e-01
 -2.0815012e+00
  2.9062130e-04
  7.0026481e-01
 -2.9121895e+00
 -9.0735741e-03
  6.3795102e-01
  6.2390831e-03
  8.3766095e-03
 -2.2695178e-01
  9.6109635e-01
 -6.3988075e-02
  4.7729224e-01
  2.6163414e-01
  4.5452988e-01
 -2.3062933e-02
  2.1395100e-02
  1.2248298e-02
  3.7834907e-01
  5.9997823e-02
 -2.7753035e-02
  2.7882839e-02
  6.4425290e-02
  1.3025601e-01
  2.1377093e-01
 -1.2035214e-02
  2.7813341e-02
  1.2184058e-01
  1.2191088e-02
  8.0580600e-02
  8.3866291e-02
 -3.4048449e-02
  3.5293866e-02
  1.9552110e-02
  5.9180841e-02
  4.6652099e-03
 -6.2696300e-02
  1.4677365e-02
 -1.9036602e-02
  1.3703458e-03
 -3.1669393e-02
  2.6598124e-02
 -1.7495139e-03
  6.7906282e-03
 -7.4165519e-03
  1.5231607e-02
 -1.0796943e-03
 -1.4959320e-02
  5.2456580e-02
 -6.6987656e-02
  6.0186330e-03
  1.9049680e-02
 -4.2074591e-02
  3.0031307e-02
 -1.6035706e-02
 -2.7438900e-02
 -7.9893554e-04
  4.7062072e-03
  8.2300194e-03
 -5.5386736e-03
 -5.8555391e-02
 -3.0778321e-02
 -2.8197167e-02
 -1.4238887e-02
  2.1640647e-02
  1.0265814e-02
 -5.5124816e-03
 -3.3287909e-02
 -2.7298957e-02
  1.7396244e-03
 -2.2372710e-02
  1.4630439e-02
  4.4040892e-02
  1.3359677e-03
  5.7838070e-01
  4.0970203e-01
 -7.4653976e-02
  1.6736731e-02
  2.5673187e-01
  1.0472405e-02
  4.8540924e-02
 -2.5211237e-02
 -3.1370583e-03
 -2.0799324e-01
  1.6395870e-01
 -5.8335137e-01
  2.4571171e-02
  1.1350536e-01
  3.9239940e-03
  9.5188729e-03
 -4.3602727e-02
 -4.2980117e-01
 -4.0483791e-03
  6.8328112e-02
 -3.2446392e-02
  4.5669585e-01
 -2.7994359e-02
 -3.0312403e-03
 -6.7776232e-03
  3.3798732e-02
 -8.9687794e-02
  3.8422316e-02
 -5.4320449e-01
  4.9766913e-01
  1.1129494e+00
 -2.0151669e-01
  5.0728595e-01
  2.8798532e-01
  2.6394024e-01
  5.5771297e-01
  8.1082153e-01
  1.4742556e-01
  1.0819193e+00
  3.4215620e-01
  2.5075717e+00
 -4.0643448e-01
  1.4663464e-01
  1.7271051e-01
 -1.0306900e+00
 -1.5949146e-01
  2.6123431e+00
 -4.1025129e-01
 -1.1400361e-01
  1.6347520e-01
 -9.6501164e-02
  2.1510701e+00
  4.0544677e-01
 -1.5602769e-01
 -5.5387020e-01
 -2.6576182e-01
 -8.6155623e-01
  1.7913987e-01
 -1.2606143e+00
 -4.4229975e-01
  6.8383139e-01
 -3.5238135e-01
  6.6901512e-02
  8.8714725e-01
  9.0017073e-02
  1.6300409e+00
  7.2358948e-01
 -5.9259623e-02
 -1.7370043e-02
 -5.3462172e-01
 -1.7898497e-01
  1.7269914e-01
  2.8904340e-01
  7.8003371e-01
  6.1137639e-02
  6.3415253e-01
 -9.2138600e-01
  1.5175887e+00
 -5.8951610e-01
 -3.5671511e-04
  2.3741312e-01
 -1.8043901e-01
  1.5224761e-02
 -5.0114639e-02
  1.4221834e+00
 -6.3723910e-01
  5.4551595e-01
  7.6588199e-02
  1.1432500e+00
  2.7103337e-02
 -1.0562156e-01
 -9.7428754e-02
 -5.7224807e-04
  5.7274722e-03
  1.7727852e-02
 -6.2615953e-02
  1.6171118e-02
  1.4593444e-02
 -8.6444333e-02
  1.4606356e-03
 -7.0286617e-02
 -1.2382375e-02
  2.0238005e-02
  3.0837904e-03
 -4.3682937e-02
  2.9836988e-02
 -6.0494926e-02
  3.4052324e-02
  6.1296664e-02
  4.5280483e-02
  6.7163566e-03
 -2.3810707e-02
 -3.0129898e-02
  3.1965822e-02
 -1.2318514e-02
  2.6517533e-02
 -2.6061400e-03
  4.2831837e-03
 -3.9299116e-02
  3.5158698e-02
  2.9431558e-03
  2.2920297e-02
 -5.7652216e-02
 -8.3428249e-03
  3.6275454e-02
  3.0137604e-02
  3.5377376e-02
  2.5241047e-02
  1.4915956e-02
  6.5960042e-02
 -9.7825881e-03
 -5.7048593e-03
 -2.2594966e-02
 -5.0848395e-02
  1.2424398e-02
 -8.8510543e-02
  1.0082710e-02
 -1.6092455e-02
 -1.3474260e-02
  2.2200588e-02
 -5.6391533e-02
 -5.5057709e-03
  6.5371789e-02
  3.5921998e-02
  1.1545010e-02
  6.9217035e-03
  2.4509443e-02
 -7.5742370e-03
 -5.9092142e-02
 -2.1181416e-02
  2.4092687e-02
  9.4700456e-03
 -4.0843002e-02
  3.5603680e-02
 -1.5999405e-02
 -2.2446120e-02
  5.4784687e-03
  1.2773713e-01
 -9.5915543e-03
  1.2028342e-01
  1.4881887e-03
  2.4415062e-01
 -9.4719827e-02
 -6.0487393e-02
 -5.6712198e-01
  1.5812596e-02
 -2.3695182e-02
 -8.4572099e-03
  8.7252725e-04
 -3.2063115e-02
 -3.2047983e-02
 -6.8297148e-02
  9.4943179e-04
 -7.6904842e-03
 -3.5676823e-03
 -1.5216391e-02
  1.2786519e-02
  5.4147568e-02
  9.9069905e-03
 -6.5091908e-01
 -1.4237439e-02
 -3.1376397e-03
 -3.5169807e-03
  1.7943034e-02
  2.6856896e-03
  6.8579768e-03
  2.4878409e-02
  2.8932370e-02
  7.4455671e-02
  3.0831334e-01
 -2.8357697e-01
 -3.8583726e-01
 -4.1753764e-04
  1.0527894e+00
 -4.9575451e-01
 -7.3794179e-02
  3.9488243e-04
 -4.5497203e-01
  1.8391322e-01
  2.7659191e-02
  5.4692980e-02
 -1.5591101e-01
  1.7526968e-01
  4.4857332e-01
 -4.2794746e-01
 -9.7525835e-02
 -1.3702333e+00
 -1.1088371e-02
 -7.7695968e-03
  2.6096466e-01
  5.1084256e-01
  4.4069484e-02
  2.4371672e-01
 -2.4442284e-01
  3.5044402e-01
 -1.5316644e-02
  7.6107427e-02
  4.9847949e-01
  2.5233181e-04
  2.0605358e-01
 -4.9199748e-01
  1.3660141e+00
  1.7416055e+00
 -2.7351656e+00
 -6.9230795e-02
  1.3083696e+00
 -5.1933318e-01
  6.0306954e-01
  1.3261138e-01
  1.0524607e-01
 -1.3961258e+00
  6.3290201e-02
  1.4753741e-02
 -5.6088981e-03
  3.3076618e-02
 -4.9577948e-01
  1.8418161e-02
  1.3885634e-01
  3.5425279e-01
 -1.3209242e-02
 -4.6700028e-01
  6.3351601e-01
 -1.6060766e-02
 -1.0775428e-01
  3.8586095e-01
  4.3813315e-01
 -2.4569999e-01
  8.4041111e-04
 -4.8868958e-02
 -5.3205065e-02
  7.8016382e-01
 -1.7739911e-01
  2.2957781e-02
 -4.7410272e-02
 -3.4558762e-02
 -3.7777674e-01
 -8.7728299e-02
 -1.3398767e-01
  5.2521029e-04
  3.4019726e-03
  4.9963933e-03
 -1.0427843e-02
  2.1571424e-02
  4.5996024e-03
 -1.2538239e-01
  1.0697392e-01
 -4.5334462e-02
 -2.6063296e-01
 -1.2762319e-01
 -3.1148079e-01
 -4.6807848e-02
  2.7288230e-02
 -2.4734904e-01
  4.6180075e-01
 -2.2169901e-02
  2.0857269e-03
  3.6060214e-02
 -4.9682987e-01
 -1.9283578e-01
  3.1623606e-02
  2.2360172e-02
  7.8398939e-03
  4.5294371e-02
  1.9173633e-01
  6.6512841e-01
  1.4968462e-01
 -2.1709625e-01
 -2.3480119e-01
 -7.6441592e-01
  9.0417102e-02
  5.3063947e-01
  4.4842032e-01
  1.9234371e-01
 -7.2981596e-01
 -1.0596539e+00
 -1.0670649e+00
  1.6986108e+00
  8.0329877e-01
 -1.0976989e-01
 -9.8491329e-01
  2.2886431e-02
  3.1357503e-01
 -2.0248582e+00
 -8.7518640e-02
  3.0772388e+00
  2.2470412e+00
  6.9292985e-02
 -2.2467101e+00
 -9.5618790e-01
  1.9608608e+00
 -2.9272117e-02
  5.3783941e-01
  4.6804298e-02
  7.3628239e-03
  1.3534821e+00
 -2.0200901e-02
 -2.2267137e-02
  2.9803097e-02
 -8.0548450e-03
 -1.2363828e-02
 -2.5439981e-02
  7.5619151e-03
 -1.9597767e-02
 -1.9973760e-02
 -8.2163932e-03
 -2.0550858e-02
 -3.0366550e-03
  6.1407320e-02
  3.8646996e-02
  2.1331793e-02
 -2.1511156e-02
 -3.1434525e-02
  2.2661567e-02
  3.2627773e-02
  6.6357240e-02
  7.3309257e-03
 -4.8446972e-02
  2.2258958e-02
 -9.8624751e-03
 -6.0607553e-01
 -6.8044313e-04
  8.8101421e-03
  1.1953648e-02
 -1.0141022e-02
 -1.9073347e-02
  6.8189919e-02
  2.5518026e-04
 -3.2856684e-02
 -8.5477857e-03
 -1.0864220e+00
 -9.4907291e-02
 -5.5384654e-01
 -4.5875597e-01
 -2.4959025e-01
 -3.4113560e-02
  4.3708030e-02
 -1.4982089e-01
  8.9278864e-03
  4.7072988e-02
 -2.4185093e-02
 -4.2354110e-01
  4.7188362e-01
  1.3923191e-01
  1.3180022e+00
 -3.7047967e-02
  3.8044106e-02
  5.7443671e-02
  1.3064355e-01
  2.0922455e-01
 -2.3586055e-02
 -7.2212624e-03
 -3.1212373e-02
 -1.1966885e-03
 -1.4207356e+00
 -7.4006444e-01
  2.4016116e-02
  1.7995487e-01
 -3.6762235e-01
  5.3629982e-01
 -2.0559620e-02
 -1.4966201e-02
  1.4681329e-02
  6.7877662e-03
  7.5639516e-02
 -5.0861161e-02
  6.5520816e-03
  6.1100859e-02
 -8.0515761e-03
 -7.3161103e-02
 -1.4129607e-02
 -2.7574312e-02
  6.4489455e-03
  2.5330970e-02
 -2.6423158e-03
 -8.5673099e-03
  2.5843779e-02
  8.1953123e-02
  4.7512341e-02
 -1.5954057e-02
  5.3200424e-03
  1.5331651e-03
  5.1235948e-03
  2.3852333e-02
 -2.6021088e-02
  1.1961803e-02
  6.2103521e-02
  1.6554223e-02
 -2.0405106e-02
 -3.2526873e-02
  4.6988994e-02
 -2.1046333e-02
 -1.4173103e-02
  2.4863638e-01
  2.4888492e+00
 -5.5097449e-01
  2.2284641e+00
 -3.6958650e-02
  1.4658942e+00
  4.5549918e-02
  3.5437800e-02
 -1.1351230e-01
  1.5385716e-01
  6.6432256e-01
 -2.2246392e-02
 -2.7616201e-02
  2.3619361e-02
 -1.3073436e-02
 -3.3714464e+00
 -1.6511958e-02
 -2.0442329e-01
  1.2293673e+00
 -4.3130627e-01
 -2.3267466e-01
 -2.0164087e+00
  2.9171599e-04
  4.0164804e-01
  1.9485275e-01
 -7.8151412e-03
 -2.6763370e-02
 -1.8379392e-02
 -9.8845057e-02
 -3.3110280e-02
 -8.2959116e-01
  3.0857662e-02
  1.0696504e-01
 -9.9946216e-02
 -1.3175948e-03
  1.4028463e-02
  5.0862056e-01
  9.3871937e-04
  1.0881751e-02
  4.2882185e-02
  6.3344873e-03
 -3.5694849e-03
  1.4356693e-02
  7.7077881e-02
  2.8381269e-02
  8.8559873e-02
 -6.1797142e-02
 -3.3153888e-02
  1.7851138e-02
  6.3093282e-02
 -4.9745623e-02
  2.4273684e-02
  1.1003484e+00
  6.4579444e-03
 -1.0754009e-03
 -8.9259380e-03
 -1.3112803e-02
  7.3959911e-03
  4.8455764e-02
  4.6621743e-03
 -7.1208561e-03
 -8.8667788e-02
 -8.6422123e-02
 -2.0525611e-03
 -6.3104576e-01
  8.6536342e-01
 -4.3719783e-01
 -1.3560450e+00
 -2.1031845e+00
  4.0172300e-01
  1.1008033e+00
 -1.0421622e-01
  3.7629396e-01
  3.3791766e-01
  1.4560146e+00
  6.7944622e-01
  8.2789049e-02
 -2.2150576e+00
 -3.1579861e-01
  1.1243054e-01
  2.7400622e-01
  4.0364611e-01
 -6.2978870e-01
  1.2429982e+00
 -4.6412912e-01
 -8.2592702e-01
  3.8747020e-02
  2.9528585e-01
  1.1556064e-01
 -1.1866698e+00
  2.4737704e-01
 -2.3305876e-02
  2.0817301e+00
  2.9251887e-03
 -2.5042446e+00
 -6.0919225e-01
  1.5269397e-02
 -2.5328012e-02
  5.7349727e-02
  1.6694209e-01
  1.5762838e-03
  5.3360336e-03
 -1.0254356e-01
  4.9367836e-03
  4.2768158e-03
  5.7535034e-02
 -3.3225992e-03
  6.1998907e-03
 -2.6980671e-03
  2.5001781e-02
  3.1487064e-03
 -1.6715519e-02
  2.1170221e-02
  5.6176074e-02
  4.1368142e-02
  4.4818930e-03
  9.6493866e-03
 -3.9868236e-02
 -1.5404027e-02
 -3.0230829e-02
 -1.2364429e-02
  1.4835209e-02
  4.8719482e-03
  1.4102047e-02
 -8.1750862e-03
  1.3290527e-03
 -1.9246556e-02
  1.6455874e-02
 -1.3267125e-02
  6.1132293e-02
 -2.0835331e-02
 -4.6895433e-02
 -1.3433482e-02
  8.4157288e-03
  3.1171216e-02
 -1.0096241e-03
 -1.7554218e-02
  1.1378122e-02
  1.7319641e-03
  2.7218438e-04
  6.0390979e-03
 -1.7241631e-02
  5.1444661e-02
 -1.4745306e-02
  3.9920356e-02
  4.5998995e-03
 -3.7993547e-02
  3.1165376e-03
  3.0328026e-02
 -1.1432142e-03
 -4.7850881e-02
 -3.1158704e-02
 -9.8737655e-04
 -3.4826782e-02
 -3.1511478e-02
 -2.1636900e-02
  3.5710344e-03
  3.5910346e-02
 -5.0131958e-03
 -3.5244253e-02
  6.8549412e-01
  8.0351073e-01
  3.2350379e-01
  1.3510528e-01
 -2.3725198e-01
 -6.8808503e-02
 -5.2913618e-01
  2.2942753e+00
 -1.6587637e-01
  1.3063118e+00
 -1.4185766e+00
 -7.7062249e-01
  4.4015929e-01
 -1.0906677e+00
  1.4565972e+00
 -9.7578460e-01
  2.5376517e-01
  9.4830483e-01
 -4.5066044e-01
  2.8347865e-01
  4.2335913e-01
  7.8202230e-01
  1.9355417e+00
 -2.5698195e+00
 -7.0765899e-03
  1.1192582e+00
 -2.4343012e-01
 -3.7451532e-01
  2.5365925e-01
  5.4331720e-01
  3.3942953e-01
 -7.3324308e-02
  3.0317483e-02
  1.4620529e+00
 -2.6547331e-01
  7.0029587e-01
 -6.2236410e-01
 -7.0162374e-01
 -9.4449975e-02
 -2.0609593e+00
  1.2110864e+00
 -8.2513946e-01
  7.6729918e-01
 -7.6373261e-01
 -6.7253584e-01
  9.0584111e-01
 -9.6242905e-01
 -2.7323354e-02
  1.5971755e+00
 -2.0010008e-01
 -3.8380746e-02
 -1.8590435e+00
  6.2569767e-01
 -4.4416621e-01
 -7.0594354e-03
  2.7675331e-01
  2.5704390e-01
 -1.4538794e+00
  7.9485911e-01
  4.7126165e-01
  3.7836763e-01
 -2.2375731e-02
  2.1021190e+00
  8.3102536e-01
  2.2138641e-03
 -2.0470605e-03
  3.3103302e-02
  2.4063729e-02
 -6.1428323e-02
  3.3290226e-02
 -1.9358250e-04
  2.4823551e-03
  1.2682318e-02
 -3.8902278e-03
 -7.3414058e-03
  1.2851548e-03
 -8.1861265e-02
 -9.3022445e-03
 -5.1685229e-02
 -6.6967338e-02
  2.0519303e-02
 -1.0472050e-02
  1.3004089e-04
 -1.7197659e-02
  1.4842460e-02
  7.5484780e-03
  7.7530369e-02
  9.0478230e-03
 -7.6503181e-03
  1.4791000e-04
 -1.6883258e-02
 -1.3201211e-02
 -2.9132946e-04
  9.0470212e-03
  4.2355936e-03
  3.7578237e-03
 -1.4669977e+00
  6.5182376e-01
  1.6591095e+00
  4.3675601e-02
  5.3836095e-01
  1.1789522e+00
 -5.4585487e-02
 -3.1987607e+00
  7.9919361e-03
 -6.9796276e-01
 -2.9127756e-01
 -4.0840872e-02
  2.3754888e+00
 -3.8772132e-03
  7.6333213e-01
  2.7846053e+00
  2.0131280e+00
  4.7411446e-02
 -7.0756525e-01
  1.6443106e+00
  3.5484720e-02
 -1.2141572e+00
  1.0062100e-03
  8.8869381e-01
 -1.7644957e+00
  1.0727017e+00
  7.1763468e-01
 -6.4448183e-03
 -1.1484546e-02
 -2.5931098e-02
 -1.3193032e-02
 -3.1287540e-02
  1.0894809e-02
  3.1339185e+00
  3.3569084e-03
 -2.7875483e-02
 -4.4104964e-01
 -1.2202972e-03
 -2.5088733e-02
  4.4013243e-02
  2.1124740e+00
 -6.6074744e-02
  1.1358516e-02
  6.6054738e-03
 -1.6101675e-01
  2.3758881e+00
 -7.6549634e-02
  1.6281188e-03
  3.0789794e-02
  1.6493130e-01
 -4.1316528e-02
 -1.1444217e-02
  2.4044369e-01
 -1.3426994e-01
  1.7647063e-03
 -1.5630504e-01
 -1.4647368e-01
  5.1088893e-05
  7.5886391e-02
 -1.3922576e-03
 -2.6342187e+00
  1.3522216e+00
  8.5144883e-01
  3.0686183e-02
  3.0983012e-02
 -1.2685047e+00
 -2.8863369e-02
  1.1587971e+00
  2.6720449e-01
  1.4180239e+00
  1.2790214e-02
  2.2329139e-02
 -1.8238881e+00
 -8.7824130e-01
 -3.7662992e-01
  1.2725127e+00
  1.8900138e+00
 -3.4922096e-01
  2.1598823e-02
  8.5054553e-01
  1.2346187e+00
 -1.4460579e+00
 -1.4384500e-02
  3.8973007e-02
 -1.6154848e-01
  1.0752275e+00
  9.1731441e-01
 -1.4166872e-01
 -9.0399843e-01
 -1.8135037e-02
  2.6217785e+00
  5.5462450e-02
 -4.1953359e+00
 -6.1977357e-02
 -3.0131188e-01
 -1.8415168e-02
 -4.3124564e-02
  1.4024889e+00
 -1.0711539e+00
 -1.4595535e-02
  5.5494010e-01
  5.2567422e-01
  2.3103366e+00
  1.3874786e-01
  3.7030917e-01
 -8.2598436e-01
 -1.4693551e-01
 -2.8904719e+00
  6.7468479e-02
  5.9548549e-02
 -3.6738652e-01
  5.6539625e-01
  1.6654338e+00
 -8.5791171e-04
  1.0369211e+00
  1.0841637e+00
 -9.6471727e-01
 -1.0392429e-01
 -4.0169495e-01
 -5.1597625e-01
  8.8047281e-02
  2.2402047e-01
 -6.2550390e-03
 -1.2851337e+00
 -1.0044918e+00
 -1.3507588e-02
 -4.4583738e-01
 -1.7362237e-01
  4.6680965e-02
 -3.5187706e-02
  7.4950226e-02
 -5.4506157e-02
 -2.3396562e-03
 -9.8088580e-01
 -3.2794766e-02
 -9.6957423e-02
 -7.9075497e-01
 -3.5764571e-02
  2.8867759e-03
 -1.0653489e-02
  1.3274611e+00
 -7.6968935e-03
  5.3521484e-02
  1.7172438e-01
 -3.3741188e-01
  2.6792902e-01
  7.4734949e-03
 -6.0843877e-03
  7.7788350e-03
 -1.6310288e-01
 -4.9123798e-02
  1.1957182e-04
 -4.5673469e-01
  6.7052148e-02
  1.0383319e-01
  3.7968624e-01
 -2.5815216e-01
  5.2456126e-02
 -1.8425359e-01
 -4.2040922e-02
 -9.3288583e-01
 -3.0603018e-01
  4.8070750e-01
 -1.3844261e-02
  1.3964427e-01
 -7.0632094e-01
 -2.4039747e-01
 -1.0039983e+00
  2.5429615e-01
  6.2498462e-01
 -4.4287395e-01
 -3.4793320e-01
 -2.6683694e-01
  6.8967152e-01
 -4.5622718e-01
 -4.9744242e-01
  3.0236075e+00
  2.7025899e-01
  3.1787496e-02
  3.9734462e-01
  8.3795762e-01
  1.5193973e+00
  4.5162961e-02
  4.5203835e-02
 -1.4605314e-01
 -7.9753745e-01
  3.7322748e-01
 -2.5843054e-01
 -1.6457372e+00
  1.7760027e-02
 -1.0080603e+00
  8.1319865e-03
 -2.3169254e-01
  1.5340070e-01
  6.2208372e-01
  1.0018037e-01
 -4.5692269e-02
  2.8097947e+00
 -5.8344781e-01
  1.0518496e-02
 -7.1307359e+00
  7.8395540e-03
 -1.8188724e-01
  9.6787381e-01
 -1.2673762e-01
 -2.4365110e+00
 -3.0614260e-01
  2.6497645e+00
  3.2677445e-01
 -1.9918179e-02
 -2.3662586e-02
 -5.1670447e-03
  1.1371678e-02
  3.7619111e-01
 -4.0595672e-01
  1.0762655e+00
 -1.2555446e-01
 -7.8282785e-01
 -8.1111146e-03
 -3.8630050e-02
  3.7969708e-02
  3.4764591e-01
 -6.4032167e-02
  3.5576075e-02
  1.0145907e+00
  5.6147794e-03
  1.1372128e-02
 -1.9737380e-03
  6.4680260e-03
 -1.5908125e-01
 -9.0583358e-03
 -7.0519030e-02
  6.6692205e-03
  2.4792950e-01
 -1.0007356e-02
 -3.1404663e-02
 -1.4717954e-01
 -5.1607143e-02
  1.9202097e-03
 -6.2039625e-02
 -2.4147267e-02
  4.2777970e-02
  2.7157627e-02
 -1.8861139e-02
 -1.6328827e-02
 -9.9140704e-03
 -1.4991434e-02
 -1.0084108e-02
 -3.5086329e-04
 -2.1811460e-01
 -3.1361267e-02
  3.6249888e-01
 -1.2040558e-02
  1.4883589e+00
  1.5039173e-03
 -5.4053489e-02
  1.8923398e-02
  9.8838884e-01
 -3.1883754e-02
 -9.8254882e-02
  3.4650452e-02
  2.8647847e+00
  7.7819536e-03
 -9.6918064e-01
 -2.1405842e-03
 -1.5919248e+00
  2.1438790e-04
  1.5806757e+00
  8.6844906e-02
  3.5295796e-01
  1.7811002e-02
  3.2554778e-01
 -6.5739721e-02
  4.6072477e-01
 -8.0618985e-02
 -3.0513853e-01
 -5.1354179e-03
 -2.0062876e+00
 -1.9157284e-01
 -4.0122595e-02
  6.3074408e-03
 -2.4900472e-02
  9.7001649e-02
 -6.6010244e-02
  4.9932504e-01
 -6.2463713e-01
 -1.2237729e-01
  4.1454148e-01
  1.7411357e-03
  5.0521082e-01
 -1.6411674e-03
 -4.9481159e-01
 -2.1194997e-01
 -3.5107642e-01
 -3.9060354e-02
 -5.7098323e-01
 -2.1370259e-01
  1.5020925e-01
 -8.0365002e-01
 -2.3234520e+00
  6.6124326e-01
 -2.1945252e+00
 -7.5269139e-01
 -2.8425559e-02
  3.8837811e-01
 -1.5476602e-01
  1.2102392e-01
  8.9185312e-02
 -1.0478904e-04
 -2.7556570e+00
  1.2710296e-02
 -2.2175580e-01
 -1.9592386e-01
  6.3002872e-01
 -4.4916230e-01
  3.1965601e-01
  1.8979795e-01
  1.9469665e-01
 -1.3482414e-02
  4.2906460e-01
  8.2605090e-03
 -1.2113122e+00
 -9.9638119e-02
 -1.5088956e-02
  6.6492811e-02
  3.4262949e-01
 -2.1220336e-02
 -1.4990052e-02
  3.6964715e-02
  9.5914060e-01
  2.1993626e-02
  5.5225384e-01
 -1.5111629e+00
  2.9977867e-01
  1.6075633e-02
  2.0630270e-02
  5.7957047e-03
 -4.8919350e-02
  3.5441585e-02
 -6.5818563e-02
 -3.1029314e-02
 -2.9826336e+00
 -2.2539279e-01
  4.5459323e-02
 -1.4556777e-01
 -1.4944320e+00
  1.3893391e+00
  6.3626933e-01
  3.1706616e-01
  9.6384728e-01
  8.3248913e-03
  7.0823103e-01
 -4.6416745e-03
 -3.9532334e-01
  1.7846344e-02
 -1.4714362e-01
 -1.0062093e-01
 -2.1463910e-02
 -9.5031321e-02
  5.1129237e-02
  2.3047751e-02
 -7.4938834e-01
  6.7948833e-02
  7.8756398e-01
  1.7119775e+00
 -1.9319512e+00
 -1.1070772e+00
  3.5564339e-01
 -1.2618204e+00
  7.1015304e-01
 -1.9692956e-01
 -2.5402525e-02
 -1.3779547e-02
 -7.5561941e-01
 -7.6230544e-01
 -7.6570207e-01
 -3.4137177e-01
 -7.9044944e-01
 -1.8407732e+00
  2.3184204e-01
  2.9336395e+00
 -2.0554517e-01
  1.2133048e-01
 -2.5530753e-01
  1.2960964e+00
  5.6516998e-02
  9.5564993e-03
  3.1034711e-01
  1.9125367e-02
 -7.0197278e-01
  7.5799271e-02
  2.1953352e-03
 -1.0250765e-01
  1.1448006e-01
 -3.8954023e-01
  4.2702254e-02
 -3.4195629e-01
 -1.2423909e-01
 -1.2318335e+00
 -6.4723802e-01
  4.9886283e-01
  1.1200181e+00
  8.9680031e-03
  8.2730977e-03
 -1.4331573e-01
 -2.1847647e-01
  4.2806357e-02
 -2.0002410e+00
  5.9459962e-02
 -8.0184728e-02
  1.3201210e+00
 -2.4082327e+00
 -7.0303178e-01
 -7.2816759e-01
 -6.6571407e-02
  1.4332863e-02
 -4.4948254e-02
  1.1323284e+00
 -2.9987164e-02
  3.9477549e-02
 -4.6091419e-02
 -3.8323493e+00
 -7.9317743e-01
  2.6262782e+00
  1.0880429e+00
 -3.5814852e-01
 -7.4506691e-03
 -1.6536710e+00
 -1.2625764e-01
 -1.6892672e+00
 -5.2501004e-02
  5.3317640e-02
 -6.5119560e-03
  3.4707046e-01
  3.0851318e-02
 -1.7275402e-02
 -1.5794069e-02
  1.5194886e+00
 -2.2606352e-02
  1.0944886e-01
 -1.7344614e-02
 -6.5223825e-01
  2.4636647e-01
  2.9274502e+00
  2.8146798e-02
 -4.4696387e-02
  9.4634071e-03
 -9.3668588e-03
 -2.1370575e-02
  3.7387408e-02
 -3.0808609e-02
  3.6249518e-02
 -2.4563725e-01
 -1.0101614e-02
  7.4935555e-02
 -6.5071148e-01
  4.7731727e-02
  6.9834602e-01
 -9.5162028e-01
  8.4455657e-01
  3.4075320e-01
 -8.4564239e-01
 -1.0323591e-03
 -5.1871579e-02
  9.7900100e-02
  3.8541710e-01
  1.0533170e-01
  2.1098006e-01
  1.4994176e-02
 -7.3751384e-01
 -5.4173237e-05
 -2.5992084e+00
 -6.0280447e-04
 -3.6628969e+00
 -4.5534742e-01
 -9.5679975e-01
 -2.9107794e-01
  5.8151115e-02
  1.3349089e-03
 -7.6421273e-01
 -1.3118098e-02
  3.3296815e-01
 -3.5639849e-02
  3.1173143e-01
 -1.4375207e-01
 -7.6570189e-01
 -6.4079976e-01
 -1.8796691e+00
 -6.7388430e-02
 -5.4898089e-01
  1.3382371e-02
 -4.7720026e-02
  2.9488150e-03
  2.5747698e-02
 -3.8459059e-02
  9.2164651e-03
 -2.0624537e-02
 -5.6177533e-01
  9.1326656e-03
 -7.4105442e-01
  2.3826046e-01
 -2.4622223e+00
 -1.4179234e-02
 -1.9401899e-02
  1.2396417e-02
 -3.1172535e+00
 -5.8343679e-01
  4.0558910e-01
 -2.1060307e-01
 -1.8340887e-03
  5.2979416e-03
  1.6791077e-01
  2.3714611e-02
  4.0909699e-01
  4.1927867e-02
 -2.7650844e-02
  4.6915300e-02
 -8.9367384e-01
  5.4972816e-01
 -3.8515523e-01
 -9.8904133e-02
  1.4708315e-01
 -5.1036197e-01
  3.4148067e-01
 -5.7993853e-03
 -5.6945759e-01
  3.3953851e-03
 -4.8556868e-02
 -5.0549813e-02
  2.4521591e-02
 -9.8408982e-03
 -3.5431288e-02
 -5.4601669e-02
  4.8403635e+00
  7.2711778e-01
  1.0560780e-01
  1.0524347e-01
  2.4005675e+00
  7.1413249e-02
  2.6730198e-04
  1.4273028e+00
 -4.7743913e-02
 -8.9193759e-03
 -9.0074204e-02
 -2.7460740e-03
  4.1383770e-01
  9.9371225e-02
  3.6281025e-01
 -1.5934344e-02
  9.8351645e-01
 -1.1128351e-01
  4.5791864e-01
 -7.2902203e-01
 -2.1875720e+00
 -2.7220100e-01
 -1.3912272e-01
 -4.9048066e-01
  5.3683627e-01
 -2.1371508e-02
 -2.6882885e-02
  6.4608785e-03
 -1.9744561e+00
 -1.9684328e-02
  1.2485386e+00
  8.1137374e-02
  9.3838334e-01
 -6.7066669e-01
 -4.2119622e-01
  3.0006075e-01
  5.0946546e-01
 -1.4357085e+00
  7.5224262e-01
 -4.8973203e-01
  2.9963994e-01
 -3.3153366e-02
  2.3366580e-02
 -1.6649270e-03
 -2.0227406e+00
 -1.7088089e-02
 -1.2938687e-02
  1.2361053e-01
 -4.8669806e-01
 -1.4532728e+00
  7.9669490e-02
  2.3341516e-01
 -3.3517841e-02
 -9.2650050e-01
  3.4320512e-01
  4.6994504e-01
 -7.6176062e-02
 -1.2099335e-02
 -5.8760494e-01
  1.1173896e-02
  4.6835402e-01
  7.0461437e-02
 -1.3795504e-01
  3.4987938e-03
 -3.6927477e-01
  3.1293383e-01
 -2.2399639e-01
 -4.1402612e-02
  4.7027886e-01
  6.4902408e-03
 -4.8387490e-02
 -8.9779341e-01
 -1.8326945e+00
  1.2477843e-01
 -8.8651282e-01
 -1.4626254e-01
  1.0551478e-01
  3.7475273e-02
  4.2885179e-03
  9.5122065e-03
  5.1922584e-01
  3.4603259e-01
  5.8288938e-01
 -4.8328164e-01
 -2.6829010e-01
  9.7164147e-02
  1.6833177e-01
 -1.0192139e-01
  8.5369095e-02
  4.5126867e-03
 -1.4419439e+00
 -5.8580481e-02
  4.5342332e-01
  1.2068012e-01
  2.5750360e-01
  9.9009527e-03
 -9.6220142e-01
 -6.5679199e-01
  1.2830490e+00
 -5.4532170e-02
  8.7363207e-01
 -6.9410563e-02
 -5.6300886e-02
 -4.2591503e-01
  6.5686285e-02
  5.1031606e-03
 -5.6056656e-02
  1.9299614e-03
 -9.5506860e-03
  7.4033430e-03
 -6.0532931e-03
 -1.0923330e-02
  7.4630773e-01
 -1.6455454e-01
  3.4826058e-03
 -1.1181061e-01
 -4.3888772e-03
  2.9705567e-04
  4.5245942e-02
  1.3647612e-02
  1.5512226e-02
  6.1891802e-02
  1.5162555e-02
 -2.6038971e-02
 -5.2606583e-02
  7.1383953e-02
 -2.8793743e-01
  3.6683947e-02
  4.7576567e-03
 -5.3128786e-04
  2.3992687e-02
 -1.6463399e-02
  1.4822057e+00
  1.4493474e-01
 -2.3324647e+00
  2.5661761e-01
 -7.6202336e-03
  1.2392580e-01
  3.5124132e-01
 -1.3671932e-02
 -1.0693960e+00
  5.2201366e-01
 -3.0879772e-01
 -7.3507898e-02
 -2.3401251e+00
  1.8531654e-02
 -3.9326671e-01
  2.4507276e-03
  1.1272106e+00
  3.8436972e-02
 -8.8451403e-01
 -2.4486858e-02
 -4.9280897e-01
 -6.5269575e-02
 -2.1637307e-01
 -2.6808097e-03
  2.7470425e-01
 -1.5932982e-01
  1.8484989e-01
 -3.9958019e-02
  1.1964525e-01
 -1.3024944e-01
 -5.3931785e-01
 -9.3587019e-02
  2.5143983e+00
 -2.2053601e-01
  3.6442690e-02
 -4.3182588e-01
 -1.1704721e-01
 -6.0543973e-02
 -1.0859144e-01
  4.9738809e-03
 -3.3307523e-02
 -6.3978434e-03
 -2.1761782e-01
 -4.3666020e-02
  5.4369657e-03
 -2.4075896e-01
 -2.3180486e-01
 -1.2250795e-02
 -2.3441966e+00
  6.9456232e-01
  2.2331802e-02
 -6.3484555e-01
  1.1267287e-01
  5.4300374e-01
  3.3750154e-02
 -1.1166997e-04
 -4.4906133e-01
  1.0267676e-01
  5.4249611e-02
  6.3974001e-02
 -1.1071874e-01
  9.8919952e-03
 -5.6418467e-01
  2.0458108e-02
 -2.2827182e+00
  7.1333498e-03
 -7.6130033e-01
 -6.8036452e-02
 -7.7987656e-02
  5.5302266e-02
 -1.6370153e-02
  2.9425144e-03
  7.7251035e-01
  6.1153984e-01
  1.1926603e+00
  4.2029813e-01
  8.0072492e-02
 -9.5592812e-02
  1.2473495e-01
  1.9110223e-02
 -2.2008793e+00
  9.7575709e-03
  3.5170788e-01
  4.0749368e-01
  1.1265171e-01
  1.5322808e-02
 -1.5514406e-02
 -7.2066896e-02
 -1.1521360e-02
  3.1780794e-02
  6.0957038e-01
 -2.4600676e-01
  1.2674897e+00
 -8.2447118e-01
  1.4017273e-02
 -1.6130889e-02
 -1.2544500e+00
  2.3326773e-02
 -6.0100150e-01
 -2.8007752e-01
 -6.5141934e-01
 -4.8468472e-03
 -1.1852369e-01
  9.8324552e-02
 -1.2713024e-01
  2.4204632e-02
 -1.0842477e+00
  6.0857421e-01
  3.1329098e-01
 -2.0099249e-02
 -2.6452553e-01
 -5.9637678e-01
  2.6386263e+00
  3.9470312e-01
 -7.5357723e-01
 -5.3533399e-01
 -6.4963602e-02
  9.1621913e-02
 -3.4977332e-01
 -3.0577893e-03
  5.7939244e-03
  5.6780327e-02
 -1.7458962e+00
  4.4661129e-01
 -4.2186294e-02
  4.7251545e-02
 -5.5661893e-01
  6.2281102e-02
 -1.5568118e+00
 -2.9863527e-02
 -5.2438384e-01
 -1.7056555e-01
  7.7475405e-01
 -1.1997255e-02
  8.8327214e-02
 -2.4645744e-01
  2.3455582e+00
 -1.7393082e-02
 -2.0402081e+00
  1.6640608e-01
  6.4017028e-01
 -1.1522919e-01
  8.2365042e-01
  2.3172960e-01
 -7.7646077e-01
  5.7476532e-01
 -8.6303163e-01
 -1.4136596e-01
  1.8188897e-01
  7.9472071e-01
  6.4705559e-03
 -1.3282158e-02
  2.4693766e-01
  3.0627105e-01
  9.4307996e-02
 -3.4299728e-01
  2.1231534e+00
  6.1409078e-03
 -1.8020332e-01
  1.1260862e-02
 -1.9972726e+00
 -5.1910859e-02
  3.1138864e+00
  2.7145985e-01
 -3.2833949e-01
  6.6619678e-03
 -4.4579238e-02
 -3.2678910e-02
 -1.1643393e-01
 -5.8911677e-02
  3.5109322e-03
  5.8189603e-03
 -2.6584110e+00
 -1.1595754e-01
 -2.3402113e-01
 -5.1366687e-02
 -1.6390964e+00
  9.2436254e-02
  1.3955304e-01
  1.4478661e+00
 -1.2228242e-01
 -2.1220345e-02
 -1.4526842e-02
 -4.4870298e-02
 -2.1724236e-01
 -6.5063727e-03
  3.1659648e-02
  9.5246825e-03
  1.6622238e+00
 -6.9958128e-02
  1.3239967e-03
 -7.7297024e-02
 -2.2591650e+00
 -9.6256167e-02
 -1.2839256e-01
 -2.2703943e-01
 -4.8294747e-03
 -1.6939318e-02
 -1.7113905e-02
 -7.8440076e-03
  1.0355537e-02
  4.3156310e-03
 -2.1228507e-02
 -2.6485201e-03
  2.7599551e-02
 -6.9922721e-04
 -2.5269222e-02
 -5.9451992e-03
  3.3454381e-02
 -3.3811575e-01
 -1.9053578e-02
 -3.2836139e-01
 -3.4822235e-01
 -5.9154956e-04
 -1.4146942e-02
 -3.7906162e-02
 -1.7370276e-01
 -1.0846996e-03
 -1.6470743e-02
  1.1676383e-01
  5.1033419e-01
  1.5255585e-02
  2.0880906e-01
  6.2604353e-02
  1.6190943e+00
  3.6814502e-01
 -2.7737883e-01
  1.4082004e+00
 -2.7766943e-01
  3.6491107e-02
 -3.4557976e-02
  1.3374687e-02
 -2.9525340e-01
  9.1919191e-02
  2.5225414e-02
 -5.3926990e-03
 -5.7786369e-01
 -6.2900357e-02
 -1.3443196e-01
 -5.0126236e-02
 -1.9495711e+00
  9.2839614e-02
  1.6214333e-01
  1.4019519e+00
 -6.1171085e-01
 -2.0908918e-02
  4.7574099e-02
  1.4490353e-02
 -1.7266807e-01
  2.4437521e-02
 -4.5293875e-02
 -7.0328340e-03
  4.6941978e-03
 -3.4268281e-01
  2.9854715e-02
  1.2632818e+00
 -1.0458161e+00
 -1.2156941e-01
 -2.5149457e+00
  8.5815750e-02
 -2.9431465e-01
 -1.0899059e-01
 -3.3233461e-03
  9.2615644e-03
 -4.3429863e-01
 -8.2015740e-03
 -2.0867892e-02
  1.0846285e-02
 -3.0702136e+00
 -1.9208255e-01
 -2.4975680e-02
  8.3843060e-02
  5.7120536e-02
 -4.9700815e-02
 -5.2765286e-01
 -9.8188561e-01
  3.3272885e-02
  1.1946510e-02
  1.8223234e-02
 -2.0783797e-03
 -5.0369632e-01
 -1.4383246e-02
  3.0315695e-02
  2.9671749e-02
  9.6871740e-01
 -8.7084705e-03
 -2.2165280e-02
 -9.9852763e-02
 -8.0051792e-01
 -8.8850901e-02
 -5.8948493e-01
 -2.3977590e+00
 -2.7912745e-02
 -4.9001552e-02
  2.4037522e-03
 -2.0836219e-01
  1.8032058e-01
  1.0937421e-02
 -2.0990711e-02
 -1.2634390e-02
  2.3919195e-01
 -4.0916659e-02
 -1.3219680e-02
  2.9556563e-02
 -5.7463110e-03
  1.1741546e-01
  4.8056930e-01
 -1.2737688e-01
  5.2675109e-02
  1.5437902e-02
  9.4360419e-02
  2.3853255e-02
  2.3609752e-02
  1.3862109e-02
 -1.5124581e+00
 -1.4143050e-04
  5.9898478e-01
 -3.7280582e-03
 -7.0899050e-03
 -2.6086256e-02
  4.3208027e-01
  5.1817542e-01
  2.5311192e-02
  7.8992790e-01
 -8.2628667e-01
 -6.0552791e-02
  3.0692045e-03
  2.6774047e-02
 -1.1953828e+00
  1.0639293e-01
  2.9531419e-03
  4.7107503e-02
  2.2483726e+00
  3.1374790e-02
 -4.7440618e-02
  5.2722584e-02
 -5.8769149e-01
 -5.3237867e-02
  1.2918223e+00
  8.2726467e-01
 -5.8247620e-01
  1.5957925e-02
 -1.0549802e-01
 -2.5543163e-03
 -1.5390060e+00
  7.4716069e-02
  2.2348206e-02
 -5.7992972e-02
  1.8274644e-01
 -1.0819649e-01
 -4.4003967e-02
 -3.3893179e-02
 -1.5035343e-02
  1.4563340e+00
 -2.7265862e-01
 -1.1447725e+00
 -3.1885287e-01
 -8.2353987e-02
 -2.1276030e-01
  6.7721033e-03
 -6.5343899e-01
 -6.6962428e-03
 -1.1012141e-01
 -2.8560381e-02
  1.1572773e-01
 -1.5357709e-01
  1.1868546e-02
 -9.9169010e-01
 -8.3957636e-01
 -2.4597219e-03
  3.5708420e+00
  1.6650581e-01
 -9.2908329e-01
  3.6960877e-03
  3.9294120e-02
 -3.6735632e-02
 -2.3794410e+00
 -1.3884009e-01
  6.2300977e-03
 -9.6820906e-02
  1.1240270e+00
 -3.8325258e-02
 -2.2458837e+00
  6.2965057e-03
 -2.4221405e-01
  4.7548898e-02
  2.2690688e-01
  5.2700949e-01
  6.4431888e-01
  1.5923807e-02
  1.8907236e-02
  7.7104685e-03
 -7.2113574e-01
 -4.8252344e-02
  3.2672729e-02
 -3.5558533e-02
 -1.5644362e-02
 -1.5798618e+00
  2.4262393e-02
  2.1727754e-02
  1.1691128e+00
 -4.9207862e-03
  9.4634074e-01
 -6.3904770e-02
  2.6243443e-02
  1.1815427e-02
 -6.7038490e-03
  7.0037968e-03
 -6.9474322e-01
  3.4023557e-02
 -2.8456068e-02
  6.7993440e-02
 -8.4887862e-02
 -9.5932178e-02
  2.1815160e-02
  2.1528676e-02
  8.3384246e-01
 -6.6217732e-01
 -4.4222763e-03
 -2.0689580e+00
 -1.9639903e+00
 -1.7137975e-02
  2.8450736e-01
 -1.6144440e-01
 -5.2380264e-01
  3.5425432e-02
  3.3590725e-01
 -4.5170787e-01
 -3.0358090e+00
  1.3740009e-02
  3.2536909e-02
  3.4501214e-02
  2.8766581e-01
  8.2163346e-01
 -1.6581491e+00
  1.9864687e+00
  2.4955999e-02
 -1.1939629e-02
  3.8211346e-02
  5.0493196e-02
 -7.3883533e-03
 -4.3169814e-01
  4.9642123e-02
 -4.0103054e-01
  3.6415201e-01
  1.1429835e-01
 -1.8392821e-01
 -8.1705458e-02
 -1.7151909e+00
  4.1078251e-02
 -5.0862628e-01
  2.1663713e+00
  8.5474037e-02
 -1.1650215e-02
  5.9863487e-03
  1.0544098e-02
 -3.2068735e-01
  3.1970765e-02
 -4.7489750e-01
 -1.0125395e-01
 -3.0895424e-01
  9.5761884e-03
 -1.4970911e-02
  3.6122426e-02
  4.1929132e-01
 -9.9446070e-01
  5.1510888e-01
 -4.8642479e-02
  4.4122258e-01
  7.8654003e-01
  2.9655645e-02
 -3.0579470e-02
 -2.7793270e-01
  8.3575537e-03
  4.5324430e-02
 -6.0041580e-02
  1.2261422e+00
 -1.0960462e-01
  3.0291403e-02
  2.2284659e-02
 -3.3905675e+00
  8.1543317e-03
  2.0188913e+00
  5.1602131e-01
  2.2356609e-01
 -4.9269728e-02
  5.8777999e-02
 -5.1481961e-03
  2.0590799e-02
  2.6296401e-02
 -4.5991763e-02
  3.6098771e-02
 -1.4942964e+00
 -1.2786207e-01
  1.3159850e-01
 -6.3517094e-02
  5.1935738e-01
 -7.3037571e-03
  8.0586076e-01
  9.0462327e-02
  8.1263162e-02
 -4.0287769e-01
  2.0962192e-01
 -1.6556764e-01
 -7.0653880e-01
 -3.6318219e-01
 -7.1205698e-02
 -4.5413935e-01
 -3.8020673e+00
 -3.9108251e-03
 -1.5378959e-01
  1.6268104e-01
  1.2337389e+00
 -1.8044999e-02
 -1.3324381e-01
  1.6100870e-02
  3.5888189e-01
  2.5214651e-01
 -2.1510456e-02
  2.9871400e-02
 -1.1281537e+00
 -1.9373542e-01
 -3.1231532e-01
 -5.9977031e-01
  4.9125278e-01
 -1.9283510e-03
  6.0697101e-02
 -2.1079426e-01
 -8.9493239e-01
  7.3909990e-02
  1.2049089e-01
  6.3869166e-01
  2.5249910e+00
  4.8193410e-01
  4.0077877e-01
  9.4709208e-04
 -3.4884074e-01
 -1.8570911e-02
 -5.9853107e-01
 -4.6406984e-02
  1.5783836e+00
  7.6462366e-02
 -4.1991200e-02
  6.0721022e-01
  1.1296508e+00
 -2.9604152e-02
 -5.6291246e-01
  1.5321270e-01
 -1.5385725e+00
 -6.3510619e-02
  6.0077127e-02
 -1.0819814e-01
 -1.2959172e+00
  1.6642781e-02
  8.7509593e-03
  1.3485788e-02
  1.4926252e+00
 -2.6699656e-01
  3.8612843e-01
  8.9850254e-02
 -1.0495955e+00
  9.7406334e-01
 -1.4310518e-01
  5.2418131e-01
  1.5241363e+00
  2.7933943e-01
  3.5533402e-03
  4.8848322e-01
 -1.7241048e+00
  6.5750688e-02
 -6.8130141e-01
  4.2844163e-03
 -2.8421268e-01
  4.8820708e-02
 -2.2777103e-01
 -5.0730724e-02
  1.1800404e+00
  7.1638525e-01
  3.1062274e+00
 -2.4176344e-01
  2.9614365e-01
 -3.8735360e-02
  4.0822767e-02
 -4.4447716e-02
 -7.5186595e-02
 -2.9721865e-02
 -1.6511623e-02
  1.7739464e-02
 -1.5056264e+00
 -5.7783779e-02
  6.6262776e-01
  7.1861185e-02
  7.0057338e-01
  5.4979765e-01
 -1.1120141e+00
  5.9629567e-02
  1.2301444e+00
 -1.7141758e-02
 -5.3370386e-02
 -8.6218445e-04
 -3.1613406e-02
 -4.2605177e-03
 -3.0722274e-02
 -6.3008837e-02
 -2.7396640e-01
 -1.9371068e-02
 -4.4926830e-02
 -3.8209613e-02
  1.1029029e+00
  1.5758557e-02
  1.6911676e-02
 -6.8767080e-03
  3.3415442e-03
 -6.2730820e-03
 -7.2044069e-03
  1.0537736e-02
 -1.1342487e-01
  1.8474132e-01
 -2.5559595e-02
 -1.1001419e-02
 -4.4701877e-01
  9.2016924e-03
 -4.9878828e-02
  2.2079201e-02
  8.6150229e-01
 -2.1782689e+00
 -1.7774290e+00
 -1.4188226e+00
  1.1770729e+00
  8.5355312e-02
  9.0078038e-01
 -8.1187285e-02
 -5.7782233e-01
 -9.2099537e-04
  5.8793947e-02
 -2.0962924e-01
  9.0752982e-02
  2.6012735e-02
  3.2249145e-02
  3.4727711e-02
  3.0905157e-01
  7.7271020e-01
  6.6998458e-01
 -1.1373142e+00
  1.1619720e-01
 -1.4609620e-01
  2.3484249e-02
 -2.4288960e-03
 -9.2446977e-01
 -1.8999700e-01
 -2.3569778e-02
 -6.9895245e-02
  2.4793763e+00
 -3.2816273e-03
 -3.4218285e-02
 -2.1341363e-02
 -1.0992996e+00
  8.8097852e-01
 -2.9490619e+00
  7.1212524e-01
  3.7063473e-01
  7.3884749e-03
  1.7683696e-03
  4.2615384e-02
  1.0300341e+00
  6.6166952e-02
 -4.4309595e-01
 -2.3653317e-02
  3.2742563e-01
 -7.7674471e-02
 -6.9045544e-02
 -4.3142084e-02
  7.8511196e-01
  1.4126812e-01
  1.2314810e+00
 -3.8254384e-02
  2.4575543e+00
  8.4308332e-01
  1.7564058e-02
 -1.4580961e-03
 -3.3338004e-01
  1.0539117e-01
  5.2926922e-04
  1.6203674e-02
 -6.1092103e-01
 -1.0431535e-01
  3.1659439e-02
  2.8607957e-02
 -5.2987874e-01
 -7.2783309e-01
 -1.4652784e+00
 -6.6896332e-03
  7.1832544e-01
  2.8226599e-02
  3.4870934e-01
  4.8386515e-03
 -9.0472519e-01
 -8.8944221e-03
  5.8458384e-02
 -4.0195197e-02
  1.0938258e-01
  1.6115474e-02
  4.4012006e-02
  2.2995343e-02
 -3.9845297e+00
 -1.7970896e-01
  7.5418019e-01
  5.8072947e-02
 -7.6791114e-01
 -5.1526878e-02
  7.7788636e-02
 -4.0654141e-01
 -3.8772482e-01
 -1.1119223e-01
 -7.4377105e-02
 -5.1986672e-02
 -2.7154434e-01
  1.5269844e-02
 -5.2251384e-02
 -4.6213092e-03
 -1.8807019e-01
  6.0902500e-01
  9.1074252e-01
 -1.5829234e+00
  5.2899683e-01
  1.6875276e-01
 -9.4685806e-03
 -1.4199987e-02
 -3.3545530e-01
  6.3334003e-02
  2.0144941e-01
 -6.0489237e-01
  1.4735810e+00
  1.1789406e-02
 -3.8127147e-02
 -4.3857802e-02
  1.8765536e-01
  1.2696077e+00
  2.9285080e+00
 -6.1218306e-02
  6.0043059e-04
  1.7150600e-02
  3.6343801e-01
  1.1179510e+00
 -5.2101541e-02
 -4.9620923e-02
  7.5150621e-03
 -1.9155109e-02
 -2.7404264e-01
  3.8743410e-02
 -9.2131488e-02
  3.9001060e-01
 -2.3908252e-02
 -2.2382164e+00
  1.3023170e+00
  7.7786642e-01
 -4.8260260e-02
 -5.7319608e-02
  6.7508441e-01
  1.0243785e-01
  2.7425253e-01
 -2.1371427e-01
  5.0569588e-01
 -6.3381856e-03
 -1.3327310e-02
 -5.7047576e-02
  3.6299485e-01
  3.9121408e-02
 -2.2717545e+00
 -1.0297412e+00
  1.6434971e+00
  3.2357287e-01
  5.3770852e-01
  1.3724257e+00
  7.5762892e-01
  1.8682380e-01
  5.8439600e-01
 -1.5768083e-03
 -8.0099283e-04
  7.5214766e-03
 -2.0940309e+00
  5.4604799e-01
  1.6814629e-02
  2.0311400e-01
 -1.8495216e+00
 -2.5474174e+00
 -7.1923286e-02
 -1.4980422e+00
 -1.4093679e-01
  5.4118395e-02
 -1.4022583e-01
 -6.1819762e-01
  1.2727107e+00
  3.0417446e-02
  1.5766175e-02
  1.2613167e-01
 -2.0705719e+00
  3.8075751e-01
 -3.7549970e-01
  4.1837126e-01
  2.0360436e+00
  2.0154038e-01
  2.9661331e-01
  1.1820879e-01
  1.6573437e-01
 -3.4376644e-02
 -1.5264452e-01
 -1.3691957e-02
  1.2427333e-01
 -3.7413577e-03
 -3.3354972e-02
 -1.7794590e-03
  6.0175365e-01
  5.6629550e-01
  7.1282214e-01
  1.1700855e+00
  9.9305660e-02
 -1.4328909e-01
  5.4266620e-02
  8.1702434e-02
 -6.8311603e-03
  1.1106242e-03
 -7.5117028e-03
 -8.6236531e-03
  5.3982264e-03
  1.6280942e-02
  3.0739406e-02
  3.1614553e-02
 -7.2209269e-01
 -1.0269493e+00
  6.8396562e-01
 -6.1148912e-02
 -2.7243490e+00
 -3.5870355e-01
  1.3205866e+00
 -1.4296956e+00
 -5.9477544e-01
 -1.4972949e-02
 -8.2025453e-02
 -6.4756246e-03
  2.1509004e+00
  5.2324582e-02
  1.0479907e-02
  4.4162748e-03
 -8.9087337e-01
  4.0256977e-01
 -2.9985121e-01
 -3.3409599e-02
 -2.9883811e+00
  5.6636505e-02
 -1.1164074e+00
 -1.2106613e-01
  5.7201356e-01
 -4.7575721e-01
 -5.2937156e-01
 -1.8740701e-04
  2.3535715e-01
 -1.6885338e-02
  3.8373083e-02
 -5.0265726e-02
  2.3704000e+00
  2.6653328e+00
  2.4840105e-01
  1.5636572e-01
  3.7611091e-01
  2.9572777e-02
  8.4260916e-03
 -3.1985664e-01
  7.1722931e-01
 -8.4114480e-01
  1.4142513e-03
 -2.7955931e-01
  2.5756478e-01
  3.0524036e-02
 -2.2710427e-03
  6.9881998e-02
 -5.6106919e-01
  2.5057608e-01
 -3.4118664e-01
  5.4759705e-01
 -1.6464342e+00
 -7.7284962e-01
  1.2345789e-01
  1.3967161e+00
 -3.0787560e-01
 -9.5122177e-03
 -4.6982765e-03
  9.6143328e-04
  4.6779167e-02
 -1.3184777e-02
 -3.9763771e-02
  1.8816455e-03
 -3.0529752e-01
 -7.7895206e-01
  4.7200188e-01
  4.7349715e-01
  4.6804520e-01
 -2.7984995e-01
  9.5795885e-02
  3.4880000e-01
 -1.6503702e+00
 -1.4165697e-02
 -9.6825520e-03
 -1.0116880e-01
 -1.5848166e-01
  5.2457117e-02
  3.6593791e-02
 -9.6184269e-02
  1.4805127e+00
 -3.2051679e-02
  3.5983374e-04
 -6.6075844e-01
 -3.8509530e-01
  9.4461367e-03
  4.4775024e-01
 -3.4416814e+00
  1.4067678e-02
 -6.7877680e-01
 -1.4336848e-01
 -1.3389154e-01
  1.1822619e-01
  3.4504021e-03
 -6.3666008e-02
 -2.1028651e-02
 -6.6337615e-01
 -1.7897495e+00
  1.4137853e+00
  6.3471812e-01
 -1.2799267e+00
  1.7239306e+00
  8.1235850e-01
 -8.1192589e-01
 -6.2026447e-01
 -5.8380830e-01
 -1.2704136e+00
 -1.5713292e-01
  4.8530993e-01
 -1.9672303e-02
 -5.7517998e-02
  6.5060169e-02
 -3.9800879e-01
  9.7106326e-01
 -5.7013786e-01
 -3.2179976e-01
  3.1135292e+00
  8.5521120e-01
  1.1796281e+00
  1.3686591e+00
  3.3994120e-01
  7.7361837e-02
 -9.3992732e-02
  1.1954457e-01
 -3.8824290e-01
  6.8129763e-02
  2.8602785e-01
  1.1014163e-02
  4.3448620e-02
  4.4693589e+00
 -5.9745097e-01
  6.7939544e-01
  3.2267964e+00
  1.4284940e-01
  1.5794039e-01
  2.3037550e+00
  3.2365620e+00
 -4.6508554e-01
 -6.3661730e-01
 -1.2021309e+00
  3.8140450e-02
 -1.1946863e-03
 -1.2261924e-01
 -3.0287756e-02
  5.9485048e-01
  3.2235060e-02
 -5.9952527e-01
  3.7557814e-01
  2.4151199e+00
 -1.1062976e+00
  1.0716920e+00
 -1.8621582e+00
  1.9144579e+00
  1.8249789e-01
 -5.7177979e-01
 -7.6286125e-01
  1.1977311e+00
 -5.9656579e-02
 -2.2202440e-02
  1.5750211e-02
  2.0620866e+00
 -7.9140288e-01
 -1.4831817e-01
 -2.9525924e-02
 -7.0695603e-01
  1.7908689e-01
  1.3115842e+00
  5.4679924e-01
  1.1866612e+00
  8.5270070e-02
  1.9966321e-01
 -8.8330692e-01
  1.1955709e+00
  4.5432967e-01
  7.4382603e-01
  9.7622350e-02
  1.2904149e+00
 -2.2018349e-01
 -8.2469329e-02
  1.4412935e-01
 -2.7319715e+00
 -2.8306139e+00
 -1.7215703e+00
 -2.2163223e-01
 -6.2474495e-01
  5.9863597e-02
 -1.7708043e-03
  6.7378618e-02
  3.4300349e+00
  1.5715839e-02
 -5.9306016e-03
  2.1390568e-02
  3.9041150e+00
  2.5538411e+00
 -1.4532495e-02
  1.3668917e-02
  3.3060939e+00
  2.4706073e+00
 -1.1563274e+00
  1.4040462e+00
  8.1896561e-01
 -1.3094672e-03
 -1.5815897e-02
 -7.9553984e-03
 -2.2056723e+00
  6.9952078e-02
  8.7791222e-01
  2.3227321e-01
 -4.8298941e+00
 -1.7984512e-03
  3.3269217e-03
  7.3363207e-02
  2.9546680e+00
  8.8364464e-01
 -7.0943636e-01
 -1.4242820e-01
  8.4761202e-01
  6.4833033e-01
 -2.8302856e-02
  2.6706945e-02
 -3.0115726e+00
  1.0121197e-03
 -2.5237415e-02
  1.7663462e-02
 -2.7993224e+00
 -2.0157092e+00
 -2.2208963e-02
 -2.7506867e-01
 -2.0130305e+00
 -1.8708241e+00
 -1.3025467e-01
 -1.6955663e+00
 -2.0268497e+00
  2.5800519e-02
  2.2140080e-02
  1.9127840e+00
 -2.1291833e+00
  2.0390380e-02
 -3.3770618e-01
  6.4323707e-03
  1.8873701e+00
  1.1346270e+00
  2.8545897e-02
 -6.8449177e-02
 -2.9344752e+00
 -8.6080474e-01
 -5.3477317e-01
 -2.4400428e-01
 -2.4299376e+00
 -1.9106606e-01
 -4.1327525e-02
  9.1691720e-01
  2.0830061e+00
  1.1218808e+00
  6.0104412e-01
 -7.6141232e-01
  2.6832566e+00
  2.8019273e+00
  2.3219217e-01
  9.0884513e-01
  1.0291280e+00
  6.0392272e-02
 -2.2538684e-02
  4.0130264e-01
 -1.0913098e+00
  8.4837377e-02
  1.1397539e-01
  9.2342061e-01
  1.4633816e+00
 -3.8406245e-02
 -1.2756201e-02
  3.9537848e-04
 -4.7359678e-01
  2.7340794e+00
 -1.9341078e-01
 -1.3401439e-02
  1.7139338e+00
 -1.3848695e+00
  4.4474903e-01
 -1.3513589e-01
  6.4477468e-01
  2.7899461e-02
  3.0665029e-02
 -1.3130720e+00
  1.9194953e+00
  3.6176248e-03
  5.4918128e-01
  2.0874436e-01
 -1.6494360e+00
  9.0440877e-02
  2.3915578e-01
  8.7522296e-04
  8.2932919e-01
 -2.9261241e+00
 -1.4159298e-01
  6.5164864e-01
  5.7076538e-01
 -2.8169954e-01
 -1.7035421e-02
 -4.6380538e-01
 -5.2844000e-01
  1.3326803e-01
 -8.5484409e-01
  1.3062998e+00
 -5.8018547e-01
  1.5213199e-01
 -2.5743678e-01
 -2.4894505e+00
 -1.8871843e+00
 -2.9394500e+00
  1.0459038e+00
  7.4943644e-01
 -2.7965901e+00
  4.7977042e-01
  4.1487902e-01
  2.0847456e+00
 -6.5817440e-01
 -3.1463712e-02
  5.2395713e-02
  1.0428829e-01
  2.3853428e+00
  2.9863472e+00
  1.2011827e-01
 -1.9028203e-01
 -1.3676690e+00
 -1.1326327e+00
  9.2900234e-01
  6.9749035e-02
 -1.4834915e+00
  8.4819496e-02
 -2.2274992e-01
  4.0397426e-01
  7.6158708e-01
  2.5093776e-01
 -2.0820802e-01
  2.5308198e-01
  1.5620399e+00
  2.2641218e+00
  2.7062809e-01
 -6.8789339e-01
 -1.1135406e+00
  1.9986117e+00
  9.6230996e-01
 -7.5221801e-01
 -7.4105823e-01
  8.3409585e-02
  1.0821456e-01
  5.8139807e-01
  1.5561395e+00
 -8.0842571e-03
  5.3966397e-01
 -6.1669417e-02
  3.6465406e-01
  1.5855086e+00
  5.6540096e-01
  4.3939996e-01
 -9.3091257e-02
  9.6297336e-01
 -1.2512238e-01
  3.1460956e-01
  8.4126592e-01
  6.4369760e-02
  2.4616627e-02
 -1.7134213e-01
  1.0337356e+00
  3.8105108e-02
  1.3370369e-01
  3.0661449e-01
 -6.5980965e-01
 -6.7213990e-02
  1.1878120e-01
 -2.9390655e-02
  6.2956887e-01
  9.2601217e-02
  6.6567171e-01
  2.7589348e-01
 -2.0870776e-01
  2.3074329e+00
 -5.3626560e-02
  1.9093742e+00
 -1.4490784e+00
  5.6835674e-03
 -3.0196857e-01
  1.9162867e-02
  6.6613489e-01
 -1.5005116e-01
 -2.0910364e-02
 -3.3006449e+00
  3.9582685e-01
 -1.6980115e-02
 -5.3559965e-01
  1.4624020e-01
  3.9918029e-01
 -4.7816280e-02
  2.1053057e-02
 -3.2643268e+00
  2.7699310e-01
 -3.3618499e-02
 -2.8978135e-02
  6.4956518e-03
 -2.3067265e+00
  1.1223614e-01
 -3.6327034e-02
 -3.0433914e-01
  6.6293252e-01
  1.1609770e+00
 -6.0629272e-03
 -2.6460664e+00
 -1.6998553e+00
 -3.4247231e-01
  2.6023325e-02
  4.8862781e-02
 -3.4463263e-01
 -1.6117342e-02
 -8.1995334e-03
  9.2571015e-03
  7.2274220e-01
 -2.9658298e-03
 -2.8484333e-02
 -1.9065355e-01
  9.7891223e-01
 -1.1955583e+00
 -5.6285292e-01
  2.8192681e-01
  5.8729774e-01
  2.4929912e-01
  3.7299726e-02
  1.5875528e+00
  7.1727169e-01
  4.5924932e-03
 -3.4129325e-01
 -1.0018746e-01
  7.1991301e-01
 -9.5114022e-01
 -2.7596509e-01
 -2.1074355e+00
  2.1777549e-01
  2.2733308e-02
 -1.4256791e+00
 -8.2434046e-01
 -2.8589414e-02
  4.3187493e-01
 -8.3909720e-02
 -1.3171763e+00
 -1.1722580e+00
  7.2383694e-02
  8.9326510e-03
 -1.0823720e-02
 -1.8377643e+00
  1.0586078e-01
  8.5089887e-03
 -1.0777683e+00
 -3.4267718e-01
  8.8306737e-01
  3.1222822e-03
  1.5921167e-01
 -1.9285699e-02
  1.0490407e-01
  4.7150616e-02
 -6.3761818e-01
 -2.9480901e-01
 -3.0594163e-02
 -3.6480063e-01
  1.0415571e-01
  3.1877711e-01
  1.6519748e+00
  8.5872926e-02
  6.1630099e-03
  4.9660792e+00
 -5.4363841e-01
 -2.3916300e-01
 -6.8632931e-02
 -6.6718006e-01
  5.7501042e-01
 -2.6426408e-02
  2.3017435e+00
  9.2812049e-01
 -2.4682095e-02
 -3.2015252e-01
 -2.0035934e-02
 -2.2274923e+00
 -3.7341874e+00
 -2.5103936e-01
 -6.5953964e-01
  4.3083671e-01
 -5.6592822e-02
 -1.7294885e-01
 -1.2059950e+00
 -9.9934751e-01
  4.4373694e-01
 -2.2360244e-01
  8.2066387e-01
  5.4322660e-01
  1.6329667e-02
 -1.3218821e-02
  1.6027002e-01
  2.6526058e-02
 -7.0281193e-02
  7.2536133e-02
 -1.5710986e+00
  4.0558821e-01
  1.2950710e-02
 -4.7539753e-01
  1.0001521e-01
  2.0291533e-01
  1.3117027e+00
  4.6340417e-02
 -2.0898421e+00
 -2.3167928e-01
  1.2174004e-02
 -2.9778358e-01
 -1.0530573e-01
  1.2801472e+00
  1.7224410e+00
 -3.7512442e-01
 -4.3150610e-01
 -1.0970078e+00
  1.2714384e+00
  1.7746016e-01
 -2.3151711e-01
  5.0250679e-01
  2.0110669e+00
 -6.2498674e-02
  2.4506850e+00
  6.6043973e-01
  2.9764611e-02
 -2.3578627e-02
  8.5974233e-03
 -1.0933006e+00
 -1.4587289e+00
 -2.1565011e-02
 -8.4184629e-01
  1.4102430e+00
 -2.5558254e-01
  7.3794991e-01
 -1.0154170e+00
 -1.8418145e-01
  1.1673580e+00
  7.3245659e-02
  3.9499122e-01
 -1.8008888e+00
  1.1768615e-01
 -6.1815068e-02
 -1.2794799e-02
 -2.0877235e+00
 -7.2922647e-01
 -3.7262049e-03
 -1.6828265e+00
  7.3673928e-01
  5.3817129e-01
  6.4327562e-01
 -1.0238022e+00
 -4.1964269e-01
 -2.4676432e-01
 -7.0309028e-02
  3.1230032e+00
 -1.1463780e+00
 -6.5244175e-03
 -1.7020183e-02
  5.1899622e-03
 -5.7159555e-01
 -1.8978076e+00
 -2.0908842e-02
 -1.9181788e+00
  8.8800174e-01
  2.0576787e-01
  3.7206021e-01
  7.2593689e-02
 -4.4325106e-02
 -2.4088342e-01
  2.4204517e-02
  7.2169703e-01
 -7.5057399e-01
 -1.0518676e-02
  6.6386736e-03
  7.0775938e-01
  3.7572497e-01
 -1.5966983e+00
  5.4189008e-02
 -1.2658982e+00
 -1.3807972e-01
  2.2176635e+00
  2.9685029e-01
 -8.7993753e-01
 -2.4600568e+00
 -7.9953468e-01
 -6.4030218e-01
 -3.3211589e+00
 -1.0635712e-01
 -5.7535181e-03
 -1.2941837e-01
 -1.1899911e-03
 -3.5405725e-01
  6.9345847e-02
  4.9064398e-02
 -7.1970291e-02
 -8.6602300e-01
 -5.3454131e-01
  1.4840997e+00
 -2.4889450e+00
 -8.8941492e-03
 -3.2916348e-02
  4.6843309e-03
  8.1857640e-01
 -2.2273321e+00
 -8.2132677e-03
 -5.9912007e-02
  1.6759349e-02
  1.8701456e-01
  2.5353231e-02
  1.5401350e-02
  5.0772864e-02
  1.8934852e+00
 -1.0413675e+00
 -4.5696443e-01
 -2.0225394e+00
  8.9889593e-02
  2.8524917e-02
 -1.6323248e-01
 -8.8272197e-03
  2.2109964e+00
 -1.2554750e-02
 -2.6245182e-02
  6.3102636e-03
 -6.1939198e-01
  4.5438372e-02
  7.2497778e-02
  2.9141384e-03
  2.0181813e+00
  2.3630970e+00
 -1.0068163e+00
 -1.7871626e-01
 -1.6124970e+00
 -9.8635143e-01
 -4.0561114e-02
  1.9464083e+00
 -1.7944036e+00
 -2.0452298e-02
 -1.4809772e-01
  4.0523078e-02
 -1.5978770e+00
 -1.8097129e+00
  3.5011149e-03
  3.1591511e-01
 -5.6018609e-01
 -6.7293471e-01
  6.2802023e-01
 -9.5743072e-01
 -2.6192498e+00
 -1.1804664e-02
 -1.0494336e-02
 -7.2345948e-01
  5.8264810e-01
 -3.3639666e-02
  2.8568840e-01
  1.1730758e-01
  4.3159643e-01
  1.3072579e-02
 -2.7625578e-02
  1.2449858e+00
 -1.7978125e+00
 -2.9031563e+00
  4.8904863e-01
 -2.4192867e+00
  1.7604100e+00
  1.2764133e+00
  2.2887292e-03
 -4.6230131e-01
 -3.1786568e+00
  1.4422362e-02
  1.9448200e-02
  7.6715988e-03
  7.3119414e-01
  1.1092345e+00
  1.5620555e-01
  4.4432856e-02
 -3.0489662e+00
  1.7125595e+00
  8.4913120e-02
 -1.5743983e+00
  4.0404454e-01
 -1.4162271e-01
 -1.4301243e-01
 -4.3973029e-01
 -1.6399465e+00
  1.1804746e-02
 -9.3817461e-01
 -1.3133602e-01
 -1.0564815e+00
 -3.5827091e-01
  2.2321284e-02
  1.5875072e+00
 -3.6015952e-01
  3.2975571e+00
 -1.3079592e+00
 -5.7522342e-02
  1.7277710e+00
 -7.7369586e-03
 -2.4310203e-01
  2.0128510e+00
  2.8176191e+00
 -1.1353411e-03
  8.4481192e-01
  1.5678692e-01
 -8.5179555e-01
  1.4460979e+00
  4.1717958e-02
  1.8211269e+00
  2.2323365e+00
  4.9667452e-02
 -7.8065115e-01
  1.8201863e+00
  9.1133940e-01
 -1.4407506e+00
 -1.1522817e-01
 -1.3981469e+00
  1.4954371e+00
 -1.1995334e-01
 -1.3166100e-01
  1.6157942e-02
  2.7097330e+00
 -3.0913470e-02
 -3.1610965e-03
  9.4911134e-01
 -1.7637048e+00
 -1.5780374e+00
 -9.2285967e-01
 -1.8248172e-01
 -1.9066583e-01
  1.0777278e+00
 -1.9377472e-03
  1.6607183e-01
  1.7009184e-01
  7.4708678e-02
 -5.3601247e-01
  8.4152929e-03
 -2.6734918e-01
  7.8835148e-01
  1.3181339e-01
  2.7161596e+00
 -2.3717642e+00
 -3.5800793e+00
 -7.9887187e-01
 -1.3404518e+00
 -2.2282436e-02
 -3.7948381e-02
 -2.3692816e-01
 -4.0816382e-01
  6.1871696e-01
 -1.5808608e-02
 -6.0745043e-01
  1.1198779e-01
 -2.4757117e-01
  2.4135435e-01
  4.0497908e-01
  2.4865499e+00
 -1.6872598e+00
 -2.6147422e-01
 -1.7213254e-01
 -1.0701995e+00
 -7.5036198e-02
 -7.0128821e-02
  2.6170254e-02
  3.5460120e-01
  2.4397542e-01
 -8.0302447e-02
 -1.4150144e-01
 -4.4040076e-02
 -1.5571699e-01
 -7.8513827e-03
  5.2699652e-02
  7.2824037e-01
 -1.2109077e+00
 -7.8453535e-01
  6.4068621e-01
 -1.4982948e+00
 -6.8374139e-01
 -2.7088284e-01
  4.0434378e-01
  7.0772476e-02
  1.8136678e+00
 -5.3094625e-02
  2.0465073e-01
  3.9350487e-02
 -1.0020429e-01
 -8.1260484e-01
  8.4372044e-02
 -1.7638353e-01
  1.3633817e+00
  2.0643072e-01
 -8.7089747e-01
  9.3590766e-02
  6.5945838e-05
 -4.6744487e-01
  3.2836354e-01
  2.8395305e+00
  1.4786486e-01
  6.3256639e-01
  1.0515668e-01
 -3.7498802e-01
  1.1468717e+00
  1.3119142e-01
 -4.2419881e-01
 -8.6580753e-02
  1.4501265e+00
 -1.1498079e+00
  7.0476192e-01
  9.6267349e-01
  1.1024899e+00
  1.1525035e-02
  2.8160977e-04
  3.0142674e+00
  2.6355760e+00
 -4.2549822e-05
  2.7551552e-02
  1.5550138e-02
  3.1245797e+00
 -5.0355399e-01
  3.7319750e-02
 -4.4685755e-02
 -4.2756420e-01
 -1.2309713e+00
 -4.0480361e+00
 -3.7203345e+00
  6.3297045e-01
 -3.9689481e-02
  2.6920054e-02
 -1.1123015e+00
  6.5429235e-01
  1.4335220e-01
  3.6677423e-01
 -1.3152958e-01
 -3.9229407e+00
 -2.5039036e-02
 -2.9609166e-02
  5.3704167e-03
  2.4586723e+00
  1.6870264e+00
 -1.3969704e+00
 -6.4691478e-01
  6.6596377e-01
 -1.2045033e-01
  2.5284970e-01
  1.3022726e-02
 -5.8727711e-02
 -1.0036848e-02
  1.3645494e+00
 -3.5379890e-01
 -5.9265846e-01
  3.8634115e-01
 -2.6560792e-01
 -7.0148677e-01
  2.8760798e+00
  4.8026240e-01
  9.6503621e-01
  3.1590195e+00
  2.8839669e+00
  5.3045419e-03
  7.7266134e-02
  1.7154888e+00
  1.4392700e+00
  1.8336582e-03
 -1.5042713e-01
  1.9990308e-02
  8.1613851e-01
  6.0345326e-02
 -8.0611765e-02
 -1.3141049e-02
 -1.6570914e+00
 -2.9361653e-01
  1.9687258e+00
 -1.6620357e+00
 -4.0213931e-01
 -2.4132138e-02
  1.7186747e-01
 -2.3747984e-01
  2.8139653e-02
  1.5411721e-01
  7.1894222e-01
 -1.0139810e-01
 -1.8923649e+00
 -9.3791798e-02
 -4.5116836e-01
 -1.0359640e-01
 -3.7550867e-01
  5.7873476e-01
  1.3087227e+00
 -1.6931314e+00
  3.2980864e+00
 -1.1260643e-01
 -2.3732467e-02
  9.4313681e-01
  5.5922180e-01
 -8.1549793e-02
 -9.7715199e-01
 -4.7037550e-03
 -3.2746872e-01
  1.9125425e+00
  3.7150778e-02
 -7.7621505e-02
  4.4969925e-01
  2.0217657e+00
  1.0952467e+00
  1.3260735e+00
  2.9004428e+00
 -4.2918563e-01
  3.5287926e-01
  7.9187912e-01
  1.3712792e+00
  2.4956781e-01
 -1.7588513e-01
 -5.1922691e-01
  1.4297450e+00
  2.9341714e+00
 -7.3076141e-01
 -4.9825016e-02
  4.9531421e-01
  9.1236293e-02
  1.4494077e+00
  2.7261062e+00
 -2.4084963e-01
  6.3319463e-01
  5.0887436e-01
 -4.3490005e-01
  3.3227897e+00
  9.1409735e-02
  1.6993923e-02
  4.6154823e-02
  7.1711743e-01
  1.8881229e-01
 -9.6194297e-02
 -2.1582055e+00
 -6.6601324e-01
 -7.6606500e-01
  1.9058527e-01
  3.4484965e-01
 -1.6730622e+00
  2.3712274e-02
  4.0200636e-01
  1.7842081e-01
  1.2148645e+00
  2.0184664e-01
  8.6712641e-01
 -1.0153845e-01
  1.5090710e+00
  1.5477848e+00
 -1.0179699e-01
  8.6552066e-01
  7.4815178e-01
  1.2600325e+00
  6.5353841e-02
  4.8787498e-01
 -1.0614713e+00
  2.1374085e+00
 -2.1956345e-01
  5.8818233e-01
  9.9201906e-01
  2.1017218e-02
  2.9103749e-02
  1.1702481e-02
  2.7305067e-01
 -5.8652979e-01
  9.1178343e-03
 -5.2487367e-01
  1.0825423e-01
  4.9265802e-01
  5.3808999e-01
  4.4703114e-01
 -1.4333820e+00
  4.8896380e-02
 -8.2562900e-01
  1.0713866e+00
  6.1303985e-01
  1.0433508e-02
 -5.8417697e-03
  3.7479098e-03
 -1.4280358e-01
  2.3522952e-01
 -2.7454013e-01
 -3.6846563e-02
  2.9707512e-01
  2.9351771e-01
  7.3008102e-01
  2.7330157e-01
 -3.0295822e-01
  6.4945370e-02
 -3.7992078e-01
  1.0347849e+00
  4.7317976e-01
  2.9280198e-01
 -1.9033808e-02
 -2.6003343e-01
 -8.1373537e-01
  2.5731170e-01
 -7.0670195e-02
 -8.3710569e-01
  8.9513235e-02
 -2.0342875e-01
  2.1366978e+00
 -1.0007887e-01
  4.8421213e-01
  2.1426125e+00
 -3.2376173e-01
 -2.9123991e-03
 -5.3860253e-01
  4.6469476e-03
  3.4261516e-01
 -1.1852682e-02
  7.7174582e-02
  8.3382249e-01
 -4.0472296e-01
 -7.1027255e-01
 -8.2126164e-01
 -9.6924180e-01
  3.9602082e+00
 -1.8662135e-01
 -1.2881500e-03
 -2.8438287e-02
  1.2099818e-02
 -4.2939167e-03
 -4.7793919e-01
 -8.6548841e-03
  2.8149202e-02
 -2.3490177e-03
 -7.8992218e-01
 -5.5997705e-01
 -5.9878450e-02
 -1.0988538e-02
  5.6310449e+00
  1.7483463e+00
  2.9102197e+00
  5.3773894e+00
  2.1459262e-01
  4.7376640e-02
 -3.6971349e-01
 -7.5966245e-03
 -6.6558075e-01
  5.6924066e-03
  2.3662509e-02
 -3.5732714e-03
 -4.8043635e-01
  1.1486358e-01
 -5.1900011e-01
  1.7665366e-02
 -9.6175745e-02
 -7.8228885e-01
 -1.8152132e+00
 -1.3963695e-01
 -8.6036640e-01
  2.3955402e+00
 -9.3694329e-02
 -1.4533731e+00
 -2.4844506e-01
 -7.6826531e-03
  9.5149481e-01
 -3.6718328e-02
  1.8143334e+00
  1.4847608e+00
 -2.9675111e-02
 -5.5374593e-01
 -2.1896131e+00
 -3.1360209e+00
 -5.2635617e+00
 -6.2596264e+00
 -9.2276692e-01
 -1.4778561e-02
  2.2970213e-02
 -1.4535154e-01
 -1.4650191e+00
  2.8614663e-02
  1.1333781e-01
 -1.8519405e-02
  1.3531661e-01
  8.1350023e-01
  2.3878474e-02
 -1.1341346e-02
  1.9932303e-01
  2.3152556e+00
  2.5465882e-01
  1.8525568e+00
  2.0999157e+00
 -8.4506124e-03
 -1.4751455e-01
  1.9916347e-01
 -4.0057275e-01
  2.3172047e-02
 -5.5762534e-03
  7.0795296e-03
 -9.6761167e-01
  3.2476094e-01
 -4.1849643e-01
 -1.6446973e-01
  1.1251366e+00
 -8.8503259e-01
  3.1410584e+00
 -3.6479461e-01
  9.4222498e-01
 -5.2216511e-02
 -1.2636910e-02
 -7.5719409e-02
 -2.4986944e-01
 -2.6378855e-03
  8.6959976e-01
 -6.8000048e-02
  1.5332574e+00
 -8.3306357e-02
 -6.6662602e-02
 -3.2108852e-01
 -2.1367688e+00
 -3.1746858e-01
  2.6985557e+00
 -4.9862215e-01
 -1.1685385e+00
  1.2761296e-01
 -1.9610824e-01
 -4.3270665e-01
 -9.8825669e-01
 -1.4683592e-02
  5.6439541e-02
 -1.4369304e-02
 -1.2522190e+00
 -7.8118759e-01
 -5.6707966e-01
 -1.9806484e-02
  1.3957483e-01
 -7.0281887e-01
 -1.1632563e+00
 -1.8371557e-01
  4.3638390e-02
  3.2892879e-03
 -4.1740024e-01
 -2.6666353e-02
 -5.0508404e-01
 -9.3698939e-03
 -2.0635983e-01
 -8.7922700e-03
  2.6662068e+00
  6.3507825e-01
 -2.6695933e-03
  2.0517226e-02
 -1.0636426e+00
 -4.4306320e-01
 -1.2150165e+00
 -3.5163724e-01
  2.8363717e-01
  2.5221174e+00
 -1.0286784e-02
  8.6632460e-02
  5.0103199e-01
 -5.2874953e-02
  1.2589021e-01
 -2.6230734e-02
 -5.4731786e-01
  8.7114608e-01
 -6.2474257e-01
 -5.2516907e-02
 -1.2968832e+00
 -2.5993732e-01
 -1.7871944e+00
 -2.6143601e+00
 -3.1894425e-01
  3.2834890e-01
 -4.8255727e-02
 -1.2541156e-01
 -1.3098706e+00
 -1.3135443e-02
  5.5172455e-01
 -3.0834008e-02
 -2.3292801e+00
 -5.8568114e-01
  9.3930326e-03
 -4.8848554e-01
 -1.0740471e-01
  9.7084951e-01
 -7.4463964e-01
  8.7149767e-03
 -1.5409935e-01
 -3.6930539e-02
 -1.3515285e-01
 -2.9051882e-01
  1.2050117e+00
  4.4910070e-02
 -2.8842729e-02
 -6.4825483e-02
 -2.3802691e+00
  1.3126019e+00
 -5.4531950e-01
 -1.2257265e-01
  4.6570003e-01
  1.6707854e+00
 -4.8543161e-01
 -2.0081511e-01
  5.3347596e-03
 -2.0699055e-01
 -2.7160305e-01
  3.3606768e-02
  2.1567786e+00
  3.5684254e-02
  6.4584059e-03
 -3.4910053e-02
  6.4309663e-01
  4.8538819e-02
 -3.6419522e-02
  6.9714680e-02
  1.3707442e-02
  1.3707442e-02
  1.3707442e-02
  1.3707442e-02
  1.3707442e-02
  1.3707442e-02
  1.3707442e-02
  1.7057080e-02
  1.7057080e-02
  1.7057080e-02
  1.7057080e-02
  1.7057080e-02
  8.1617758e-03
  8.1617758e-03
  8.1617758e-03
  8.1617758e-03
  8.1617758e-03
  8.1493007e-03
  8.1493007e-03
  8.1493007e-03
  8.1493007e-03
  8.1493007e-03
  6.2931832e-03
  6.2931832e-03
  6.2931832e-03
  6.2931832e-03
  6.2931832e-03
  2.1773416e-03
  2.1773416e-03
  2.1773416e-03
  2.1773416e-03
  2.1773416e-03
